Token,Dim_0,Dim_1,Dim_2,Dim_3,Dim_4,Dim_5,Dim_6,Dim_7,Dim_8,Dim_9,Dim_10,Dim_11,Dim_12,Dim_13,Dim_14,Dim_15,Dim_16,Dim_17,Dim_18,Dim_19,Dim_20,Dim_21,Dim_22,Dim_23,Dim_24,Dim_25,Dim_26,Dim_27,Dim_28,Dim_29,Dim_30,Dim_31,Dim_32,Dim_33,Dim_34,Dim_35,Dim_36,Dim_37,Dim_38,Dim_39,Dim_40,Dim_41,Dim_42,Dim_43,Dim_44,Dim_45,Dim_46,Dim_47,Dim_48,Dim_49,Dim_50,Dim_51,Dim_52,Dim_53,Dim_54,Dim_55,Dim_56,Dim_57,Dim_58,Dim_59,Dim_60,Dim_61,Dim_62,Dim_63,Dim_64,Dim_65,Dim_66,Dim_67,Dim_68,Dim_69,Dim_70,Dim_71,Dim_72,Dim_73,Dim_74,Dim_75,Dim_76,Dim_77,Dim_78,Dim_79,Dim_80,Dim_81,Dim_82,Dim_83,Dim_84,Dim_85,Dim_86,Dim_87,Dim_88,Dim_89,Dim_90,Dim_91,Dim_92,Dim_93,Dim_94,Dim_95,Dim_96,Dim_97,Dim_98,Dim_99,Dim_100,Dim_101,Dim_102,Dim_103,Dim_104,Dim_105,Dim_106,Dim_107,Dim_108,Dim_109,Dim_110,Dim_111,Dim_112,Dim_113,Dim_114,Dim_115,Dim_116,Dim_117,Dim_118,Dim_119,Dim_120,Dim_121,Dim_122,Dim_123,Dim_124,Dim_125,Dim_126,Dim_127,Dim_128,Dim_129,Dim_130,Dim_131,Dim_132,Dim_133,Dim_134,Dim_135,Dim_136,Dim_137,Dim_138,Dim_139,Dim_140,Dim_141,Dim_142,Dim_143,Dim_144,Dim_145,Dim_146,Dim_147,Dim_148,Dim_149,Dim_150,Dim_151,Dim_152,Dim_153,Dim_154,Dim_155,Dim_156,Dim_157,Dim_158,Dim_159,Dim_160,Dim_161,Dim_162,Dim_163,Dim_164,Dim_165,Dim_166,Dim_167,Dim_168,Dim_169,Dim_170,Dim_171,Dim_172,Dim_173,Dim_174,Dim_175,Dim_176,Dim_177,Dim_178,Dim_179,Dim_180,Dim_181,Dim_182,Dim_183,Dim_184,Dim_185,Dim_186,Dim_187,Dim_188,Dim_189,Dim_190,Dim_191,Dim_192,Dim_193,Dim_194,Dim_195,Dim_196,Dim_197,Dim_198,Dim_199,Dim_200,Dim_201,Dim_202,Dim_203,Dim_204,Dim_205,Dim_206,Dim_207,Dim_208,Dim_209,Dim_210,Dim_211,Dim_212,Dim_213,Dim_214,Dim_215,Dim_216,Dim_217,Dim_218,Dim_219,Dim_220,Dim_221,Dim_222,Dim_223,Dim_224,Dim_225,Dim_226,Dim_227,Dim_228,Dim_229,Dim_230,Dim_231,Dim_232,Dim_233,Dim_234,Dim_235,Dim_236,Dim_237,Dim_238,Dim_239,Dim_240,Dim_241,Dim_242,Dim_243,Dim_244,Dim_245,Dim_246,Dim_247,Dim_248,Dim_249,Dim_250,Dim_251,Dim_252,Dim_253,Dim_254,Dim_255,Dim_256,Dim_257,Dim_258,Dim_259,Dim_260,Dim_261,Dim_262,Dim_263,Dim_264,Dim_265,Dim_266,Dim_267,Dim_268,Dim_269,Dim_270,Dim_271,Dim_272,Dim_273,Dim_274,Dim_275,Dim_276,Dim_277,Dim_278,Dim_279,Dim_280,Dim_281,Dim_282,Dim_283,Dim_284,Dim_285,Dim_286,Dim_287,Dim_288,Dim_289,Dim_290,Dim_291,Dim_292,Dim_293,Dim_294,Dim_295,Dim_296,Dim_297,Dim_298,Dim_299
Socke,-0.060524120926856995,-0.02594519779086113,-0.0008374033495783806,0.021937210112810135,-0.054566700011491776,0.09987780451774597,-0.08231702446937561,-0.016286123543977737,-0.047405630350112915,0.07839576154947281,0.01254225242882967,0.06260685622692108,-0.04115856811404228,0.004554141312837601,-0.008504096418619156,-0.05061257258057594,0.06462161242961884,-0.053963564336299896,-0.09131094813346863,-0.0038330922834575176,0.0018448354676365852,-0.13494402170181274,-0.08406305313110352,0.05946720764040947,-0.06385141611099243,0.017962653189897537,-0.07615029811859131,0.016991978511214256,0.011711617931723595,0.04966264218091965,-0.00857109297066927,-0.10117921978235245,-0.02910510078072548,0.008206333965063095,0.05535220354795456,0.02909107133746147,-0.08839259296655655,0.07321199029684067,-0.004145490471273661,0.003227338194847107,-0.006221339572221041,-0.0983772799372673,0.013441726565361023,0.03195526450872421,-0.0035772230476140976,0.2824556529521942,-0.13884365558624268,-0.022648267447948456,0.05581475421786308,0.01949051208794117,0.06130502372980118,-0.001793447881937027,0.006683997809886932,-0.07967020571231842,-0.050019387155771255,-0.028406955301761627,0.060285940766334534,-0.15177179872989655,0.05131830647587776,-0.04972454160451889,0.014719557948410511,-0.033545661717653275,0.10850336402654648,0.09269692003726959,0.04455631971359253,-0.005086890887469053,0.1073925644159317,-0.02096581645309925,0.045760627835989,0.001811867579817772,0.06700138002634048,-0.04545348137617111,-0.061477258801460266,-0.02110619656741619,0.04937594383955002,-0.057769425213336945,0.044045768678188324,0.061360061168670654,0.012984199449419975,-0.04291658103466034,-0.053082674741744995,-0.13299396634101868,-0.03473394364118576,0.010202169418334961,-0.005010063759982586,0.044361792504787445,0.0809340849518776,0.017058901488780975,0.058580201119184494,-0.04456007108092308,0.1204429417848587,0.01854318380355835,0.12045986205339432,0.05618461221456528,0.019212797284126282,-0.017362549901008606,0.033003758639097214,-0.07048872113227844,-0.06297987699508667,0.1747538149356842,-0.020237961784005165,-0.06162288412451744,0.051209207624197006,-0.06077995523810387,-0.03636079654097557,-0.04004457965493202,0.08519908785820007,0.026691623032093048,-0.0333026722073555,-0.008626623079180717,-0.008011234924197197,0.09733401983976364,0.0700373724102974,0.03615107759833336,-0.01772274076938629,-0.00869086291640997,0.06615334749221802,-0.03007868491113186,-0.04346686601638794,-0.013474555686116219,-0.11419890820980072,0.11805936694145203,0.13517959415912628,-0.08350171148777008,0.05078234523534775,0.1141931489109993,-0.0457620695233345,-0.025083154439926147,0.0017312124837189913,0.0508350245654583,-0.05039585381746292,0.05130445212125778,0.07716748118400574,0.02233165130019188,0.037771984934806824,-0.013132541440427303,0.04442272707819939,0.04550362378358841,-0.016800999641418457,-0.10555513203144073,-0.023543376475572586,-0.028390198945999146,0.05038151890039444,-0.07167495042085648,-0.030695080757141113,0.01083410531282425,-0.07999079674482346,0.02351910062134266,-0.008984705433249474,-0.047111883759498596,0.05853788182139397,0.1256633698940277,-0.01856347918510437,0.03731188178062439,-0.00876522995531559,0.09571167826652527,0.08640379458665848,-0.028032051399350166,0.052578702569007874,-0.06116115301847458,-0.03468391299247742,0.05051364377140999,0.019741756841540337,-0.05798051506280899,0.0926346555352211,0.04961922764778137,-0.041771579533815384,0.011332768946886063,0.013577371835708618,0.04189762473106384,-0.04426562041044235,-0.07893066108226776,0.04806487262248993,-0.03972884267568588,0.011824827641248703,0.002851635217666626,0.023486703634262085,0.06166993826627731,-0.13023953139781952,0.050885241478681564,0.05918208509683609,0.10892811417579651,-0.014868870377540588,-0.027399491518735886,0.052291616797447205,-0.006068872287869453,0.06893910467624664,0.002867237664759159,-0.048272836953401566,-0.048535849899053574,-0.11742723733186722,-0.031055588275194168,-0.029449855908751488,0.04170490801334381,-0.04943547770380974,0.0018715597689151764,0.0405082069337368,0.004010165110230446,0.031446922570466995,-0.04728110134601593,0.03514429181814194,-0.01968221552670002,-0.02557571418583393,-0.016549747437238693,0.03140845522284508,-0.03708148002624512,-0.11689003556966782,0.07234503328800201,-0.021545473486185074,0.006547953002154827,0.020080192014575005,-0.0014510169858112931,-0.0423683226108551,-0.06218986585736275,0.05999542027711868,-0.09861192852258682,-0.04575791954994202,0.053923316299915314,-0.01745089329779148,0.09078381955623627,0.0803934633731842,0.046177275478839874,0.013105635531246662,-0.09462201595306396,0.0077379196882247925,-0.03675108775496483,-0.06941065192222595,-0.07343080639839172,0.09924715757369995,0.0215458981692791,0.014287959784269333,0.003377708373591304,-0.03904974088072777,0.02485058829188347,-0.03163883090019226,0.0023123803548514843,-0.031495533883571625,0.0393085815012455,0.08045264333486557,-0.0659581869840622,0.11049044132232666,0.04475364834070206,0.12874041497707367,-0.019213832914829254,0.009186852723360062,0.039361920207738876,-0.007676152512431145,-0.028828095644712448,-0.04366425797343254,-0.05059931427240372,-0.05145877227187157,-0.06710062175989151,0.034034132957458496,-0.042870115488767624,0.11272735893726349,0.011475998908281326,-0.018836308270692825,0.029732592403888702,-0.04073755815625191,0.07334820926189423,0.02850859984755516,0.029410481452941895,0.009651163592934608,-0.04442211985588074,-0.00594863947480917,0.08009547740221024,0.0035944352857768536,-0.051624465733766556,-0.05831977352499962,-0.0024263858795166016,0.09888619929552078,0.006940503604710102,-0.12713345885276794,-0.06899945437908173,0.06726360321044922,-0.0123780257999897,0.1621607095003128,0.09029558300971985,-0.09027896821498871,0.03889218717813492,-0.15415450930595398,0.06304684281349182,-0.04957497864961624,0.08752410113811493,-0.0127963712438941,0.0005979165434837341,0.023933129385113716,0.058966439217329025,-0.005359333008527756,0.03548028692603111,-0.05554710328578949,-0.026748666539788246,-0.010345963761210442,0.03770661726593971,0.11088341474533081,0.047353699803352356,0.056895170360803604,0.021626107394695282,0.011396801099181175,0.07548695057630539
Wanderschuh,-0.03428034111857414,-0.005534675903618336,0.05196349695324898,0.0651005432009697,-0.026173317804932594,-0.06642523407936096,-0.008108113892376423,0.010181563906371593,0.024040916934609413,0.032137658447027206,0.014255302958190441,0.02322576381266117,0.046004798263311386,0.015224453993141651,-0.07550843805074692,-0.04602791741490364,0.04301952198147774,0.009341011755168438,0.021708134561777115,-0.013635228388011456,0.012533390894532204,-0.008631310425698757,0.017553139477968216,-0.012990507297217846,0.026687098667025566,-0.030540604144334793,-0.022283384576439857,-0.05866116285324097,0.01644035615026951,0.0062964665703475475,-0.028494829311966896,-0.0064593772403895855,-0.04706535115838051,0.026626938953995705,-0.015233442187309265,-0.04469796270132065,0.021029846742749214,0.0227280855178833,-0.019174745306372643,-0.009949352592229843,0.016208365559577942,-0.0315268449485302,0.011043804697692394,-0.009583966806530952,-0.04875091835856438,0.07069189101457596,-0.02803504839539528,0.03728534281253815,0.045229535549879074,-0.011146989651024342,0.04082004353404045,0.03023122064769268,0.01078634150326252,-0.008448938839137554,-0.004696557763963938,0.028809715062379837,-0.009070366621017456,-0.02054300718009472,0.030523458495736122,-0.012125288136303425,0.05942154675722122,-0.003663077251985669,0.04426492378115654,0.01592463254928589,0.04075242951512337,0.024474788457155228,0.0407872274518013,0.011609228327870369,0.041149478405714035,0.0126042440533638,0.020230798050761223,-0.061923157423734665,0.008883589878678322,0.0176620464771986,0.06236853823065758,-0.02606632187962532,0.016061482951045036,0.012368238531053066,0.035586949437856674,0.012718047015368938,-0.01822030358016491,-0.02973851002752781,-0.06218944862484932,0.027269920334219933,0.0037945823278278112,0.033749621361494064,-0.02612137235701084,0.03719066083431244,-0.014539772644639015,-0.013729119673371315,0.01987103931605816,-0.00543647725135088,0.02744319476187229,0.0048311143182218075,0.038278575986623764,0.009930083528161049,0.04092954099178314,0.030079295858740807,-0.009793005883693695,0.01587200164794922,-0.04651319980621338,-0.005307866260409355,0.02101374976336956,-0.009434097446501255,-0.006332192104309797,0.013667759485542774,-0.003903225064277649,-0.002322456333786249,0.008007874712347984,-0.03555355593562126,-0.014146342873573303,1.8923730749520473e-05,0.06497127562761307,-0.0021947368513792753,-0.018294496461749077,-0.029742151498794556,0.019173607230186462,0.04757013916969299,-0.04835554584860802,-0.0027271732687950134,-0.024598270654678345,0.026628827676177025,0.018027177080512047,-0.05171257257461548,-0.012364051304757595,0.03191639482975006,0.015306711196899414,0.020669981837272644,-0.027109984308481216,0.03775184229016304,-0.05346677824854851,0.06613044440746307,-0.0014059700770303607,-0.03231590986251831,0.0033119411673396826,0.042815472930669785,0.024189012125134468,0.004777965135872364,0.031796347349882126,-0.016080735251307487,-0.025533383712172508,-0.006352649070322514,0.022611839696764946,-0.04570482298731804,0.006352141499519348,-0.045773234218358994,-0.010719691403210163,0.021045416593551636,0.010346949100494385,0.05714280530810356,0.0028735403902828693,0.027650222182273865,-0.010950246825814247,-0.022366542369127274,-0.011730301193892956,0.010400560684502125,0.03587682172656059,0.007669045124202967,0.0014293533749878407,-0.05711228400468826,0.003223155392333865,-0.016287317499518394,0.003485116409137845,-0.034558072686195374,0.0160480048507452,0.016004569828510284,-0.012002861127257347,0.05134902521967888,-0.004180761519819498,0.03324086591601372,0.010042861104011536,-0.0037237375508993864,0.017379216849803925,-0.010151397436857224,-0.02603667974472046,0.021481752395629883,-0.03387165814638138,-0.013687650673091412,0.0067420522682368755,0.07043858617544174,0.0031758048571646214,0.027341743931174278,0.002935573225840926,-0.013754568062722683,-0.007327486760914326,-0.007841317914426327,0.0021072090603411198,-0.033706292510032654,-0.023978818207979202,0.05148828774690628,-0.019357876852154732,-0.04447142407298088,-0.013493320904672146,-0.039870649576187134,0.02356281504034996,0.04053366184234619,-0.0001149229719885625,0.028561413288116455,-0.023666489869356155,-0.036967020481824875,0.013532066717743874,-0.07121465355157852,0.008036548271775246,0.016528893262147903,0.023266594856977463,0.0117004020139575,-0.030394375324249268,-0.004957313183695078,0.04235947132110596,0.00488200644031167,0.00011514053039718419,-0.006376645062118769,-0.007104469928890467,-0.10821538418531418,0.005609406623989344,-0.015528096817433834,0.019516857340931892,-0.023507868871092796,-0.006786759477108717,-0.010652858763933182,0.007381825242191553,0.0047214580699801445,0.010638806037604809,-0.023677920922636986,0.009034871123731136,-0.004294115584343672,-0.019332751631736755,0.007371812593191862,0.0462072417140007,-0.010730537585914135,-0.008676468394696712,0.019555192440748215,-0.011526213958859444,-0.011831924319267273,0.014464500360190868,-0.029052600264549255,0.03720448538661003,0.03471679240465164,0.04844774678349495,-0.013828075490891933,0.0960037112236023,-0.04289472848176956,0.04349071905016899,-0.026787450537085533,0.011325451545417309,0.03758108243346214,0.015476586297154427,-0.018585998564958572,-0.03154515102505684,-0.011675062589347363,0.05480022355914116,-0.0720081552863121,-0.00861041247844696,-0.006070911884307861,0.00866767019033432,0.036418359726667404,-0.034237585961818695,0.016073016449809074,0.004784725606441498,-0.016914373263716698,0.019045820459723473,1.6574189430684783e-05,0.07101043313741684,-0.03689580783247948,-0.011568911373615265,-0.01436177920550108,-0.002485295757651329,0.0008525615558028221,0.007991179823875427,-0.03697540611028671,0.004525037948042154,-0.024921584874391556,-0.07156144827604294,-0.08218631148338318,0.016134291887283325,-0.008204290643334389,0.09014013409614563,0.017452580854296684,0.011103576980531216,-0.03396075963973999,-0.027065766975283623,-0.0009740874520502985,-0.02328481152653694,0.05394276976585388,-0.034681353718042374,-0.04248122498393059,0.025559166446328163,-0.019619911909103394,0.04079548642039299,0.01407215278595686,0.055222004652023315,-0.07473984360694885,-0.0060913232155144215,-0.009290947578847408,0.02830594778060913,-0.010116616263985634,-0.006180153228342533,-0.025123355910182,0.022951388731598854,0.06261179596185684
Sneaker,-0.03941825032234192,0.011131368577480316,0.053526073694229126,0.09778191149234772,-0.08240213990211487,-0.006895923521369696,-0.03693661838769913,0.0024430714547634125,-0.0045279404148459435,0.06811567395925522,0.03965076804161072,-0.09082376211881638,0.08886624872684479,-0.07489962875843048,-0.06345578283071518,-0.009612913243472576,-0.008642366155982018,0.026411112397909164,0.023724865168333054,-0.02519264444708824,0.06643465161323547,-0.014378849416971207,0.024778997525572777,0.00018290182924829423,-0.04344429820775986,0.014078464359045029,-0.01181016769260168,0.011014669202268124,0.01979999616742134,0.04013682156801224,0.008995831944048405,0.007372211664915085,-0.07352546602487564,0.02444891631603241,-0.04155441373586655,-0.03184201940894127,0.007921352051198483,0.0020172945223748684,0.009473939426243305,0.03601162135601044,0.06537571549415588,0.009598500095307827,-0.059061210602521896,0.08636890351772308,-0.06398232281208038,0.09629949182271957,-0.04758285731077194,0.06388883292675018,-0.07961922883987427,0.001288746832869947,0.058283090591430664,-0.006411803886294365,0.04468012601137161,-0.0724351555109024,0.021488189697265625,0.0012748459121212363,0.007066270336508751,-0.030568581074476242,0.004522934556007385,-0.029144762083888054,0.021265340968966484,0.03148410841822624,0.04748230427503586,0.08613365888595581,-0.030531201511621475,0.02386842668056488,0.10268964618444443,-0.008501065894961357,-0.05044184625148773,0.03286847099661827,-0.031058019027113914,-0.06030828878283501,-0.004424235783517361,0.059862297028303146,0.10160747170448303,0.03207823634147644,0.019884075969457626,0.04594574496150017,0.060584425926208496,0.003931895829737186,-0.038898564875125885,-0.05212218686938286,-0.08281075209379196,0.027485942468047142,0.04895951598882675,0.02114768698811531,-0.018810469657182693,0.05515008419752121,-0.05933738499879837,-0.06126214191317558,0.044278018176555634,0.04010642319917679,0.1053600013256073,0.021938402205705643,0.06939820945262909,0.04579613357782364,-0.024984009563922882,0.020752279087901115,-0.07580525428056717,0.03458190709352493,-0.07640137523412704,-0.0255909226834774,-0.01843085139989853,-0.027602307498455048,0.039970554411411285,-0.011157546192407608,-0.011299978941679,-0.029868004843592644,0.02718803845345974,-0.0590926855802536,-0.08178555220365524,0.06749054789543152,0.043813556432724,0.02750619314610958,0.02272358350455761,-0.022043287754058838,0.05236347019672394,-0.00831419974565506,-0.037095967680215836,-0.015884997323155403,-0.0679001584649086,0.011273181065917015,0.11318419873714447,-0.008154477924108505,-0.07177099585533142,0.06343576312065125,0.012749068439006805,0.0533650740981102,-0.0514194630086422,0.031636688858270645,-0.03812438249588013,0.07709752023220062,0.023825455456972122,-0.029297951608896255,0.027804043143987656,0.05038149282336235,0.020630255341529846,0.03489646315574646,-0.014507630839943886,-0.01262646820396185,-0.04476279020309448,-0.05298863351345062,0.01854773424565792,-0.05668624863028526,0.03830952197313309,0.0044892095029354095,-0.09379236400127411,-0.011103283613920212,0.043253105133771896,0.048321619629859924,0.009941697120666504,0.09325838088989258,-0.02767770364880562,-0.005581619217991829,0.06354264169931412,0.0346868634223938,-0.011215439066290855,-0.11631080508232117,-0.05005842074751854,-0.042563747614622116,0.025091862305998802,-0.0057403817772865295,-0.011075600050389767,-0.03866458684206009,-0.021886415779590607,0.02748909592628479,0.02007613144814968,0.1007876992225647,-0.016638174653053284,0.07317252457141876,0.023420333862304688,-0.022129623219370842,0.023302480578422546,-0.07923994958400726,0.006180312484502792,0.010811639949679375,-0.008946392685174942,-0.017785891890525818,1.0927518815151416e-05,-0.05131837725639343,0.016384519636631012,0.04178018867969513,-0.006052571814507246,-0.025928175076842308,0.03701704740524292,-0.05971568450331688,0.011581853032112122,0.021345024928450584,-0.0006281830137595534,0.02794010564684868,-0.04985044524073601,-0.0037787589244544506,0.056785326451063156,-0.1087113469839096,-0.020675893872976303,0.024562707170844078,0.0128521379083395,0.09239166229963303,0.03068040870130062,-0.06524018198251724,0.00402729120105505,-0.07988643646240234,-0.017444638535380363,-0.03028917871415615,0.05253451690077782,0.054039157927036285,-0.08036630600690842,0.016444919630885124,-0.0010207646992057562,-0.03735072910785675,0.027398109436035156,-0.040624719113111496,-0.010151439346373081,-0.11713743209838867,0.01978384144604206,-0.015234777703881264,0.00756139075383544,-0.09305199980735779,0.007673115469515324,0.04659045860171318,0.03996578976511955,-0.02311759442090988,0.019155006855726242,-0.09061112999916077,0.04323957860469818,0.01609954796731472,0.0132689094170928,-0.022525809705257416,0.004086541011929512,0.057172201573848724,0.02241130731999874,0.06169150397181511,0.018034156411886215,0.057296089828014374,-0.007118579000234604,-0.009093906730413437,-0.07532606273889542,0.0388261154294014,0.06628382205963135,-0.03498576581478119,0.07189953327178955,-0.020664071664214134,0.015511853620409966,0.03554993122816086,0.001677394611760974,-0.021486356854438782,0.03790052980184555,-0.03654292970895767,0.08120116591453552,-0.03771341219544411,0.014573656022548676,-0.00325530837289989,0.0019164877012372017,0.019256507977843285,0.00029112212359905243,0.03744303435087204,-0.00553710013628006,0.002300610300153494,0.02551821991801262,0.023684915155172348,0.09091264009475708,-0.008744800463318825,0.036467622965574265,-0.023549890145659447,0.041828833520412445,0.052697956562042236,-0.05586101859807968,-0.006956464610993862,-0.014055119827389717,-0.08526544272899628,-0.02933317795395851,0.04458613693714142,-0.0880584716796875,-0.044588640332221985,0.09433406591415405,0.0446162074804306,0.14551419019699097,-0.0021173954010009766,0.028691314160823822,-0.006381472572684288,-0.09091683477163315,0.004990654531866312,-0.019668644294142723,0.034515030682086945,-0.067365363240242,-0.056288108229637146,0.0630052462220192,0.0239863358438015,-0.018961748108267784,-0.05599380284547806,0.03720494359731674,-0.01805896870791912,0.007813243195414543,0.02294677309691906,0.013301530852913857,-0.011458007618784904,-0.01149846613407135,0.014378826133906841,-0.012786353938281536,0.09512509405612946
Jeans,0.032714955508708954,0.07098656892776489,-0.033825039863586426,0.11327136307954788,-0.02268877439200878,0.09926905483007431,0.020114079117774963,0.046062543988227844,-0.026350870728492737,0.05330713093280792,-0.004612020216882229,0.005473952740430832,0.09342347830533981,-0.06033528596162796,0.050333648920059204,0.011931355111300945,0.12802331149578094,-0.11875815689563751,0.018430814146995544,-0.03288257494568825,0.01026749238371849,0.09079514443874359,-0.03336654230952263,0.030082179233431816,0.01149049773812294,-0.007116592489182949,0.063365638256073,0.007703689858317375,0.05951860547065735,-0.00671125203371048,-0.05867065489292145,0.005973365157842636,-0.021792611107230186,0.047186799347400665,-0.0058568972162902355,-0.049694910645484924,-0.030590666458010674,0.060637857764959335,0.035879917442798615,0.028674934059381485,-0.0150678725913167,0.06410066038370132,-0.03948431462049484,0.015604088082909584,-0.02147810161113739,0.20522958040237427,0.05511867627501488,0.12050676345825195,-0.052950069308280945,0.021784985437989235,0.03462153300642967,-0.012008127756416798,-0.006108753848820925,-0.02068145014345646,-0.017171597108244896,-0.04494398832321167,0.09947387129068375,0.0009309183806180954,0.1213085800409317,-0.04014899954199791,-0.012211017310619354,0.028116002678871155,0.08954218029975891,0.022357802838087082,0.008052991703152657,0.03844738006591797,0.08937422931194305,0.023221056908369064,-0.015569761395454407,0.01663421094417572,-0.04789232090115547,-0.0679415911436081,-0.04890542849898338,-0.0036588595248758793,0.090866319835186,-0.013648563995957375,-0.031214561313390732,0.021328933537006378,0.12679371237754822,0.026224346831440926,0.05449146777391434,0.031515851616859436,0.018756577745079994,-0.008363323286175728,0.01828772760927677,0.012939173728227615,-0.028709523379802704,0.04247652739286423,-0.010632248595356941,0.04456328600645065,0.07856068760156631,0.07314665615558624,0.19274139404296875,0.051021963357925415,0.05226980894804001,0.03536857292056084,-0.06644834578037262,0.02527141198515892,-0.06099507585167885,0.10626935213804245,-0.09269953519105911,0.037136372178792953,-0.027351127937436104,0.010584309697151184,0.048152267932891846,-0.005245858803391457,0.08436591178178787,-0.061089325696229935,-0.08987195789813995,-0.19723647832870483,0.05559568852186203,0.045173026621341705,-0.04700079932808876,0.07476997375488281,-0.0306045264005661,-0.07313772290945053,0.019145077094435692,-0.13254345953464508,0.028380708768963814,-0.04044359177350998,-0.1623668372631073,-0.03297360986471176,-0.03979247435927391,-0.04199761897325516,-0.00024361629039049149,0.02483241818845272,0.05977628380060196,0.11040643602609634,-0.015659473836421967,0.06699571013450623,0.018659260123968124,0.04440474882721901,-0.05346816033124924,0.040946923196315765,0.004341630265116692,0.09093844890594482,0.038949161767959595,0.08274058997631073,-0.09973619133234024,-0.06766034662723541,-0.07409544289112091,-0.042705923318862915,0.06474563479423523,-0.11950754374265671,0.051398277282714844,0.02027232013642788,-0.0069345226511359215,0.06627777218818665,0.1341451108455658,-0.03137926384806633,-0.0009634364396333694,0.12317605316638947,-0.032345544546842575,0.01877935230731964,-0.0312722772359848,0.10787767916917801,-0.07245366275310516,-0.09147711843252182,-0.049126580357551575,-0.038505494594573975,0.0729270949959755,-0.025912947952747345,-0.0411580353975296,-0.029880115762352943,0.07782486081123352,0.03481833264231682,0.019128408282995224,0.10217311233282089,-0.024358417838811874,0.04436473548412323,-0.08887478709220886,-0.0503302663564682,0.06216796860098839,-0.030632350593805313,0.04212621599435806,-0.0149002056568861,0.00634556170552969,-0.08353838324546814,0.06527870893478394,-0.05097362399101257,0.022745274007320404,-0.052294161170721054,-0.0985022783279419,-0.05245647579431534,0.047340624034404755,-0.0677189901471138,0.016734858974814415,0.011614594608545303,-0.03771091252565384,0.07752440124750137,-0.08714612573385239,0.07044338434934616,-0.03526410460472107,-0.015852592885494232,-0.13948166370391846,0.03363814204931259,0.048596497625112534,0.05656467378139496,0.013379493728280067,-0.11958159506320953,-0.00043590180575847626,-0.07353045046329498,-0.02928045764565468,-0.08784102648496628,0.04017714783549309,-0.06065487116575241,-0.1235371083021164,0.014548799023032188,-0.012563503347337246,-0.14592447876930237,0.0925634428858757,-0.014575289562344551,0.043789464980363846,-0.14494337141513824,0.06790263205766678,0.01494278758764267,0.027429062873125076,-0.00805688463151455,-0.04486050456762314,0.09210050851106644,0.0050861891359090805,-0.016390126198530197,-0.0016979603096842766,-0.08629238605499268,-0.018627196550369263,0.029102535918354988,-0.06590176373720169,-0.03955341875553131,-0.1224462240934372,-0.06754042208194733,0.06953391432762146,-0.00011686794459819794,-0.0513392835855484,0.08782775700092316,0.022750776261091232,-0.009268132969737053,0.0005493618082255125,-0.013013028539717197,0.06688771396875381,-0.029762310907244682,0.10288619250059128,0.013851761817932129,0.15285466611385345,-0.023345837369561195,-0.07547517120838165,0.0712316632270813,0.0008277515880763531,-0.13962224125862122,0.026296351104974747,-0.05780264735221863,-0.011423997581005096,0.03224225714802742,0.024857811629772186,0.03653606027364731,0.0011611441150307655,-0.024083171039819717,-0.0030186912044882774,0.05412900820374489,0.003331826999783516,0.0667233094573021,0.09066028147935867,0.00727997487410903,0.0724760890007019,-0.08446776866912842,-0.03510963171720505,0.09056490659713745,-0.03661368414759636,-0.06649206578731537,-0.03955179080367088,-0.01387738436460495,-0.11808404326438904,0.10783696174621582,-0.16995477676391602,-0.004806099459528923,0.035057179629802704,-0.08714417368173599,0.16718848049640656,0.0056298766285181046,-0.1198432445526123,-0.008718976750969887,-0.20949560403823853,-0.021843675523996353,-0.03549118712544441,0.15443451702594757,-0.06869648396968842,0.027728524059057236,0.017937587574124336,0.021442115306854248,0.053743332624435425,-0.026112476363778114,0.07598455995321274,-0.05821947008371353,0.03657294437289238,0.054807666689157486,0.028797606006264687,0.05406612530350685,-0.05546250194311142,0.011599366553127766,-0.0016775160329416394,0.02621096931397915
Rock,0.12544243037700653,0.014354831539094448,-0.09514151513576508,0.08711009472608566,0.0599944107234478,-0.06615349650382996,0.008515487425029278,0.04629053920507431,-0.06745558977127075,-0.05113527923822403,0.034818317741155624,0.08412739634513855,-0.025008363649249077,-0.012861380353569984,0.006669265683740377,0.023555219173431396,0.008532283827662468,-0.17864230275154114,0.0486585907638073,-0.004164457321166992,0.006768937222659588,0.10708045959472656,0.014134185388684273,0.1678362488746643,-0.07603850960731506,-0.06114169582724571,0.14418447017669678,-0.09146364778280258,0.0301092229783535,0.07134686410427094,-0.14918512105941772,-0.09079721570014954,0.030357148498296738,0.1323920637369156,0.06060490012168884,-0.04915572330355644,-0.029446225613355637,0.006088912487030029,-0.041561588644981384,0.19088397920131683,-0.06539968401193619,0.040852710604667664,-0.026969853788614273,-0.022410808131098747,-0.1021023616194725,0.13848483562469482,0.020257044583559036,-0.029662929475307465,0.041281621903181076,-0.022910885512828827,-0.01797107607126236,-0.012623923830688,-0.052010804414749146,0.03229932487010956,0.1460297554731369,-0.08377092331647873,0.014219237491488457,0.03552335128188133,0.05367734283208847,-0.1425434648990631,0.05807409808039665,-0.01344241388142109,0.22917865216732025,-0.01570998504757881,-0.023778825998306274,-0.05308320373296738,0.05872807651758194,-0.10266721248626709,0.07613657414913177,0.023472115397453308,-0.015363343060016632,-0.10562916845083237,0.02024662308394909,0.03235289826989174,0.10773658007383347,0.005583533551543951,-0.09768428653478622,-0.029894640669226646,0.061765413731336594,0.09829938411712646,0.051002439111471176,0.07842818647623062,-0.05398648977279663,-0.021956365555524826,0.010611757636070251,0.07732738554477692,-0.025801070034503937,0.11017333716154099,-0.03093644045293331,-0.10313816368579865,0.04530700296163559,0.2394038885831833,0.07466140389442444,-0.06508521735668182,0.07220610976219177,-0.02811797522008419,-0.0022732119541615248,0.16154873371124268,-0.10726308822631836,0.005018267314881086,-0.0817699059844017,0.15642529726028442,-0.01782793551683426,0.03748682886362076,0.014653380960226059,0.014989061281085014,-0.03472275659441948,0.10853862017393112,-0.06176767870783806,-0.06353724002838135,-0.0074803829193115234,0.06798349320888519,-0.0468997061252594,0.050995033234357834,-0.07294391095638275,0.045644067227840424,-0.06694234907627106,-0.08869149535894394,0.14911521971225739,-0.05492432415485382,-0.06679873913526535,-0.02049519121646881,-0.05529380962252617,0.027502328157424927,-0.06712698191404343,0.04210546240210533,0.04153420403599739,0.0026018223725259304,0.08150164783000946,-0.01509258896112442,-0.08899974822998047,0.15982599556446075,-0.06846875697374344,-0.00040037435246631503,-0.09895627945661545,-0.01234152726829052,0.0720314159989357,0.15243035554885864,0.13217569887638092,-0.12676405906677246,-0.13430078327655792,-0.04727477952837944,-0.013515062630176544,-0.15131151676177979,-0.06420377641916275,-0.04211385175585747,0.15460047125816345,0.16104291379451752,-0.030649950727820396,0.04123585298657417,-0.0734931156039238,0.021800588816404343,0.012924941256642342,0.05224968120455742,-0.005105686839669943,0.13016898930072784,-0.031517393887043,-0.09352529048919678,-0.07133597880601883,-0.17829935252666473,-0.04097907990217209,0.10281200706958771,0.05573849007487297,-0.04153710976243019,0.031555574387311935,0.004364325664937496,0.09333778917789459,0.18950991332530975,0.06447518616914749,0.06189848482608795,-0.04621230810880661,-0.011670811101794243,-0.0023148260079324245,-0.12680739164352417,0.006210645195096731,0.00565990200266242,0.017563439905643463,-0.2133854627609253,0.10438497364521027,-0.04579513520002365,0.12239137291908264,-0.011018333956599236,-0.04867587983608246,-0.08710446208715439,-0.07976535707712173,-0.09967052936553955,0.04239460080862045,0.043175555765628815,0.014912636950612068,0.006353353150188923,-0.15380063652992249,0.004144064616411924,-0.0866510272026062,-0.004502386786043644,-0.038257282227277756,0.08861798048019409,0.04779250547289848,0.07667724043130875,-0.08827435970306396,0.0022700901608914137,-0.1904093623161316,-0.0199364572763443,0.07391448318958282,-0.04602227360010147,0.12895606458187103,0.09910726547241211,-0.09393070638179779,0.03473829850554466,-0.018876083195209503,-0.02762446366250515,0.07694759964942932,-0.10075583308935165,0.0031724299769848585,0.05296383798122406,0.1488952338695526,-0.04157374054193497,-0.06974552571773529,0.017270561307668686,0.06435380131006241,0.11075359582901001,-0.004323286470025778,-0.009341697208583355,0.030763082206249237,-0.025360286235809326,-0.18877975642681122,0.10424810647964478,0.03166086599230766,0.006036418490111828,-0.07972421497106552,0.07519838213920593,0.1135028600692749,-0.04734814912080765,-0.08996343612670898,0.14326097071170807,-0.04121321439743042,0.004652607254683971,0.11853449046611786,0.01616119220852852,0.01652122288942337,-0.01605592668056488,0.10637655109167099,-0.05049600824713707,0.11199074983596802,-0.03313424438238144,0.01340886577963829,-0.022591477259993553,-0.031980033963918686,-0.05392239987850189,0.023349743336439133,0.017403341829776764,0.052613697946071625,0.06284330040216446,-0.07987644523382187,-0.043976664543151855,0.008685251697897911,-0.0156721081584692,-0.13676521182060242,0.12134870141744614,0.0387091301381588,-0.05504323169589043,0.11927616596221924,-0.016438810154795647,0.13210006058216095,-0.17490103840827942,0.15711700916290283,0.10065217316150665,-0.011146406643092632,-0.09576421976089478,0.1817941516637802,-0.11146458238363266,-0.1369715929031372,-0.0805034339427948,-0.2683694362640381,0.020747525617480278,0.011329139582812786,-0.08940623700618744,0.20249174535274506,-0.047648631036281586,-0.16833996772766113,-0.038013067096471786,-0.2162529081106186,0.016499370336532593,-0.03200901299715042,0.07008641958236694,0.0278305821120739,-0.024568885564804077,-0.04094540327787399,-0.04021255671977997,-0.054504744708538055,0.03455663472414017,0.03591414913535118,-0.030143477022647858,-0.05585736036300659,0.00491750705987215,-0.04062138497829437,0.06091705709695816,-0.1144971176981926,-0.04465891048312187,-0.03887806832790375,0.016468051820993423
Jupe,0.06742686033248901,0.09351208060979843,-0.21695582568645477,-0.06067916005849838,0.11145465075969696,-0.013266528956592083,0.08761149644851685,0.011027384549379349,0.021216321736574173,-0.007872618734836578,-0.012600775808095932,-0.09031220525503159,0.007858137600123882,-0.07342515885829926,0.08565603941679001,0.18812547624111176,0.04054693877696991,-0.038412176072597504,0.021487032994627953,-0.14465272426605225,-0.0692194476723671,0.06533727049827576,-0.02815956622362137,0.025262054055929184,-0.13578620553016663,-0.06826835870742798,0.06291195005178452,-0.10391604155302048,0.07854729145765305,-0.010021979920566082,-0.04814126342535019,0.13120485842227936,-0.015938300639390945,0.04451584070920944,-0.005943769123405218,-0.06476276367902756,0.0701499730348587,-0.0021487015765160322,-0.10620874166488647,-0.09429894387722015,-0.18930810689926147,-0.08752217143774033,0.052761174738407135,0.18653500080108643,0.006117976736277342,0.29660946130752563,0.12808319926261902,-0.024429364129900932,0.1296156346797943,-0.03830425441265106,0.12690496444702148,-0.053745269775390625,0.11921487748622894,-0.07733653485774994,0.21801547706127167,-0.0044299885630607605,-0.017642788589000702,-0.18946757912635803,0.015564891509711742,-0.024594862014055252,-0.09389650821685791,-0.026297636330127716,0.0962277501821518,-0.11587264388799667,0.11341546475887299,-0.14535824954509735,0.030247017741203308,0.06507396697998047,0.09754212945699692,-0.07157783210277557,-0.13038544356822968,0.03690476715564728,-0.130167618393898,-0.015900781378149986,0.10580635070800781,0.15004880726337433,-0.14954358339309692,0.06271781027317047,-0.03396220505237579,-0.09860746562480927,-0.06854493916034698,0.12347330898046494,0.08098327368497849,-0.033963873982429504,-0.003439961699768901,-0.05885463207960129,-0.06408354640007019,0.02149122767150402,-0.05949832499027252,-0.07135173678398132,0.001236793934367597,0.08616797626018524,-0.06213599443435669,-0.018882524222135544,0.02463720366358757,0.043430984020233154,0.007115170359611511,0.02243170142173767,0.0005979525740258396,-0.1132117360830307,-0.1253586858510971,0.13586892187595367,-0.008146777749061584,0.03461534529924393,-0.06778337806463242,-0.14164935052394867,-0.12731942534446716,-0.04717426747083664,-0.1063799113035202,-0.05899443477392197,0.16399595141410828,-0.004327304661273956,-0.06344331800937653,-0.027914442121982574,0.023363471031188965,-0.10569395124912262,0.21947449445724487,0.05953510105609894,-0.025244053453207016,0.03804217651486397,-0.016697457060217857,0.009062396362423897,-0.12882021069526672,0.08402898907661438,-0.021748367697000504,0.2175542414188385,0.0293284859508276,0.0017376523464918137,-0.11264526098966599,0.17645131051540375,0.025115463882684708,0.08915188163518906,-0.034335773438215256,-0.015034752897918224,-0.06419026851654053,0.17438387870788574,0.012070871889591217,-0.055421166121959686,-0.05838918313384056,-0.09559397399425507,0.01642640121281147,-0.04715465009212494,0.0477614663541317,-0.026353709399700165,-0.1537495255470276,0.11643048375844955,-0.058297134935855865,-0.02223360538482666,-0.054568082094192505,0.016413679346442223,-0.1348874866962433,0.13071729242801666,0.02720131352543831,0.027360498905181885,-0.07881733775138855,0.1418108195066452,0.006315523758530617,-0.09316606819629669,0.11005600541830063,-0.09620606899261475,0.08107074350118637,-0.03569801151752472,0.0966421589255333,-0.10984792560338974,0.14641466736793518,0.11444946378469467,0.07659441232681274,0.0867682620882988,-0.03508351370692253,-0.036117251962423325,0.02449692413210869,-0.0641506165266037,-0.11552505940198898,-0.021574100479483604,0.02639356628060341,0.009056366980075836,-0.04042981564998627,-0.1969958394765854,0.26731443405151367,-0.025890832766890526,0.04640951752662659,0.060278456658124924,0.05165337026119232,-0.042344387620687485,-0.04659992456436157,-0.08376584947109222,0.16018345952033997,-0.20442473888397217,0.052934758365154266,0.027623649686574936,-0.09067952632904053,0.09307335317134857,-0.01338456105440855,-0.06384482979774475,-0.11773917078971863,0.011370420455932617,-0.02988165244460106,0.18493740260601044,-0.005499764811247587,-0.09570308774709702,0.12456826865673065,-0.15101152658462524,0.020642248913645744,0.03879846632480621,0.08292839676141739,0.27133476734161377,-0.2559443414211273,0.006157653406262398,-0.017029255628585815,-0.03256843984127045,-0.03837645798921585,0.03141472488641739,-0.15365496277809143,-0.06929291784763336,0.1299511194229126,-0.182033509016037,0.05756353959441185,0.03441017121076584,0.027753710746765137,0.035063885152339935,-0.17250703275203705,-0.09777036309242249,0.0207892507314682,-0.0744580551981926,-0.09999211877584457,0.24843882024288177,-0.11810757219791412,-0.013256467878818512,-0.2143978327512741,-0.0523698553442955,-0.057776935398578644,-0.0712643563747406,-0.32624778151512146,-0.09377841651439667,0.05960213392972946,0.03004707396030426,0.17590157687664032,0.03776421770453453,0.03353189304471016,-0.09419684112071991,-0.03336512669920921,-0.07653876394033432,-0.029271377250552177,-0.024646973237395287,-0.048577576875686646,-0.026983974501490593,-0.09416183084249496,-0.10640214383602142,-0.06631189584732056,0.05126510560512543,-0.03364882618188858,-0.02862323448061943,-0.023716818541288376,-0.06320574879646301,-0.06690163165330887,-0.011972367763519287,-0.10736970603466034,-0.06062765419483185,-0.20932458341121674,0.17810925841331482,0.2375638335943222,0.15421007573604584,0.2545008957386017,-0.16364461183547974,0.010353549383580685,0.027557097375392914,-0.0017288390081375837,-0.03305760771036148,0.12010117620229721,0.010938728228211403,-0.16107262670993805,-0.051264964044094086,-0.023824742063879967,-0.001352274208329618,-0.07428883016109467,-0.046678733080625534,0.3180304169654846,-0.03323698416352272,-0.10223104059696198,-0.17334382236003876,-0.18010666966438293,0.07340782880783081,0.06943606585264206,0.14122357964515686,0.04145234823226929,-0.05891842767596245,0.09099090099334717,0.07463353872299194,-0.02198156528174877,0.08006037026643753,0.0056643374264240265,-0.05116673931479454,0.1239195466041565,0.040693409740924835,-0.08068880438804626,0.07406017184257507,0.09798155725002289,-0.032363831996917725,0.03094588778913021,0.03378991037607193
Strumpfhose,0.027877796441316605,-0.028004784137010574,-0.03173936530947685,0.06078952178359032,-0.021746864542365074,0.03538644686341286,-0.025002334266901016,0.0047504715621471405,0.007468984927982092,0.02160712704062462,-0.010097804479300976,-0.01582283154129982,0.058683570474386215,0.01779397390782833,0.02439151518046856,-0.029661893844604492,0.04000934585928917,-0.013562253676354885,-0.03465200960636139,-0.015565059147775173,-0.002547213574871421,0.01924126222729683,0.0012331448961049318,0.007047531194984913,0.012927158735692501,-0.005612106528133154,-0.01918194256722927,-0.08369103074073792,0.05435735732316971,0.016534147784113884,-0.00374315376393497,-0.011904125101864338,-0.010584588162600994,0.0014972437638789415,-0.03141595423221588,-0.047218114137649536,0.003362958086654544,-0.006946553476154804,0.016178539022803307,0.007648500148206949,-0.058419086039066315,0.033544618636369705,0.008064508438110352,-0.00868148636072874,-0.06165115162730217,0.1125907450914383,0.017466822639107704,-0.03691825643181801,0.011309163644909859,-0.021475035697221756,0.03418682888150215,-0.027642492204904556,0.0010899091139435768,0.0425259992480278,0.0005518734687939286,-0.004360424820333719,-0.035891201347112656,-0.04330417513847351,0.019247405230998993,-0.006726354360580444,-0.020569225773215294,-0.021224629133939743,0.040705349296331406,0.020549027249217033,-0.0058485278859734535,0.058372098952531815,0.03329979255795479,-0.013857823796570301,-0.006144427228718996,0.0018989377422258258,0.019232142716646194,-0.011498757638037205,-0.002335712779313326,-0.009191942401230335,0.019814595580101013,-0.02916668727993965,-0.02743736281991005,0.030124405398964882,0.03907007724046707,-0.00861193984746933,0.04408705234527588,0.0039442130364477634,-0.013533047400414944,0.017344370484352112,0.008907289244234562,0.010854007676243782,0.014016282744705677,0.06908439844846725,0.012701901607215405,-0.027819085866212845,0.030494922772049904,0.014467035420238972,0.04387269169092178,0.0378553569316864,-0.004600641317665577,0.007551576942205429,-0.018947815522551537,-0.0021654346492141485,-0.011091647669672966,-0.036546360701322556,-0.03739221394062042,0.03792247921228409,0.01638231799006462,-0.02669527567923069,0.026260925456881523,-0.034329161047935486,-0.011497375555336475,-0.0013234488433226943,-0.039038848131895065,-0.06352929770946503,-0.035933416336774826,0.043360885232686996,0.01857047714293003,0.09869517385959625,-0.001146594644524157,0.0007236339151859283,-0.013605316169559956,-0.03848792985081673,0.02102111093699932,-0.0016281709540635347,-0.07317440956830978,0.011477412655949593,-0.030068887397646904,-0.014905611053109169,-0.007157541811466217,0.036518555134534836,-0.013304551132023335,-3.50277878169436e-05,0.009770205244421959,-0.0217487420886755,-0.009674101136624813,0.02192673273384571,-0.012167028151452541,-0.030418559908866882,-0.026045922189950943,0.021086756139993668,0.005981247406452894,-0.000820145767647773,-0.0241245124489069,-0.03326733782887459,-0.012173141352832317,-0.010836664587259293,-0.04206543788313866,-0.012913285754621029,0.0034664501436054707,-0.005693379323929548,-0.03431763872504234,0.036738015711307526,0.009032802656292915,-0.04517313838005066,-0.03399075195193291,0.045534033328294754,-0.0022723430301994085,0.01575310342013836,0.00995621271431446,0.061416126787662506,0.030933750793337822,-0.06554241478443146,0.011012955568730831,-0.02116314321756363,-0.01977803371846676,0.026212383061647415,0.019313644617795944,-0.027049515396356583,0.01869676262140274,0.00704665994271636,-0.02123625949025154,0.043302446603775024,-0.01619446836411953,0.07287483662366867,-0.048903536051511765,-0.06330947577953339,0.0005194064578972757,-0.054134905338287354,0.036058664321899414,0.012693478725850582,0.0024396630469709635,-0.011024733074009418,0.01417152862995863,0.006052283104509115,-0.005641113501042128,-0.009721284732222557,-0.033772021532058716,-0.0081427451223135,0.01628260128200054,-0.00655600568279624,0.022703228518366814,0.009993313811719418,0.006925144232809544,0.023303795605897903,-0.03959542140364647,0.005182942375540733,-0.007010562811046839,-0.004947860725224018,-0.015700077638030052,0.01866619847714901,0.025576144456863403,0.010736149735748768,-0.0063048722222447395,-0.03636222705245018,-0.019544530659914017,-0.014050821773707867,0.0031715654768049717,0.005329890176653862,0.02666350267827511,-0.028504231944680214,-0.028227850794792175,0.019353417679667473,0.000842600769829005,-0.013245092704892159,0.020270172506570816,-0.01906931959092617,0.012037727050483227,-0.05736624076962471,0.02886342816054821,-0.04999976605176926,0.006927904672920704,-0.008684713393449783,0.0006925914785824716,0.02987843193113804,-0.005874860566109419,-0.02446148917078972,0.03759181872010231,-0.0094445263966918,-0.02179749310016632,0.010724367573857307,-0.005092111881822348,0.005446653813123703,-0.04037318751215935,-0.007625261787325144,0.01767331175506115,-0.0068551660515367985,-0.06919872760772705,0.02306380867958069,0.002468076068907976,0.022438684478402138,-0.02419641613960266,0.04397592693567276,0.024539504200220108,-0.06004772707819939,0.034678664058446884,0.0034002666361629963,0.06707528233528137,0.01618780381977558,-0.02816585637629032,0.052055250853300095,0.005153752397745848,-0.011446821503341198,0.019119445234537125,-0.01909438520669937,-0.01964065618813038,-0.010287712328135967,-0.003782855346798897,0.029877036809921265,0.022767487913370132,-0.017693810164928436,-0.003045124700292945,-0.024954743683338165,0.0033230073750019073,0.07090012729167938,0.01699635200202465,-0.00542449438944459,0.01867142878472805,-0.02381897158920765,0.025719305500388145,0.02748691849410534,-0.013706124387681484,-0.015389460138976574,-0.007022551726549864,-0.019012941047549248,-0.0010572171304374933,0.015135399997234344,-0.05321311950683594,0.03659454733133316,0.024302206933498383,0.01969514787197113,0.07594670355319977,-0.04656485840678215,-0.041738491505384445,-0.026459908112883568,-0.07515573501586914,-0.00888270977884531,-0.018606683239340782,0.052246589213609695,-0.04149995371699333,-0.0036366418935358524,-0.018089493736624718,0.03458661958575249,0.0008466214057989419,-0.00809722300618887,-0.01998850889503956,-0.07894320040941238,0.0075606293976306915,0.010112727992236614,0.049481771886348724,0.053807444870471954,0.035127777606248856,-0.026097062975168228,0.0075312890112400055,-0.008676460012793541
LangeUnterhose,0.009115644730627537,0.03562512621283531,0.004539648070931435,0.0394846610724926,0.006935903802514076,0.061630360782146454,0.03498079255223274,-0.013102315366268158,-0.007192283868789673,0.03314821794629097,0.011076070368289948,-0.023076152428984642,0.023429613560438156,-0.005054065026342869,0.03325747698545456,0.0043735383078455925,0.06800269335508347,-0.0019724611192941666,-0.010769779793918133,-0.007249689660966396,-0.014514243230223656,0.00031872777617536485,-0.007602253928780556,-0.007947259582579136,0.016797002404928207,-0.023355668410658836,0.0034953062422573566,-0.019606081768870354,0.009254418313503265,-0.018747640773653984,-0.001788860885426402,-0.014418135397136211,0.012263266369700432,-0.01867947354912758,0.002805989934131503,0.017362259328365326,-0.005219684448093176,0.0012928452342748642,-0.010738777928054333,-0.025275064632296562,-0.0009044620092026889,-0.0017126190941780806,0.02419387362897396,0.016520008444786072,-0.04019880294799805,0.011308630928397179,0.019714880734682083,0.008514567278325558,-0.007000669836997986,-0.03439179062843323,-0.009790623560547829,0.005832141265273094,-0.0027007614262402058,-0.017744626849889755,0.005691381171345711,0.02829018235206604,0.02602970227599144,0.0007936650654301047,0.015475078485906124,-0.021981429308652878,0.022812753915786743,0.0047574229538440704,0.0523700937628746,0.0069526080042123795,0.0350625216960907,-0.008167557418346405,0.06028851121664047,0.0002769026905298233,-0.002309394534677267,-0.020842593163251877,0.008122810162603855,-0.015629597008228302,0.023300830274820328,0.02647194266319275,0.010618682019412518,-0.01944643259048462,-0.0019352835370227695,0.010894554667174816,0.021721845492720604,-0.00901589635759592,-0.024173885583877563,-4.591109973262064e-05,-0.007776969112455845,0.0035709503572434187,0.02152286097407341,0.0192175954580307,-0.0021552848629653454,0.018544258549809456,0.03898140788078308,-0.0022696794476360083,0.0401289165019989,0.016957195475697517,0.03463668376207352,-0.0002724367077462375,6.585940718650818e-05,0.07224523276090622,0.005750260781496763,-0.02044457569718361,0.022821184247732162,0.030682384967803955,-0.006387618370354176,-0.003547688713297248,-0.003108630422502756,-0.008082235231995583,0.009837023913860321,-0.009096406400203705,0.01550669502466917,0.0062632253393530846,-0.007982207462191582,-0.008791977539658546,0.006130887195467949,-0.003407518845051527,0.01944875717163086,-0.0017008788418024778,0.0003255833871662617,-0.01133679412305355,-0.015749095007777214,0.001169595867395401,0.013446828350424767,-0.013545118272304535,-0.09972810000181198,-0.011691401712596416,0.0032297258730977774,-0.00026473248726688325,0.008926685899496078,0.03771984949707985,-0.0072233970277011395,-0.006134216673672199,0.019511628895998,0.0017102796118706465,-0.04341612756252289,-0.0004587670264299959,-0.011513777077198029,0.02186219021677971,-0.012610718607902527,-0.004376986529678106,0.0012153831776231527,0.005257598590105772,-0.010943475179374218,-0.018182478845119476,0.009620150551199913,-0.013714230619370937,0.011815011501312256,-0.009392257779836655,-0.007559145800769329,-0.005490560084581375,-0.0053239865228533745,0.009881093166768551,0.005505438428372145,-0.030121929943561554,0.005932040046900511,0.028500838205218315,-0.029850078746676445,-0.04704057425260544,0.0029314286075532436,0.04692000150680542,-0.026285795494914055,-0.026339253410696983,0.004543564282357693,0.025020942091941833,-0.008564472198486328,0.013206981122493744,0.004422860220074654,-0.027740467339754105,0.017049089074134827,0.019198959693312645,-0.008779662661254406,0.00931710097938776,-0.04135986417531967,0.0051431115716695786,0.0053598396480083466,-0.016192559152841568,0.015372268855571747,-0.016675245016813278,0.0025224159471690655,0.0426870696246624,0.026729850098490715,-7.214769721031189e-05,-0.014101850800216198,0.047244369983673096,-0.005304801277816296,0.03065706044435501,0.0005894061177968979,-0.015812966972589493,-0.030355989933013916,-0.08880873024463654,0.041550032794475555,-0.005782866384834051,0.0015456186374649405,0.013206934556365013,-0.016726456582546234,0.00880228541791439,-0.02820470929145813,0.00978907011449337,-0.0242212675511837,0.008992021903395653,0.04456236585974693,-0.0035903011448681355,0.03275248780846596,-0.00983974989503622,0.019626572728157043,-0.01011153869330883,-0.03262215480208397,-0.0034569648560136557,-0.01148277148604393,0.023138081654906273,-0.045767586678266525,-0.01163741946220398,0.0068875206634402275,-0.0065939477644860744,0.009836465120315552,-0.010579297319054604,-0.005084932316094637,0.01598411798477173,0.0029850914143025875,-0.013545749709010124,-0.029964810237288475,-0.014728983864188194,-0.021873531863093376,0.003788029309362173,0.007776271551847458,0.0011902626138180494,-0.008149553090333939,0.002326411660760641,-0.023831963539123535,0.00914568081498146,-0.0012640561908483505,0.02212712913751602,-0.004858607426285744,-0.037826575338840485,0.022414609789848328,0.006536885164678097,-0.015725303441286087,0.020608369261026382,0.01020972989499569,0.005961378570646048,-0.028569959104061127,0.0045692091807723045,0.03837575763463974,-0.01726531609892845,-0.014896761626005173,0.017201771959662437,0.014808888547122478,0.02570210210978985,0.02096908539533615,0.013429753482341766,0.001580858021043241,0.010032454505562782,-0.01890779659152031,-0.02651890181005001,0.009065493941307068,0.014507083222270012,-0.022009767591953278,0.00042956508696079254,0.02050291746854782,-0.014856090769171715,-0.0004633764619939029,-0.014987180009484291,-0.0055497782304883,-0.043791916221380234,-0.01729593798518181,-0.003359805792570114,0.03337955102324486,-0.00962178222835064,0.018000224605202675,-0.0004460045602172613,-0.04578255116939545,0.0007669056649319828,0.010821606032550335,-0.005888522602617741,0.011059992015361786,-0.015235832892358303,-0.06684072315692902,-0.002544820075854659,-0.01666291244328022,0.03496271371841431,0.027023445814847946,0.007362004369497299,-0.027888579294085503,-0.011569882743060589,-0.0930766761302948,-0.018654391169548035,-0.03306569159030914,0.0030014142394065857,-0.0064081791788339615,-0.0021859961561858654,-0.0185750350356102,0.010037057101726532,0.011746786534786224,-0.004139396827667952,0.014698700979351997,-0.009231598116457462,0.005256662145256996,0.02181839570403099,0.013964569196105003,0.019919004291296005,0.016367103904485703,0.01372520625591278,0.011881113052368164,0.001833007438108325
NormaleUnterhose,0.01471826620399952,0.02649182640016079,0.009097608737647533,0.035133298486471176,0.020351072773337364,0.050073105841875076,0.016844503581523895,0.0023187906481325626,0.0049772909842431545,0.020717937499284744,0.010877503082156181,-0.011460366658866405,-0.000869590847287327,0.0024072076193988323,0.017820199951529503,-0.008587419986724854,0.05508039891719818,-0.003162073902785778,0.004859916865825653,-0.008718255907297134,-0.022471126168966293,-0.005372862797230482,-0.0068292380310595036,-0.014139588922262192,0.015898190438747406,-0.02154568023979664,0.00027174848946742713,-0.0189695842564106,0.0017606840701773763,-0.0133604621514678,0.0107949273660779,0.003999472130089998,-0.001848747138865292,-0.004243909846991301,-0.009284598752856255,0.0025972044095396996,0.0068072667345404625,-0.007823161780834198,-0.0006658004131168127,-0.01967730186879635,0.015429478138685226,-0.004388146102428436,0.009108386002480984,0.016385041177272797,-0.01714939996600151,0.012480667792260647,0.009266643784940243,0.010083443485200405,0.01381776574999094,-0.015454065054655075,-0.00017217574350070208,-0.004736965522170067,0.005884342361241579,-0.0023141063284128904,-0.0038441261276602745,0.021853886544704437,0.02289647050201893,0.007931402884423733,0.010097764432430267,-0.003589702770113945,0.005349260754883289,0.0062780072912573814,0.03653053566813469,0.014690813608467579,0.03143220767378807,-0.015379255637526512,0.052475232630968094,-0.010832278057932854,0.005096309818327427,-0.026178229600191116,0.014501804485917091,-0.010462072677910328,0.025546038523316383,0.012512343935668468,0.016449637711048126,-0.01603839546442032,-0.0016086518298834562,0.008448886685073376,0.005163541994988918,0.000602579559199512,-0.01964336261153221,0.008830828592181206,-0.018888022750616074,0.0032150375191122293,0.043225016444921494,0.051501255482435226,-0.00848127156496048,0.01247638650238514,0.025795767083764076,-0.0015572062693536282,0.014967663213610649,0.09388497471809387,0.03805210068821907,0.005416135303676128,-0.008131722919642925,0.06035257503390312,-0.00576578127220273,-0.00218941830098629,0.023923972621560097,0.029300086200237274,-0.007658854126930237,-0.022401874884963036,0.0054741716012358665,-0.010716806165874004,-0.0071522751823067665,-0.02224043756723404,-0.005421414040029049,0.00013953128654975444,-0.0005962487193755805,-0.015963111072778702,-0.007274214643985033,-0.0007009469554759562,0.008661497384309769,0.0005944735603407025,0.011333239264786243,-0.005652421619743109,-0.009976623579859734,0.0016715857200324535,0.002826549345627427,-0.0067603797651827335,-0.06098739430308342,0.00019140222866553813,0.00014669103256892413,0.0006094056298024952,0.010142289102077484,0.031862400472164154,-0.005341169890016317,-0.005035730078816414,0.029222877696156502,0.0003483945329207927,-0.00538794556632638,-0.003318433417007327,-0.006372400093823671,0.02894994616508484,-0.01331800315529108,0.01146580558270216,-0.016345752403140068,0.00778620783239603,-0.0109225083142519,-0.008921921253204346,0.0005830537411384284,-0.007729096803814173,-0.0029800727497786283,-0.015038548037409782,0.001659430330619216,0.0021813055500388145,-0.012047914788126945,0.01724138855934143,0.01699995994567871,-0.023798562586307526,0.007161109708249569,0.03355073556303978,-0.009042294695973396,-0.07486455887556076,-0.0033443726133555174,0.01430684607475996,-0.021638428792357445,-0.029157251119613647,0.00905371829867363,0.03867878392338753,-0.013998068869113922,0.0072342874482274055,0.011916178278625011,-0.02314934879541397,0.011820350773632526,0.015888817608356476,-0.010174587368965149,-0.0015322716208174825,-0.049291301518678665,0.002227324992418289,0.015510531142354012,-0.007827731780707836,0.01742849126458168,-0.022055691108107567,-0.004799178801476955,0.055799275636672974,0.02069356106221676,-0.004851772915571928,-0.028249481692910194,0.036721374839544296,-0.0007358542061410844,0.013145474717020988,0.013827475719153881,-0.021404962986707687,-0.030854422599077225,-0.09538831561803818,0.04281626641750336,0.0004074498428963125,-0.0007944591925479472,0.007850808091461658,-0.02600506879389286,0.005074404180049896,-0.01325040590018034,0.0023042347747832537,-0.02179546095430851,-0.0054460917599499226,0.023663943633437157,0.0035008066333830357,0.0043747518211603165,-0.014104732312262058,-0.00757184624671936,-0.010185489431023598,-0.021257303655147552,0.004032137803733349,-0.018055815249681473,0.02723787911236286,-0.031045930460095406,4.020492997369729e-05,0.00403968058526516,0.01322769746184349,-0.004363035783171654,0.008974752388894558,-0.0013958716299384832,0.008243349380791187,0.007844023406505585,-0.017168739810585976,-0.0040845852345228195,-0.00028834512340836227,-0.012955323792994022,0.020121626555919647,-0.008467502892017365,-0.005934394430369139,-0.00554293068125844,0.006992907728999853,-0.00520650390535593,0.0075889891013503075,0.004662098828703165,0.024009427055716515,-0.004016726743429899,-0.019333291798830032,-0.013311458751559258,0.006974969990551472,-0.01178168598562479,0.01535032968968153,-0.014008390717208385,-0.0023370636627078056,-0.03269816190004349,-0.0003975534054916352,0.034295957535505295,-0.010065403766930103,-0.012590708211064339,0.019599443301558495,0.0037452217657119036,0.011395846493542194,0.013554279692471027,0.0071089137345552444,-0.009217636659741402,-0.0008826676639728248,-0.01830372028052807,-0.026726029813289642,-0.008782587014138699,0.02705092914402485,-0.023709969595074654,0.0008747678948566318,0.010501725599169731,-0.029282039031386375,-0.006861310452222824,1.4001769841343048e-06,0.006389624439179897,-0.03471909835934639,-0.019808104261755943,0.0021154209971427917,0.024525383487343788,-0.014216579496860504,0.020587019622325897,-0.008715912699699402,-0.04210794344544411,0.004734917543828487,0.013911535032093525,0.021183094009757042,-0.006896807812154293,-0.013860948383808136,-0.06760745495557785,0.005757064092904329,-0.009530595503747463,0.023569362238049507,0.032122187316417694,0.011186743155121803,-0.04606460779905319,-0.013028585352003574,-0.05968204140663147,-0.025175176560878754,-0.024118270725011826,-0.008455534465610981,-0.004539727699011564,0.0015362465055659413,-0.013293998315930367,0.01088678278028965,0.014412702061235905,-0.009917563758790493,0.02934093214571476,0.004106624983251095,0.005759615916758776,0.011346296407282352,0.018848732113838196,0.023727739229798317,0.014075323939323425,-0.006745238788425922,0.005372507032006979,0.005423830356448889
String,-0.024188214913010597,-0.014259593561291695,-0.061076294630765915,0.09073015302419662,-0.03414396196603775,-0.05790138989686966,-0.018576059490442276,0.06510113924741745,0.06903371959924698,0.038240429013967514,-0.02059277333319187,-0.0035814896691590548,0.002388234483078122,0.03808647394180298,-0.031086523085832596,-0.031607624143362045,0.018898865208029747,-0.06277310103178024,-0.07228606939315796,-0.025396961718797684,-0.0476258285343647,0.1236032247543335,0.1251738965511322,-0.03933782875537872,-0.051531024277210236,0.018700702115893364,0.005763244815170765,-0.12938736379146576,0.028080647811293602,-1.9206107026548125e-05,-0.034013062715530396,0.0471467562019825,-0.037618398666381836,0.059352435171604156,0.014031137339770794,-0.09263148158788681,0.04397159069776535,-0.04441586136817932,-0.02521640621125698,0.04554988443851471,0.034537456929683685,-0.016084564849734306,0.07951989024877548,-0.017214355990290642,-0.05005297064781189,0.07592456787824631,0.08997688442468643,-0.08498230576515198,-0.00039633159758523107,0.004919006023555994,-0.023596910759806633,0.04558582231402397,-0.02795751951634884,0.05440523847937584,-0.00882079266011715,0.03029215894639492,-0.11883562058210373,-0.0322364941239357,0.08756397664546967,-0.052233822643756866,-0.025620901957154274,0.02582571469247341,-0.014716573059558868,-0.11803900450468063,-0.057397663593292236,-0.021753937005996704,0.05388305336236954,-0.051863085478544235,0.04093826189637184,0.05199864134192467,-0.08778642863035202,-0.07834099233150482,-0.012843169271945953,0.05199536308646202,0.024131132289767265,-0.05788033828139305,0.024900615215301514,-0.012880900874733925,-0.06883237510919571,0.0039464617148041725,-0.01672598160803318,0.02357207052409649,0.00244372827000916,-0.011909717693924904,0.06377207487821579,0.024582719430327415,0.029036331921815872,0.019081808626651764,-0.014043338596820831,-0.07605712860822678,0.014007776975631714,0.03811471536755562,0.04245330020785332,-0.07918193936347961,0.0838654488325119,-0.003051911247894168,-0.07835555076599121,-0.004148803651332855,-0.07448870688676834,-0.1370197832584381,-0.017117569223046303,0.07626870274543762,0.052503474056720734,0.08060216903686523,0.0007489360868930817,-0.020524000748991966,0.007469142321497202,-0.03936715051531792,0.02604164183139801,-0.007368707098066807,0.08868425339460373,-0.01660417579114437,-0.09560687839984894,-0.01928277313709259,0.009022139012813568,0.0888918787240982,-0.027332449331879616,-0.06706321984529495,0.0413726307451725,-0.01029769517481327,-0.031833432614803314,0.03643080219626427,-0.018813639879226685,-0.00472640385851264,-0.07275182008743286,0.10063644498586655,0.002544811461120844,0.005172737408429384,-0.10476572811603546,0.04736199229955673,-0.003928082529455423,0.05003117397427559,0.005585537292063236,-0.0027166411746293306,-0.01486138440668583,-0.048040132969617844,0.013044506311416626,0.1083858385682106,0.01723230443894863,0.014013168402016163,-0.09857238829135895,-0.0477355420589447,-0.04979671910405159,-0.014891746453940868,0.07019457966089249,0.02053864113986492,0.022186797112226486,0.06084981560707092,-0.0816812738776207,-0.039708320051431656,0.06028309091925621,0.09692367166280746,0.012035826221108437,-0.001756618614308536,-0.07780667394399643,0.10586638748645782,-0.007300892379134893,-0.1140330359339714,0.050606705248355865,-0.10209610313177109,0.007306693587452173,0.06636860966682434,0.033212754875421524,0.03039858303964138,0.06440048664808273,0.0350261852145195,-0.06009603291749954,-0.0825592428445816,-0.01689755544066429,0.10433962196111679,0.000986102968454361,-0.08237586915493011,0.03398802503943443,-0.05602018162608147,0.13933336734771729,0.006060443818569183,0.02333313226699829,-0.02129293791949749,0.048161156475543976,-0.05865982919931412,0.001338938600383699,0.01857117749750614,0.005359454546123743,-0.02891956828534603,-0.034011360257864,-0.01696036383509636,0.08070646971464157,0.004779585171490908,0.030276695266366005,-0.048305124044418335,-0.029706919565796852,-0.057860054075717926,0.02755782939493656,0.006793908774852753,-0.020455816760659218,0.03919078782200813,0.033278938382864,0.04547494649887085,0.05658334493637085,0.0033392980694770813,-0.07667146623134613,0.02871927060186863,-0.006487160921096802,0.09203406423330307,0.013127343729138374,-0.05297592282295227,-0.043759785592556,0.05745929479598999,-0.10231491178274155,-0.007202498614788055,0.02624792791903019,-0.006595022510737181,-0.008783022873103619,0.0026992042548954487,0.08722896873950958,-0.04472094029188156,-0.0238940566778183,-0.08021161705255508,0.04934156313538551,0.028697622939944267,0.04334745183587074,-0.058047425001859665,0.023467769846320152,-0.08412189036607742,-0.010520316660404205,0.023026661947369576,-0.01978222094476223,0.014809312298893929,-0.11167027056217194,-0.030220789834856987,0.06530488282442093,0.013333466835319996,-0.04628933593630791,0.10770473629236221,-0.05800209566950798,-0.03005991317331791,-0.018256699666380882,-0.024194208905100822,0.03002462349832058,-0.009135528467595577,0.0438273660838604,-0.008215909823775291,0.057532548904418945,0.016346290707588196,-0.027499420568346977,0.12497430294752121,0.024813195690512657,-0.12786011397838593,0.010926231741905212,0.02203214354813099,0.026071608066558838,0.048230428248643875,-0.011299165897071362,0.028770675882697105,0.08645980805158615,-0.043594714254140854,-0.03258666768670082,-0.05632563307881355,-0.07644752413034439,0.034279048442840576,0.10703643411397934,0.057764388620853424,0.08686390519142151,-0.09328675270080566,0.040256500244140625,0.010908654890954494,-0.05745888501405716,0.014040517620742321,0.037831030786037445,-0.057593394070863724,0.08315542340278625,0.0036252278368920088,-0.1345364898443222,0.036483485251665115,0.12071599811315536,-0.040039293467998505,0.14978934824466705,0.022083332762122154,-0.09516648948192596,-0.015985950827598572,-0.0964488610625267,0.0574788860976696,-0.03115069307386875,0.07450926303863525,-0.033543314784765244,0.011654932051897049,-0.013092239387333393,0.029773328453302383,0.043043967336416245,0.014753681607544422,0.023521507158875465,-0.040669798851013184,0.03331470489501953,-0.033506762236356735,-0.011897648684680462,0.026929263025522232,0.012261328287422657,-0.0089871259406209,0.005787388887256384,-0.09117143601179123
Tanga,0.089814193546772,-0.0068546379916369915,-0.11159887909889221,0.014530420303344727,0.04247463494539261,0.048715103417634964,-0.007604045793414116,0.04805964231491089,-0.024173295125365257,0.037615470588207245,0.021929267793893814,0.018339497968554497,-0.014680471271276474,-0.02416520193219185,-0.0349762961268425,-0.04356880113482475,0.08872976154088974,-0.09180617332458496,-0.035922229290008545,-4.278076812624931e-05,0.025512151420116425,0.029551368206739426,0.0814020037651062,0.00405633170157671,0.08233460783958435,-0.07373832166194916,-0.0026438888162374496,-0.006311938166618347,0.013693055137991905,0.016019444912672043,-0.054160792380571365,0.09303659200668335,-0.09915034472942352,0.036546334624290466,0.04046822711825371,-0.08284437656402588,0.02399200014770031,-0.04877407103776932,0.03372040390968323,0.0030270367860794067,-0.10065936297178268,-0.10303918272256851,0.08137255907058716,0.11259941756725311,-0.2079514116048813,0.12998028099536896,0.06059810146689415,-0.07731204479932785,0.1436060070991516,-0.05835316702723503,0.028822625055909157,-0.0334196463227272,-0.03899402543902397,-0.026324111968278885,-0.029380999505519867,0.03923393785953522,-0.13943436741828918,-0.053078338503837585,0.0425296276807785,-0.09312281757593155,0.08147155493497849,0.0078069414012134075,0.09182140976190567,-0.10866596549749374,0.029512174427509308,0.052769917994737625,0.10697159171104431,0.029656995087862015,0.11689973622560501,0.08677516877651215,0.026886263862252235,-0.05960403382778168,-0.07292431592941284,-0.07570578157901764,-0.03584445267915726,-0.0851597934961319,0.021933402866125107,0.05856705456972122,-0.0852290466427803,-0.05225193500518799,0.0749567300081253,-0.08437913656234741,0.12695179879665375,-0.008696692995727062,0.043264612555503845,0.08532930910587311,-0.02821044810116291,0.1352015882730484,0.005441283341497183,0.01545805111527443,0.020476168021559715,0.09297783672809601,0.036044564098119736,-0.07214626669883728,0.13730332255363464,-0.03377898037433624,-0.038074564188718796,-0.09767182171344757,-0.03478026017546654,-0.13468018174171448,-0.029366249218583107,0.16294124722480774,0.059555042535066605,-0.06962883472442627,0.1534213423728943,0.061078157275915146,-0.09508867561817169,0.06013847514986992,-0.0485575795173645,0.006904521491378546,0.04652341827750206,0.1150989979505539,-0.07277066260576248,0.1266232281923294,0.10683868080377579,-0.09762547165155411,-0.04535844177007675,-0.04695078730583191,0.006137652322649956,-0.007791053503751755,-0.002171868458390236,0.04509864002466202,-0.09388241916894913,0.006711706519126892,0.05187995359301567,0.02831338532269001,0.03456593304872513,-0.006966390646994114,-0.04328944534063339,0.04171406850218773,-0.039741151034832,0.15187907218933105,0.08761752396821976,-0.0636075884103775,0.01560626644641161,0.013431942090392113,0.08005020022392273,0.025509726256132126,0.07491317391395569,-0.04038555547595024,-0.009066883474588394,0.011409953236579895,0.13477829098701477,-0.033791277557611465,-0.020086221396923065,-0.04191068559885025,-0.023445794358849525,0.024784600362181664,0.08579044789075851,-0.07063591480255127,-0.006150234490633011,0.08236327767372131,0.039854466915130615,0.03579222038388252,-0.07449746876955032,0.14691932499408722,-0.07382059842348099,-0.07883468270301819,0.09430287778377533,-0.07007887214422226,0.019269991666078568,0.0398351326584816,-0.05200400948524475,0.004045182839035988,0.04701746255159378,0.031058503314852715,0.03380531072616577,-0.10988913476467133,-0.045198239386081696,0.047695402055978775,-0.01594560220837593,0.005349414423108101,0.14044517278671265,-0.07821331918239594,0.043593134731054306,-0.0057584005407989025,-0.07502579689025879,-0.05943644046783447,0.19757242500782013,-0.142997607588768,0.11460059881210327,-0.014533309265971184,0.017181213945150375,0.06706137955188751,-0.08529868721961975,-0.14298269152641296,-0.019132116809487343,0.060041844844818115,0.08867213875055313,0.053576868027448654,-0.014519566670060158,0.04137382283806801,0.06995447725057602,-0.0289296992123127,-0.09687434136867523,0.024085525423288345,-0.014283837750554085,0.0794452354311943,0.06623848527669907,0.0637497529387474,-0.07532556354999542,0.041118696331977844,0.04568590968847275,0.12497974187135696,-0.04760175570845604,-0.07421385496854782,-0.021688338369131088,0.09573573619127274,0.06548652052879333,0.037049539387226105,0.007946772500872612,-0.1254900097846985,-0.02413223125040531,-0.004839095287024975,0.13944457471370697,-0.041269853711128235,-0.0072908587753772736,-0.1269392967224121,0.012777592986822128,0.0905863419175148,0.13457034528255463,-0.07982475310564041,0.07414314150810242,-0.049879152327775955,-0.03634629398584366,-0.0007312600500881672,-0.04585981369018555,-0.05596758425235748,-0.018216820433735847,0.12469532340765,0.12094955891370773,0.05670469254255295,-0.07521144300699234,0.07697757333517075,0.0023842807859182358,0.06373147666454315,-0.10557077825069427,-0.04043514281511307,0.012858821079134941,-0.11180832237005234,0.061881836503744125,-0.09862135350704193,0.012612632475793362,0.019009381532669067,-0.07266648858785629,-0.012463642284274101,-0.05019674450159073,-0.1571671962738037,-0.010639654472470284,0.006074907258152962,-0.09648728370666504,0.040627941489219666,-0.06464578211307526,0.025417130440473557,-0.08025133609771729,0.030141595751047134,-0.016966594383120537,-0.050055958330631256,0.014582829549908638,0.05208877846598625,0.04996339604258537,-0.1105584055185318,0.040551554411649704,-0.08509095013141632,-9.861122816801071e-05,0.16705089807510376,-0.06710650771856308,-0.05224820598959923,0.05630723387002945,-0.06978539377450943,0.06738010048866272,0.04377772659063339,-0.17322887480258942,0.10655919462442398,0.03741816058754921,-0.07723792642354965,0.19551993906497955,0.049946557730436325,0.009055961854755878,0.021833252161741257,-0.10533788800239563,0.1254883110523224,-0.045412253588438034,0.110051229596138,-0.13305896520614624,0.04677063226699829,0.03687753528356552,0.0555487684905529,0.04188286513090134,-0.1357249617576599,-0.04528210684657097,-0.026978790760040283,0.044350653886795044,0.036861591041088104,-0.027056770399212837,0.021590836346149445,-0.0416119247674942,-0.051133155822753906,0.023139018565416336,-0.025657732039690018
Shirt,0.0424831360578537,-0.027695201337337494,-0.014600779861211777,0.11662319302558899,0.04735320061445236,-0.05249703302979469,-0.025772646069526672,0.02749447524547577,-0.11933586001396179,0.10659098625183105,0.026219813153147697,0.02555864304304123,0.1526360958814621,-0.07272197306156158,0.006176431197673082,0.01645064726471901,0.07662557065486908,-0.02725876495242119,0.019301416352391243,-0.02282744273543358,0.02786075882613659,0.016340196132659912,0.07380470633506775,0.05798029527068138,0.006915196776390076,0.008560650050640106,0.12850575149059296,0.045195531100034714,0.016854912042617798,0.023370368406176567,-7.824786007404327e-05,-0.00575421005487442,-0.02384713664650917,0.023443525657057762,-0.008730035275220871,-0.14012858271598816,-0.012344364076852798,0.04303187131881714,0.04732149466872215,0.021863281726837158,-0.09727793186903,0.021225392818450928,-0.019898829981684685,0.022287480533123016,-0.06203686445951462,0.24502483010292053,-0.029188089072704315,-0.035279929637908936,-0.05003068223595619,0.027067147195339203,0.026896493509411812,-0.038595862686634064,0.0922250971198082,0.009613921865820885,-0.01804528199136257,-0.01565348170697689,-0.052126169204711914,-0.02362769842147827,0.040650784969329834,-0.016168661415576935,-0.01064116321504116,0.04159928485751152,0.19473205506801605,0.015191256999969482,0.04630545526742935,-0.06868178397417068,0.08456142246723175,-0.04453905671834946,0.07000414282083511,0.008222819305956364,-0.028489749878644943,-0.06444057077169418,-0.047476090490818024,0.03516268730163574,0.08464214205741882,0.04991021379828453,0.003089204430580139,0.07377791404724121,0.10604976862668991,0.021721720695495605,0.06214093789458275,-0.002810195554047823,0.006456045433878899,0.02568044140934944,-0.006788359954953194,0.0560419037938118,-0.04119115695357323,0.07656846940517426,-0.012901796959340572,-0.02591864764690399,0.05365574732422829,0.05005210265517235,0.11199060082435608,0.06883677840232849,0.03236546367406845,0.07652377337217331,-0.001782702747732401,-0.05354255437850952,-0.2016707956790924,-0.006822921335697174,-0.017907094210386276,0.061536867171525955,0.005975931882858276,-0.10407119989395142,0.10880044847726822,0.0142003633081913,0.06862188875675201,-0.022425608709454536,0.024369997903704643,-0.04188866168260574,0.05993133783340454,0.003044828772544861,-0.026163429021835327,0.021815534681081772,0.04296167194843292,-0.06596740335226059,0.07152844220399857,-0.1906125545501709,0.027443554252386093,-0.029954757541418076,-0.11163388192653656,0.036387849599123,0.012352967634797096,-0.018208220601081848,0.03881261497735977,0.011197976768016815,-0.06965827941894531,0.07113316655158997,-0.007182714529335499,0.03813505172729492,0.0942951962351799,-0.0002709813416004181,-0.13620230555534363,-0.04901595413684845,-0.044473983347415924,0.08721113950014114,0.05120917409658432,0.0707462951540947,-0.06822975724935532,-0.04364074394106865,-0.04409501329064369,-0.07180797308683395,0.08786090463399887,-0.02088327705860138,-0.040836721658706665,0.03550507128238678,-0.06280027329921722,0.11470057815313339,0.0646844357252121,-0.05625021457672119,-0.0007925145328044891,0.09974299371242523,-0.09727321565151215,0.013308198191225529,0.039012156426906586,0.10961232334375381,0.004625633358955383,-0.08615980297327042,-0.00607285276055336,-0.11504501849412918,-0.006391262635588646,-0.061806656420230865,0.05982370674610138,-0.0014486797153949738,0.10086953639984131,0.045467786490917206,0.039333365857601166,0.045154470950365067,-0.023615146055817604,0.04701635241508484,-0.060768842697143555,-0.12308994680643082,-0.006676206365227699,-0.1378536820411682,0.076203353703022,0.053956665098667145,0.001033487729728222,0.02105957269668579,0.0864153504371643,-0.04442397877573967,0.07717326283454895,-0.019317515194416046,0.0238448828458786,-0.04610113054513931,-0.10218064486980438,-0.08236785978078842,0.09515910595655441,0.09813197702169418,-0.03154292702674866,0.05827920138835907,-0.06704290956258774,0.080592580139637,-0.015091920271515846,-0.05323901027441025,-0.09394700825214386,0.07337135821580887,0.11232142895460129,0.054038435220718384,0.034211039543151855,-0.07911451160907745,-0.006335840560495853,-0.013050101697444916,0.018247179687023163,-0.03270188346505165,-0.030256075784564018,0.012595411390066147,-0.0419626347720623,-0.06526336818933487,-0.06077463552355766,-0.06142011657357216,0.07446146011352539,-0.018993977457284927,0.022050680592656136,-0.15926983952522278,0.11455024033784866,0.03301724046468735,-0.0016387775540351868,0.06347507983446121,0.04390343278646469,0.10901527851819992,0.03628616780042648,-0.07594091445207596,-0.025365229696035385,-0.03587062656879425,0.0026115169748663902,0.0781819298863411,-0.17794184386730194,-0.03854554519057274,-0.08430284261703491,-0.0364711731672287,-0.006657242774963379,-0.017162661999464035,-0.08535753935575485,0.07428761571645737,0.008758592419326305,0.029577678069472313,-0.025456473231315613,0.08048127591609955,0.07252542674541473,-0.06670711934566498,0.12941308319568634,0.04453441873192787,0.023619528859853745,0.04828789830207825,0.04731205850839615,-0.014492373913526535,0.024245519191026688,-0.06656506657600403,-0.03064650110900402,-0.0756445974111557,0.0005152188241481781,0.013647789135575294,0.014332462102174759,0.055031150579452515,0.10057637840509415,0.010160976089537144,-0.0860397145152092,-0.16710558533668518,0.03621414676308632,-0.05190570279955864,-0.03654738888144493,0.0018777158111333847,0.026699325069785118,-0.12554270029067993,0.11726780980825424,0.041291430592536926,-0.024739252403378487,-0.023534435778856277,0.012594014406204224,-0.009393768385052681,-0.14905917644500732,-0.009032009169459343,-0.1463366448879242,0.0026001622900366783,-0.003981277346611023,-0.054634734988212585,0.15855105221271515,-0.008410115726292133,-0.10069514811038971,0.0100468210875988,-0.10943194478750229,0.046543341130018234,-0.05437484383583069,0.08644501864910126,0.026141608133912086,0.07623565196990967,-0.07527142018079758,0.06687520444393158,0.10391693562269211,-0.019247114658355713,0.016810739412903786,-0.10105735063552856,0.0009861141443252563,-0.05969574674963951,0.00711924210190773,-0.00669759139418602,-0.09659862518310547,-0.016544606536626816,-0.008820220828056335,-0.05042974278330803
Unterhemd,0.02179444395005703,-0.010490966960787773,0.023627720773220062,0.05868127942085266,0.07858483493328094,-0.018334737047553062,-0.004286623559892178,0.0005077654495835304,0.030445298179984093,0.047803983092308044,0.04435643553733826,-0.021017301827669144,0.04359341785311699,0.015107672661542892,0.03165565803647041,-0.011213873513042927,0.06816726922988892,-0.06357169896364212,0.020504893735051155,-0.02952694334089756,-0.005556559190154076,-0.0064372653141617775,0.01779158040881157,0.0181600209325552,0.04385935515165329,0.022905848920345306,-0.0049453191459178925,-0.03942558169364929,0.023516200482845306,-0.010628234595060349,-0.01901349052786827,-0.041878268122673035,-0.015067249536514282,0.003914501052349806,-0.0013615472707897425,-0.05413487181067467,0.03560736030340195,0.03207073360681534,0.04216534644365311,-0.04184499382972717,-0.040897153317928314,0.0221654511988163,-0.01371146272867918,-0.0302901491522789,-0.015205571427941322,0.07629486918449402,-0.0014002274256199598,0.003325563855469227,0.005610074382275343,0.020601840689778328,0.02136770635843277,-0.02320849522948265,0.03220271319150925,0.001963079907000065,-0.05201483517885208,-0.07421015202999115,-0.008918631821870804,-0.05154425650835037,0.027916770428419113,-0.009916123934090137,0.00584068801254034,-0.04948653653264046,0.09540685266256332,0.018663296476006508,0.044622037559747696,0.015514736995100975,0.059713445603847504,-0.014122442342340946,-0.0279917661100626,0.004792161285877228,-0.0071776313707232475,-0.04095477610826492,0.03833260387182236,0.04021433740854263,0.03913167119026184,0.016276929527521133,0.024205952882766724,-0.009134246036410332,0.029264051467180252,-0.0199782345443964,-0.014146341942250729,0.001604063669219613,0.00918800663203001,0.011257127858698368,0.013753393664956093,0.07072794437408447,0.02985832840204239,0.04041774198412895,0.04116985946893692,-0.04430640488862991,0.0036369040608406067,0.020089898258447647,0.039586141705513,0.043223366141319275,0.04607026278972626,-0.012254929170012474,-0.03585254028439522,-0.04240823909640312,-0.10443960875272751,-0.037408117204904556,0.022431910037994385,-0.0031550200656056404,0.03703618794679642,-0.033124275505542755,0.05368417128920555,0.014968311414122581,0.031165216118097305,-0.020073717460036278,0.0008232567925006151,-0.03254926949739456,0.03330249339342117,0.08063240349292755,-0.013531545177102089,0.04037725552916527,0.004798675421625376,-0.013045473955571651,0.04068863391876221,-0.059689223766326904,0.013907082378864288,-0.008136791177093983,-0.03431105613708496,0.038103632628917694,-0.024060344323515892,-0.05391240119934082,0.056621309369802475,0.052855484187603,-0.060126304626464844,-0.005157145671546459,0.00888325646519661,0.005721702240407467,0.0457514189183712,0.044167421758174896,-0.06308583915233612,-0.026262767612934113,-0.006058952771127224,0.015610769391059875,0.01618105359375477,0.01610107347369194,-0.017551932483911514,-0.05734025314450264,-0.006521990522742271,0.0199628584086895,0.010964646004140377,-0.08054317533969879,-0.020582936704158783,0.0012085363268852234,-0.04877396300435066,0.06688087433576584,0.014543328434228897,-0.04783426225185394,-0.02949676848948002,0.020314190536737442,-0.05243600159883499,-0.007075592875480652,-0.007698684930801392,0.03968960791826248,0.037436895072460175,-0.04328218102455139,0.03779970109462738,-0.05753578618168831,-0.05095052346587181,0.013289736583828926,0.023324474692344666,-0.02764793299138546,0.10247345268726349,-0.019726091995835304,0.02578813210129738,0.024300063028931618,-0.011940298601984978,0.022057734429836273,-0.013417577371001244,-0.07392925769090652,0.0023863334208726883,-0.010680820792913437,-0.027291331440210342,0.014240741729736328,-0.020333264023065567,-0.0030954740941524506,0.003062315285205841,0.030116984620690346,0.011471515521407127,0.010008472949266434,-0.006603357382118702,0.0032033631578087807,-0.05448922514915466,-0.02211952954530716,0.047362640500068665,0.024771271273493767,-0.027890827506780624,0.03956010565161705,-0.02526758424937725,0.04241069033741951,0.00986213143914938,-0.03170274570584297,-0.03689659386873245,0.05298272520303726,0.04074786603450775,0.03191497176885605,0.060264091938734055,-0.05156302452087402,-0.00870828703045845,-0.007873940281569958,0.018055621534585953,-0.002035814104601741,-0.046948354691267014,0.045673951506614685,-0.001108495518565178,-0.0339975580573082,0.05008923262357712,-0.008789132349193096,0.04074694216251373,-0.010473260655999184,0.03281845897436142,-0.04750930517911911,0.03874831274151802,-0.04336675629019737,-0.03506283834576607,0.0285146776586771,-0.008535822853446007,0.053259413689374924,-0.013057657517492771,-0.056473493576049805,0.013608280569314957,-0.02236129716038704,0.0009340543765574694,-0.0063424380496144295,-0.04186313599348068,-0.017277751117944717,-0.05463682487607002,-0.008155370131134987,0.01808788999915123,0.025835562497377396,-0.0007198235834948719,0.010909436270594597,0.002338761929422617,0.04576314613223076,-0.05674957484006882,0.02435324527323246,0.03304929658770561,-0.03322688862681389,0.06423918902873993,0.027988597750663757,0.020015127956867218,-0.008818008005619049,-0.005176202859729528,0.026501581072807312,0.006148563697934151,-0.05483844131231308,-0.04912704601883888,-0.028398651629686356,0.0342194065451622,0.03595972806215286,0.015074817463755608,0.04898438602685928,0.054570481181144714,-0.001705346629023552,-0.09367882460355759,-0.07519442588090897,-0.014898738823831081,0.05182279646396637,-0.020183460786938667,-0.0057021258398890495,0.03740236163139343,-0.07023607939481735,0.054971035569906235,0.03143693506717682,-0.02316034585237503,0.0026180781424045563,-0.008474109694361687,-0.023182660341262817,-0.04979484900832176,0.037590622901916504,-0.05585861578583717,0.012358077801764011,0.007325785234570503,-0.013348069973289967,0.10683221369981766,-0.04413465037941933,-0.047240592539310455,-0.017205342650413513,-0.04131661728024483,0.0030629178509116173,-0.024659471586346626,0.04381798580288887,-0.01533688884228468,-0.028325868770480156,0.017231790348887444,0.023980576545000076,0.06234534829854965,-0.03144460543990135,0.055641986429691315,-0.06400082260370255,-0.012921424582600594,0.014900006353855133,-0.008854318410158157,0.028319956734776497,0.016707997769117355,-0.0059935562312603,-0.01114870235323906,-0.012296371161937714
Bluse,0.13739648461341858,0.009611673653125763,-0.12186696380376816,0.10153677314519882,-0.021559324115514755,0.07458865642547607,0.047489479184150696,-0.003375816158950329,-0.010948168113827705,0.08538834005594254,-0.032390035688877106,-0.011959236115217209,0.12845240533351898,-0.058145876973867416,-0.02371610328555107,0.008143149316310883,0.04339618235826492,-0.053253188729286194,-0.002170223742723465,-0.05787289887666702,0.012625517323613167,0.18146520853042603,0.07866927981376648,0.058381542563438416,-0.025775855407118797,0.0411798395216465,-0.01809864304959774,-0.13462087512016296,0.10783819854259491,0.05253773555159569,-0.023105032742023468,-0.04006286710500717,0.011109246872365475,0.005041657015681267,-0.02119367942214012,-0.05935655161738396,0.06800981611013412,0.0060195839032530785,0.014122079126536846,0.01793847605586052,-0.09137836843729019,0.06642624735832214,-0.026239868253469467,-0.025315042585134506,0.017633136361837387,0.17940492928028107,0.014651551842689514,-0.009612943977117538,-0.012471592985093594,-0.0194939486682415,0.03306940197944641,-0.04132137820124626,-0.0074443817138671875,-0.00855647586286068,0.06802484393119812,-0.06535175442695618,-0.006152581889182329,-0.011149688623845577,0.11268176138401031,-0.020928658545017242,-0.02606639638543129,0.0033584097400307655,0.08976854383945465,0.0599818155169487,0.03466830402612686,0.032430022954940796,0.11769921332597733,-0.019940674304962158,-0.00980851799249649,0.00785430520772934,-0.01508342195302248,-0.04723720997571945,0.012687893584370613,-0.004617001861333847,0.11839496344327927,0.10545985400676727,-0.010424589738249779,0.06717971712350845,0.06813577562570572,0.07506989687681198,0.08817985653877258,0.03429311513900757,-0.01181839033961296,-0.007990332320332527,0.01513245701789856,0.03431139886379242,-0.0013262191787362099,0.11817514151334763,-0.024837855249643326,-0.013563133776187897,0.0921442061662674,0.054142653942108154,0.1027764156460762,0.026650413870811462,0.009373423643410206,0.0544695109128952,-0.028334515169262886,-0.03344990313053131,-0.03302079811692238,-0.04072995111346245,-0.08770623803138733,0.042178694158792496,-0.03157158941030502,-0.041292253881692886,0.051425911486148834,-0.05476082116365433,-0.019994335249066353,0.04178951308131218,-0.008988544344902039,-0.12446212768554688,0.004249757155776024,0.03513912111520767,-0.06952222436666489,0.046663228422403336,0.009748059324920177,-0.01953054405748844,0.03451429679989815,-0.15940865874290466,0.05299478769302368,-0.009110290557146072,-0.18043199181556702,-0.037113532423973083,0.019274892285466194,0.007535198703408241,0.0937594324350357,0.015150120481848717,-0.016262857243418694,0.06181322783231735,-0.029395561665296555,0.07053922116756439,-0.04894454777240753,-0.007193602621555328,-0.04564093425869942,0.0655742809176445,-0.083654023706913,0.04013711214065552,0.056731726974248886,-0.016022169962525368,-0.08716165274381638,-0.13940858840942383,-0.005808856338262558,-0.025650858879089355,0.09353737533092499,-0.043209098279476166,-0.08291660249233246,0.03372890502214432,0.07184705883264542,0.1575385183095932,0.094923235476017,-0.04627896845340729,-0.05366921424865723,0.15247243642807007,-0.04377306252717972,0.02656775712966919,-0.025128964334726334,0.13296328485012054,-0.02803131192922592,-0.13322781026363373,0.02969478815793991,-0.034852534532547,-0.0348542183637619,-0.050231143832206726,0.06089488044381142,-0.01740546151995659,0.04427991062402725,0.026697544381022453,0.020016280934214592,-0.011391866020858288,-0.02844083495438099,0.04970187693834305,-0.12541797757148743,-0.1010328084230423,0.047248341143131256,-0.15417703986167908,0.047401901334524155,0.07144668698310852,-0.028290100395679474,-0.07983861863613129,0.08727964013814926,-0.07051900029182434,0.007266353815793991,-0.007434396538883448,-0.029468460008502007,0.027178525924682617,0.029619142413139343,-0.022823620587587357,0.049218516796827316,0.018443522974848747,-0.06870654225349426,0.05319390445947647,-0.04158398136496544,0.09156014770269394,-0.022216595709323883,-0.015604009851813316,-0.11385152488946915,0.040286749601364136,0.06865229457616806,0.09215884655714035,-0.05125942826271057,-0.02386379800736904,-0.001593354158103466,-0.09559468924999237,-0.00948815792798996,-0.041507821530103683,-0.018632011488080025,-0.003346870420500636,-0.1429450809955597,-0.08975836634635925,-0.02600448578596115,-0.1469232738018036,0.10989087074995041,-0.08579940348863602,0.0459316149353981,-0.14969925582408905,0.05914832279086113,-0.04640985652804375,0.010473725385963917,-0.015175418928265572,0.030602579936385155,0.10209643095731735,-0.0001646876335144043,-0.06466067582368851,0.03663680702447891,-0.09207695722579956,0.02382921427488327,0.11785176396369934,-0.11383333057165146,-0.03229638189077377,-0.16071276366710663,-0.01185077615082264,0.02256844751536846,0.010186378844082355,-0.20420680940151215,0.0784110501408577,0.027878670021891594,0.05342501401901245,-0.08185376971960068,0.04908393695950508,0.05886077135801315,-0.026735033839941025,0.10595738887786865,0.026884760707616806,0.15452814102172852,0.002602050080895424,-0.002455764450132847,0.07793636620044708,-0.0030446932651102543,-0.020868856459856033,-0.021445298567414284,-0.0754213035106659,0.009526023641228676,0.054216932505369186,0.0018759388476610184,0.08757926523685455,-0.0021825283765792847,-0.024557536467909813,-0.08478517830371857,0.012183468788862228,-0.025632960721850395,0.024581672623753548,-0.02475385181605816,0.021222133189439774,0.08268333971500397,-0.08440718054771423,0.014542880468070507,0.13668425381183624,-0.013511434197425842,0.0480920672416687,0.0037344135344028473,-0.015957891941070557,-0.05222649127244949,0.02706006169319153,-0.1104447990655899,0.05221707001328468,0.013017658144235611,-0.006149603985249996,0.19068077206611633,-0.011707428842782974,-0.13388709723949432,-0.016558058559894562,-0.20286452770233154,0.06284099072217941,-0.047464560717344284,0.1578514277935028,-0.06127459928393364,0.020496901124715805,0.004160257987678051,0.07855939865112305,0.12253177165985107,-0.03955075889825821,-0.00030883029103279114,-0.1541913002729416,0.03722146153450012,-0.053607143461704254,0.12347304075956345,0.06630630791187286,-0.004792084917426109,0.025381121784448624,-0.027206337079405785,-0.12397980690002441
Jackett,0.05892571061849594,0.045483238995075226,-0.0391591340303421,0.08257098495960236,0.05546179413795471,0.013013659045100212,0.03244590386748314,0.07754191756248474,-0.0472148172557354,0.02486233226954937,-0.0008085630834102631,-0.047633763402700424,0.017644256353378296,-0.01612384431064129,-0.05592616647481918,-0.04452882334589958,0.09731368720531464,-0.05735371634364128,0.06672672182321548,-0.05013587698340416,-0.07288084924221039,0.07887615263462067,0.05617623031139374,-0.00684176292270422,0.043125301599502563,0.06220522150397301,0.030200600624084473,-0.023655420169234276,0.07669992744922638,-0.03822895884513855,-0.03347703441977501,0.01044750027358532,-0.013230286538600922,0.0004339925944805145,-0.01312381774187088,0.026373377069830894,-0.01773492619395256,0.013979914598166943,0.043290745466947556,0.04228755831718445,0.03588353842496872,0.07959049195051193,-0.023012708872556686,0.0561080276966095,0.07292544841766357,0.07404311746358871,0.026668798178434372,0.03036092035472393,0.012934083119034767,0.013052470982074738,-0.007971477694809437,0.02690812200307846,0.06787380576133728,-0.018695224076509476,0.02424049936234951,-0.09276255965232849,0.005438023712486029,-0.06212274730205536,0.026485010981559753,-0.04077787324786186,-0.04292269051074982,-0.00144806073512882,0.08782266080379486,-0.018860626965761185,0.12742598354816437,0.021600699052214622,0.05824217200279236,-0.009058932773768902,-0.03088264726102352,-0.010699592530727386,0.019281363114714622,-0.06462132185697556,0.03576647862792015,0.001087133539840579,0.08203776180744171,0.06646020710468292,0.03914555907249451,0.045459747314453125,0.027340028434991837,0.012531772255897522,0.031046684831380844,0.034772615879774094,-0.024761155247688293,-0.012659907341003418,-0.015087536536157131,0.07823219150304794,0.01081259734928608,0.00029847107362002134,-0.00865122675895691,-0.04882664233446121,0.05095559358596802,0.014124244451522827,0.026635175570845604,0.04147295653820038,-0.01658312790095806,-0.06780446320772171,-0.006438153795897961,-0.03773195669054985,-0.10883845388889313,0.0007792375981807709,-0.07185596227645874,-0.004932244308292866,0.011229200288653374,-0.05498914048075676,0.09661790728569031,0.037544120103120804,0.07109149545431137,-0.06311851739883423,0.02913234382867813,-0.03853391855955124,0.04280319809913635,0.046679601073265076,-0.0356588214635849,0.044182028621435165,-0.02420644462108612,-0.014002951793372631,0.01590372808277607,-0.15896356105804443,0.08900479972362518,-0.04096566140651703,-0.04543639346957207,0.024576034396886826,0.02964666113257408,-0.000531459110789001,-0.006328391842544079,-0.021057916805148125,-0.04499412700533867,-0.029917210340499878,-0.11671216785907745,0.022761959582567215,0.11507244408130646,0.060849379748106,-0.004071149043738842,0.09551426768302917,-0.0036380940582603216,0.005669682286679745,-0.0024986944627016783,0.03592667728662491,0.05014897510409355,-0.012498382478952408,-0.04323004186153412,0.033278848975896835,0.08822699636220932,-0.06002536416053772,-0.06095549464225769,0.012304323725402355,0.02699604630470276,0.04295169562101364,0.041256800293922424,-0.022068824619054794,-0.03958141431212425,0.10866601765155792,-0.00801478698849678,0.014574669301509857,0.00036964169703423977,0.10570211708545685,0.08245506882667542,-0.0016240761615335941,-0.008408473804593086,-0.07955767959356308,0.03063364140689373,-0.016795091331005096,-0.007358071394264698,-0.02504115365445614,0.03471415862441063,-0.00807464774698019,0.04944930970668793,0.03176235407590866,-0.02225593291223049,0.04871082305908203,0.030620282515883446,-0.03727785870432854,0.009120609611272812,-0.012494606897234917,-0.01508942898362875,0.04536479711532593,0.06069066375494003,0.009573573246598244,0.022286415100097656,0.021405566483736038,0.03708551824092865,-0.008811235427856445,0.00991508737206459,-0.03757382556796074,-0.09308290481567383,0.034457653760910034,0.029016714543104172,-0.021539438515901566,-0.03194328397512436,0.059271715581417084,-0.019012674689292908,0.0023485494311898947,-0.04994498938322067,0.017084864899516106,-0.13269808888435364,0.04585835337638855,0.0349133126437664,0.0711228996515274,-0.028918426483869553,-0.0584801584482193,0.07532559335231781,-0.05416502058506012,0.04709872603416443,0.135772243142128,0.07253514975309372,0.06162033602595329,-0.0641549751162529,-0.11596562713384628,0.007892768830060959,-0.07202059775590897,0.0371970534324646,-0.00031405052868649364,0.020138204097747803,-0.02588021755218506,0.08804135769605637,-0.01186815183609724,0.008360098116099834,0.025186538696289062,0.0036323368549346924,0.007452681660652161,0.01603059098124504,-0.03136511147022247,-0.0383206307888031,-0.01811564713716507,-0.031063169240951538,0.022378187626600266,-0.06751300394535065,-0.06842374056577682,-0.06114470958709717,0.016181547194719315,-0.028331084176898003,0.022728286683559418,-0.02916933409869671,0.02958843484520912,0.019982755184173584,0.03404509276151657,-0.011307253502309322,-0.007032107561826706,0.03997969999909401,-0.015551558695733547,0.06304432451725006,-0.012541074305772781,0.025280695408582687,-0.08771719038486481,0.013252563774585724,0.0007534691831097007,0.022994883358478546,-0.0032343734055757523,0.0053772469982504845,-0.044231660664081573,0.01568947546184063,0.03757748007774353,0.024193525314331055,0.055783711373806,0.011316472664475441,-0.10423262417316437,-0.15682032704353333,-0.017753059044480324,0.03283810243010521,0.014889426529407501,0.06951397657394409,-0.08801651000976562,0.07797522842884064,-0.08175724744796753,-0.03473132103681564,0.11059893667697906,0.03947743773460388,0.005428865551948547,-0.043177273124456406,0.02901565656065941,-0.06707078218460083,-0.02394688129425049,-0.09812001883983612,0.02208620123565197,-0.010346954688429832,-0.007594265043735504,0.13432636857032776,0.007446343079209328,-0.11697569489479065,-0.032896481454372406,-0.11284991353750229,0.031050462275743484,-0.007274711038917303,0.12978781759738922,-0.05666489526629448,-0.04063057899475098,-0.011640082113444805,0.0715818852186203,-0.02916274033486843,0.04329095780849457,0.03459090366959572,-0.05215872824192047,-0.006335694342851639,-0.040386028587818146,-0.007849063724279404,0.04532250389456749,0.06766112893819809,0.015508279204368591,-0.02760153077542782,-0.01140233501791954
