Token,Dim_0,Dim_1,Dim_2,Dim_3,Dim_4,Dim_5,Dim_6,Dim_7,Dim_8,Dim_9,Dim_10,Dim_11,Dim_12,Dim_13,Dim_14,Dim_15,Dim_16,Dim_17,Dim_18,Dim_19,Dim_20,Dim_21,Dim_22,Dim_23,Dim_24,Dim_25,Dim_26,Dim_27,Dim_28,Dim_29,Dim_30,Dim_31,Dim_32,Dim_33,Dim_34,Dim_35,Dim_36,Dim_37,Dim_38,Dim_39,Dim_40,Dim_41,Dim_42,Dim_43,Dim_44,Dim_45,Dim_46,Dim_47,Dim_48,Dim_49,Dim_50,Dim_51,Dim_52,Dim_53,Dim_54,Dim_55,Dim_56,Dim_57,Dim_58,Dim_59,Dim_60,Dim_61,Dim_62,Dim_63,Dim_64,Dim_65,Dim_66,Dim_67,Dim_68,Dim_69,Dim_70,Dim_71,Dim_72,Dim_73,Dim_74,Dim_75,Dim_76,Dim_77,Dim_78,Dim_79,Dim_80,Dim_81,Dim_82,Dim_83,Dim_84,Dim_85,Dim_86,Dim_87,Dim_88,Dim_89,Dim_90,Dim_91,Dim_92,Dim_93,Dim_94,Dim_95,Dim_96,Dim_97,Dim_98,Dim_99,Dim_100,Dim_101,Dim_102,Dim_103,Dim_104,Dim_105,Dim_106,Dim_107,Dim_108,Dim_109,Dim_110,Dim_111,Dim_112,Dim_113,Dim_114,Dim_115,Dim_116,Dim_117,Dim_118,Dim_119,Dim_120,Dim_121,Dim_122,Dim_123,Dim_124,Dim_125,Dim_126,Dim_127,Dim_128,Dim_129,Dim_130,Dim_131,Dim_132,Dim_133,Dim_134,Dim_135,Dim_136,Dim_137,Dim_138,Dim_139,Dim_140,Dim_141,Dim_142,Dim_143,Dim_144,Dim_145,Dim_146,Dim_147,Dim_148,Dim_149,Dim_150,Dim_151,Dim_152,Dim_153,Dim_154,Dim_155,Dim_156,Dim_157,Dim_158,Dim_159,Dim_160,Dim_161,Dim_162,Dim_163,Dim_164,Dim_165,Dim_166,Dim_167,Dim_168,Dim_169,Dim_170,Dim_171,Dim_172,Dim_173,Dim_174,Dim_175,Dim_176,Dim_177,Dim_178,Dim_179,Dim_180,Dim_181,Dim_182,Dim_183,Dim_184,Dim_185,Dim_186,Dim_187,Dim_188,Dim_189,Dim_190,Dim_191,Dim_192,Dim_193,Dim_194,Dim_195,Dim_196,Dim_197,Dim_198,Dim_199,Dim_200,Dim_201,Dim_202,Dim_203,Dim_204,Dim_205,Dim_206,Dim_207,Dim_208,Dim_209,Dim_210,Dim_211,Dim_212,Dim_213,Dim_214,Dim_215,Dim_216,Dim_217,Dim_218,Dim_219,Dim_220,Dim_221,Dim_222,Dim_223,Dim_224,Dim_225,Dim_226,Dim_227,Dim_228,Dim_229,Dim_230,Dim_231,Dim_232,Dim_233,Dim_234,Dim_235,Dim_236,Dim_237,Dim_238,Dim_239,Dim_240,Dim_241,Dim_242,Dim_243,Dim_244,Dim_245,Dim_246,Dim_247,Dim_248,Dim_249,Dim_250,Dim_251,Dim_252,Dim_253,Dim_254,Dim_255,Dim_256,Dim_257,Dim_258,Dim_259,Dim_260,Dim_261,Dim_262,Dim_263,Dim_264,Dim_265,Dim_266,Dim_267,Dim_268,Dim_269,Dim_270,Dim_271,Dim_272,Dim_273,Dim_274,Dim_275,Dim_276,Dim_277,Dim_278,Dim_279,Dim_280,Dim_281,Dim_282,Dim_283,Dim_284,Dim_285,Dim_286,Dim_287,Dim_288,Dim_289,Dim_290,Dim_291,Dim_292,Dim_293,Dim_294,Dim_295,Dim_296,Dim_297,Dim_298,Dim_299
Ameise,-0.10292478650808334,-0.009683661162853241,0.0714101642370224,0.060290731489658356,-0.11381784826517105,0.06089155748486519,-0.0815344825387001,-0.005095526576042175,0.037773724645376205,0.012420274317264557,-0.04757551848888397,-0.001642210059799254,0.0035181387793272734,0.0625881478190422,0.04937252029776573,-0.03819328546524048,0.016631709411740303,0.1087874099612236,-0.06413158029317856,-0.025164902210235596,0.03254887834191322,0.04116266965866089,0.007244907319545746,-0.028996815904974937,-0.05813188478350639,-0.09226112067699432,0.0312824510037899,-0.008111297152936459,0.08771456778049469,-0.06932605803012848,-0.032050859183073044,0.009954784065485,0.06928285211324692,0.007666335441172123,0.005414872895926237,0.014281933195888996,-0.13337592780590057,0.0018905655015259981,0.026729930192232132,-0.04476861283183098,-0.00930638238787651,-0.021777013316750526,0.03230471909046173,0.04182906448841095,-0.05737794563174248,0.03590445965528488,-0.03615840896964073,-0.08427690714597702,-0.01767859235405922,0.0036128282081335783,0.08042139559984207,-0.041800424456596375,-0.059311069548130035,0.037474729120731354,-0.0329849012196064,0.05937555432319641,-0.003745034337043762,0.037334978580474854,-0.027412736788392067,-0.05735279992222786,0.010627664625644684,-0.03184044361114502,0.051021773368120193,0.04768870025873184,0.007739008869975805,-0.007705573923885822,0.09728912264108658,-0.03375382348895073,0.007776671089231968,-0.04225767031311989,0.08125362545251846,-0.047371070832014084,0.01649380475282669,0.030299672856926918,0.025522291660308838,-0.03656845912337303,0.119359590113163,-0.04429403319954872,0.003058147383853793,0.001172801828943193,-0.049874719232320786,0.03795219957828522,0.02416919730603695,0.005689406301826239,-0.015818364918231964,0.07685168087482452,0.007968124002218246,0.056860972195863724,0.08309757709503174,-0.0035265840124338865,0.1097259446978569,0.0356648787856102,-0.0003192790027242154,0.05686725303530693,-0.0731998011469841,-0.043945856392383575,0.006629724986851215,0.06261041760444641,-0.01850115694105625,0.07711374014616013,-0.08827975392341614,-0.031002944335341454,0.08027306944131851,-0.00939592719078064,-0.028234371915459633,0.011334828101098537,-0.0034218558575958014,-0.018445702269673347,-0.009406610392034054,-0.09557586163282394,-0.011972288601100445,-0.08137094974517822,-0.05597393587231636,-0.0038391263224184513,0.026500945910811424,0.05836380273103714,0.05970721319317818,0.008461921475827694,0.027926603332161903,-0.05454669147729874,-0.06748935580253601,0.07118893414735794,0.04243259131908417,-0.07122892141342163,0.014424622058868408,0.014387196861207485,-0.015234147198498249,0.0116095170378685,0.021680355072021484,0.09878522157669067,-0.10161950439214706,0.03830946609377861,0.07304805517196655,0.0066219717264175415,0.0027474805247038603,0.08590081334114075,0.07099156081676483,-0.038248103111982346,0.001046043704263866,-0.03522616624832153,0.018360400572419167,-0.02433960698544979,0.053443390876054764,-0.0689450055360794,0.005671079736202955,0.06828107684850693,0.0508829727768898,0.08328494429588318,-0.023281672969460487,0.021635940298438072,-0.027949824929237366,0.06643038988113403,-0.007231435272842646,-0.012715309858322144,0.013325022533535957,0.08942602574825287,0.030708614736795425,0.019298460334539413,0.05758741497993469,-0.04331628605723381,-0.10775984823703766,-0.02937196008861065,-0.017859065905213356,-0.011689339764416218,0.06896357983350754,0.09533437341451645,0.04453560709953308,0.04609055444598198,0.006200109608471394,-0.0777839794754982,0.01725294254720211,0.004380205180495977,0.023257682099938393,0.02141508273780346,0.021833129227161407,0.0030816555954515934,-0.03897780552506447,-0.025607047602534294,0.02890661358833313,0.0196996983140707,0.07351839542388916,0.022284258157014847,-0.008188297972083092,-0.09681200236082077,0.041522275656461716,-0.015738636255264282,0.03377507999539375,0.07051446288824081,0.020887935534119606,0.00991831161081791,-0.019078178331255913,-0.0471762977540493,-0.05883314087986946,-0.03392166271805763,0.0922093316912651,-0.001353102969005704,0.05736754462122917,0.011932851746678352,-0.022047627717256546,0.03142319992184639,0.02996487356722355,-0.06454034894704819,0.01687653176486492,-0.0048759328201413155,0.027080459520220757,0.01214201282709837,0.029615366831421852,0.055398184806108475,0.06177782639861107,-0.010723850689828396,0.03161773085594177,0.005014199297875166,0.007545058615505695,0.04855853319168091,0.0558457151055336,0.01149908360093832,-0.04262945428490639,0.010978170670568943,-0.06462521106004715,0.0751068964600563,0.0584535114467144,0.13670556247234344,0.0009634598973207176,-0.03051440231502056,0.00963747501373291,-0.05547672137618065,-0.010389639995992184,0.022243773564696312,0.04434969648718834,0.01370442658662796,0.026234572753310204,-0.07499814033508301,-0.04826323315501213,-0.026576224714517593,0.012703010812401772,-0.012328398413956165,-0.08633442968130112,-0.021244889125227928,0.06949581950902939,-0.09914474934339523,0.08484019339084625,-0.04547124728560448,0.10850261896848679,-0.016981815919280052,0.06807716935873032,-0.011397617869079113,-0.061070289462804794,-0.045437004417181015,-0.15824243426322937,-0.05079519748687744,-0.1000186949968338,-0.03354610502719879,-0.014269036240875721,0.0669417604804039,0.084475576877594,0.01246972568333149,-0.04212161526083946,-0.05392292141914368,0.022842805832624435,0.03516877442598343,-0.03943593427538872,-0.12447547167539597,-0.025975966826081276,-0.1458352655172348,-0.04602174088358879,-0.024492550641298294,-0.012764311395585537,0.14382676780223846,0.004165013320744038,-0.0031073689460754395,-0.0024254152085632086,0.03323451802134514,-0.1368819773197174,-0.13301393389701843,-0.018361132591962814,0.08160312473773956,0.10636782646179199,0.016961775720119476,-0.0926956981420517,-0.002530270954594016,-0.12992314994335175,0.04107654467225075,-0.021327871829271317,-0.0667293593287468,-0.04702920466661453,0.06892039626836777,0.14195017516613007,-0.02573375217616558,0.003999609034508467,-0.09379304200410843,-0.04357157275080681,0.03780822828412056,0.02727426588535309,0.056123197078704834,0.06074682995676994,0.04011921584606171,-0.08198470622301102,0.010023168288171291,-0.034961435943841934,-0.026881739497184753
Affe,0.048813849687576294,0.06250178813934326,0.03642445057630539,0.06324061751365662,0.03587647154927254,-0.031173110008239746,0.05143767595291138,-0.09848348796367645,0.00413821917027235,0.019341394305229187,0.17240461707115173,-0.14271102845668793,0.053359150886535645,0.08470230549573898,0.038156431168317795,0.007672198116779327,-0.02105948142707348,0.02526686154305935,-0.030836254358291626,-0.08583115041255951,-0.04650600999593735,0.009778454899787903,0.03285811468958855,-0.032906364649534225,-0.11256225407123566,-0.053006552159786224,0.028743205592036247,0.09033161401748657,-0.0931967943906784,0.028419215232133865,-0.0842224583029747,0.0696854293346405,-0.1407104879617691,0.029095377773046494,0.1164824590086937,0.030124347656965256,-0.16114170849323273,-0.011763615533709526,0.04015389084815979,-0.009690369479358196,-0.0745057687163353,0.06166636943817139,0.05184825509786606,0.07383880019187927,-0.08922509849071503,0.06108090281486511,-0.1426168531179428,-0.024438410997390747,0.03306179121136665,0.002971634967252612,0.08163192868232727,-0.08050201833248138,0.049494024366140366,0.07745485007762909,0.019577447324991226,-0.06021886691451073,-0.014129063114523888,-0.06027379631996155,0.0803576111793518,-0.005085011478513479,-0.0982356071472168,0.022678673267364502,0.19529035687446594,0.04718158394098282,-0.049462925642728806,-0.039064109325408936,0.1466788947582245,-0.021436398848891258,0.07627236843109131,-0.017168104648590088,0.08831159770488739,0.0717257484793663,0.014093330129981041,-0.004578141029924154,-0.03900505602359772,-0.0015658264746889472,0.09294851124286652,-0.011927105486392975,0.0047388579696416855,-0.14948099851608276,-0.055291205644607544,-0.05084206163883209,-0.20284543931484222,0.045888788998126984,-0.04221164435148239,0.1713850200176239,-0.038031935691833496,0.05378561466932297,-0.02040255442261696,0.0861726850271225,0.15651479363441467,0.07316405326128006,0.08645139634609222,0.029267219826579094,-0.06251109391450882,-0.005893479101359844,-0.05786360427737236,0.09211841225624084,-0.11093299835920334,0.06557946652173996,-0.09152134507894516,0.09454582631587982,0.0750395655632019,-0.03806541860103607,-0.02606586180627346,-0.04928061366081238,0.27598434686660767,-0.05754634737968445,-0.07432711869478226,-0.08199583739042282,0.0366923026740551,-0.1932295262813568,-0.07290872186422348,0.08571383357048035,0.19400742650032043,-0.07604102790355682,0.07925225794315338,-0.11067815124988556,0.09913678467273712,-0.04951639100909233,-0.007824776694178581,0.01226801984012127,0.07151235640048981,-0.04732733964920044,0.08578585088253021,0.09129491448402405,0.0027328780852258205,-0.03161579370498657,0.04647614061832428,0.0656469464302063,-0.24599139392375946,0.28958216309547424,0.07231894135475159,0.06113853305578232,0.09319230169057846,0.02134469710290432,0.13301271200180054,-0.04077064245939255,0.13252907991409302,-0.14794012904167175,0.06587909907102585,-0.07101555913686752,0.3127221465110779,0.015656791627407074,0.04703330248594284,-0.10654665529727936,-0.033702217042446136,0.07498958706855774,-0.03503245860338211,0.10854430496692657,-0.18311858177185059,0.12142866104841232,-0.06950215250253677,-0.004192054271697998,0.08915742486715317,0.11458497494459152,0.07895942032337189,-0.08213512599468231,0.07993301004171371,-0.15891195833683014,-0.1889752447605133,-0.10357466340065002,-0.026278279721736908,-0.09924467653036118,0.13668084144592285,0.08515344560146332,0.07165886461734772,-0.0398675873875618,-0.04008087143301964,-0.10930963605642319,0.07145286351442337,0.023194093257188797,0.01943926326930523,0.037607304751873016,0.11400043219327927,-0.023563629016280174,0.014755982905626297,-0.10923776030540466,0.02862052246928215,0.028925620019435883,-0.0589127242565155,0.03796945512294769,-0.019470740109682083,-0.1115274727344513,-0.013920128345489502,-0.0023775435984134674,0.1368294358253479,0.0679183229804039,0.12767712771892548,-0.07145506143569946,-0.016565663740038872,-0.1778629720211029,-0.027869418263435364,0.10960045456886292,0.05959969013929367,0.05404996499419212,0.017474181950092316,0.05382330343127251,0.0032065287232398987,0.08134499192237854,0.021964840590953827,-0.0215713232755661,-0.027257388457655907,0.17832830548286438,-0.042806535959243774,-0.0937444418668747,0.10905049741268158,0.06677646934986115,-0.15624774992465973,0.0789380595088005,0.027122631669044495,-0.08704185485839844,0.07194177806377411,0.01745714619755745,0.07152234017848969,0.006823008414357901,-0.1198582872748375,0.034006714820861816,0.009355390444397926,0.007660021539777517,-0.019202616065740585,0.1330268234014511,-0.04615821689367294,0.05079474672675133,0.016937851905822754,-0.004647529684007168,0.032796554267406464,0.014810673892498016,-0.04082633554935455,0.05518020689487457,0.15335682034492493,0.03276793658733368,0.03536711633205414,-0.03393246978521347,0.037708085030317307,0.026444008573889732,0.02495788410305977,-0.059095367789268494,0.10004415363073349,-0.018326884135603905,0.1869845986366272,0.06029728055000305,0.13163842260837555,0.01836933009326458,0.06683989614248276,0.001965562580153346,-0.041365236043930054,0.011112026870250702,-0.020053759217262268,-0.03751806914806366,-0.08723601698875427,-0.0764266848564148,-0.006960596889257431,0.10102953016757965,0.1225128024816513,-0.03555380925536156,0.04518573731184006,-0.12728720903396606,0.10422326624393463,0.14579805731773376,0.024533629417419434,-0.05174073576927185,0.03267446905374527,-0.10406126827001572,0.17332670092582703,0.06831751763820648,0.05706445500254631,0.09518032521009445,0.05183345079421997,0.09548774361610413,0.09795226901769638,0.049874015152454376,-0.21789145469665527,-0.24361681938171387,0.07153864949941635,0.08268564194440842,0.22389882802963257,0.168000727891922,-0.06234457343816757,-0.017873072996735573,-0.1823946237564087,0.17394095659255981,0.005781234707683325,-0.07127644121646881,0.06462322175502777,-0.014719411730766296,0.04889610409736633,0.005812432616949081,0.0016231959452852607,-0.021904848515987396,0.05511414259672165,0.10131480544805527,-0.019331905990839005,0.05797893926501274,0.07913054525852203,-0.0007691234350204468,-0.06284277141094208,0.20265787839889526,0.015066388063132763,0.09862758964300156
Bär,0.040217265486717224,0.03721122071146965,-0.1403806209564209,0.10126552730798721,-0.1054362803697586,-0.1311936378479004,0.11242061108350754,0.026461515575647354,0.10338588058948517,-0.0045599546283483505,0.13728614151477814,0.04247324913740158,-0.062041886150836945,0.1886344850063324,0.10809452086687088,0.02569580078125,0.11595465242862701,-0.0015943022444844246,-0.002909393748268485,-0.12297210097312927,0.011641979217529297,0.08363872766494751,0.07614677399396896,0.10446387529373169,0.06423156708478928,-0.025181841105222702,-0.05249100551009178,0.040606532245874405,-0.08219430595636368,0.033156707882881165,-0.144685760140419,0.15540990233421326,-0.16049394011497498,0.08273033797740936,-0.08572394400835037,-0.053408510982990265,-0.32642120122909546,0.05335626378655434,-0.0637742355465889,-0.10153111815452576,-0.008286427706480026,-0.04965423047542572,-0.00866182055324316,-0.0015696301124989986,-0.03735452890396118,0.17051325738430023,0.18127962946891785,-0.0474480465054512,0.09914559125900269,-0.056982528418302536,0.10901284217834473,-0.07871951162815094,0.07807587087154388,0.08322586864233017,0.007126258686184883,-0.003951419144868851,-0.03949788585305214,-0.08492528647184372,-0.12695494294166565,-0.051853060722351074,0.0034591611474752426,-0.04323631897568703,0.1688411980867386,0.0694047287106514,-0.09895059466362,-0.23070013523101807,0.1370640993118286,-0.09108328819274902,0.1851050853729248,0.1089586690068245,-0.05113578215241432,-0.316890686750412,-0.004532843828201294,-0.09714843332767487,0.14658468961715698,0.006341159343719482,0.012136505916714668,-0.019485119730234146,0.14179155230522156,-0.07567191869020462,-0.09478187561035156,-0.09698571264743805,-0.11203084886074066,-0.07302668690681458,-0.16484390199184418,0.06969559192657471,-0.11721248179674149,-0.045397669076919556,-0.00433993898332119,0.23316237330436707,0.16902577877044678,0.04780508577823639,0.22157253324985504,0.10154633224010468,-0.00910337083041668,-0.044998180121183395,0.007120618596673012,0.022297030314803123,-0.1445641815662384,0.17197944223880768,0.015873337164521217,0.19812114536762238,0.07340983301401138,-0.23526670038700104,-0.09767897427082062,-0.17761893570423126,0.15240134298801422,0.06946294754743576,-0.16546928882598877,-0.0038054953329265118,-0.09538564085960388,-0.06348578631877899,-0.03212078660726547,-0.019297637045383453,0.0516044907271862,0.1029399186372757,0.20074068009853363,-0.16850078105926514,0.043539196252822876,-0.06086493283510208,-0.06390408426523209,0.08512868732213974,0.101631298661232,-0.0032966500148177147,0.0412556491792202,0.3800559639930725,-0.10587258636951447,-0.05697815120220184,0.1460646390914917,-0.007731452584266663,-0.5298179388046265,0.42108777165412903,0.061913322657346725,-0.008600959554314613,-0.015728697180747986,0.13348087668418884,0.17854776978492737,-0.01420601923018694,0.18022042512893677,-0.07679073512554169,0.06298132240772247,-0.09526784718036652,0.14924708008766174,0.055312737822532654,0.06648460775613785,-0.11771417409181595,-0.024761131033301353,0.22553402185440063,0.012839455157518387,0.1354590654373169,-0.011989858001470566,0.2437744289636612,-0.07235424220561981,0.04572494328022003,0.014036775566637516,0.13824664056301117,0.19561520218849182,-0.09157434850931168,0.0764588862657547,-0.2497345507144928,-0.1543533205986023,-0.1955242156982422,0.022194061428308487,-0.04999825358390808,0.1160648912191391,0.08053253591060638,-0.10269586741924286,-0.05431314557790756,-0.06450939178466797,-0.16705945134162903,0.1196707934141159,-0.04265172779560089,-0.10425056517124176,0.1454707384109497,-0.11450743675231934,-0.06083250045776367,0.03960448130965233,-0.05628263205289841,0.04255953058600426,0.015067800879478455,0.010274738073348999,0.019945494830608368,-0.12764133512973785,-0.04541458189487457,-0.16215606033802032,-0.06746883690357208,0.08864922821521759,0.0329744890332222,0.18752460181713104,0.04978984594345093,0.10698488354682922,-0.1674393266439438,-0.18288055062294006,0.23103435337543488,0.12147049605846405,0.11441021412611008,0.049304939806461334,0.07612587511539459,0.06359080225229263,0.04151212424039841,0.10339267551898956,0.015378911979496479,0.0438164621591568,-0.017418425530195236,0.009855254553258419,-0.017254125326871872,0.24635280668735504,0.05688381567597389,-0.1422211229801178,0.04201922193169594,-0.0781707763671875,-0.035833463072776794,0.13602867722511292,0.020323893055319786,0.15593291819095612,-0.10268782079219818,-0.08431503176689148,0.052435215562582016,0.005631104111671448,0.1336444914340973,-0.038831427693367004,0.04440952464938164,-0.06920162588357925,0.024203572422266006,-0.0721307098865509,0.19668105244636536,-0.009661560878157616,0.08144061267375946,0.20667114853858948,-0.013217831030488014,0.0760834738612175,-0.08957666158676147,-0.15271738171577454,-0.16409003734588623,0.0692565068602562,-0.04835353046655655,0.001920308917760849,-0.046182189136743546,0.12412964552640915,-0.14081084728240967,0.19328710436820984,0.0546148456633091,0.15016207098960876,-0.08415645360946655,-0.08819625526666641,-0.3183780610561371,-0.14765769243240356,-0.0004299767315387726,0.03434618562459946,-0.1241823360323906,-0.14104922115802765,-0.2002374827861786,0.05125139653682709,-0.08031662553548813,-0.014683648012578487,0.005494073033332825,0.07771581411361694,-0.013193532824516296,-0.012107159942388535,0.19761522114276886,0.1742551326751709,-0.08710210770368576,0.08357977122068405,-0.23254185914993286,-0.005200691521167755,-0.04368988797068596,0.07962040603160858,-0.023950209841132164,0.03623567521572113,0.14586542546749115,0.2276577651500702,-0.06042961776256561,-0.2904375195503235,-0.12852516770362854,0.15035885572433472,0.13853706419467926,0.2829822897911072,-0.015099897049367428,-0.07135389745235443,-0.02588333934545517,-0.6729611158370972,0.12958116829395294,0.06392061710357666,0.048556458204984665,-0.010970087721943855,-0.04499300569295883,0.0852767676115036,-0.01646706834435463,-0.1403903067111969,0.18414822220802307,-0.1791718602180481,0.03917288780212402,0.10360604524612427,0.2048516422510147,0.061755962669849396,-0.11398380994796753,0.045336224138736725,-0.20586802065372467,0.04384643957018852,0.06524491310119629
Chamäleon,-0.018392935395240784,0.02594740316271782,0.0170932337641716,0.039694786071777344,-0.035883672535419464,-0.06229153275489807,-0.03575115650892258,0.003326009027659893,0.03785937651991844,-0.022399375215172768,-0.009788167662918568,-0.0077878632582724094,0.010621707886457443,0.025816326960921288,-0.017619742080569267,0.012785091996192932,0.027253001928329468,0.017813343554735184,-0.025415195152163506,0.01160974521189928,-0.001207059482112527,0.020088259130716324,0.012039834633469582,0.021327044814825058,0.013681900687515736,-0.01065435353666544,-0.05127082020044327,-0.0114981047809124,0.01344442181289196,-0.05140364170074463,-0.011903747916221619,0.0008626237977296114,0.0015565096400678158,0.02395571395754814,0.04443671926856041,0.03155982494354248,-0.062483035027980804,0.01029699295759201,0.02529793232679367,-0.04695458710193634,-0.004002063535153866,0.02925201691687107,-0.006089233793318272,0.012830792926251888,-0.06525321304798126,0.037332117557525635,-0.039745062589645386,-0.0377691388130188,-0.005889561027288437,0.02572789415717125,0.022773662582039833,0.031859781593084335,0.09169966727495193,0.052988506853580475,0.06729589402675629,-0.0717562735080719,-0.0067939069122076035,-0.00802088063210249,0.020649563521146774,-0.038155827671289444,0.001795496791601181,0.022957712411880493,0.012606695294380188,0.017011718824505806,0.001318950206041336,-0.018215594813227654,0.06857472658157349,-0.05823512375354767,-0.032083652913570404,-0.051313694566488266,0.04988893121480942,0.00818182248622179,0.029379602521657944,-0.012346003204584122,-0.01830994337797165,0.003798068268224597,-0.016820169985294342,0.028154287487268448,-0.009746115654706955,-0.050134144723415375,-0.013271857984364033,0.020177967846393585,-0.03605005145072937,0.00020118197426199913,-0.03754574805498123,0.03672739490866661,-0.04472402483224869,-0.01939498819410801,0.013121260330080986,-0.01827322319149971,0.030429545789957047,0.022465739399194717,-0.029746858403086662,0.016798779368400574,0.028383564203977585,-0.008436290547251701,0.009659725241363049,0.006800529547035694,-0.08390306681394577,0.02491232007741928,-0.013764467090368271,0.07069473713636398,0.0006584464572370052,-0.037939444184303284,0.027035892009735107,-0.005074843764305115,0.037083953619003296,-0.024861330166459084,-0.019491013139486313,0.00021992996335029602,-0.003292025998234749,-0.008596433326601982,0.007553399540483952,0.06157882884144783,0.045882079750299454,0.002351100090891123,0.025442305952310562,-0.0776480957865715,0.011897653341293335,-0.022272411733865738,-0.007864495739340782,-0.0187428817152977,-0.009678298607468605,-0.0530543252825737,0.021527081727981567,0.00875200517475605,-0.02539566159248352,-0.010028354823589325,-0.01318301446735859,-0.006252428982406855,0.018376287072896957,-0.0007709956262260675,-0.017845209687948227,0.024232499301433563,0.025800755247473717,0.02295471355319023,0.03170466795563698,-0.003992017358541489,0.05179249495267868,-0.04750426858663559,-0.016575733199715614,-0.01544599886983633,0.041573867201805115,-0.028341323137283325,0.029034679755568504,0.006288647186011076,-0.009376756846904755,0.0054342313669621944,-0.04275304824113846,0.025567710399627686,-0.009907927364110947,0.049017950892448425,0.03716730698943138,-0.0019113477319478989,0.022005725651979446,0.047119446098804474,0.022705547511577606,0.009182555601000786,0.014067206531763077,-0.03964800760149956,0.01491999626159668,-0.06427763402462006,-0.004437178373336792,0.0035152521450072527,0.01606668531894684,0.06209104508161545,0.007657998241484165,-0.008059510961174965,-0.007811928167939186,0.03751212731003761,0.032508280128240585,-0.02943529188632965,-0.02952524647116661,-0.05123865604400635,0.015254572033882141,0.010256854817271233,0.0206201933324337,-0.00594744086265564,0.04309837892651558,0.03939075022935867,0.019102731719613075,-0.01482759602367878,0.044381532818078995,-0.004126460291445255,-0.009404202923178673,-0.026151906698942184,0.014074273407459259,0.006700931116938591,0.0011119439732283354,-0.030703406780958176,0.083956278860569,-0.023149631917476654,-0.011882149614393711,-0.00015409663319587708,0.002307805698364973,0.035184595733881,0.03229278326034546,0.004931829869747162,0.005234178155660629,0.03220364451408386,-0.01747151091694832,-0.04606061428785324,0.011426014825701714,0.010275724343955517,-0.05045658349990845,-0.01995747536420822,-0.03686393052339554,0.038577694445848465,-0.02213919907808304,-0.02551598846912384,0.021298952400684357,-0.0369543693959713,0.00747028598561883,0.007569534704089165,0.03882257640361786,0.014403164386749268,0.0210836473852396,-0.026387590914964676,-0.03154895454645157,0.0383312962949276,-0.04912545531988144,0.08820149302482605,-0.01030510850250721,-0.010368414223194122,0.009281125850975513,0.019204402342438698,0.021205030381679535,0.030955228954553604,-0.021400555968284607,0.017750630155205727,0.03845992311835289,-0.039488885551691055,-0.046284113079309464,-0.011994076892733574,0.03986135497689247,0.0028714174404740334,-0.014653999358415604,-0.027306830510497093,0.0011373586021363735,-0.02849612385034561,0.003642947878688574,-0.020590921863913536,0.012819752097129822,-0.008466707542538643,0.004882406443357468,-0.04020470753312111,-0.03442811593413353,-0.03192863240838051,-0.036261554807424545,-0.03654176741838455,-0.0432090237736702,0.04858115315437317,0.010611382313072681,0.033355459570884705,0.062680684030056,-0.025299755856394768,-0.046001363545656204,-0.029720567166805267,0.05984716862440109,0.04480879381299019,0.012185257859528065,-0.06083959713578224,-0.0213296078145504,-0.06072592735290527,-0.0071856556460261345,0.014490504749119282,-0.03287133574485779,-0.05898638069629669,0.0010745888575911522,-0.04184306412935257,-0.0243501178920269,0.007588407024741173,-0.09520205855369568,-0.05575786530971527,0.00525328516960144,-0.017585111781954765,0.05511052906513214,0.04811517149209976,-0.010588670149445534,0.011530769988894463,-0.03471978008747101,-0.012137874960899353,-0.02558273822069168,0.02705945074558258,0.015975018963217735,-0.02922229841351509,0.06334759294986725,-0.010904887691140175,0.014103197492659092,0.031701408326625824,-0.0030717821791768074,0.01807202212512493,-0.00459344033151865,-0.001510782167315483,-0.004845892079174519,0.04809468239545822,-0.017733903601765633,0.015333114191889763,-0.002070346847176552,0.06892746686935425
Delphin,-0.05055911839008331,0.025943828746676445,-0.010446681641042233,0.024428226053714752,0.05293809995055199,0.011654594913125038,-0.03902624547481537,0.02860739640891552,-0.037916362285614014,-0.022570151835680008,0.028290560469031334,-0.04361007362604141,0.011456556618213654,-0.018767280504107475,-0.03412004932761192,-0.030012432485818863,0.00872458703815937,0.03286966681480408,0.00404724245890975,0.011897116899490356,0.04160572960972786,0.010868798941373825,0.03531711548566818,0.02651178650557995,0.018768765032291412,0.03122197836637497,-0.04533146321773529,0.02879229001700878,0.0144429299980402,-0.008029356598854065,-0.10504625737667084,0.028115250170230865,-0.03699992597103119,0.03832579404115677,0.11026068776845932,0.03406573086977005,-0.05080714076757431,0.060533374547958374,0.0350019745528698,-0.03992026299238205,0.04710756987333298,-0.06043079495429993,-0.04568474739789963,-0.020388437435030937,-0.06374996900558472,0.05148426815867424,-0.02116534113883972,-0.03627273067831993,0.032370675355196,0.00012747757136821747,0.04336899146437645,0.027962230145931244,0.02178790047764778,0.013921374455094337,-0.05999096855521202,-0.00011714641004800797,-0.023266885429620743,0.04870299622416496,-0.08094212412834167,-0.03784143179655075,-0.049704503268003464,-0.028971701860427856,0.049689941108226776,-0.07240957766771317,-0.10059812664985657,0.02417413890361786,0.048115767538547516,-0.06649783253669739,0.03507467731833458,-0.03641226142644882,-0.02234351448714733,-0.047758325934410095,-0.07549908757209778,0.0010971538722515106,0.013274258933961391,0.013765404932200909,0.043705396354198456,0.03856032341718674,-0.05116165801882744,0.03345246613025665,-0.04756532236933708,-0.07136228680610657,-0.01660570502281189,0.025395508855581284,0.04453796148300171,0.05070080608129501,0.03143199533224106,0.02746141515672207,0.018335655331611633,0.08601738512516022,0.040709614753723145,0.06071200221776962,-0.07995514571666718,0.044802747666835785,0.03871230036020279,-0.010130099020898342,-0.004722997080534697,0.07288282364606857,-0.05751999467611313,-0.0730118602514267,0.041069772094488144,0.0036484277807176113,0.008537918329238892,0.0010173976188525558,0.008099879138171673,-0.03592335432767868,-0.027036672458052635,-0.01591969095170498,0.0007166179711930454,-0.055771201848983765,0.04019930958747864,-0.08377248048782349,0.029084160923957825,-0.025990378111600876,0.03895657882094383,-0.028843581676483154,0.07488365471363068,-0.09978456795215607,0.011952845379710197,-0.025228863582015038,0.0034257310908287764,0.017759408801794052,-0.0005851536989212036,-0.040448326617479324,-0.08816011995077133,0.08061569929122925,0.02269343100488186,-0.014273418113589287,0.04593764990568161,0.0024154242128133774,-0.0628829076886177,0.09428510069847107,-0.0368339829146862,0.011582578532397747,-0.052897438406944275,-0.01962106302380562,0.07460446655750275,0.03870013356208801,0.003965231589972973,-0.0345623716711998,-0.01669401489198208,-0.02178911492228508,0.1158355101943016,0.05143807455897331,0.023911383002996445,-0.0941247045993805,-0.035073988139629364,-0.006789254955947399,-0.08468800783157349,0.04139501601457596,-0.039106883108615875,0.03514070063829422,0.02878556214272976,0.05966642126441002,0.019334085285663605,0.04263840615749359,-0.0461474172770977,0.011361338198184967,0.10438834130764008,-0.0755874440073967,-0.03880050405859947,-0.027453944087028503,0.054229866713285446,-0.030224841088056564,-0.01050008088350296,0.023568660020828247,0.04659572243690491,-0.06354433298110962,0.002068817615509033,-0.015108312480151653,0.0012410333147272468,0.0016827795188874006,-0.040253400802612305,0.023134833201766014,-0.0009411288192495704,-0.028804687783122063,0.01500372588634491,-0.025475870817899704,0.05266312509775162,0.03963233530521393,-0.016429923474788666,-0.017452236264944077,-0.010863183066248894,-0.009228823706507683,-0.029617412015795708,-0.03325460106134415,0.010275064036250114,0.07338842749595642,0.009977071546018124,-0.008146442472934723,0.007580810226500034,0.007024926133453846,0.0063262321054935455,0.015700438991189003,0.0939876139163971,0.005404224153608084,0.02647724561393261,-0.002417942974716425,-0.004156608134508133,0.03263226896524429,-0.06966366618871689,-0.031656503677368164,0.04006250947713852,0.034692540764808655,-0.0670061707496643,-0.06115754693746567,-0.025405004620552063,0.019046921283006668,-0.019763993099331856,-0.054305147379636765,-0.0013561795931309462,-0.040653325617313385,0.027042068541049957,0.06259709596633911,0.041163139045238495,0.09054450690746307,-0.07808031886816025,-0.020953573286533356,0.043297506868839264,0.0941014513373375,0.01631626859307289,-0.0034429235383868217,0.04346740245819092,-0.036248575896024704,-0.008390331640839577,-0.0002581638691481203,-0.024691671133041382,-0.013096748851239681,0.05901394039392471,0.03686489164829254,0.026009006425738335,0.02157038077712059,-0.0630907267332077,-0.11155451834201813,0.005313321948051453,-0.001707226037979126,-0.10505202412605286,0.03839613124728203,0.04509009048342705,-0.033685557544231415,0.08648750185966492,0.06533190608024597,0.06811530888080597,0.013568188063800335,-0.029109258204698563,-0.006322118453681469,0.004319528117775917,-0.057849347591400146,-0.008917429484426975,-0.0324212983250618,-0.0822828933596611,-0.048846662044525146,-0.027102358639240265,0.011562921106815338,-0.0285332053899765,-0.01990346610546112,-0.012777651660144329,0.010048232041299343,0.019325463101267815,0.052403539419174194,0.018648123368620872,-0.022572195157408714,0.03458830341696739,0.021253790706396103,0.005714848637580872,0.061305563896894455,0.0102629279717803,0.015205739997327328,0.006236867047846317,-0.04245786368846893,0.049198053777217865,-0.08633880317211151,-0.1399046778678894,-0.03259927034378052,0.042795516550540924,0.02042047120630741,0.08217471837997437,0.015017403289675713,0.0049467533826828,-0.03359146788716316,-0.10646118968725204,0.025606369599699974,0.015179192647337914,0.006544539239257574,-0.020770370960235596,0.0022177654318511486,0.057246796786785126,0.020058048889040947,0.04832848906517029,-0.043359335511922836,-0.021824292838573456,-0.009247529320418835,0.022763583809137344,0.0020750088151544333,-0.041048649698495865,0.020865028724074364,-0.05238906666636467,0.00017892585310619324,0.020532570779323578,0.022486593574285507
Dachs,-0.021727317944169044,0.0762290507555008,-0.03174404799938202,-0.013876019045710564,-0.0855637863278389,-0.04699300229549408,0.04281853139400482,-0.06398448348045349,0.026996588334441185,0.0314122810959816,0.016427703201770782,-0.0057070292532444,-0.01638535037636757,-0.006276205647736788,0.04154355451464653,0.060966283082962036,0.10446250438690186,0.05198659747838974,-0.06134651601314545,0.016003526747226715,-0.032633811235427856,0.04413598030805588,0.05140335112810135,-0.09939058125019073,-0.06408871710300446,-0.08613546937704086,-0.05230148881673813,0.014527810737490654,0.009632136672735214,-0.044673558324575424,-0.09483757615089417,-0.08685706555843353,0.06922093033790588,0.016304969787597656,0.013310868293046951,0.01845117285847664,-0.06897575408220291,0.06367111206054688,0.037202637642621994,0.09583769738674164,0.06331910938024521,0.01324633788317442,0.021187249571084976,-0.0836249440908432,0.0011695250868797302,0.061146363615989685,0.031119216233491898,-0.018370220437645912,0.14000314474105835,0.01139061152935028,-0.05402619019150734,0.04245349019765854,-0.03745238482952118,0.13433650135993958,0.01893453299999237,0.0022670803591609,0.05745208263397217,-0.05780075490474701,-0.008021973073482513,-0.06932469457387924,0.036955974996089935,0.04950238764286041,-0.11104990541934967,0.07340143620967865,0.009002718143165112,-0.01289004273712635,0.056560564786195755,-0.08974315971136093,0.053345318883657455,-0.04007434844970703,0.10355400294065475,-0.013022174127399921,-0.016086917370557785,0.024334875866770744,-0.020824627950787544,0.06264987587928772,0.027375472709536552,0.058250363916158676,-0.09020833671092987,-0.039960309863090515,-0.04320228844881058,-0.1027960553765297,0.022059615701436996,0.012571293860673904,-0.053796444088220596,0.03136212006211281,-0.052150942385196686,-0.01722918450832367,0.008575882762670517,-0.08078671246767044,0.046733126044273376,0.11348772794008255,-0.00632214080542326,0.02805161662399769,0.02840316668152809,-0.020751360803842545,0.08673113584518433,0.023480502888560295,0.02391400933265686,0.046029407531023026,-0.009651750326156616,0.009754667058587074,0.03214351832866669,-0.009861013852059841,-0.11378096044063568,-0.06642117351293564,0.05392887815833092,0.01403682492673397,-0.06426785886287689,-0.03248944133520126,-0.06003677472472191,0.042101118713617325,0.08346618711948395,-0.0691889300942421,-0.029659779742360115,-0.04427526518702507,0.11999162286520004,-0.026431946083903313,0.06739432364702225,-0.011603876948356628,-0.07205750793218613,0.02574700117111206,0.03324403241276741,-0.02752968668937683,-0.05904644727706909,0.09470197558403015,-0.07467924058437347,-0.10004507750272751,0.04241098836064339,0.04076971486210823,-0.007082246243953705,0.1452915221452713,0.041121769696474075,0.0789199247956276,-0.11923624575138092,-0.017790967598557472,0.11771877855062485,0.0013210028409957886,0.08081690967082977,-0.038190461695194244,-0.0630708783864975,0.016361460089683533,0.05195935443043709,-0.14439956843852997,0.04926515743136406,-0.025842253118753433,-0.06685697287321091,0.10520084947347641,0.04041343554854393,0.002171223983168602,-0.018551819026470184,0.07985515892505646,-0.057395387440919876,0.038869328796863556,0.11335881054401398,0.07010872662067413,0.0922248438000679,-0.004034095443785191,0.06762487441301346,-0.1783692091703415,-0.007035546470433474,0.012156025506556034,0.01393490843474865,-0.05018692463636398,0.018430069088935852,0.04774133861064911,-0.008622006513178349,-0.00889954436570406,-0.0369252935051918,-0.07741831243038177,0.008915694430470467,0.013798361644148827,-0.0461701974272728,0.07270938903093338,0.0580580048263073,0.04375413805246353,0.0018226606771349907,0.030659405514597893,0.06682322174310684,0.03088739514350891,0.03432101011276245,0.025063229724764824,-0.07316748797893524,-0.03879476711153984,-0.09790050983428955,0.02921696938574314,0.03287158161401749,0.09652741253376007,0.031000029295682907,0.05914090573787689,0.006082010921090841,-0.03111112117767334,-0.08868393301963806,0.06574606895446777,-0.025976557284593582,0.03738231956958771,0.0767727792263031,-0.12214215099811554,0.19090351462364197,-0.05468614026904106,0.08921743929386139,-0.03981536626815796,0.05168028548359871,-0.0070322598330676556,-0.020665355026721954,0.03766966238617897,0.10120394080877304,-0.104387566447258,0.021346475929021835,-0.026414602994918823,0.037360236048698425,0.076504647731781,0.07742588222026825,-0.040316786617040634,0.08803648501634598,-0.1256987750530243,-0.011764577589929104,-0.042802438139915466,-0.002579924650490284,-0.06474240124225616,0.006710340268909931,0.017869334667921066,-0.14308659732341766,0.07613861560821533,0.07028499245643616,0.0876716673374176,-0.02679198607802391,0.02610810101032257,0.06423673033714294,-0.0010839523747563362,0.0503544881939888,-0.06803610920906067,-0.020360104739665985,-0.04725714027881622,0.06915333867073059,-0.10234751552343369,-0.04031004011631012,0.04675210267305374,0.12590083479881287,-0.11820399016141891,0.07787477970123291,0.07850122451782227,0.0876050740480423,-0.025455374270677567,0.06365103274583817,0.008279971778392792,-0.009917192161083221,-0.05985378846526146,0.05863312631845474,-0.06359581649303436,-0.007804837077856064,-0.03241494297981262,0.03329157829284668,0.017141615971922874,-0.002769432496279478,-0.052228886634111404,0.002288930118083954,0.010116474702954292,0.17194285988807678,0.02605568990111351,0.03210575506091118,-0.028760390356183052,0.04860159009695053,-0.03501823544502258,0.014834733679890633,-0.08386410027742386,0.060029204934835434,-0.036324843764305115,0.07183714210987091,0.023846356198191643,0.02322050929069519,-0.05161786824464798,-0.16721265017986298,-0.05177954211831093,0.05102191120386124,0.01994614489376545,0.1234155148267746,-0.02824745886027813,-0.09291739761829376,-0.05193924158811569,-0.19144576787948608,0.08424849808216095,-0.02955673635005951,0.061487697064876556,-0.13783058524131775,-0.13839280605316162,0.09221583604812622,0.0008108299225568771,-0.06370915472507477,0.05190827697515488,-0.021507078781723976,0.00444919615983963,-0.05435517057776451,0.08695700019598007,-0.11550133675336838,0.00013929978013038635,0.09712572395801544,-0.0758611336350441,-0.0017338981851935387,-0.006673232652246952
Drossel,0.020422659814357758,0.0441439114511013,0.01886487379670143,-0.025565505027770996,-0.04307736083865166,0.03149136155843735,-0.029295293614268303,0.017087846994400024,0.0011783801019191742,-0.0022455058060586452,-0.0017441089730709791,0.051114022731781006,-8.628269279142842e-05,0.059355270117521286,0.04137176647782326,-0.08585702627897263,0.11180156469345093,0.04536956176161766,0.014882145449519157,-0.0019366948399692774,0.02296595089137554,0.04180091619491577,0.037902045994997025,-0.03862593695521355,0.012181374244391918,0.03751133754849434,-0.013294629752635956,-0.011503047309815884,-0.11149795353412628,0.05512155219912529,-0.009367311373353004,0.08747806400060654,0.1066211462020874,0.0005874609341844916,-0.06889724731445312,0.013577379286289215,-0.07111120969057083,4.098812860320322e-05,-0.024583108723163605,0.012107573449611664,0.015972724184393883,0.05477079749107361,-0.04536927863955498,-0.007970573380589485,-0.0333002433180809,0.060702741146087646,0.06721200793981552,-0.035894930362701416,-0.020052989944815636,-0.03332122787833214,-0.1093682050704956,-0.08372627198696136,0.11928112804889679,0.050566665828228,-0.0678805559873581,-0.03376791626214981,0.016701344400644302,-0.06698335707187653,0.030888257548213005,-0.043440744280815125,-0.05036415904760361,-0.09211790561676025,0.0540744923055172,0.02916131541132927,0.030026759952306747,0.039507146924734116,0.06777365505695343,0.0193539559841156,-0.046104103326797485,0.002227680291980505,0.013182326219975948,-0.063386470079422,-0.010866707190871239,0.052068449556827545,-0.052946217358112335,-0.0566619448363781,-0.024668490514159203,-0.037454597651958466,-0.11241330951452255,-0.02887479029595852,0.045678265392780304,-0.021275535225868225,-0.06855689734220505,0.004202230833470821,0.017166439443826675,0.002283848822116852,0.04973853752017021,0.07728570699691772,-0.009292347356677055,-0.03326071426272392,0.05043668672442436,0.10729312896728516,-0.06187131628394127,-0.01692158542573452,-0.02954692393541336,-0.020694132894277573,-0.018112018704414368,0.02191961370408535,-0.016803812235593796,-0.046006761491298676,0.06416379660367966,-0.006779985036700964,0.05851304158568382,0.07104763388633728,0.0056775957345962524,-0.0146351158618927,-0.07813118398189545,0.03476841375231743,-0.004467807710170746,-0.08404501527547836,-0.03749299794435501,-0.08911514282226562,0.029090983793139458,-0.13983245193958282,-0.12593281269073486,-0.036175522953271866,0.011966048739850521,0.03182592988014221,-0.04650121182203293,-0.06479691714048386,-0.06856220215559006,-0.008268002420663834,0.014760367572307587,-0.030620118603110313,-0.0082129817456007,0.036387160420417786,-0.06805697083473206,0.07007420063018799,0.0034821070730686188,0.029964443296194077,-0.06838984787464142,0.04860084503889084,-0.02534402720630169,0.0010921098291873932,-0.04585637152194977,-0.02461337111890316,-0.0009418018162250519,-0.02622881904244423,0.03644190728664398,-0.03370979428291321,-0.021648745983839035,0.01622198522090912,0.07741338759660721,-0.03700563684105873,0.05559569597244263,0.05295877903699875,0.06417114287614822,-0.0059309424832463264,-0.021701756864786148,0.021916668862104416,0.02844156138598919,0.07176201790571213,-0.008275231346487999,0.055921770632267,0.058849237859249115,0.009530650451779366,0.03510585054755211,0.018903912976384163,0.03579895943403244,-0.07267598807811737,-0.055273979902267456,-0.019028212875127792,0.06275272369384766,-0.0840679332613945,-0.02309533953666687,0.02748372219502926,-0.015226563438773155,-0.014589577913284302,0.0029657993000000715,0.0004809883830603212,-0.014467264525592327,-0.004415259696543217,0.028444929048419,0.031052153557538986,-0.0017490601167082787,0.013745738193392754,-0.03292315453290939,-0.08604022115468979,0.014484158717095852,-0.011925077997148037,0.08761690557003021,-0.009976943954825401,0.023057036101818085,-0.05866067856550217,-0.00595773896202445,0.016120126470923424,0.07120510190725327,0.043321311473846436,0.017323359847068787,-0.08126725256443024,0.020660333335399628,-0.03478867933154106,0.05407698452472687,0.0030471617355942726,0.026219680905342102,0.019643060863018036,-0.009436490945518017,0.0030512227676808834,0.024231579154729843,0.05711468309164047,0.024019360542297363,-0.09299403429031372,-0.017991840839385986,0.00794342439621687,0.025183241814374924,-0.02758234553039074,-0.005022990517318249,0.029040973633527756,-0.021869882941246033,-0.0625533014535904,-0.01419181376695633,0.011575622484087944,0.018210701644420624,-0.04899046570062637,0.028509918600320816,-0.0277379360049963,-0.03594190627336502,0.1071748286485672,-0.024292094632983208,0.04149388521909714,0.06700651347637177,0.03233461081981659,0.019201451912522316,0.04364843666553497,-0.00663752481341362,0.04460516199469566,-0.04421284422278404,0.008136267773807049,0.03202281519770622,0.009510036557912827,0.03624628111720085,-0.06426570564508438,-0.042028218507766724,-0.02562626264989376,0.00939237978309393,-0.007911533117294312,0.0176621712744236,-0.09075640141963959,0.0578775517642498,-0.10476260632276535,0.04761585593223572,0.024642346426844597,0.08138977736234665,-0.06478026509284973,0.01581435278058052,0.01632849872112274,-0.018824059516191483,0.0460742712020874,0.01781822368502617,-0.04118284210562706,-0.025281816720962524,0.02053055167198181,-0.014396289363503456,-0.014965369366109371,-0.03448891267180443,-0.001515568932518363,-0.03915867954492569,-0.03736383840441704,0.03315116465091705,-0.05329371616244316,0.041624005883932114,-0.0032924297265708447,-0.05075863003730774,-0.09761638939380646,0.04666570946574211,0.022299591451883316,0.03569815307855606,0.03316353261470795,0.0280534066259861,0.026397179812192917,0.022028407081961632,0.0312664732336998,-0.10722123086452484,0.12448334693908691,-0.004395836964249611,-0.06320364028215408,0.0694589763879776,-0.06067449972033501,-0.060576342046260834,-0.02574816346168518,-0.11981930583715439,0.013322587125003338,-0.019164642319083214,0.03786587715148926,-0.07073776423931122,0.04116247221827507,0.08138274401426315,-0.05303242802619934,-0.045360203832387924,-0.060861214995384216,0.02472846210002899,0.031632084399461746,-0.03779670596122742,0.012065104208886623,0.028057467192411423,-0.0030824770219624043,-0.030407531186938286,-0.004113958217203617,0.022637657821178436,0.06004627048969269
Elch,0.025244131684303284,-0.10085456073284149,-0.00963505357503891,0.05649701878428459,-0.16910259425640106,-0.09015544503927231,-0.0035464540123939514,-0.010167430154979229,-0.08862997591495514,0.002177621005102992,0.016879091039299965,0.15250805020332336,-0.07184779644012451,0.0642792209982872,-0.03404993563890457,0.022394254803657532,0.0989706963300705,0.0774349719285965,0.05844203755259514,-0.006487206555902958,0.10029326379299164,0.13395728170871735,-0.014092984609305859,-0.043330397456884384,-0.01041809469461441,-0.04813287779688835,-0.07536085695028305,0.06319918483495712,-0.1507401317358017,-0.06486824154853821,-0.1276644468307495,0.11359211057424545,0.033934712409973145,-0.03307635337114334,-0.02877132222056389,0.03501307591795921,-0.21104490756988525,0.07880950719118118,0.03440653532743454,-0.06260760128498077,0.10136115550994873,0.08113785088062286,-0.028139932081103325,0.026970133185386658,-0.0523252859711647,0.2791648507118225,0.1973240077495575,-0.10841847956180573,-0.029493844136595726,0.03849543258547783,0.07497231662273407,0.0505586639046669,0.08912590146064758,0.22444818913936615,-0.08793585002422333,-0.15099230408668518,-0.07430535554885864,0.13454565405845642,-0.136341392993927,-0.10429337620735168,-0.018994510173797607,-0.008272184059023857,0.07148084044456482,0.012492085807025433,-0.07519668340682983,-0.0011481668334454298,0.10252144932746887,-0.13196836411952972,0.15828830003738403,-0.028047963976860046,0.0465431734919548,-0.11801361292600632,0.0921420082449913,0.032599229365587234,-0.031750015914440155,-0.1364152431488037,0.0016394730191677809,0.01370289921760559,0.13628563284873962,0.040637433528900146,-0.12344932556152344,0.0013838435988873243,-0.13481612503528595,0.0948263555765152,-0.09140190482139587,0.030611850321292877,0.03215440735220909,-0.11063596606254578,0.022280540317296982,0.07542739063501358,0.0930904746055603,0.0006376206874847412,0.02702670358121395,0.06676849722862244,-0.09933243691921234,-0.013169038109481335,0.26869136095046997,0.03950740396976471,-0.059983476996421814,0.10145322978496552,-0.053597163408994675,0.1541796624660492,0.032907940447330475,-0.01602941006422043,-0.0012662559747695923,-0.180894672870636,0.020979955792427063,0.13602882623672485,0.031992245465517044,-0.049213968217372894,-0.01840723119676113,-0.1389485001564026,0.01945856772363186,0.0026949532330036163,0.16321702301502228,-0.02711298130452633,0.07745210826396942,-0.10321896523237228,-0.03635242208838463,-0.09975636005401611,0.06704434752464294,0.05878393352031708,0.07351312041282654,0.03142887353897095,0.03427475690841675,0.0628056451678276,-0.00788241159170866,-0.073064886033535,0.007854059338569641,-0.022243749350309372,-0.22688989341259003,0.20174241065979004,0.013587637804448605,0.030219078063964844,0.02088172733783722,0.051346562802791595,0.1464456468820572,0.017564067617058754,0.14389505982398987,0.07865215837955475,-0.06961507350206375,-0.05586159974336624,0.03546956181526184,-0.1063646525144577,-0.050328709185123444,-0.04848964512348175,-0.04873079061508179,0.09094712138175964,0.05619183927774429,-0.06015865132212639,-0.03179427236318588,0.16814014315605164,-0.11586505174636841,0.08712884783744812,0.057330887764692307,0.08730269968509674,0.03529057651758194,-0.0018552502151578665,0.06394779682159424,-0.2361067235469818,-0.07408072799444199,-0.15125510096549988,-0.07583542168140411,0.006619046442210674,0.011563117615878582,0.10663282871246338,-0.053000323474407196,0.06429320573806763,-0.07156523317098618,-0.08619090169668198,-0.08874905109405518,-0.05846630036830902,-0.039639778435230255,0.1830526888370514,0.0072717443108558655,-0.0046183145605027676,-0.019053926691412926,-0.06530006229877472,-0.0031207255087792873,0.12318237870931625,0.007691641803830862,0.11918868124485016,-0.04393483325839043,0.04048739746212959,-0.09659924358129501,-0.036391060799360275,0.12133096158504486,0.036747947335243225,0.03263465687632561,0.07130854576826096,-0.03685344010591507,-0.10604959726333618,-0.040483299642801285,0.11138083040714264,-0.03435639292001724,0.040240172296762466,0.06947369873523712,0.018846862018108368,0.1377468854188919,0.13511070609092712,0.041857413947582245,0.009944804012775421,0.041490670293569565,0.0046056583523750305,0.08101662248373032,0.005354554858058691,0.2381020188331604,0.05537770316004753,-0.1392289102077484,0.09592332690954208,-0.06903029978275299,0.012931888923048973,0.010947426781058311,0.004633714910596609,0.1375097930431366,-0.07246814668178558,-0.0818224847316742,0.031533923000097275,-0.013369019143283367,-0.018421048298478127,-0.03337433189153671,0.06314507126808167,0.005627314560115337,0.11976294219493866,-0.034946706146001816,0.11197617650032043,-0.07333770394325256,-0.10860457271337509,-0.03655348718166351,-0.07522548735141754,0.11743985116481781,-0.09319575130939484,-0.07486677169799805,0.014083627611398697,0.08476542681455612,-0.03939519077539444,0.0719347894191742,-0.023938437923789024,0.0649578794836998,-0.10825428366661072,0.16911405324935913,0.039277832955121994,0.07860018312931061,0.017580969259142876,0.022780772298574448,-0.10848401486873627,0.048257749527692795,0.016032710671424866,-0.0672459602355957,-0.05810685083270073,-0.08828183263540268,-0.08516871929168701,-0.021834101527929306,0.06517104804515839,0.08894433081150055,0.043174177408218384,-0.12003075331449509,-0.17255590856075287,0.06343109160661697,0.0730639100074768,-0.07045268267393112,-0.10263121128082275,0.09278382360935211,-0.11748957633972168,0.07910658419132233,-0.029123757034540176,0.07147669792175293,-0.002305472968146205,-0.019434010609984398,0.00789097510278225,0.05185040086507797,-0.005672718398272991,-0.20973119139671326,-0.08289073407649994,-0.05931750684976578,0.059656620025634766,0.20384638011455536,-0.14290553331375122,-0.013948383741080761,0.07546265423297882,-0.20786258578300476,0.06618058681488037,-0.037206850945949554,-0.008275572210550308,0.04613688588142395,-0.012811861000955105,0.06471645832061768,0.004662598483264446,-0.062234457582235336,0.013537077233195305,-0.14967092871665955,0.0785127729177475,-0.020278817042708397,-0.039319656789302826,-0.045080121606588364,-0.02112731896340847,-0.0308680422604084,-0.051175978034734726,0.0038216214161366224,0.0760536789894104
Esel,0.03635053336620331,0.03183094412088394,-0.047147542238235474,0.07065726816654205,0.03102247230708599,-0.07599613070487976,0.015568768605589867,-0.08913803100585938,-0.049485813826322556,-0.007409782614558935,0.1296863704919815,-0.04350639507174492,0.005787976086139679,0.07545711100101471,-0.030905764549970627,-0.06954871863126755,0.05596981942653656,-0.06869427859783173,-0.09475943446159363,-0.016646429896354675,0.044236741960048676,0.0505039319396019,0.14596880972385406,0.13505345582962036,-0.044321149587631226,-0.021297147497534752,-0.08674110472202301,0.11603208631277084,-0.09951847791671753,-0.04899191856384277,-0.07415328919887543,-0.015297070145606995,-0.07631450891494751,-0.006442417856305838,0.04456406086683273,0.03956373780965805,-0.03162064403295517,0.0030074927490204573,0.10035260766744614,-0.029934823513031006,0.03323700651526451,-0.021506359800696373,-0.014463554136455059,-0.015661127865314484,-0.1091226264834404,0.08110643178224564,-0.05546615645289421,0.001562196179293096,0.09403034299612045,0.000977305113337934,0.11154486984014511,-0.06636761128902435,-0.03721032291650772,-0.047629110515117645,-0.09482570737600327,-0.020540326833724976,0.062194135040044785,-0.02516189217567444,0.10616235435009003,-0.07450243085622787,-0.03345336765050888,-0.09816861152648926,0.13191041350364685,0.0014519044198095798,-0.11443974077701569,0.125797837972641,0.11402708292007446,-0.05909178406000137,0.025862321257591248,-0.05236111208796501,0.03378685936331749,-0.06913721561431885,-0.11419900506734848,-0.029222678393125534,-0.043341897428035736,-0.02916678413748741,-0.007937252521514893,-0.028718916699290276,-0.04948718473315239,-0.04740031063556671,-0.08771391957998276,-0.016890471801161766,-0.07105004787445068,-0.006673891097307205,-0.0197678841650486,0.08642049133777618,-0.006264977157115936,0.05250925570726395,-0.11395113915205002,0.11925648152828217,0.06496387720108032,0.006534590385854244,0.0926087349653244,0.05433465540409088,0.07508820295333862,-0.04174288362264633,0.01611076295375824,0.0943177193403244,-0.06562631577253342,0.021800383925437927,-0.05364993214607239,0.025451526045799255,-0.14864197373390198,0.049249544739723206,0.05341556668281555,-0.11849881708621979,0.12021307647228241,-0.01840933971107006,-0.14497113227844238,-0.1546904444694519,-0.0815785676240921,-0.11063253879547119,-0.09936719387769699,-0.006131419446319342,0.061459511518478394,-0.053174640983343124,0.05050424486398697,-0.007316607050597668,-0.07153265178203583,-0.04500366374850273,-0.027032773941755295,0.05349813401699066,-0.06730806827545166,-0.10474608838558197,0.05173439905047417,0.07903936505317688,-0.0027055207174271345,-0.044488318264484406,-0.001674741506576538,-0.0058033703826367855,-0.2320474088191986,0.15308891236782074,-0.03201671689748764,0.027027800679206848,0.009260847233235836,0.024584557861089706,0.10855689644813538,0.11662004888057709,0.14761263132095337,-0.03563050553202629,0.010754063725471497,-0.08248855173587799,0.17621996998786926,0.012838851660490036,0.06480562686920166,-0.1584271490573883,-0.0054977163672447205,0.09460224211215973,0.015206446871161461,0.014583038166165352,-0.0462513230741024,0.21586231887340546,-0.06315132230520248,0.007110766135156155,-0.06574729084968567,0.08641886711120605,0.10931941866874695,0.059742193669080734,0.03261265903711319,-0.17614208161830902,-0.09596094489097595,-0.19161418080329895,0.07810454815626144,0.06694654375314713,0.007194541394710541,0.07310501486063004,0.047170113772153854,-0.08161407709121704,-0.029691284522414207,0.032923899590969086,-0.0502481535077095,0.04067947342991829,0.12467079609632492,0.06153596192598343,0.0064778379164636135,0.03205014020204544,0.012876367196440697,-0.030724160373210907,0.06561760604381561,0.2332756221294403,0.09335523843765259,-0.04581496864557266,-0.05600297451019287,-0.07515942305326462,0.029309123754501343,-0.08728599548339844,0.01623629406094551,-0.004073970019817352,0.08067445456981659,0.08366813510656357,-0.10106377303600311,-0.055744580924510956,-4.0973227442009374e-05,-0.008784323930740356,0.04843602329492569,0.07410220801830292,0.0454801470041275,0.04097380116581917,-0.00467709731310606,-0.08032387495040894,0.02908429317176342,-0.22752724587917328,-0.009780998341739178,-0.0018466156907379627,0.049916937947273254,0.05603813752532005,0.05968105047941208,0.12987570464611053,-0.02662958949804306,0.09632715582847595,0.016403568908572197,0.004887748509645462,0.06435863673686981,0.04340756684541702,0.08188757300376892,-0.2036445587873459,-0.12337937206029892,0.07086943089962006,0.028066089376807213,0.08898545801639557,0.09050300717353821,0.07755789160728455,0.0016826734645292163,0.056101731956005096,-0.004925484769046307,0.014440339058637619,-0.024550994858145714,0.10304228961467743,0.08635655045509338,0.004478927701711655,0.12687179446220398,-0.15927496552467346,-0.11826422810554504,0.06177390739321709,0.02049829438328743,-0.055375125259160995,-0.016989877447485924,0.1320033073425293,0.06522829085588455,-0.06384541094303131,0.12696512043476105,0.06441229581832886,0.07870550453662872,0.01720792055130005,0.1023501306772232,-0.018390491604804993,0.00812535360455513,-0.14828181266784668,-0.10009296238422394,-0.07613058388233185,-0.12341208755970001,-0.05372261255979538,0.037466760724782944,0.11274129152297974,0.058960504829883575,-0.11010175198316574,0.038768116384744644,0.03854024037718773,0.07967565208673477,0.07755879312753677,0.0562586709856987,-0.013444971293210983,0.057473570108413696,-0.16324332356452942,0.052140384912490845,0.02858646586537361,-0.025258762761950493,-0.10506998002529144,0.006237812340259552,0.00908426009118557,0.2583276927471161,0.07781614363193512,-0.20937979221343994,-0.1436842381954193,0.11466193199157715,0.09030567854642868,0.18538372218608856,0.1069139838218689,-0.10444479435682297,-0.03047894313931465,-0.17422160506248474,0.048135872930288315,-0.04931574687361717,-0.04782924801111221,-0.049815040081739426,-0.0717410147190094,0.034736424684524536,0.021401256322860718,0.07403533905744553,-0.08829520642757416,0.045017316937446594,0.10692176222801208,0.10823177546262741,-0.00024605481303296983,0.018488116562366486,-0.016146861016750336,0.014155605807900429,-0.06381073594093323,0.018489670008420944,0.08027240633964539
Eichhörnchen,-0.001522436155937612,0.013805481605231762,0.012616395950317383,0.008860181085765362,-0.02062920294702053,-0.022489987313747406,-0.01845620386302471,0.01965451054275036,-0.018145369365811348,0.0037764939479529858,0.012272593565285206,-0.0008137703989632428,-0.002299358369782567,0.046728480607271194,-0.008100930601358414,0.008346990682184696,0.0057667894288897514,0.037954699248075485,-0.03128097206354141,-0.014056975953280926,-0.011650037951767445,0.004281741566956043,0.022358257323503494,0.008281022310256958,-0.03146880865097046,-0.044903963804244995,-0.007447366137057543,0.0009459443390369415,-0.02559811808168888,-0.03339281678199768,-0.004041810054332018,0.03292924165725708,-0.007607574574649334,-0.0022169132716953754,-0.0036025489680469036,0.015678171068429947,-0.047868262976408005,-0.003104533301666379,0.0386374294757843,-0.028987662866711617,0.01460709236562252,0.009126158431172371,-0.0016700043343007565,-0.0049665202386677265,-0.03279576450586319,0.03246014192700386,-0.016540829092264175,-0.030783263966441154,-0.011966605670750141,0.00480602215975523,0.024405144155025482,-0.024760089814662933,0.003708650590851903,0.008783423341810703,-0.0015214289305731654,-0.012958471663296223,-0.01727920211851597,-0.022311078384518623,-0.01595286652445793,-0.016151318326592445,-0.0009859394049271941,0.00909192394465208,0.003547128988429904,0.025572925806045532,-0.014611880294978619,-0.024422619491815567,0.03735993057489395,-0.022195538505911827,0.0135764479637146,-0.016475984826683998,0.03465797379612923,-0.017983894795179367,0.017579911276698112,0.004390084184706211,0.040569692850112915,0.006398534402251244,0.010385577566921711,0.005958151537925005,0.013625334948301315,-0.022876838222146034,-0.025483379140496254,-0.0018913529347628355,-0.011555960401892662,0.013938152231276035,-0.018246496096253395,0.029562627896666527,-0.01885145716369152,0.01382207777351141,-0.0042038350366055965,-0.003959484398365021,0.025908248499035835,0.006900851149111986,0.01108485460281372,-0.002290522214025259,0.008836822584271431,0.001042126095853746,0.017856165766716003,0.0270428154617548,-0.06266186386346817,0.007927920669317245,-0.021485287696123123,-0.014035936444997787,0.0158417746424675,-0.029454588890075684,0.01623326726257801,-0.0205147136002779,-0.03884679079055786,0.02165081538259983,-0.009112155064940453,-0.0188374575227499,-0.015582367777824402,-0.004349761642515659,0.001899972092360258,-0.022107958793640137,0.03560701012611389,-0.019271673634648323,0.03062390349805355,-0.0170246884226799,-0.009774522855877876,-0.0132307643070817,-0.004833057522773743,0.019071023911237717,0.03456350415945053,-0.018624940887093544,-0.024145912379026413,0.03656933456659317,-0.02653288096189499,-0.036029789596796036,0.017261693254113197,0.014499946497380733,-0.006887446157634258,0.0339866578578949,0.019672995433211327,0.02711299993097782,0.03570485860109329,0.032429806888103485,0.026533136144280434,0.007458330597728491,0.017600813880562782,0.0020186342298984528,-0.0017901025712490082,-0.003703540889546275,0.015030422247946262,-0.018853716552257538,0.00986634660512209,0.012724515050649643,-0.04253241792321205,0.002890939125791192,-0.02417704463005066,-0.0024702914524823427,-0.0054280320182442665,0.03652061149477959,0.012015368789434433,0.017760472372174263,0.04101566597819328,0.050883710384368896,0.06319372355937958,-0.0007922226213850081,-0.009288912639021873,-0.04018787667155266,-0.05383998155593872,-0.03498411178588867,-0.0020103214774280787,-0.010789837688207626,-0.0028904385399073362,0.035040076822042465,-0.006381054874509573,0.03294089064002037,-0.011799514293670654,-0.032329387962818146,-0.03239171579480171,-0.018331997096538544,0.001890854095108807,0.018819404765963554,0.00775948166847229,-0.006523167714476585,0.018866298720240593,-0.009417098015546799,-0.021815411746501923,-0.0034901616163551807,0.010117589496076107,0.011546690948307514,-0.03189423307776451,-0.047785501927137375,0.007912896573543549,0.006460187956690788,-0.00951675046235323,0.024591414257884026,-0.008552484214305878,0.010932895354926586,-0.05214463919401169,-0.03722227364778519,-0.025183657184243202,0.05758404731750488,0.023638706654310226,0.025563955307006836,0.03640510514378548,0.002999752527102828,0.01753166876733303,-0.01049264520406723,-0.009875647723674774,-0.011123848147690296,0.0012600173940882087,-0.0024368909653276205,-0.01878846064209938,0.004318935330957174,0.03538241982460022,0.003974088467657566,-0.02758585661649704,-0.0060320645570755005,0.024719707667827606,-0.01966330036520958,0.020221425220370293,0.009786419570446014,0.014474292285740376,-0.019125286489725113,-0.021076396107673645,0.026574205607175827,-0.0068505918607115746,-0.009303099475800991,-0.011148319579660892,0.03269755095243454,-0.020210308954119682,0.011794951744377613,-0.005177439656108618,0.02439749799668789,0.02780592441558838,0.013895874843001366,0.01007449347525835,-0.01836107112467289,0.030505847185850143,-0.01703144796192646,-0.03892248868942261,-0.008996950462460518,0.02267812378704548,-0.041736308485269547,-0.010120808146893978,-0.004620605148375034,0.028475234284996986,-0.01486063189804554,0.04145853593945503,-0.009497077204287052,0.024921363219618797,-0.002862444380298257,0.0007738674175925553,-0.03729206696152687,-0.0029385306406766176,0.03406548500061035,-0.00992825161665678,-0.03929973393678665,-0.02587970905005932,-0.02591860666871071,0.027408061549067497,-0.020005930215120316,0.026119550690054893,0.00698478426784277,-0.0455557219684124,-0.007726171053946018,0.028574487194418907,0.019280696287751198,-0.004845893010497093,-0.04004993662238121,0.0003627355908975005,-0.03891148045659065,0.0001394404098391533,-0.026113294064998627,-0.0171855129301548,0.005689152516424656,-0.004593378398567438,0.008522514253854752,0.056122440844774246,0.018539555370807648,-0.04911334440112114,-0.030137257650494576,0.010130912065505981,-0.008009460754692554,0.052966248244047165,0.004672136157751083,-0.02493797242641449,-0.016854429617524147,-0.06112830340862274,0.021414093673229218,-0.016385862603783607,-0.017187928780913353,-0.021897226572036743,0.015073224902153015,0.03460794687271118,-0.013421237468719482,-0.002375659765675664,-0.00017653474060352892,-0.010404459200799465,0.028294989839196205,-0.0004807114601135254,0.01933966390788555,-0.022566579282283783,0.012808402068912983,0.0192282572388649,-0.030504446476697922,-0.0058441427536308765,0.003227901179343462
Einhorn,-0.03929831460118294,-0.0004278067499399185,0.005494070705026388,0.0519292950630188,-0.0786651074886322,-0.017470061779022217,-0.01169973611831665,-0.018854154273867607,-0.0554862841963768,0.00608469545841217,-0.0034697838127613068,-0.030285906046628952,-0.010165471583604813,0.018555570393800735,0.0033195498399436474,0.021888427436351776,0.07679499685764313,0.023226013407111168,-0.03646919131278992,-0.03455602750182152,0.056862056255340576,0.014543360099196434,0.06458966434001923,-0.015382431447505951,-0.02649625949561596,-0.016911404207348824,-0.04581991955637932,0.08980245888233185,-0.01614433154463768,-0.035197533667087555,-0.0299949049949646,0.019681690260767937,-0.07452530413866043,0.02252865396440029,0.06283081322908401,-0.041909873485565186,-0.03541763871908188,-0.000813610851764679,-0.003728169947862625,-0.039610929787158966,0.03762952983379364,0.015240872278809547,-0.014787474647164345,-0.015631310641765594,0.040622059255838394,0.10084012150764465,0.011824272572994232,0.008160371333360672,0.03178064525127411,0.008987994864583015,0.028645632788538933,0.02191239595413208,0.04103356599807739,0.026850540190935135,-0.03838725388050079,-0.027803495526313782,-0.0785147175192833,0.06876437366008759,0.008671298623085022,-0.03402266651391983,0.06748411804437637,-0.0036053447984158993,0.05750245600938797,0.05704218149185181,-0.039158593863248825,0.008012562990188599,0.05756417661905289,-0.00584669504314661,0.02455047145485878,0.02970997802913189,0.04399169981479645,-0.027694474905729294,-0.027861338108778,0.01134578138589859,-0.05321907624602318,-0.007343670353293419,0.02257028967142105,0.04729246348142624,0.030617788434028625,-0.0831185057759285,0.006049813237041235,-0.045745521783828735,0.02276831679046154,0.01584269292652607,-0.017899546772241592,0.04950476810336113,-0.029772218316793442,0.022767212241888046,-0.023954948410391808,0.01898164674639702,0.057172756642103195,0.035161178559064865,-0.012507157400250435,0.027091657742857933,0.05857645720243454,0.020383141934871674,-0.014666972681879997,0.026011526584625244,-0.1110866367816925,0.043855633586645126,-0.00874374434351921,0.00902477651834488,-0.023182444274425507,-0.04197198897600174,0.031222082674503326,-0.03629127889871597,0.013205267488956451,0.0316341333091259,-0.03855777904391289,-0.05118965357542038,0.02441444993019104,0.005993284285068512,-0.023365577682852745,-0.061924152076244354,0.03310288116335869,0.042777419090270996,-0.02970287576317787,-0.10844966024160385,0.032627254724502563,-0.015567220747470856,-0.014742493629455566,0.0944400280714035,0.02000553533434868,-0.005556791555136442,-0.015823151916265488,0.036549028009176254,-0.03727313503623009,0.00721348961815238,0.05178051441907883,-0.028322195634245872,-0.007730817422270775,0.07876128703355789,-0.06542101502418518,0.025574177503585815,0.022221099585294724,-0.0399361290037632,0.03723030164837837,0.007942711003124714,0.09601528942584991,-0.011709349229931831,-0.03697584569454193,-0.02540779858827591,0.10780923068523407,0.03338644653558731,0.03109661117196083,-0.06379054486751556,-0.0037871338427066803,0.025989830493927002,0.028613712638616562,0.02429058961570263,-0.03411751240491867,0.07358429580926895,-0.033922165632247925,0.01966054178774357,0.011424201540648937,0.05633024498820305,0.0025259607937186956,-0.0704512819647789,0.00041734520345926285,-0.11234583705663681,-0.017942406237125397,-0.13693255186080933,0.08629408478736877,0.027340423315763474,0.03897279128432274,0.05340040475130081,-0.04268422722816467,-0.007680381648242474,-0.0011810760479420424,0.019997280091047287,0.033616818487644196,-0.01738952286541462,-0.045307185500860214,0.007393082603812218,0.035772815346717834,0.019841842353343964,0.02447631023824215,-0.09257849305868149,0.05983593314886093,-0.03667067736387253,-0.013789230957627296,-0.016952015459537506,0.0014759640907868743,-0.009295986965298653,-0.07645394653081894,0.02127794176340103,0.02614618092775345,0.04582541808485985,0.031151508912444115,0.011177543550729752,-0.031581223011016846,0.010156219825148582,-0.043788354843854904,0.04301798343658447,0.045805253088474274,0.042476505041122437,0.04773358255624771,0.04452068731188774,0.023967696353793144,0.01659579388797283,-0.0028685866855084896,-0.0596235916018486,-0.030008625239133835,0.01077877264469862,-0.007034878712147474,0.01790483295917511,0.05291108414530754,0.03871579468250275,-0.0584682822227478,0.025531023740768433,0.04634399339556694,-0.04079734906554222,-0.03444638103246689,-0.023072585463523865,0.05549692362546921,0.02943871170282364,-0.053928159177303314,-0.00736983073875308,0.018455183133482933,0.036151573061943054,-0.02267869934439659,-0.009120292030274868,0.062302157282829285,-0.07602445781230927,-0.0006953258998692036,0.0431254617869854,-0.04983855411410332,-0.0013874273281544447,0.01843486912548542,0.040959447622299194,0.05493641644716263,-0.028193999081850052,-0.03971167653799057,-0.05189507454633713,-0.004552777856588364,0.020851973444223404,0.040326036512851715,0.00275935186073184,0.012764722108840942,-0.05362366884946823,0.07779640704393387,0.03309409320354462,0.052515145391225815,-0.009578563272953033,0.017863159999251366,0.002265606075525284,-0.009768404066562653,-0.008167879655957222,-0.029775550588965416,-0.07021413743495941,-0.0324631929397583,0.024579381570219994,0.04263153672218323,0.007838498800992966,0.018269244581460953,0.0007814386626705527,0.01670469343662262,-0.03300028666853905,0.09149262309074402,0.020515628159046173,0.03266109153628349,-0.005942214280366898,-0.004524268209934235,-0.015693318098783493,0.024507848545908928,0.02623738907277584,-0.0052003636956214905,-0.05143491551280022,-0.03645969554781914,0.0013953696470707655,0.051614683121442795,-0.03597451373934746,-0.1107046827673912,-0.07131373137235641,-0.009230568073689938,-0.006746761500835419,0.0869971364736557,-0.00477574160322547,-0.07744479179382324,-0.016486365348100662,-0.12142036855220795,0.06502650678157806,-0.024281561374664307,-0.05595831573009491,0.02683563344180584,-0.023795831948518753,0.030027342960238457,0.016111869364976883,0.015201783739030361,-0.04030831903219223,-0.06271055340766907,0.07119441777467728,0.016424037516117096,-0.00045392601168714464,-0.023816034197807312,0.011872515082359314,-0.036580100655555725,-0.05283188819885254,0.025674548000097275,0.06100635230541229
Flunder,0.040423158556222916,-0.012900430709123611,-0.011259912513196468,0.0534990057349205,-0.05887705087661743,0.034057892858982086,-0.08444788306951523,-0.014024707488715649,0.05222851783037186,0.021246418356895447,-0.07325579226016998,-0.07405976951122284,0.016770033165812492,-0.026125578209757805,-0.06084569916129112,0.03357606753706932,0.0471193753182888,0.040348801761865616,0.07698257267475128,0.014870120212435722,-0.005362426396459341,-0.013555566780269146,-0.024674152955412865,-0.04380035027861595,0.004869596567004919,-0.039018649607896805,-0.06504645943641663,0.00728714931756258,-0.08095596730709076,0.02389262244105339,-0.057143013924360275,0.008819629438221455,0.010972450487315655,0.0010070677381008863,0.09061375260353088,0.052168335765600204,-0.09933128952980042,0.02724434994161129,0.013187664560973644,-0.027020975947380066,0.061633359640836716,0.035373494029045105,-0.07386233657598495,0.004575633443892002,-0.028972310945391655,0.10178899019956589,0.06191848963499069,-0.05927173048257828,-0.025115681812167168,-0.0494895838201046,0.0022762874141335487,0.07345429807901382,-0.05021907016634941,0.03583347797393799,0.0008758126641623676,0.0168357752263546,0.03478863090276718,0.0374918207526207,0.01855074055492878,-0.03051171824336052,0.04686961695551872,-0.009487371891736984,0.023319169878959656,0.015228664502501488,0.0060268728993833065,0.01916722021996975,0.04043146222829819,0.08822857588529587,-0.023682905361056328,-0.0035355486907064915,-0.004297763574868441,-0.04727550595998764,0.058587945997714996,0.0031614338513463736,-0.005594608839601278,-0.03670563921332359,-0.07460576295852661,0.020741090178489685,-0.02024608850479126,0.06954216212034225,0.023881487548351288,-0.023110156878829002,-0.042084407061338425,-0.02236769162118435,0.04146122559905052,0.0361630842089653,0.061713866889476776,0.026037007570266724,0.0438891276717186,-0.016853515058755875,0.1199907511472702,0.021562207490205765,0.002594503341242671,-0.022532843053340912,0.15396960079669952,-0.04184167832136154,0.0877540111541748,-0.011535740457475185,-0.024087298661470413,0.016341283917427063,0.011800341308116913,0.010509389452636242,0.035611581057310104,0.06665236502885818,-0.0027475357055664062,-0.12605541944503784,-0.05517515167593956,-0.014316233806312084,-0.043049976229667664,-0.04933749884366989,0.012908294796943665,-0.03792232647538185,0.01957666501402855,-0.11611127853393555,-0.007730946876108646,-0.15758782625198364,0.06010907143354416,-0.1266748309135437,-0.06895347684621811,-0.014061512425541878,-0.08562223613262177,0.003094237297773361,0.029008690267801285,-0.018123697489500046,-0.00520020816475153,-0.009180660359561443,-0.018733523786067963,0.030129579827189445,-0.036121029406785965,0.11169975996017456,-0.04124376177787781,0.005236720200628042,0.02065453492105007,-0.07873021811246872,0.06089278683066368,0.0024069808423519135,-0.015801962465047836,-0.012629891745746136,0.0593797042965889,0.01643049344420433,-0.05828380584716797,0.017644822597503662,0.2067849487066269,-0.04125417768955231,-0.049271851778030396,0.06575846672058105,-0.011441770009696484,0.06437074393033981,0.017656873911619186,0.0031758900731801987,-0.07481014728546143,0.10623617470264435,0.027579983696341515,0.014181084930896759,0.03218706324696541,0.016648730263113976,-0.042087845504283905,0.0847950428724289,0.08539143204689026,-0.02396872639656067,-0.06104397401213646,-0.07100982218980789,-0.04912935197353363,-0.03168519586324692,0.030178263783454895,0.02472545951604843,-0.0019992939196527004,0.034329354763031006,-0.03544105589389801,-0.04617918282747269,0.030262578278779984,0.05398724600672722,0.04995918273925781,-0.08197024464607239,0.004691092297434807,0.0444924496114254,0.00649675726890564,0.010381357744336128,0.04557571932673454,0.006719035562127829,0.041620004922151566,-0.04610847681760788,0.05212298035621643,0.021815061569213867,0.019634781405329704,-0.011780730448663235,0.008267274126410484,0.019991587847471237,-0.11816070973873138,-0.05717470496892929,-0.022728141397237778,-0.059014834463596344,-0.07757052034139633,-0.03254403546452522,0.010172986425459385,0.05863790959119797,0.0073084039613604546,-0.03695300966501236,0.114346444606781,0.02803674153983593,0.019176959991455078,0.02406235784292221,-0.001650966121815145,0.007531929295510054,0.008506964892148972,0.01264348067343235,0.03232669457793236,-0.014331060461699963,-0.02258983813226223,0.04522223025560379,-0.05080905556678772,0.05295901745557785,-0.03116314858198166,0.11163677275180817,-0.022071992978453636,0.04150701314210892,-0.04706365987658501,0.03663153201341629,0.05741848051548004,0.038578249514102936,0.013136675581336021,0.03851087763905525,-0.032535992562770844,0.10141082108020782,-0.057983219623565674,0.007755868136882782,-0.04650242254137993,-0.0004573936457745731,0.030416658148169518,-0.05438758432865143,0.040804069489240646,-0.06031297147274017,-0.034161560237407684,0.0220947265625,0.0191099401563406,-0.07631992548704147,-0.05216584727168083,0.01887408085167408,0.0072725391946733,-0.019621793180704117,0.08996613323688507,0.03571808338165283,0.12441884726285934,-0.04730355367064476,-0.010274811647832394,-0.0021040504798293114,0.004899970255792141,-0.00820950698107481,-0.03288959711790085,-0.10201706737279892,-0.024403870105743408,0.04260312765836716,-0.02143498882651329,-0.007537787314504385,0.021806567907333374,0.03720443695783615,-0.0406416580080986,0.0932033509016037,-0.008979669772088528,0.03657303377985954,0.06279503554105759,-0.05133149027824402,0.022884204983711243,-0.03760330006480217,-0.05819706246256828,0.10287177562713623,-0.023734306916594505,0.07760954648256302,-0.07354114949703217,0.003149787662550807,0.028124861419200897,-0.02665392868220806,-0.09654426574707031,-0.06916014105081558,0.03259315714240074,0.06411479413509369,0.1256689727306366,-0.07281693816184998,-0.09384544938802719,-0.008021782152354717,-0.12091117352247238,0.042627789080142975,-0.033468522131443024,-0.03191155195236206,0.013047582469880581,-0.05732138082385063,-0.021438758820295334,-0.10194657742977142,0.015058331191539764,0.01606086641550064,0.03040412813425064,0.13596217334270477,-0.020356351509690285,0.10713854432106018,0.049870651215314865,0.03333580493927002,0.002428607316687703,0.036556780338287354,-0.008224539458751678,-0.05005699023604393
Giraffe,-0.0434812568128109,-0.018335945904254913,-0.038954392075538635,0.04243704676628113,0.01765337958931923,0.049156080931425095,0.03669299557805061,-0.009552325122058392,-0.024363292381167412,0.03452444076538086,0.051660679280757904,-0.03176818788051605,0.018517620861530304,-0.0361546091735363,-0.04188162833452225,0.06452210992574692,0.0366818830370903,0.0008845329284667969,-0.027271432802081108,-0.010648796334862709,0.04752567410469055,0.03212940692901611,-0.007901123724877834,-0.017052512615919113,0.01287660002708435,0.030226726084947586,-0.02080933377146721,0.037612926214933395,-0.050842612981796265,-0.053638916462659836,-0.03953941538929939,0.033964306116104126,-0.01611163094639778,0.01801810786128044,0.07396762073040009,-0.01557943969964981,-0.07940832525491714,-0.0029941550455987453,0.032664861530065536,0.003319777548313141,-0.08640413731336594,-0.03203193098306656,-0.03398833051323891,-0.01623140275478363,-0.00863961037248373,0.07822729647159576,-0.015055183321237564,-0.08396649360656738,0.024915993213653564,0.025922294706106186,0.049627672880887985,0.03343379124999046,0.06343090534210205,0.017402470111846924,-0.010009465739130974,-0.04765632376074791,-0.09209224581718445,-0.02254391275346279,-0.026833435520529747,-0.04376743361353874,-0.05866206809878349,-0.01710302010178566,0.06837432086467743,-0.0066444603726267815,-0.06781056523323059,0.01653027907013893,0.0622711107134819,-0.014089921489357948,-0.014179930090904236,0.054440464824438095,0.007423507981002331,-0.009181479923427105,0.02863352559506893,-0.009538778103888035,0.06544326990842819,-0.05032868683338165,-0.05012047290802002,0.013501706533133984,0.02617279440164566,-0.057352401316165924,-0.0067362915724515915,0.004236250184476376,-0.05614815279841423,-0.015693653374910355,0.01282990537583828,0.007243655622005463,-0.04547569155693054,0.08985336124897003,-0.01358012855052948,-0.0031913563143461943,0.08378773182630539,0.01225968822836876,0.02414776012301445,0.055070482194423676,0.025427309796214104,0.0037782813888043165,0.05116920918226242,-0.007828379049897194,-0.04758642613887787,0.011328025721013546,-0.03595302253961563,0.09394428133964539,0.01679091900587082,-0.10559174418449402,-0.06121952459216118,-0.027731603011488914,0.07955805957317352,0.017530862241983414,-0.10018837451934814,-0.04574365168809891,0.01631641760468483,-0.0380682498216629,-0.046494223177433014,0.05267529934644699,0.05303524062037468,-0.011320049874484539,0.023849692195653915,-0.032721709460020065,0.06163039803504944,-0.02476772665977478,-0.026969827711582184,-0.027717139571905136,-0.0007322343881241977,-0.05836815759539604,-0.015321934595704079,0.039833150804042816,-0.003505128202959895,-0.02709435671567917,0.09818714112043381,-0.00798569992184639,-0.09184478968381882,0.021116560325026512,0.0072954497300088406,-0.00016613304615020752,0.020773394033312798,0.037158332765102386,0.044819578528404236,0.025394883006811142,-0.027612805366516113,-0.0442156121134758,-0.023684879764914513,-0.0472264364361763,0.06938232481479645,-0.0030831468757241964,0.05710960552096367,-0.04674637317657471,0.017909398302435875,0.011991729959845543,-0.003393875202164054,0.0030059197451919317,-0.04650438576936722,0.10596217960119247,-0.006761896423995495,0.022466570138931274,0.01621687412261963,0.10213160514831543,-0.008997384458780289,0.0007537982310168445,0.06824653595685959,-0.032889869064092636,-0.0497698038816452,-0.05906068906188011,-0.0005157453706488013,0.029039405286312103,0.017604000866413116,0.03335723653435707,-0.008122900500893593,-0.012376814149320126,-0.006805025041103363,-0.0199638232588768,-0.002259280998259783,-0.03285908326506615,0.02340085431933403,-0.011918190866708755,0.017786983400583267,0.002536490559577942,-0.010785913094878197,-0.027325941249728203,0.048536449670791626,0.06672684848308563,-0.014577453956007957,0.02042427659034729,-0.009239905513823032,0.03183497115969658,0.0064669265411794186,-0.04113639518618584,0.009602026082575321,0.03743111342191696,0.08196158707141876,0.05953874811530113,0.007870109751820564,-0.022648602724075317,-0.009740179404616356,0.05160394310951233,0.008594164624810219,0.05100574344396591,0.05246933549642563,-0.0693964883685112,0.017958879470825195,0.09234459698200226,-0.03562866523861885,-0.014357267878949642,0.013634102419018745,0.003221910446882248,-0.03923683986067772,-0.07018834352493286,0.07102861255407333,0.053228214383125305,-0.05838055536150932,0.008891279809176922,0.012427544221282005,-0.08017011731863022,0.01081338431686163,-0.037153299897909164,0.049656666815280914,-0.029470276087522507,-0.016822611913084984,-0.03358080983161926,-0.0716228261590004,0.05719110369682312,0.09717054665088654,0.03295253589749336,-0.014379797503352165,-0.014610327780246735,0.006405523978173733,0.008842790499329567,0.0013028457760810852,-0.05808917433023453,0.011995664797723293,-0.00480117741972208,0.05264325067400932,-0.11224870383739471,-0.09383881092071533,0.02962777018547058,0.013329906389117241,0.04909784346818924,-0.08759009838104248,0.02336602285504341,0.058754026889801025,-0.10123767703771591,0.09826743602752686,0.011758646927773952,0.0880812257528305,0.030123069882392883,0.07929777354001999,0.021446948871016502,-0.0262844767421484,-0.03239148482680321,-0.01119629479944706,-0.040449805557727814,-0.05906454473733902,-0.032894331961870193,-0.017127785831689835,0.006864061113446951,0.06330783665180206,0.021472636610269547,0.014087392017245293,-0.04240856319665909,0.10611656308174133,0.026836147531867027,-0.0162663497030735,-0.03057974949479103,0.013067945837974548,-0.061186663806438446,0.024253785610198975,0.05761974677443504,0.015731722116470337,-0.0032888329587876797,0.012770354747772217,-0.016291778534650803,0.06657624244689941,0.017436735332012177,-0.0723346695303917,-0.08084681630134583,0.03220374137163162,-0.006613348610699177,0.09208251535892487,0.029843203723430634,-0.10434079170227051,0.021766655147075653,-0.14018961787223816,0.01232042908668518,-0.024819161742925644,-0.09566885232925415,0.03292921930551529,-0.02096683904528618,0.057950690388679504,0.02434840425848961,0.04151575267314911,-0.013430296443402767,-0.04859943315386772,0.02492668107151985,0.008592963218688965,0.04173343628644943,0.06272879242897034,0.024347003549337387,-0.01839347556233406,0.022329097613692284,0.020631060004234314,0.059942394495010376
Gans,0.09355267137289047,0.0763435810804367,-0.10070701688528061,0.14333003759384155,-0.10225498676300049,0.1427503079175949,0.04751057177782059,-0.016977859660983086,0.08317264169454575,0.03295521065592766,0.033799320459365845,-0.063013955950737,-0.004063745029270649,0.015912294387817383,-0.04450899362564087,-0.038229912519454956,0.08448322862386703,-0.01944568008184433,-0.02124568074941635,-0.11621149629354477,-0.06797155737876892,0.11885982751846313,0.09031663835048676,0.024135399609804153,-0.10718423128128052,0.049442797899246216,-0.13842466473579407,0.09659680724143982,-0.10686945915222168,-0.04806595295667648,-0.05925707519054413,0.046518828719854355,-0.0035598576068878174,-0.01562584936618805,0.02723919227719307,0.0742475837469101,-0.07437919080257416,0.05223109573125839,-0.027104854583740234,-0.03914348781108856,0.02529222145676613,-0.015957798808813095,0.0030315208714455366,-0.16484463214874268,0.04872504621744156,0.1742154061794281,0.0804155021905899,-0.02903131954371929,0.05273604393005371,-0.04429604113101959,0.07136523723602295,-0.01934472844004631,0.061250925064086914,-0.032947808504104614,-0.027335038408637047,-0.02049419656395912,-0.06139435991644859,0.06978287547826767,-0.006190977059304714,-0.09045527875423431,0.06840472668409348,-0.08914850652217865,0.0996055006980896,0.19101569056510925,-0.05250176787376404,0.2076488435268402,0.1432444155216217,0.03394969925284386,0.11725887656211853,0.05391620844602585,0.0201102327555418,-0.005556789692491293,0.02562321349978447,-0.11520083248615265,0.0901346430182457,0.04849802702665329,0.006936207413673401,-0.10589735209941864,-0.02089609019458294,0.008185962215065956,-0.03093591332435608,-0.08187240362167358,-0.0019068233668804169,0.04311610385775566,-0.02578013762831688,0.05713963136076927,0.027206867933273315,0.009477942250669003,0.024291260167956352,-0.05629430338740349,0.1243475079536438,0.007504393812268972,-0.13210991024971008,0.1034080982208252,-0.06223505735397339,-0.04959001764655113,-0.006103210151195526,0.021615711972117424,-0.07256704568862915,-0.03917267173528671,0.06485915929079056,0.02052520588040352,0.0839313417673111,-0.0034734830260276794,-0.028539657592773438,-0.15195627510547638,-0.07309786975383759,0.04468159005045891,-0.09364842623472214,0.013482421636581421,0.049919188022613525,-0.13744066655635834,0.016283096745610237,-0.05103707313537598,-0.017025476321578026,-0.0133675467222929,0.04833957552909851,-0.04674489051103592,-0.007575005292892456,-0.03605633229017258,-0.13108333945274353,0.009546342305839062,0.09546247124671936,-0.09548863768577576,-0.05406167358160019,0.13553231954574585,-0.057229187339544296,0.09800569713115692,0.05544552206993103,0.12827694416046143,-0.10914885252714157,0.06309391558170319,-0.04466225206851959,0.23935186862945557,0.12925481796264648,-0.040252868086099625,0.053270917385816574,0.030358757823705673,0.03487511724233627,-0.07538218796253204,0.055578332394361496,-0.096554696559906,0.16553276777267456,-0.026435405015945435,-0.10878490656614304,-0.05715056508779526,-0.023111050948500633,-0.05717599019408226,0.028882239013910294,-0.036466214805841446,-0.10080127418041229,0.15704452991485596,-0.10519924759864807,0.06305095553398132,0.024366630241274834,0.12498068064451218,0.11248719692230225,0.00016577169299125671,0.049016427248716354,-0.07166245579719543,-0.05958139896392822,-0.14246906340122223,0.14437125623226166,-0.038875333964824677,-0.024395715445280075,0.08508454263210297,0.03486043959856033,-0.08038356900215149,0.03551670163869858,-0.15464241802692413,-0.02814825251698494,-0.0267802681773901,0.036557696759700775,0.03413395211100578,0.01589324325323105,-0.10337468236684799,0.046647991985082626,-0.0339159220457077,0.10658305138349533,0.11329593509435654,0.028035705909132957,0.02880096063017845,-0.08967643231153488,-0.05847959220409393,0.03880549594759941,-0.03230777010321617,0.06286049634218216,0.08739376068115234,0.014070945791900158,0.13771213591098785,-0.019476423040032387,0.006319097708910704,-0.07893399894237518,0.11139224469661713,0.01404548343271017,0.08491608500480652,0.05302194878458977,0.08079816401004791,0.142878919839859,0.052883099764585495,0.09122590720653534,-0.007813620381057262,-0.008632009848952293,-0.016961049288511276,0.20335209369659424,0.1191425770521164,0.1341620832681656,0.08766768872737885,-0.11317139863967896,0.014676526188850403,0.049270372837781906,0.08133503794670105,-0.08990573137998581,0.07099074125289917,0.12690141797065735,-0.0447087287902832,-0.05289233848452568,0.0870332270860672,-0.0543893538415432,0.08191646635532379,0.04219071567058563,-0.0550217442214489,0.051174163818359375,0.032037824392318726,-0.004761582240462303,0.1208796352148056,0.11247758567333221,0.0713542029261589,0.13785851001739502,-0.04050176590681076,0.05403432250022888,-0.08960773050785065,-0.058661967515945435,0.001660918234847486,0.014758567325770855,-0.0036622872576117516,0.012879876419901848,-0.0718211904168129,0.0818498432636261,-0.13566087186336517,0.17428337037563324,0.18127012252807617,0.17846018075942993,-0.07918474078178406,0.1624414175748825,-0.11925452202558517,-0.021399041637778282,0.04134925827383995,0.09572726488113403,-0.133531853556633,-0.07579319179058075,-0.10800907015800476,0.10744468867778778,-0.00652394350618124,0.005888644605875015,0.02846713922917843,-0.0918724462389946,-0.05518725514411926,-0.07845170795917511,-0.022984225302934647,0.0674610435962677,-0.11524894088506699,0.01237584464251995,-0.02355920895934105,-0.04628311097621918,0.01896318793296814,0.03363090381026268,-0.15911954641342163,-0.043183278292417526,0.06627956032752991,-0.03149694949388504,0.017136281356215477,-0.2706180214881897,-0.0422305166721344,0.10222797095775604,0.06820805370807648,0.189798042178154,-0.001843306585215032,-0.20378780364990234,-0.07760448753833771,-0.40544113516807556,0.06711307168006897,0.0002468526363372803,-0.08338847756385803,-0.011353326961398125,0.03756697103381157,0.07104643434286118,0.020569227635860443,0.01775115355849266,0.12672245502471924,0.026590153574943542,0.03326158970594406,-0.09785205125808716,0.13415417075157166,0.06035303324460983,-0.14740000665187836,0.12018805742263794,0.019394682720303535,0.012429839000105858,-0.05304057523608208
Ente,0.06585066020488739,0.03999033570289612,0.0025503437500447035,0.04655208811163902,0.07285633683204651,0.10331633687019348,-0.13526709377765656,0.04718085378408432,-0.019055863842368126,0.026215871796011925,-0.005557204596698284,-0.14516177773475647,0.0041836402378976345,-0.027599601075053215,-0.021533362567424774,-0.037994951009750366,0.05821477994322777,0.06994752585887909,0.04831952974200249,0.008255179040133953,-0.03276967629790306,0.06385701894760132,0.1306489109992981,0.03565654158592224,-0.06153148040175438,0.014535536989569664,-0.1843792200088501,0.09385158121585846,-0.08812606334686279,-0.02143109403550625,-0.06111231446266174,0.10974821448326111,0.11309319734573364,-0.005010510794818401,0.017866147682070732,0.08362726867198944,-0.07953156530857086,0.06432490050792694,0.06921207904815674,-0.059199243783950806,0.04153818264603615,0.010886000469326973,-0.016601210460066795,-0.009296931326389313,0.016483021900057793,0.17249815165996552,0.06540509313344955,-0.009099926799535751,0.001990934368222952,-0.03280021622776985,0.07149212062358856,0.023839404806494713,0.1338881254196167,0.02783311903476715,-0.010836551897227764,-0.0332430824637413,-0.04298776015639305,-0.0029180902056396008,-0.003821026533842087,-0.04091651365160942,0.02094516158103943,-0.017067596316337585,0.12165117263793945,0.03588927909731865,-0.07404071092605591,0.18867051601409912,0.13141341507434845,-0.030048584565520287,0.11991029977798462,-0.019443601369857788,0.10004666447639465,-0.011337446980178356,0.04179327189922333,0.033332835882902145,0.029027611017227173,-0.014236463233828545,-0.0055341157130897045,0.01008002832531929,-0.06011807546019554,-0.07788679748773575,-0.04617954418063164,-0.04233108460903168,-0.02462312951683998,0.04853257164359093,0.030352339148521423,0.07663353532552719,-0.008050410076975822,0.0006682488019578159,0.07598419487476349,0.006720144301652908,0.16351474821567535,0.026907991617918015,-0.07425104081630707,0.09877946972846985,0.08915766328573227,-0.033471640199422836,0.026075026020407677,0.1203940361738205,-0.0818929672241211,-0.04354589432477951,-0.06590813398361206,-0.001663749455474317,0.07249128818511963,-0.003927802201360464,-0.024048086255788803,-0.24853944778442383,0.017983142286539078,0.090248242020607,-0.011320672929286957,0.008713159710168839,0.04849950969219208,-0.12625747919082642,0.053386177867650986,-0.02149645984172821,0.05565034598112106,-0.10685738176107407,0.056858181953430176,-0.18404525518417358,0.005470254924148321,-0.058740150183439255,-0.18652057647705078,0.07853079587221146,0.09112991392612457,-0.059831127524375916,0.011165476404130459,0.15276633203029633,-0.05443131551146507,-0.015209054574370384,-0.04089876636862755,0.10394090414047241,-0.10741736739873886,-0.021215979009866714,0.10873660445213318,0.09799033403396606,0.191919207572937,-0.06969799101352692,0.034684404730796814,0.011736288666725159,-0.032047487795352936,-0.12200731039047241,0.0360589325428009,-0.0564626082777977,0.19737780094146729,-0.015784623101353645,-0.1661701649427414,-0.054666947573423386,-0.018045315518975258,-0.04034522920846939,-0.020568791776895523,0.011960325762629509,-0.025411320850253105,0.20387127995491028,0.029134470969438553,0.0534139983355999,0.06312859058380127,0.10665789246559143,0.07559943944215775,-0.05583704262971878,0.030238015577197075,-0.061514269560575485,-0.03205706924200058,-0.07560164481401443,0.019276335835456848,0.044668104499578476,0.06869783252477646,0.07316100597381592,-0.014784972183406353,-0.12613743543624878,0.019591879099607468,-0.1089387759566307,-0.03690723702311516,0.04209614917635918,0.06607687473297119,0.03785719722509384,-0.005880934651941061,-0.02201906591653824,0.040873199701309204,-0.02830052375793457,0.05579766631126404,0.19519102573394775,0.02170587331056595,-0.017291322350502014,-0.10418909788131714,-0.0604383610188961,0.06826566159725189,-0.02602839283645153,0.025692006573081017,0.08974572271108627,-0.009087156504392624,0.012457206845283508,0.03856916353106499,-0.0672152042388916,-0.08740934729576111,0.03732581064105034,0.052782800048589706,0.0600772500038147,0.04833223670721054,-0.03587980568408966,0.2257324457168579,0.009039968252182007,0.022730212658643723,-0.009303666651248932,0.11699771881103516,-0.014104972593486309,0.0802883431315422,-0.007155302911996841,-0.0034317299723625183,0.05996590107679367,0.015000487677752972,0.023939182981848717,0.13528040051460266,0.024337973445653915,-0.05058872327208519,0.06199547275900841,0.09352940320968628,0.12858490645885468,-0.10691089928150177,0.011673077940940857,0.021495923399925232,0.16592003405094147,0.07179182767868042,-0.0076518431305885315,-0.039998333901166916,0.032402824610471725,0.02789722941815853,0.06423860043287277,0.11730146408081055,0.03899415582418442,-0.012493307702243328,-0.06813646852970123,0.09546960890293121,-0.00959274172782898,-0.13326720893383026,0.002159545198082924,0.01764622889459133,0.03119179978966713,-0.04128850996494293,-0.007521248422563076,0.07595618069171906,0.005080296657979488,0.10251803696155548,0.22433853149414062,0.24441437423229218,-0.01233462244272232,0.04027138277888298,0.023379314690828323,0.00619742926210165,0.1263788789510727,-0.009475347585976124,-0.07743099331855774,-0.055291809141635895,-0.14817173779010773,0.08512543141841888,0.08333136886358261,-0.022230466827750206,0.0801842212677002,-0.10230454802513123,-0.024829354137182236,0.04932382330298424,0.04139361530542374,0.053874384611845016,-0.005434160586446524,-0.02323133312165737,-0.11778588593006134,0.07177828252315521,-0.016230791807174683,-0.03700703755021095,0.02134924754500389,-0.02570992335677147,0.013175368309020996,0.057795800268650055,-0.0008293347200378776,-0.20116233825683594,-0.08178836107254028,0.039273325353860855,0.021891150623559952,0.1676868498325348,-0.03746725246310234,-0.15319879353046417,0.029226496815681458,-0.22695165872573853,0.15303611755371094,-0.05646709352731705,-0.035006530582904816,0.018999263644218445,0.10227401554584503,0.09934480488300323,-0.07967539131641388,-0.0415671281516552,-0.03570748120546341,-0.016149001196026802,0.18697528541088104,-0.05042509362101555,0.07965391129255295,0.08963285386562347,-0.0014163529267534614,0.13780665397644043,-0.11272057890892029,0.016083447262644768,-0.06637687981128693
