Token,Dim_0,Dim_1,Dim_2,Dim_3,Dim_4,Dim_5,Dim_6,Dim_7,Dim_8,Dim_9,Dim_10,Dim_11,Dim_12,Dim_13,Dim_14,Dim_15,Dim_16,Dim_17,Dim_18,Dim_19,Dim_20,Dim_21,Dim_22,Dim_23,Dim_24,Dim_25,Dim_26,Dim_27,Dim_28,Dim_29,Dim_30,Dim_31,Dim_32,Dim_33,Dim_34,Dim_35,Dim_36,Dim_37,Dim_38,Dim_39,Dim_40,Dim_41,Dim_42,Dim_43,Dim_44,Dim_45,Dim_46,Dim_47,Dim_48,Dim_49,Dim_50,Dim_51,Dim_52,Dim_53,Dim_54,Dim_55,Dim_56,Dim_57,Dim_58,Dim_59,Dim_60,Dim_61,Dim_62,Dim_63,Dim_64,Dim_65,Dim_66,Dim_67,Dim_68,Dim_69,Dim_70,Dim_71,Dim_72,Dim_73,Dim_74,Dim_75,Dim_76,Dim_77,Dim_78,Dim_79,Dim_80,Dim_81,Dim_82,Dim_83,Dim_84,Dim_85,Dim_86,Dim_87,Dim_88,Dim_89,Dim_90,Dim_91,Dim_92,Dim_93,Dim_94,Dim_95,Dim_96,Dim_97,Dim_98,Dim_99,Dim_100,Dim_101,Dim_102,Dim_103,Dim_104,Dim_105,Dim_106,Dim_107,Dim_108,Dim_109,Dim_110,Dim_111,Dim_112,Dim_113,Dim_114,Dim_115,Dim_116,Dim_117,Dim_118,Dim_119,Dim_120,Dim_121,Dim_122,Dim_123,Dim_124,Dim_125,Dim_126,Dim_127,Dim_128,Dim_129,Dim_130,Dim_131,Dim_132,Dim_133,Dim_134,Dim_135,Dim_136,Dim_137,Dim_138,Dim_139,Dim_140,Dim_141,Dim_142,Dim_143,Dim_144,Dim_145,Dim_146,Dim_147,Dim_148,Dim_149,Dim_150,Dim_151,Dim_152,Dim_153,Dim_154,Dim_155,Dim_156,Dim_157,Dim_158,Dim_159,Dim_160,Dim_161,Dim_162,Dim_163,Dim_164,Dim_165,Dim_166,Dim_167,Dim_168,Dim_169,Dim_170,Dim_171,Dim_172,Dim_173,Dim_174,Dim_175,Dim_176,Dim_177,Dim_178,Dim_179,Dim_180,Dim_181,Dim_182,Dim_183,Dim_184,Dim_185,Dim_186,Dim_187,Dim_188,Dim_189,Dim_190,Dim_191,Dim_192,Dim_193,Dim_194,Dim_195,Dim_196,Dim_197,Dim_198,Dim_199,Dim_200,Dim_201,Dim_202,Dim_203,Dim_204,Dim_205,Dim_206,Dim_207,Dim_208,Dim_209,Dim_210,Dim_211,Dim_212,Dim_213,Dim_214,Dim_215,Dim_216,Dim_217,Dim_218,Dim_219,Dim_220,Dim_221,Dim_222,Dim_223,Dim_224,Dim_225,Dim_226,Dim_227,Dim_228,Dim_229,Dim_230,Dim_231,Dim_232,Dim_233,Dim_234,Dim_235,Dim_236,Dim_237,Dim_238,Dim_239,Dim_240,Dim_241,Dim_242,Dim_243,Dim_244,Dim_245,Dim_246,Dim_247,Dim_248,Dim_249,Dim_250,Dim_251,Dim_252,Dim_253,Dim_254,Dim_255,Dim_256,Dim_257,Dim_258,Dim_259,Dim_260,Dim_261,Dim_262,Dim_263,Dim_264,Dim_265,Dim_266,Dim_267,Dim_268,Dim_269,Dim_270,Dim_271,Dim_272,Dim_273,Dim_274,Dim_275,Dim_276,Dim_277,Dim_278,Dim_279,Dim_280,Dim_281,Dim_282,Dim_283,Dim_284,Dim_285,Dim_286,Dim_287,Dim_288,Dim_289,Dim_290,Dim_291,Dim_292,Dim_293,Dim_294,Dim_295,Dim_296,Dim_297,Dim_298,Dim_299
Apfel,0.09929744154214859,-0.05852525681257248,0.07452959567308426,0.06001785025000572,-0.02868502214550972,-0.09027766436338425,0.011786086484789848,0.05546830594539642,0.09756843745708466,-0.013166327029466629,-0.037123147398233414,-0.061975520104169846,-0.013005905784666538,0.07593706250190735,-0.026341520249843597,-0.014126881957054138,0.09027056396007538,0.037758614867925644,-0.02537708729505539,-0.03362468257546425,0.12790246307849884,0.083944171667099,-0.018573595210909843,-0.09815841168165207,-0.062041025608778,-0.0581364743411541,0.042309071868658066,0.03540561720728874,-0.07249214500188828,-0.010828771628439426,-0.09708657115697861,0.018810909241437912,-0.018384039402008057,-0.013928212225437164,-0.018379196524620056,-0.017191952094435692,-0.02332880161702633,0.019372545182704926,-0.0008283816277980804,0.002719838172197342,-0.0694437026977539,0.01104343868792057,-0.026947416365146637,-0.0869055837392807,-0.028299635276198387,0.0910000130534172,0.07777348905801773,0.017742130905389786,-0.010330209508538246,-0.029993712902069092,0.02935563586652279,-0.07994338870048523,0.07650414854288101,-0.02311638928949833,0.01338264811784029,0.038911886513233185,0.11179560422897339,0.00987289473414421,-0.016196027398109436,-0.07941406965255737,0.02671172469854355,-0.03461668640375137,0.08064965158700943,0.01619839109480381,0.051024988293647766,0.002376701682806015,0.10141883790493011,-0.039589960128068924,0.11910970509052277,0.017978619784116745,0.005770585499703884,-0.015816912055015564,0.0144717488437891,-0.05116648972034454,-0.06503575295209885,0.0024964865297079086,-0.0326896570622921,-0.05685074254870415,0.0038360971957445145,0.07054252922534943,-0.024716868996620178,0.037904683500528336,-0.15579095482826233,0.04277295246720314,0.006115162745118141,0.06070627272129059,-0.05444897711277008,-0.000315200537443161,-0.061640530824661255,-0.07331264019012451,0.02614288032054901,0.07705951482057571,-0.018858930096030235,-0.04846971109509468,0.014155961573123932,0.014918733388185501,-0.04431355372071266,-0.015130827203392982,-0.019741589203476906,-0.028601905331015587,-0.017558395862579346,0.061316296458244324,0.011803073808550835,-0.03294042497873306,0.059492453932762146,-0.08463062345981598,0.01790991611778736,0.084983691573143,-0.025350067764520645,-0.02810111828148365,0.03471861779689789,-0.0916638895869255,0.01696433126926422,-0.04682842642068863,-0.05085858330130577,-0.11571711301803589,0.042875222861766815,-0.0689363107085228,0.11555740982294083,-0.04634954780340195,-0.040695395320653915,0.010020483285188675,0.06052315980195999,-0.07734215259552002,0.029873577877879143,-0.040500856935977936,-0.047485899180173874,0.029775170609354973,-0.02004190906882286,-0.011133354157209396,-0.14352986216545105,0.16369745135307312,-0.0029024090617895126,0.028998224064707756,0.1252632737159729,-0.011890840716660023,0.060145121067762375,0.015565287321805954,0.009372013621032238,0.0292787104845047,-0.01883312314748764,-0.07071797549724579,0.12120699882507324,-0.0013149380683898926,0.004642372485250235,0.020799607038497925,0.031704485416412354,-0.005727412644773722,-0.04356880113482475,-0.00766034796833992,-0.08961918950080872,0.134866401553154,-0.06470812112092972,0.036299124360084534,-0.028824348002672195,0.2081308662891388,0.03451511263847351,-0.009460612200200558,0.0590888150036335,-0.1478821337223053,-0.04955281317234039,-0.0940697193145752,0.08962559700012207,-0.01632876507937908,0.0221716295927763,0.13328321278095245,-0.12893331050872803,0.044312428683042526,-0.0077576348558068275,0.029779301956295967,0.0024254722520709038,0.08210977166891098,-0.06425720453262329,0.027959128841757774,0.043702706694602966,0.06981492042541504,0.05732601135969162,0.010543037205934525,0.032830845564603806,-0.0025222431868314743,0.06309142708778381,-0.04269526153802872,-0.03982212394475937,-0.09477893263101578,-0.043028317391872406,0.056388478726148605,0.032527461647987366,0.041583869606256485,0.05740318447351456,-0.03609947860240936,-0.08952657878398895,-0.11523265391588211,0.013108968734741211,-0.008468193002045155,0.006880695931613445,0.05373413860797882,-9.171664714813232e-06,0.07293188571929932,0.005597793497145176,-0.054923444986343384,0.033959969878196716,-0.03183738514780998,0.024635255336761475,-0.08602368831634521,-0.011108691804111004,0.004377502482384443,0.011994212865829468,0.05237879604101181,-0.09857624024152756,-0.0093806441873312,0.017409836873412132,-0.07289566099643707,-0.0520160049200058,-0.004155033268034458,0.09579715132713318,-0.017973467707633972,-0.10112407058477402,0.06895765662193298,0.0315883606672287,-0.07123549282550812,0.02566300332546234,0.027776464819908142,-0.047954753041267395,-0.014846798032522202,0.05190308392047882,-0.06307514011859894,0.00218741362914443,0.0359903909265995,-0.06617464870214462,-0.09822618216276169,0.08756399154663086,-0.004509786143898964,-0.05627543479204178,0.030826712027192116,-0.041018612682819366,0.06213760748505592,0.004336694721132517,-0.03140415996313095,0.04845011979341507,-0.04518934711813927,0.10851804167032242,-0.0266425684094429,0.09863381087779999,-0.04746164381504059,-0.006600270047783852,-0.01807551085948944,0.02635427750647068,0.05508746951818466,0.03979147970676422,-0.01980266161262989,-0.012261898256838322,0.0024504861794412136,-0.013436198234558105,-0.038087282329797745,0.10290852189064026,0.08176685869693756,-0.0317908450961113,-0.018128957599401474,0.11290843784809113,0.08214639127254486,0.04451290890574455,-0.07230532914400101,0.045290760695934296,-0.09703392535448074,-0.03921205550432205,-0.035290006548166275,0.02605760283768177,0.05549207329750061,-0.05196382850408554,0.006323281675577164,0.09039638191461563,-0.042852550745010376,-0.1488238424062729,-0.07224653661251068,-0.10841307044029236,0.06954725831747055,0.1334240883588791,0.1420482099056244,-0.02437044493854046,-0.027313292026519775,-0.1391124129295349,0.09800797700881958,-0.018445178866386414,-0.053534187376499176,-0.07039444148540497,0.14174383878707886,0.04441588371992111,-0.014481889083981514,0.017570506781339645,-0.0810919851064682,0.13061730563640594,0.028371311724185944,0.08490589261054993,-0.044266749173402786,-0.057180896401405334,-0.00969473272562027,0.08408232778310776,-0.008811144158244133,-0.01910299062728882,-0.04292050004005432
Birne,0.06712491810321808,-0.10902033746242523,-0.01637910306453705,0.05017942935228348,0.03643612191081047,0.07669288665056229,-0.0008752448484301567,0.006170731037855148,0.014526758342981339,0.010130594484508038,0.005009942688047886,-0.02915142849087715,0.023784823715686798,0.058849938213825226,-0.07526859641075134,0.0676301121711731,0.10282483696937561,0.042182810604572296,0.05916208401322365,-0.02137276716530323,0.04749487340450287,0.12114306539297104,0.012870559468865395,-0.16154834628105164,-0.01234777644276619,0.004562152549624443,-0.044586196541786194,-0.0694885104894638,-0.0749162808060646,-0.10899878293275833,-0.09065153449773788,0.020329777151346207,0.02178153395652771,-0.0016222260892391205,-0.0567234568297863,0.0940198302268982,-0.017588630318641663,-0.04398404434323311,0.0731622576713562,-0.015369590371847153,-0.0052839526906609535,-0.05611112713813782,0.004745300859212875,-0.08381076157093048,0.03169376403093338,0.09881879389286041,0.043077126145362854,-0.11542519927024841,-0.040259696543216705,-0.04987041652202606,-0.04303556680679321,-0.09922236949205399,0.07668053358793259,-0.037318505346775055,-0.004414561204612255,0.003809189423918724,0.030800264328718185,-0.04466886818408966,0.04831717908382416,-0.0989929735660553,0.014801778830587864,-0.08649887144565582,0.09985876083374023,0.008332738652825356,0.04074912890791893,0.019320793449878693,0.09064997732639313,-0.02587047964334488,0.040759921073913574,0.03644498810172081,0.04562658071517944,0.01878262870013714,0.09778798371553421,0.06892303377389908,-0.05423702299594879,-0.07169736176729202,-0.009903257712721825,-0.09654650837182999,0.007667402271181345,-0.026749733835458755,-0.04493732750415802,0.12281684577465057,-0.1640794426202774,0.025114912539720535,0.01713130623102188,0.04353717342019081,-0.06402639299631119,0.03830535709857941,-0.1014021560549736,-0.15903696417808533,0.103060781955719,0.008575813844799995,-0.09028477221727371,-0.0557895228266716,-0.010881700552999973,-0.007152393460273743,0.002631084993481636,-0.008357700891792774,-0.011289965361356735,0.010753069072961807,-0.03633276745676994,0.007206856273114681,-0.015763316303491592,-0.03335367143154144,-0.00032053887844085693,-0.11633963882923126,0.0422397181391716,-0.012241224758327007,-0.07216762751340866,-0.06662517786026001,0.036663301289081573,-0.09554947167634964,-0.007388285361230373,-0.056789543479681015,-0.039097804576158524,-0.11780399084091187,-0.006124856416136026,-0.03813242167234421,0.10558930784463882,-0.02519572153687477,-0.14309558272361755,0.02383239194750786,-0.03598657250404358,-0.10090871155261993,0.0015640202909708023,0.04759505018591881,-0.05631507933139801,0.03280997276306152,0.09843798726797104,-0.10371194779872894,-0.0219869501888752,0.034607671201229095,0.10230440646409988,-0.03542193025350571,-0.012012357823550701,-0.06383368372917175,0.0021576443687081337,-0.055116746574640274,-0.09731853753328323,0.018940294161438942,-0.016373658552765846,-0.05310302972793579,0.04621797055006027,-0.059418775141239166,0.034196995198726654,0.03017393872141838,0.013041006401181221,-0.042693041265010834,-0.011315815150737762,-0.029899170622229576,-0.11997579783201218,0.13499715924263,-0.07856450974941254,-0.007215612567961216,-0.05215959995985031,0.14667968451976776,0.039209406822919846,-0.03667439520359039,0.020845625549554825,-0.03958703577518463,0.009902380406856537,-0.07649950683116913,0.08954699337482452,-0.01852169632911682,-0.024512359872460365,0.10685443878173828,-0.06904372572898865,-0.04259870946407318,-0.03431791439652443,-4.733586683869362e-05,-0.024002697318792343,-0.07373641431331635,0.02156061679124832,-0.04415631294250488,0.1021595448255539,0.0227058008313179,0.0019954019226133823,0.061085548251867294,0.006048926152288914,-0.002543386071920395,0.07854698598384857,-0.014657550491392612,-0.04387318715453148,-0.05704256892204285,0.010781694203615189,0.10328888148069382,-0.0090092234313488,0.016024915501475334,-0.0021421723067760468,-0.020189769566059113,-0.01030147634446621,-0.07081269472837448,0.005675388500094414,-0.041848815977573395,-0.03981366753578186,0.056511059403419495,-0.001299811527132988,0.06659456342458725,0.12985311448574066,-0.060347892343997955,0.07523499429225922,-0.07799981534481049,0.03111540712416172,-0.055040471255779266,-0.020208846777677536,-0.02252301014959812,-0.08371178060770035,0.0503532811999321,-0.03130725026130676,-0.006472457200288773,0.022976797074079514,-0.010773692280054092,0.003776908852159977,0.04014035314321518,0.08734184503555298,-0.10060416162014008,-0.03828844800591469,-0.03517407923936844,-0.024822067469358444,-0.06716622412204742,0.08754856884479523,0.04654538258910179,0.004871437791734934,0.028375092893838882,0.06128796935081482,-0.02563532255589962,0.05458862707018852,-0.060537341982126236,-0.07029806077480316,-0.06805544346570969,0.10793429613113403,0.025645891204476357,-0.00545643363147974,0.04290015250444412,0.03690627962350845,0.14315165579319,0.0326724573969841,0.025038380175828934,0.06333357095718384,0.04062347114086151,0.08166520297527313,0.007589351385831833,0.08390776067972183,-0.012972463853657246,-0.03807905688881874,0.054842509329319,-0.01574581488966942,-0.049642328172922134,0.059039779007434845,-0.07939720153808594,-0.06220113858580589,0.08156740665435791,-0.020246582105755806,-0.041368406265974045,0.11859799176454544,0.010746316984295845,-0.11335336416959763,0.011753602884709835,0.03373109921813011,0.04781296104192734,0.026397395879030228,-0.01062714122235775,0.03879205510020256,-0.0026616398245096207,-0.009048933163285255,-0.04850360378623009,0.0053376685827970505,0.06583061814308167,-0.025119855999946594,0.025974277406930923,0.020887400954961777,-0.028765585273504257,-0.16701900959014893,0.04893041402101517,-0.058823272585868835,0.03251926973462105,0.11948086321353912,0.0031759273260831833,-0.07991489768028259,-0.0567794032394886,-0.19188928604125977,0.05687381327152252,-0.04526100307703018,-0.06283579766750336,-0.04247112572193146,0.07386613637208939,0.049115993082523346,-0.033415328711271286,-0.08320478349924088,-0.04190155491232872,0.12022034823894501,0.0531974658370018,-0.048985108733177185,-0.0279746912419796,0.07215319573879242,-0.0427669957280159,0.08751224726438522,0.022024016827344894,-0.012668237090110779,0.013902266509830952
Mandarine,0.04873889684677124,-0.016440270468592644,-0.026826079934835434,0.007780597545206547,-0.0028603787068277597,0.028715334832668304,0.007082833908498287,-0.022049881517887115,0.10329756885766983,-0.0011387825943529606,0.009080333635210991,0.011848896741867065,0.02615436725318432,0.03982103243470192,0.0034171452280133963,0.02664823830127716,-0.039424121379852295,-0.02585526928305626,-0.039455119520425797,-0.02555786445736885,-0.00797228328883648,-0.0021972060203552246,0.017067857086658478,3.167358227074146e-05,0.0023030289448797703,-0.003325484227389097,-0.013069616630673409,0.0029320402536541224,-0.016965366899967194,-0.023842014372348785,-0.0570308156311512,0.03500859811902046,0.03997441381216049,0.023202523589134216,0.022718438878655434,0.03885645419359207,0.010465500876307487,-0.0001628706231713295,0.06332296878099442,-0.007765165530145168,0.002713293069973588,-0.008659537881612778,0.004838079214096069,0.024408088997006416,0.054982300847768784,0.03502470999956131,-0.018014052882790565,0.02366885356605053,-0.04265835881233215,0.001893795095384121,0.04127366095781326,-3.5774894058704376e-05,0.0022508592810481787,-0.06178240850567818,0.032213084399700165,0.005946310702711344,0.02451646327972412,-0.010531868785619736,-0.01952192932367325,-0.04942154511809349,0.01936781406402588,0.022313615307211876,0.025025948882102966,0.0023391933646053076,-0.040079664438962936,-0.013055214658379555,0.047160983085632324,-0.024336060509085655,0.00999369379132986,-0.00392009736970067,0.05571651831269264,0.06184474751353264,-0.023819228634238243,-0.02574351616203785,0.005346302874386311,0.017964748665690422,0.010362282395362854,0.034013714641332626,-0.027646562084555626,-0.05570562928915024,-0.011152406223118305,0.02835627645254135,0.007059701252728701,0.0077111441642045975,-0.02392546460032463,0.025090284645557404,-0.0429755374789238,0.0067304144613444805,-0.0713891088962555,-0.04631824046373367,0.03904350474476814,0.03446771204471588,-0.030005060136318207,-0.006362893618643284,-0.0015672175213694572,0.033927030861377716,-0.05850666016340256,-0.043462738394737244,-0.033715907484292984,-0.012302838265895844,0.028706058859825134,0.03368087112903595,-0.013478981330990791,-0.024828342720866203,-0.014792791567742825,-0.051240719854831696,-0.01201919000595808,0.0753486156463623,-0.02762584388256073,-0.07444335520267487,-0.022587724030017853,-0.012550057843327522,0.028585070744156837,0.01542261429131031,0.0010025305673480034,-0.024202562868595123,-0.029660070315003395,-0.008331197313964367,0.024003995582461357,-0.017818937078118324,-0.052185073494911194,-0.028720639646053314,0.026630472391843796,-0.0130997896194458,0.006123180501163006,-0.002265329472720623,-0.015375128015875816,-0.030058227479457855,-0.0105848154053092,-0.0424623042345047,-0.04826357960700989,-0.0019730087369680405,0.04713928699493408,0.016953978687524796,0.002461091848090291,0.007784995716065168,0.028382904827594757,0.003572276793420315,-0.018594970926642418,0.008545679971575737,-0.017652200534939766,-0.009162088856101036,0.12739190459251404,0.020326191559433937,0.04169467091560364,0.016175270080566406,-0.03192315995693207,-0.001977458829060197,-1.9341488950885832e-05,-0.028194252401590347,-0.033346496522426605,0.02807583101093769,-0.00037691090255975723,-0.0031812412198632956,-0.009317921474575996,0.0753166526556015,-0.006572939455509186,-0.03255455568432808,0.013364434242248535,-0.024593735113739967,-0.0058310083113610744,-0.02857211045920849,0.013558735139667988,0.02325327694416046,-0.045656006783246994,0.01852315105497837,0.007271184585988522,-0.03492574393749237,0.01271726656705141,0.0012089584488421679,-0.023070078343153,-0.014382992871105671,-0.006107183173298836,-0.07294423878192902,0.014059588313102722,-0.006614678539335728,-0.018530815839767456,-0.047065962105989456,0.030026620253920555,-0.0031542400829494,0.035864271223545074,-0.00504695950075984,-0.05383947119116783,-0.042762745171785355,-0.0352809801697731,0.030620604753494263,-0.025004884228110313,0.03115793876349926,-0.029338901862502098,-0.007894175127148628,-0.00986554566770792,-0.025341946631669998,0.013839430175721645,-0.034901417791843414,-0.03991764038801193,0.03386225923895836,-0.0037140371277928352,0.023138441145420074,0.034251242876052856,-0.05428122729063034,-0.028965653851628304,0.0048841149546206,-0.03286058455705643,0.01717890426516533,-0.04768139123916626,-0.04336528480052948,-0.017768559977412224,-0.003886760678142309,-0.03499849885702133,0.018112411722540855,0.057822078466415405,-0.028490670025348663,-0.01829194463789463,0.02742963284254074,0.0011095385998487473,0.027912870049476624,0.01751485839486122,0.005677464883774519,-0.004100305959582329,-0.0028001568280160427,-0.012462923303246498,0.01715453714132309,-0.04992556944489479,-0.012844240292906761,0.03272785246372223,-0.02567811869084835,0.05252395570278168,-0.041312381625175476,-0.03442366048693657,-0.0575648695230484,0.01424733642488718,0.03919897973537445,-0.003513315226882696,0.05032859370112419,0.007081776857376099,0.0421304851770401,-0.02312307432293892,-0.014268632978200912,0.06623148918151855,-0.02879752591252327,0.05936088413000107,0.01974760927259922,0.039580222219228745,0.027132375165820122,0.003170507261529565,0.017749812453985214,-0.02130737528204918,0.014364088885486126,-0.0207921601831913,-0.012363143265247345,-0.006489399820566177,0.022204989567399025,-0.046040769666433334,0.031162243336439133,-0.03174769878387451,0.0885101854801178,-0.042283959686756134,-0.028469452634453773,0.016806507483124733,0.027641844004392624,0.050704263150691986,-0.08008109778165817,0.01870814710855484,-0.09118866175413132,0.0013830186799168587,0.06652159243822098,-0.0036048665642738342,0.021386977285146713,0.04893546178936958,-0.0024265777319669724,0.0719095915555954,0.013485874980688095,-0.06316234171390533,-0.06298825144767761,-0.05627569928765297,0.019681738689541817,0.07560291886329651,-0.0007498054765164852,-0.053367868065834045,-0.0003598704934120178,-0.08718833327293396,0.05480313301086426,-0.012586181983351707,0.001802471000701189,0.016169734299182892,0.07539276033639908,0.012635696679353714,0.008860069327056408,-0.010103949345648289,-0.03685910999774933,-0.00493057444691658,0.009981737472116947,-0.036928486078977585,-0.029814882203936577,0.015498915687203407,-0.008921870961785316,0.009020134806632996,0.03953754901885986,-0.01493503525853157,-0.016652852296829224
Clementine,-0.0113099105656147,-0.015148903243243694,0.002083217492327094,0.03820910304784775,-0.0012069967342540622,0.04297874495387077,0.024619773030281067,-0.011620541103184223,0.045052070170640945,-0.02272007241845131,0.006363407708704472,0.00020414839673321694,-0.009904393926262856,0.045302897691726685,0.024258309975266457,0.04662031680345535,0.027592817321419716,-0.012005341239273548,-0.009697566740214825,0.045503512024879456,0.05316314473748207,-0.02519896626472473,-0.0044411527924239635,0.02884622849524021,-0.010823794640600681,0.00812576524913311,-0.03500329330563545,0.0005958041292615235,-0.0044574798084795475,0.0052096061408519745,-0.0014441899256780744,0.007725453935563564,0.001849386841058731,0.012483099475502968,-0.004389333073049784,-0.004679883364588022,0.052256811410188675,0.05189955607056618,-0.018899966031312943,0.01883639581501484,0.005603617988526821,-0.016438409686088562,0.03334037587046623,0.018360191956162453,-0.01576719433069229,-0.002508459845557809,-0.01667511649429798,0.08610057830810547,0.03358261659741402,0.03154506906867027,-0.022310402244329453,-0.008529908955097198,-0.019560804590582848,-0.016368594020605087,-0.01774640940129757,0.02400040626525879,0.019279155880212784,0.03604476526379585,-0.0078017208725214005,0.004201831761747599,0.0018651686841621995,-0.024890828877687454,-0.0002447250881232321,0.024995911866426468,-0.0060175396502017975,0.017732912674546242,0.04332198575139046,0.02860126830637455,0.00881958194077015,0.05064653232693672,0.006756122689694166,-0.0029346132650971413,0.05758814886212349,-0.04420846328139305,0.025619490072131157,-0.015828676521778107,-0.024242276325821877,0.017379911616444588,0.018664730712771416,-0.035454023629426956,-0.04115952551364899,0.04039452224969864,-0.009649351239204407,0.02413446642458439,-0.0018640210619196296,0.0285422932356596,-0.032538075000047684,0.025986121967434883,-0.0058431909419596195,0.0029077865183353424,0.04129356890916824,0.11946593225002289,0.0035453587770462036,0.061943795531988144,0.015976136550307274,-0.009714149869978428,-0.02593650482594967,0.006325646303594112,0.004231871571391821,-0.018719732761383057,0.0013342980528250337,0.02404993772506714,0.010234318673610687,-0.020612241700291634,0.007649899460375309,-0.046260423958301544,-0.02184099331498146,0.018896132707595825,-0.006369464099407196,-0.005102826748043299,-0.034548092633485794,-0.015141278505325317,-0.0011232292745262384,-0.022161848843097687,-0.005757708568125963,-0.07187055796384811,0.007472234312444925,-0.03255433589220047,0.053664982318878174,-0.0011642103781923652,0.017296159639954567,0.02061322331428528,-0.011610385961830616,-0.03135140985250473,-0.004212888423353434,-0.01295519433915615,-0.028358889743685722,-0.01437292154878378,0.05122218281030655,-0.03054720163345337,-0.05518174543976784,0.04230215772986412,0.034391697496175766,0.029498163610696793,-0.021617267280817032,-0.01754770427942276,0.044574521481990814,0.031125307083129883,-0.043253976851701736,-0.03258698061108589,0.011646649800240993,-0.024642163887619972,0.01998332142829895,-0.018171854317188263,0.03721155226230621,-0.007409980986267328,0.010585885494947433,-0.016562193632125854,-0.03521601855754852,-0.0044410135596990585,-0.03985999897122383,0.014581245370209217,0.013411523774266243,0.06912558525800705,-0.05518848076462746,0.02653653547167778,0.027973297983407974,0.017508093267679214,-0.014925439842045307,0.02472063899040222,0.002684800187125802,0.017485251650214195,-0.004421601537615061,0.0285697840154171,0.009462316520512104,0.07817791402339935,-0.006752978079020977,-0.006775777321308851,-0.00797023344784975,-0.024110471829771996,-0.008712442591786385,0.02148580364882946,-0.0608271025121212,-0.04043067246675491,0.0018435753881931305,-0.014691551215946674,-0.016972528770565987,-0.010660586878657341,0.02492905966937542,-0.04158885031938553,0.013669800013303757,-0.012414311058819294,-0.005932621657848358,0.041464824229478836,-0.008534030988812447,0.03458888456225395,-0.01108182966709137,-0.009706762619316578,0.004551712889224291,-0.004212760366499424,0.008604309521615505,-0.04553970694541931,-0.01517726294696331,-0.02431839518249035,-0.06510960310697556,0.03210458531975746,-0.013962662778794765,0.02333882637321949,0.013332357630133629,-0.025945287197828293,0.009058542549610138,0.025029459968209267,-0.01986754685640335,-0.06166758015751839,-0.05551927909255028,0.0018141553737223148,-0.009768983349204063,0.03333494812250137,-0.009941155090928078,-0.014358950778841972,-0.03117721900343895,-0.010456308722496033,0.009256260469555855,-0.03407902270555496,0.04774316027760506,-0.04454296454787254,-0.008006293326616287,-0.03960941731929779,0.024542225524783134,0.017886502668261528,0.02464841865003109,-0.0350637324154377,0.0020334282889962196,-0.013667093589901924,0.04993531480431557,-0.013081655837595463,0.023101652041077614,0.0038367891684174538,0.031941238790750504,-0.053690105676651,0.05526597797870636,-0.029408825561404228,-0.044591523706912994,-0.013587774708867073,0.018399672582745552,0.006876563187688589,0.01355301309376955,-0.017419809475541115,0.0335860550403595,0.0061570387333631516,0.005905517376959324,0.034297876060009,-0.0038920657243579626,-0.017541535198688507,0.047106169164180756,0.020372658967971802,-0.0011986924801021814,-0.05546658858656883,0.009305310435593128,0.005266344640403986,-0.01615956239402294,-0.03804604709148407,-0.032634951174259186,0.02633330225944519,-0.038190051913261414,0.028047259896993637,-0.023420508950948715,0.003190896939486265,0.0015403239522129297,-0.0033889024052768946,-0.0052984124049544334,-0.03580404072999954,0.01654011756181717,-0.02085830830037594,0.0003771241754293442,0.022174188867211342,-0.014079781249165535,-0.030309194698929787,0.004945486783981323,0.020472461357712746,0.0077770669013261795,-0.047744911164045334,-0.09367375820875168,-0.01678183674812317,-0.015686195343732834,-0.014800727367401123,0.04392990469932556,0.030156904831528664,-0.06369002908468246,0.0029251647647470236,-0.11426108330488205,0.01619032956659794,0.043944425880908966,-0.07241643965244293,0.03002578392624855,-0.01586119271814823,-0.013234577141702175,-0.023487478494644165,0.033289190381765366,-0.008689279668033123,0.01445696596056223,-0.014899072237312794,-0.022060994058847427,0.04908068850636482,0.01745874620974064,0.004808452446013689,0.019504571333527565,0.012425782158970833,0.047777604311704636,-0.03157173469662666
Ananas,0.059406913816928864,-0.05832328274846077,0.006051968317478895,0.023275673389434814,0.02558453381061554,0.05734442546963692,0.032435931265354156,-0.04348189756274223,0.04839681461453438,0.004001824650913477,0.0038046189583837986,-0.07682763785123825,0.022995134815573692,0.04217330366373062,0.042909886687994,0.007427047472447157,0.04333437606692314,-0.008453154005110264,-0.05577604100108147,-0.03226804360747337,0.04690708592534065,0.0702611431479454,-0.027879882603883743,-0.02776717022061348,0.01920059323310852,-0.013715985231101513,-0.02993391826748848,0.012582184746861458,-0.01417017262428999,-0.04839390888810158,-0.04507911205291748,0.047549713402986526,-0.08929111063480377,0.006348989903926849,0.1002219095826149,0.02590111270546913,0.022228645160794258,-0.03215697035193443,0.04092564806342125,-0.014252587221562862,-0.055939625948667526,-0.06882309168577194,-0.047038961201906204,0.02872810699045658,-0.037348367273807526,0.07238306105136871,-0.03899926692247391,0.018287459388375282,-0.0030258537735790014,-0.030656320974230766,0.030705651268363,-0.09598960727453232,-0.011263012886047363,-0.059916313737630844,-0.007090120110660791,-0.028952891007065773,-0.011772753670811653,0.06354013830423355,-0.02484062872827053,-0.08140068501234055,0.05295625329017639,0.002907394664362073,0.01843584142625332,-0.041197001934051514,0.016444925218820572,-0.04980585724115372,0.07261679321527481,0.022927453741431236,0.07076083868741989,0.0032136563677340746,0.03999381139874458,0.023555271327495575,0.01676109991967678,-0.09467308968305588,0.014694200828671455,-0.013289018534123898,0.05779730901122093,0.058635223656892776,0.04964037612080574,0.011898837983608246,0.0014202765887603164,0.014947772026062012,-0.05530958250164986,0.010081665590405464,-0.05476928874850273,0.06005838140845299,-0.00806333962827921,0.0704067125916481,-0.05811154842376709,-0.08316458016633987,0.08075994998216629,0.05735990032553673,-0.02011616714298725,0.010694244876503944,-0.023728078231215477,0.01402928214520216,-0.050868283957242966,-0.02417883463203907,-0.04436024650931358,-0.0016711846692487597,0.012147943489253521,0.034990135580301285,-0.04900242015719414,0.00828119833022356,0.009566954337060452,-0.09997787326574326,-0.0573887936770916,0.009467347525060177,-0.0229788888245821,-0.0352567695081234,0.017704764381051064,-0.07053732126951218,-0.012874198146164417,-0.0076523455791175365,0.03497978672385216,-0.04681214317679405,0.009531545452773571,-0.012970278970897198,0.10304584354162216,0.005945837590843439,-0.08772971481084824,0.035388458520174026,0.05494387075304985,0.031401682645082474,-0.042939186096191406,-0.019403470680117607,-0.032603781670331955,0.02266801707446575,0.014638212509453297,0.0031757261604070663,-0.02623518742620945,0.07384177297353745,0.08845168352127075,-0.07170223444700241,0.08256231248378754,-0.07869172841310501,0.005983264185488224,-0.0005269050598144531,0.006211386527866125,0.02553526870906353,-0.060565318912267685,-0.02538963034749031,0.0995931401848793,-0.040711693465709686,0.016214093193411827,-0.0727078840136528,0.006128378678113222,-0.016925739124417305,0.004108262248337269,-0.044749390333890915,-0.1175968274474144,0.07179483026266098,-0.05540924146771431,0.01066926121711731,0.08360501378774643,0.13307009637355804,0.001186980283819139,-0.05779881402850151,-0.0250143613666296,-0.01983817294239998,0.009378637187182903,-0.0869143158197403,0.03699026256799698,-0.056199219077825546,0.02944028750061989,0.06954064220190048,0.013096719980239868,0.05088445171713829,-0.003037281334400177,-0.007562539074569941,-0.01171534787863493,0.004681851249188185,0.006024519447237253,-0.03411347419023514,0.02574494481086731,-0.01579294167459011,-0.007156838662922382,-0.049258723855018616,0.045081377029418945,-0.0012975797289982438,0.025120679289102554,-0.017169034108519554,-0.06298847496509552,-0.01612481288611889,0.003115154802799225,0.007941922172904015,-0.0904313400387764,-0.008514239452779293,-0.029671505093574524,0.013859450817108154,-0.06994058936834335,-0.07086067646741867,-0.006302762310951948,-0.11156671494245529,-0.017572050914168358,0.05732524394989014,0.06940324604511261,0.047159451991319656,0.035668469965457916,-0.005708466749638319,-0.016302242875099182,0.009332919493317604,-0.011193047277629375,0.06502177566289902,-0.005844731815159321,-0.062277670949697495,0.005988481920212507,0.03167023882269859,-0.0109065230935812,-0.0026370526757091284,0.09541541337966919,-0.09798941016197205,0.008316789753735065,0.03393774479627609,-0.011159253306686878,0.04676932469010353,-0.0899219736456871,-0.03719527646899223,0.007414701860398054,0.02294904552400112,0.02709449827671051,0.001756759942509234,-0.08060729503631592,0.006329922471195459,0.03127044066786766,-0.10247375071048737,-0.0005334019660949707,-0.0013590961461886764,-0.011078381910920143,-0.019422367215156555,0.0811176598072052,0.0047439648769795895,0.0032674537505954504,-0.05161583051085472,-0.044406991451978683,0.08430621027946472,-0.07417687773704529,-0.054411448538303375,0.04109048470854759,0.022838760167360306,0.09151489287614822,0.038918811827898026,0.09178023785352707,-0.023680051788687706,0.012486103922128677,-0.005825363099575043,-0.019592411816120148,-0.03319313004612923,0.058676689863204956,-0.0647679939866066,-0.055220749229192734,-0.01292561274021864,-0.0015467256307601929,0.03313504159450531,-0.0099751902744174,0.060139548033475876,-0.03309861570596695,-0.018346337601542473,0.0801689624786377,-0.05007987841963768,0.002849301788955927,-0.10045378655195236,0.07084786146879196,-0.12993095815181732,-0.02621757984161377,0.010562821291387081,0.014931290410459042,-0.012445094995200634,-0.006891738157719374,-0.04151414707303047,-0.029693713411688805,-0.04487356171011925,-0.12473856657743454,-0.02623441256582737,-0.0018399950349703431,0.02097500115633011,0.14564843475818634,0.01899825409054756,0.031544968485832214,0.0802292749285698,-0.1379394382238388,0.10077524185180664,-0.021977117285132408,0.02846457064151764,0.00846878718584776,0.09362390637397766,0.019705651327967644,0.0032543260604143143,0.06436346471309662,-0.06796964257955551,0.09850331395864487,0.024239012971520424,0.04049830511212349,-0.0721903145313263,0.0044314684346318245,0.04297956824302673,0.04875224828720093,0.034637365490198135,-0.0005193189135752618,-0.05323077365756035
Granatapfel,0.019227992743253708,-0.031475409865379333,-0.00288872211240232,-0.005428442265838385,0.03518953174352646,-0.021946484223008156,-0.013574525713920593,0.0019350011134520173,0.04074706882238388,-0.018967678770422935,-0.022547796368598938,-0.028420744463801384,0.013234458863735199,0.07225238531827927,-0.01670612394809723,0.003266410669311881,0.021394291892647743,-0.042494602501392365,-0.06315760314464569,-0.005457145161926746,0.0610051266849041,0.03658517822623253,-0.022258110344409943,0.010365381836891174,0.02118491940200329,0.019077759236097336,-0.04811524227261543,0.028479237109422684,-0.05755781754851341,-0.00824560597538948,-0.0172859076410532,0.03747546672821045,0.026566166430711746,0.002574838697910309,0.03449273854494095,-0.000510642712470144,-0.004557607229799032,0.00029431935399770737,0.013391884043812752,-0.0021924972534179688,-0.017482362687587738,-0.017120663076639175,0.0037174460012465715,-0.05886446312069893,-0.003994533326476812,0.06023510918021202,-0.018568793311715126,0.012667718343436718,0.0018165111541748047,-0.011104914359748363,0.03579140454530716,-0.0370657704770565,0.0443396270275116,0.031302936375141144,0.0006524596246890724,0.005205827299505472,0.005065795034170151,-0.012468243017792702,0.025747478008270264,-0.0415673665702343,0.041629135608673096,-0.03516072779893875,-0.014645506627857685,0.02712009847164154,-0.036985285580158234,0.05362465977668762,0.04918675497174263,-0.013888341374695301,0.0021106076892465353,-0.0013519608182832599,-0.003042346565052867,0.018953237682580948,0.003527135355398059,-0.013301662169396877,-0.015399341471493244,0.043616797775030136,0.02240036614239216,0.024762189015746117,0.015551510266959667,0.03496449813246727,-0.004962166305631399,0.017655564472079277,0.0011868764413520694,-0.002493704902008176,-0.014185808598995209,0.014541253447532654,-0.005963134113699198,-0.01101603265851736,-0.03362448513507843,-0.035229455679655075,0.01924322545528412,0.00887101050466299,-0.0014747224049642682,0.012708194553852081,0.01629374362528324,0.018132060766220093,0.005275806877762079,0.011167683638632298,-0.003146042814478278,-0.02250039391219616,0.019057536497712135,0.01976539008319378,-0.012592459097504616,-0.025880133733153343,0.017532814294099808,-0.06434576213359833,0.01761915720999241,0.014742836356163025,-0.024992121383547783,-0.029241641983389854,0.022783717140555382,-0.056130558252334595,0.04941985756158829,-0.02491184137761593,0.002279778942465782,-0.03993964195251465,-0.011525199748575687,-0.00500660203397274,0.016691094264388084,-0.0035253376699984074,0.0049507650546729565,0.0055573987774550915,0.01990213803946972,-0.025369782000780106,-0.0014152034418657422,-0.01594517007470131,-0.015434353612363338,0.038048844784498215,-0.0016663855640217662,-0.06224704906344414,-0.053430359810590744,0.05325287580490112,0.027540717273950577,0.004680261947214603,-4.9591064453125e-05,-0.03584504500031471,0.028395498171448708,-0.0019412062829360366,0.017790237441658974,0.005463925655931234,-0.004282423295080662,-0.023246068507432938,0.05026457458734512,-0.0037649869918823242,0.015008402056992054,-0.007365101482719183,0.012190802954137325,0.0016885338118299842,-0.01484306063503027,0.004898248706012964,-0.03915286809206009,0.04475311189889908,-0.017811760306358337,0.006422602571547031,0.021924475207924843,0.05310077220201492,0.013330881483852863,-0.040006618946790695,0.05525646731257439,-0.04274870082736015,-0.013480857014656067,-0.01439457293599844,0.01894877664744854,-0.016848105937242508,0.005508992820978165,0.040216293185949326,-0.05022608861327171,-0.008275031112134457,-0.0053560552187263966,0.019351596012711525,-0.015554876998066902,-0.0067640142515301704,-0.0018542197067290545,-0.028093520551919937,0.024449771270155907,0.004586528521031141,-0.01753043942153454,-0.030055081471800804,0.005132598802447319,-0.0020042029209434986,-0.03138751909136772,-0.019687026739120483,0.008608578704297543,-0.0022134799510240555,-0.02675950899720192,0.01929507777094841,0.008731089532375336,0.024435779079794884,0.01354553084820509,-0.047528233379125595,-0.0370434895157814,-0.01792929880321026,0.03770693391561508,-0.04123980179429054,-0.029986536130309105,0.022529462352395058,0.011840465478599072,-0.009136310778558254,-0.04431018605828285,0.004045525565743446,-0.0056261830031871796,-0.013375828973948956,-0.017248479649424553,-0.06896670907735825,-0.022223567590117455,-0.06382609903812408,-0.02099173329770565,0.013588905334472656,-0.015245183371007442,0.02871657907962799,0.07745181769132614,-0.07794436067342758,-0.0036332213785499334,0.003940931987017393,0.024462755769491196,0.02289791777729988,-0.04777003824710846,0.00667813653126359,0.0002642751205712557,-0.045065607875585556,-0.020209288224577904,-0.007870973087847233,-0.027934154495596886,-0.05506078153848648,0.0229826457798481,-0.03784662485122681,0.008629944175481796,0.0111275939270854,-0.0013408222002908587,0.025031497702002525,0.007650013547390699,-0.0020879157818853855,0.004107879940420389,-0.009144066832959652,-0.0290141049772501,-0.0036949124187231064,-0.01260011363774538,0.012977768667042255,0.02546914853155613,0.01244432758539915,0.0819922462105751,-0.0056079658679664135,0.014068029820919037,-0.018012313172221184,0.034104522317647934,0.020880410447716713,0.010569815523922443,-0.015173313207924366,-0.013985821977257729,-0.010186882689595222,-0.031745459884405136,0.01561551820486784,-0.0018864989979192615,0.029923755675554276,0.027869150042533875,0.037393104285001755,-0.011339737102389336,-0.035144831985235214,0.02991383709013462,0.02353190816938877,-0.02335030399262905,-0.02529122307896614,0.00872473418712616,-0.04073267802596092,0.006978418678045273,-0.034647081047296524,0.01922198012471199,-0.011707928963005543,-0.02673613838851452,-0.009179030545055866,0.022869860753417015,0.0024978118017315865,-0.04207247123122215,-0.07019450515508652,-0.014162956736981869,0.016104681417346,0.06611271947622299,0.007828496396541595,-0.04412363842129707,-0.031801462173461914,-0.04100712388753891,0.01956353709101677,-0.00895786751061678,0.011045911349356174,0.012479380704462528,0.09115325659513474,0.008736859075725079,0.019322535023093224,0.029593417420983315,-0.07812841236591339,0.00758345564827323,-0.0062039396725595,0.004354460164904594,-0.012969781644642353,-0.004420001991093159,-0.0019959115888923407,0.030913209542632103,-0.009350331500172615,-0.014061531983315945,-0.030179012566804886
Brot,0.026018451899290085,-0.003126205410808325,0.11816905438899994,0.014159658923745155,-0.04543470963835716,-0.10508707165718079,0.07381421327590942,-0.014055952429771423,0.07443522661924362,-0.07067915797233582,0.05522780865430832,-0.19729851186275482,0.014650316908955574,-0.10302311182022095,0.08759095519781113,0.011428955011069775,0.12427052110433578,-0.021766407415270805,0.0030743232928216457,-0.04917830973863602,0.16645917296409607,0.03623436391353607,-0.05048332363367081,-0.03490252420306206,-0.018579555675387383,-0.09286301583051682,-0.01248263381421566,0.023277608677744865,-0.09777068346738815,-0.031069351360201836,0.012690696865320206,-0.16040551662445068,0.09270133823156357,-0.0271877683699131,0.030281906947493553,-0.15346628427505493,-0.003751493990421295,0.11197029054164886,0.10685557126998901,-0.0057248277589678764,-0.015289820730686188,0.05861840397119522,-0.006402619183063507,-0.1376873254776001,-0.057965122163295746,0.060457758605480194,-0.05449604243040085,0.22442016005516052,-0.1409107744693756,-0.01561693288385868,-0.020130068063735962,-0.0009046743507497013,0.09512906521558762,-0.012864166870713234,0.03711104393005371,0.058830343186855316,0.10376463830471039,0.08773614466190338,0.07700695097446442,-0.04890196770429611,-0.006460788659751415,-0.1347724199295044,0.007145254872739315,0.0021363466512411833,-0.04649139195680618,-0.026627633720636368,0.06356201320886612,-0.10233969986438751,-0.06398535519838333,0.07630187273025513,-0.05561478063464165,-0.059593312442302704,0.04663246124982834,-0.09373560547828674,-0.021324973553419113,0.04302620887756348,0.005732686258852482,-0.10226039588451385,-0.05770808458328247,0.07781818509101868,-0.025771677494049072,0.10931580513715744,0.01535048894584179,0.06472688168287277,0.07407009601593018,0.12659452855587006,-0.055740080773830414,-0.07389353960752487,-0.010020444169640541,0.008244018070399761,0.0731244832277298,0.15427051484584808,0.003320281859487295,0.05304081365466118,0.007385462522506714,-0.006310641765594482,0.07546940445899963,-0.005729171447455883,-0.1875186264514923,0.014079881832003593,-0.08054955303668976,-0.04940683767199516,0.025188632309436798,-0.00572709646075964,0.05645711347460747,-0.15755993127822876,0.038920335471630096,0.03031362220644951,-0.10256846994161606,-0.19979697465896606,0.094024658203125,0.019367970526218414,0.04208111763000488,-0.11368036270141602,0.0800190344452858,-0.10610716789960861,-0.07663247734308243,-0.10216501355171204,0.01982927694916725,-0.052663788199424744,-0.17036204040050507,0.08932507038116455,-0.13210541009902954,-0.08511903136968613,0.06413896381855011,0.04741690680384636,-0.1412230134010315,0.03971452638506889,0.06778256595134735,0.00702590262517333,0.11413468420505524,0.15289190411567688,0.06778936833143234,-0.13154014945030212,0.195888489484787,0.04545997083187103,0.003954390995204449,-0.02041604183614254,0.09699663519859314,0.13249970972537994,-0.0696990042924881,-0.037119463086128235,0.0881613940000534,-0.1533760279417038,-0.0741690993309021,-0.0501360259950161,0.041993945837020874,0.01983182691037655,0.01030851248651743,-0.0585596039891243,0.051498569548130035,0.0711842030286789,-0.19392302632331848,-0.04956650361418724,0.04007482901215553,0.21041427552700043,0.03698393702507019,0.010516604408621788,-0.09227343648672104,-0.1339079737663269,-0.11657579988241196,0.024170055985450745,0.15690021216869354,-0.03319961205124855,-0.11356444656848907,0.12530571222305298,0.018778856843709946,-0.01707160286605358,-0.030982237309217453,-0.10975780338048935,-0.12480257451534271,0.022476252168416977,0.03007066249847412,0.039898019284009933,-0.09995033591985703,0.08663922548294067,0.09488668292760849,0.06182893365621567,0.026011815294623375,-0.009576997719705105,0.08340128511190414,-0.1399841606616974,-0.08336411416530609,0.07292762398719788,-0.15290066599845886,-0.11171640455722809,-0.0007233079522848129,0.12653890252113342,0.008894403465092182,0.12217485904693604,-0.07754679024219513,-0.018595654517412186,-0.011021098122000694,-0.0291513130068779,0.08540691435337067,0.09628205746412277,0.1547900140285492,0.1088818833231926,0.018376395106315613,-0.12122640013694763,0.11005119979381561,0.13010656833648682,0.014961134642362595,-0.07673271745443344,-0.01974722556769848,0.05001763626933098,0.026654250919818878,0.015451091341674328,-0.019382743164896965,0.07064076513051987,0.12388046085834503,-0.027735888957977295,0.13869847357273102,0.17402991652488708,-0.02271302603185177,-0.13605594635009766,-0.10922106355428696,0.21086250245571136,-0.026616571471095085,0.044994451105594635,-0.027375023812055588,-0.03971613571047783,-0.007067406550049782,0.0566868893802166,-0.031199276447296143,-0.03823275491595268,-0.055465519428253174,0.02732759341597557,0.02604437991976738,0.025410903617739677,0.1482250988483429,0.039096131920814514,-0.06532558053731918,0.034015193581581116,-0.014663915149867535,-0.06088131666183472,-0.022939128801226616,0.008169872686266899,0.003894051071256399,-0.037317514419555664,0.07935219258069992,0.028289850801229477,0.07922196388244629,-0.09692694246768951,-0.0340692512691021,0.07850619405508041,0.026830069720745087,0.0677821934223175,0.015155754052102566,-0.06576383113861084,0.0023364871740341187,-0.0006183981895446777,0.07210761308670044,0.03209630027413368,0.09698431938886642,-0.06554014980792999,-0.02640414796769619,0.07519537210464478,0.037550635635852814,0.009382660500705242,0.0002707284293137491,-0.015043727122247219,0.030093949288129807,-0.05658407509326935,-0.1570029854774475,0.05278366059064865,-0.04877354949712753,0.001885203062556684,-0.216874361038208,0.08647842705249786,0.047684744000434875,0.16085335612297058,-0.1542496234178543,-0.17187045514583588,-0.0199029091745615,-0.05978908762335777,0.2000178098678589,0.0208542849868536,-0.02713797800242901,-0.07436345517635345,-0.12187337875366211,-0.07001253962516785,-0.06436674296855927,0.055651262402534485,0.029090097174048424,0.03925904259085655,-0.0468427836894989,-0.04242329299449921,0.08013328164815903,0.00724282581359148,0.1317211389541626,-0.07878869026899338,0.20440572500228882,-0.10336055606603622,-0.010364741086959839,-0.05275396630167961,-0.03210592269897461,0.048703115433454514,0.03158523142337799,-0.053034327924251556
Fisch,-0.023467088118195534,0.04817866533994675,-0.00948835164308548,0.002892670687288046,-0.019754961133003235,-0.08119191229343414,-0.016925539821386337,-0.01570570096373558,0.051474958658218384,-0.06623510271310806,0.04601503536105156,-0.09380470961332321,-0.004740031436085701,0.019201042130589485,-0.07466265559196472,-0.013517138548195362,0.0453939214348793,0.09996585547924042,0.05043961480259895,-0.07206858694553375,0.00894729420542717,0.04904838651418686,0.038247060030698776,-0.031111471354961395,-0.0050162081606686115,-0.10747212171554565,-0.0745471715927124,-0.0011685071513056755,-0.06762109696865082,-0.0003435090184211731,-0.1386779546737671,0.0809648409485817,-0.020888641476631165,0.0031601646915078163,0.13143813610076904,0.0390075147151947,-0.15943092107772827,0.06881222128868103,0.031130626797676086,0.026278477162122726,0.07528595626354218,-0.005451160483062267,-0.0631573349237442,-0.03768322244286537,-0.01363698672503233,0.03994554653763771,-0.05329376831650734,0.008133788593113422,-0.009172668680548668,0.023753667250275612,-0.01298690214753151,0.02238142490386963,0.10408632457256317,-0.05553748831152916,0.007213791366666555,0.07521869242191315,0.006956254597753286,0.07077792286872864,0.009435517713427544,-0.006494998931884766,-0.02871222421526909,-0.04824569821357727,-0.07679580897092819,0.05714070051908493,-0.024484805762767792,-0.0005331011489033699,0.07393001019954681,-0.08066093176603317,-0.0006682503735646605,-0.0069032092578709126,0.02434205263853073,-0.05470646172761917,-0.004339723847806454,-0.07407958805561066,0.016339614987373352,0.023103822022676468,-0.0566575713455677,0.007056444883346558,5.214661359786987e-05,-0.030957136303186417,-0.009132913313806057,-0.007562438026070595,0.020921094343066216,0.03161526098847389,-0.003946732264012098,0.0911179631948471,0.028105249628424644,-0.0329432487487793,0.07046779990196228,0.06941056996583939,-0.0017911754548549652,-0.14262539148330688,-0.03331349790096283,0.009457200765609741,0.0554676353931427,0.02973170205950737,0.08111923933029175,0.012010817416012287,-0.022975178435444832,-0.013353721238672733,-0.012558821588754654,0.08882644772529602,0.03166162222623825,0.020811131224036217,0.011640442535281181,-0.14108331501483917,-0.04823405668139458,0.05191146582365036,0.061265651136636734,-0.02733113430440426,0.08138139545917511,0.025950446724891663,0.022780869156122208,-0.09386008232831955,-0.026804445311427116,-0.06344741582870483,0.024501346051692963,-0.07947345823049545,0.034706294536590576,-0.04390401393175125,-0.035639047622680664,-0.008968578651547432,-0.06353367865085602,0.009538669139146805,0.05756743624806404,0.14544744789600372,-0.059392720460891724,0.0698762759566307,-0.04059262573719025,0.08232418447732925,-0.0778433158993721,0.1588478833436966,-0.004370243288576603,0.025561321526765823,0.07287950068712234,-0.03403177484869957,-0.012553105130791664,0.0773429423570633,0.043518535792827606,0.07167068868875504,0.044482871890068054,-0.043047256767749786,0.14651142060756683,-0.07841452211141586,0.015540601685643196,-0.04455592483282089,-0.031154833734035492,0.04764328896999359,-0.0389239676296711,0.07009350508451462,-0.032072763890028,0.0995565876364708,0.02142113819718361,0.08759357780218124,-0.02112654410302639,0.14166170358657837,-0.006960378494113684,-0.027515705674886703,0.054596204310655594,-0.14732591807842255,0.02627459168434143,-0.04383724555373192,-0.010699927806854248,-0.05041462182998657,0.07079197466373444,0.05240028724074364,0.010865136981010437,-0.06525006145238876,-0.012930150143802166,0.0024901139549911022,-0.02833477035164833,-0.00980360060930252,0.05145161226391792,0.01924184337258339,0.030397245660424232,0.030992500483989716,0.05634059011936188,0.07547902315855026,0.04516114667057991,0.004994302988052368,0.05715231969952583,-0.002981532132253051,0.0333733856678009,-5.682092159986496e-05,0.00895414687693119,-0.0658349096775055,0.021312426775693893,0.06734006106853485,-0.002647346816956997,-0.0200579222291708,0.0220775343477726,-0.09063877910375595,-0.030733473598957062,0.07249591499567032,0.10577134788036346,0.13863645493984222,0.03835213556885719,0.11072631180286407,0.10808086395263672,0.05086640641093254,0.05546611547470093,0.04361065849661827,0.014222849160432816,0.07712794840335846,0.05864177644252777,-0.0449330136179924,0.01618186943233013,-0.0805421844124794,-0.0749543309211731,0.09406272321939468,0.053379449993371964,-0.08081246167421341,0.011329361237585545,0.12025963515043259,0.07444850355386734,0.06713540852069855,-0.05055900290608406,0.05811141058802605,-0.09547986090183258,0.12731829285621643,0.043135255575180054,-0.050466619431972504,0.023073548451066017,0.10324274748563766,0.032064300030469894,0.004593527410179377,0.04523225128650665,-0.017700010910630226,0.03557584434747696,-0.018315095454454422,0.132268026471138,0.023371949791908264,-0.05023743957281113,0.04966804012656212,-0.017464175820350647,0.01835850067436695,-0.08393076062202454,0.08120173960924149,0.09434321522712708,-0.04180135577917099,0.10561279952526093,0.11747974157333374,0.08707307279109955,-0.07432180643081665,0.0940050482749939,-0.15532219409942627,0.027794888243079185,0.03275267034769058,0.006286529824137688,-0.0007997285574674606,-0.04394799843430519,-0.031004950404167175,0.060697585344314575,-0.026807425543665886,0.015121681615710258,-0.02959190122783184,-0.044913046061992645,0.0007971745217218995,-0.037974730134010315,0.009314765222370625,0.05897029489278793,-0.023770373314619064,0.09165201336145401,-0.09500116854906082,-0.06924551725387573,-0.03980002924799919,-0.008138296194374561,-0.037378739565610886,-0.08570556342601776,0.01727360486984253,-0.002038087695837021,-0.07045367360115051,-0.12025410681962967,-0.049262937158346176,0.05468907579779625,0.027850233018398285,0.17566882073879242,-0.07927300781011581,-0.05049581825733185,0.053712405264377594,-0.17868252098560333,0.026177890598773956,-0.04352166876196861,0.042592331767082214,0.03085741586983204,0.03226476162672043,-0.06267724931240082,-0.062412016093730927,0.08069142699241638,0.066407211124897,0.010616103187203407,0.07199034839868546,0.09667117893695831,0.0038425051607191563,-0.04973740130662918,0.03644605353474617,0.04729079827666283,-0.03889084979891777,-0.021361486986279488,-0.047077979892492294
Fleisch,-0.0033080028370022774,0.033674586564302444,-0.0004410032997839153,0.01911839470267296,-0.05434088408946991,-0.03423108905553818,0.034940704703330994,-0.05032185837626457,0.037585653364658356,-0.08352573961019516,0.06749039143323898,-0.08787968754768372,0.0009332163026556373,0.04251302778720856,-0.018603529781103134,0.015057830139994621,0.012213056907057762,0.024613797664642334,0.037325166165828705,-0.05031603202223778,0.015083624981343746,0.03998702019453049,0.012399367056787014,-0.034256841987371445,0.020698536187410355,-0.026894619688391685,-0.04844522476196289,0.06512003391981125,-0.05608922988176346,0.0032515618950128555,-0.02619744837284088,-0.0716857984662056,0.007500307634472847,-0.013436270877718925,0.03424742817878723,-0.007248814217746258,-0.020602717995643616,0.021634891629219055,0.06884288787841797,-0.01624779775738716,-0.016713645309209824,0.03585971146821976,-0.04507496953010559,-0.02904229611158371,-0.04256913810968399,0.057904794812202454,-0.016284044831991196,0.006048336625099182,-0.05608932673931122,-0.0050386846996843815,0.030339082702994347,-0.03512505814433098,0.05162961408495903,-0.04028262570500374,0.016786154359579086,-0.008744902908802032,0.03861774504184723,0.02530290000140667,0.04091251641511917,-0.024401282891631126,0.004057205282151699,-0.08178059011697769,-0.02883153222501278,0.036074571311473846,-0.027896661311388016,0.03160829097032547,0.04263335466384888,-0.06945906579494476,0.016726333647966385,-0.003476587124168873,-0.041878364980220795,-0.050006717443466187,0.0007554378244094551,-0.06761309504508972,-0.004570213612169027,0.005827227141708136,0.0024731315206736326,-0.014812368899583817,-0.020652402192354202,-0.052239350974559784,-0.02380300685763359,-0.012639809399843216,-0.021565226837992668,0.032868847250938416,0.029985396191477776,0.08694654703140259,-0.008840620517730713,-0.06400546431541443,-0.04066199064254761,0.0329623743891716,0.02415218949317932,-0.011970125138759613,-0.04140117019414902,0.03817575052380562,-0.005092301405966282,0.004334989003837109,0.03941638022661209,-0.012233411893248558,-0.0733870193362236,0.0358097217977047,-0.04966265708208084,0.04749297350645065,-0.00988008826971054,0.0216662660241127,0.051956456154584885,-0.05905875191092491,-0.00731264054775238,-0.018736306577920914,-0.005671244114637375,0.004316326230764389,0.05134882777929306,-0.006310669239610434,0.009211260825395584,-0.013104735873639584,-0.04668193310499191,-0.0035656276158988476,-0.016136884689331055,-0.030868535861372948,0.04621141403913498,-0.03845769166946411,-0.06432041525840759,-0.020133068785071373,-0.0195670947432518,0.024618566036224365,0.05297323316335678,0.08860554546117783,-0.08679410070180893,0.044349633157253265,0.017424188554286957,0.014950145035982132,0.08093778789043427,0.09933887422084808,-0.015732072293758392,-0.0174709465354681,0.06475873291492462,-0.027759645134210587,-0.007119968067854643,0.0028370977379381657,0.012297168374061584,-0.0213095061480999,-0.001980361994355917,-0.021065538749098778,0.07804644852876663,-0.08953165262937546,0.04625113308429718,-0.03382403776049614,0.03672167658805847,0.0009487761999480426,0.03582870960235596,0.031933482736349106,-0.02176874689757824,0.05871010944247246,-0.045182935893535614,0.010904842987656593,-0.029555171728134155,0.12019999325275421,0.04204975813627243,-0.014123487286269665,-0.038382068276405334,-0.05634353682398796,0.033367518335580826,-0.0067003946751356125,0.04915079101920128,0.00849725492298603,-0.030796267092227936,-0.004952685441821814,-0.021077489480376244,0.008577555418014526,0.006224457174539566,-0.0005372483283281326,-0.017818942666053772,-0.06582767516374588,0.002111974637955427,0.05270443484187126,0.03182504326105118,0.022522568702697754,0.011567952111363411,0.054886482656002045,-0.007566035725176334,0.07246574759483337,0.019002694636583328,-0.02870556339621544,-0.029915904626250267,0.0072336457669734955,-0.0603475384414196,-0.04291244596242905,0.0152673851698637,0.0604710727930069,-0.0360356867313385,0.01769872009754181,0.016230549663305283,-0.011558661237359047,-0.015861496329307556,0.02456085756421089,0.0372500941157341,0.08458806574344635,0.04233139380812645,0.04170230031013489,0.0717468410730362,0.006667867302894592,0.06787721812725067,0.03701920807361603,0.02264343947172165,0.050200264900922775,-0.002519206842407584,0.031140539795160294,0.029505286365747452,-0.0675048977136612,-0.05097475275397301,0.0758049488067627,0.0447971448302269,-0.06303080171346664,-0.01516750268638134,0.012243883684277534,0.016816943883895874,0.004517711699008942,-0.0214909128844738,0.022178050130605698,-0.05830751359462738,0.07886846363544464,0.009116414934396744,-0.049062810838222504,0.031249327585101128,0.11562447249889374,-0.010417439043521881,-0.008912417106330395,0.023490097373723984,0.04689271003007889,-0.001794577925466001,-0.016015468165278435,0.08003389835357666,-0.004980158526450396,0.0024960199370980263,0.07678335905075073,-0.018511857837438583,0.051106616854667664,-0.01247354131191969,0.022059936076402664,0.026042278856039047,-0.024082735180854797,0.09486605226993561,0.0018104538321495056,0.03610798716545105,-0.04765094071626663,0.07640489935874939,-0.05388262867927551,0.006723164580762386,0.03270344063639641,-0.06174802407622337,-0.024584149941802025,0.0028302459977567196,-0.009688353165984154,0.05761973559856415,-0.026400301605463028,-0.009051929228007793,-0.0352012924849987,-0.04697262495756149,-0.00749565614387393,0.004523990675806999,-0.03817390650510788,0.002465820638462901,0.008399371057748795,0.03622175380587578,-0.007572812028229237,-0.029067685827612877,-0.04961534962058067,-0.02376047894358635,-0.025665750727057457,-0.04931626841425896,0.03644400089979172,-0.10639862716197968,0.062065258622169495,-0.0876988098025322,-0.0458143875002861,0.007106052245944738,-0.003930875565856695,0.11628326028585434,0.026685824617743492,-0.06173158809542656,0.02815372310578823,-0.06680137664079666,0.009348683059215546,-0.04498341679573059,0.003918314352631569,0.007738076150417328,0.023393049836158752,-0.05744528770446777,-0.01118746679276228,0.022458884865045547,0.004664313048124313,0.007173272781074047,0.01222461648285389,0.09605016559362411,-0.02388676255941391,-0.03404313698410988,-0.00879727303981781,0.003420695662498474,-0.020349400117993355,0.01021508127450943,-0.10011254996061325
Milch,0.10096578299999237,-0.026928670704364777,-0.008310176432132721,0.10380226373672485,-0.006194856949150562,0.050590578466653824,-0.023798596113920212,-0.07405745983123779,0.07459646463394165,-0.06758955866098404,0.06005637347698212,-0.05866255611181259,0.01279861107468605,0.010970116592943668,0.037578023970127106,-0.017818203195929527,0.02830345928668976,0.08358071744441986,-0.057676829397678375,-0.09922774881124496,0.08242245763540268,0.042348094284534454,-0.013295825570821762,-0.0009563181083649397,0.05434305593371391,0.00492456741631031,-0.12399166077375412,0.020528364926576614,-0.07034178078174591,0.00951393973082304,-0.0173000730574131,-0.07674150168895721,-0.018465496599674225,-0.017826572060585022,0.01910017617046833,-0.0902019515633583,0.03364861011505127,0.040008749812841415,0.09768673032522202,-0.01574009098112583,-0.028982769697904587,0.08475838601589203,-0.11649200320243835,-0.1480090618133545,-0.042101334780454636,0.01845281384885311,0.00843123160302639,-0.00020822836086153984,-0.03840653598308563,-0.07508810609579086,0.11364729702472687,-0.029312927275896072,-0.033686161041259766,-0.14130845665931702,-0.11333216726779938,0.0941929966211319,0.04884122312068939,-0.08206351101398468,-0.09351874887943268,-0.08883538842201233,0.0033089276403188705,-0.07397028803825378,-0.007645471952855587,0.058082155883312225,-0.09448476135730743,0.13099315762519836,0.08100862801074982,-0.0027639809995889664,0.0022887829691171646,0.07261760532855988,0.0027250517159700394,-0.0545487217605114,-0.013548078015446663,0.012096126563847065,-0.05020437389612198,-0.0504191517829895,0.027065880596637726,0.05681855231523514,-0.10170989483594894,0.036204397678375244,0.00486797746270895,0.01882069930434227,-0.13649681210517883,0.0360836498439312,0.008513787761330605,0.10474856942892075,-0.010665537789463997,-0.004839613102376461,-0.10045792162418365,-0.0071665216237306595,0.05068136006593704,0.04524092748761177,-0.006660702172666788,0.10965771973133087,0.01100119762122631,0.02115665376186371,0.017694050446152687,0.05654117837548256,0.009736246429383755,0.030331600457429886,-0.05492597818374634,0.04825098067522049,-0.0633736103773117,-0.08881580829620361,0.02221783436834812,-0.1512099653482437,0.002598855644464493,-0.011668136343359947,-0.026654407382011414,-0.0203704833984375,0.030464457347989082,0.0466298833489418,-0.005614740774035454,0.026144860312342644,0.012869667261838913,-0.0641685351729393,-0.04683498665690422,-0.046289198100566864,0.06251364201307297,-0.06683982908725739,-0.1734057068824768,0.03242893144488335,-0.11241918057203293,-0.012712141498923302,0.0432564951479435,0.096059650182724,-0.04352904111146927,0.009764695540070534,-0.009199056774377823,0.00033690035343170166,-0.01179590169340372,0.17754817008972168,0.03116494044661522,-0.051674649119377136,0.0339830219745636,0.0038293274119496346,-0.011971894651651382,-0.044758766889572144,0.06993934512138367,0.011485579423606396,-0.06400042027235031,-0.04321305453777313,0.024104788899421692,0.0649300068616867,0.056523390114307404,-0.05816023796796799,0.03679279983043671,0.025944720953702927,0.05979933962225914,-0.020704098045825958,0.07415036857128143,0.10178017616271973,-0.08659542351961136,-0.008371371775865555,-0.07342401146888733,0.14738346636295319,0.0681777372956276,-0.03940272703766823,-0.04871043190360069,-0.013922606594860554,-0.09331090748310089,-0.03027380257844925,0.03631282597780228,0.008729858323931694,0.0884564220905304,0.10027337819337845,0.07917642593383789,-0.061161525547504425,-0.03234516829252243,-0.05675135552883148,-0.026270149275660515,-0.05355660989880562,0.048346202820539474,0.0015487316995859146,-0.046197906136512756,0.028226163238286972,0.05173654481768608,0.041354987770318985,0.03820522129535675,0.061311278492212296,-0.0524379126727581,-0.0661277249455452,-0.08354770392179489,0.0012492893729358912,0.009584065526723862,-0.060332756489515305,0.018128838390111923,0.062288492918014526,-0.008481745608150959,0.03923527151346207,0.06161058694124222,-0.0638999491930008,-0.04035491496324539,-0.02376936376094818,0.07320418953895569,0.07692581415176392,0.055885765701532364,0.06341089308261871,0.06342408061027527,-0.037720758467912674,0.08673697710037231,0.06258539110422134,-0.04464137554168701,-0.06000487506389618,-0.08004535734653473,0.03229255974292755,0.0883355662226677,-0.022696062922477722,0.03192070871591568,0.027834832668304443,0.10548106580972672,0.042280495166778564,0.049249496310949326,0.006027253810316324,-0.03602929785847664,-0.08625564724206924,-0.06344399601221085,0.017725877463817596,-0.08283248543739319,-0.03773520141839981,0.07120197266340256,-0.030030548572540283,0.09786416590213776,0.023333009332418442,0.0386565625667572,0.08924960345029831,0.01952757127583027,0.017608461901545525,0.021449103951454163,-0.07745527476072311,0.15512140095233917,-0.05315224081277847,-0.015641897916793823,0.03235376626253128,-0.021745575591921806,0.02561085857450962,-0.07133112102746964,0.004613947123289108,0.05625680461525917,-0.05874834954738617,0.12423008680343628,0.024736829102039337,0.10621467232704163,-0.056448813527822495,0.07829847186803818,0.09606918692588806,0.002716642804443836,0.0413636788725853,-0.01073820237070322,0.004710547626018524,0.024112004786729813,0.008245772682130337,-0.02704809233546257,-0.03626040369272232,0.0407184474170208,0.08370161801576614,0.06779060512781143,0.0229716207832098,0.07802511751651764,-0.0016509518027305603,-0.0024238917976617813,0.05489317700266838,0.04548946022987366,-0.0006102719344198704,0.023120597004890442,-0.021107623353600502,-0.026700083166360855,0.11728878319263458,-0.03286173567175865,0.013933062553405762,-0.0898984745144844,0.1409512609243393,-0.10080024600028992,0.0026336070150136948,-0.041603054851293564,0.0153697170317173,0.1689613312482834,-0.015493923798203468,-0.030567606911063194,-0.03610648214817047,-0.15634655952453613,0.01814338006079197,-0.05198093131184578,-0.09145591408014297,-0.05073476955294609,0.054216042160987854,0.0596546046435833,0.07674568146467209,0.10871975868940353,-0.002544121816754341,0.013642292469739914,-0.07275532931089401,0.14868605136871338,-0.03478040546178818,0.05376531183719635,-0.03193099796772003,-0.019073249772191048,-0.09927962720394135,0.05830986797809601,-0.1267250031232834
Msli,0.009817911311984062,0.017953429371118546,-0.04375549405813217,0.08677307516336441,-0.07430325448513031,-0.05769799277186394,-0.09527785331010818,-0.039214394986629486,0.03347565233707428,-0.07550643384456635,0.030693668872117996,-0.04892253875732422,0.08021489530801773,0.0512416809797287,0.038513921201229095,-0.08877771347761154,0.06552682816982269,0.07056616246700287,0.008909041061997414,0.005660663358867168,0.08498572558164597,-0.003977607004344463,-0.0522603765130043,0.033131688833236694,0.02791730687022209,0.016263660043478012,-0.0052115097641944885,0.13125529885292053,-0.058112382888793945,-0.022519052028656006,-0.028121739625930786,-0.03856624290347099,0.048485830426216125,0.010037647560238838,0.07920416444540024,-0.06485140323638916,0.08120977878570557,0.04746944457292557,0.10186025500297546,-0.013036863878369331,0.005134510807693005,0.08318492770195007,-0.08394332230091095,-0.11739766597747803,0.030841730535030365,0.12144418060779572,-0.011359414085745811,0.03858952596783638,-0.09278660267591476,-0.0018515288829803467,0.018629230558872223,-0.038064975291490555,0.066866934299469,-0.1118655800819397,-0.06018228828907013,0.06389100849628448,0.07975422590970993,-0.033836428076028824,-0.048541974276304245,-0.06311216950416565,0.0739622637629509,-0.042219359427690506,-0.01863565482199192,0.09195587784051895,-0.032969724386930466,-0.06307093799114227,0.07497908174991608,-0.038082823157310486,-0.053651362657547,0.08764126151800156,0.09815546870231628,-0.04008345678448677,0.04927048087120056,-0.00985625945031643,0.0358864851295948,-0.05652748420834541,0.1065884679555893,0.0043692621402442455,-0.003235657699406147,0.06526671350002289,-0.05558609589934349,0.08255496621131897,-0.1476062834262848,0.030099792405962944,0.0019599259831011295,0.10091798007488251,-0.09431912004947662,0.029681408777832985,-0.06969533860683441,-0.12181934714317322,0.048333048820495605,0.03462778031826019,0.02458178997039795,0.025158507749438286,0.05503278598189354,0.061286814510822296,-0.05640990287065506,-0.017053019255399704,-0.1392362117767334,0.08965830504894257,-0.01576554775238037,0.015992384403944016,-0.008028242737054825,-0.08940721303224564,0.06633148342370987,-0.1582520604133606,0.04676040634512901,0.03689470887184143,-0.1366278976202011,-0.062121856957674026,0.03655217960476875,0.009989870712161064,0.13506919145584106,0.022689586505293846,0.035730063915252686,-0.057685550302267075,-0.05266687646508217,-0.008242779411375523,0.06493579596281052,-0.018531188368797302,-0.06297078728675842,-0.0032644886523485184,-0.014378197491168976,0.03513205796480179,0.034231849014759064,0.08782781660556793,-0.021604571491479874,0.031242476776242256,0.056617606431245804,0.0076485564932227135,0.07821117341518402,0.08681834489107132,0.11050921678543091,-0.02439839392900467,0.0794992744922638,-0.07605063170194626,0.029070334509015083,0.02573157660663128,0.008423905819654465,0.10395427793264389,-0.05339648947119713,-0.051246270537376404,-0.019928505644202232,0.020137423649430275,0.04005447030067444,-0.06151304394006729,-0.035075120627880096,0.04095933586359024,-0.021085871383547783,-0.007547828368842602,0.10849829763174057,0.05199141055345535,-0.1457212120294571,-0.01092922780662775,0.08604180812835693,0.1374736875295639,0.06388863921165466,-0.08949261903762817,-0.1289445459842682,-0.07440349459648132,-0.11276915669441223,-0.03102082386612892,0.02448124811053276,0.05361378565430641,0.20971493422985077,0.10088247060775757,-0.021024128422141075,0.010371329262852669,-0.02081475220620632,0.06216486170887947,-0.16903379559516907,-0.02839963138103485,-0.07164698839187622,-0.035452526062726974,-0.09432821720838547,0.026154669001698494,0.03404933214187622,0.05955159664154053,0.02023041807115078,0.016706109046936035,-0.0019057225435972214,-0.008421978913247585,-0.06799343228340149,-0.03476898744702339,-0.10243473201990128,0.01370932161808014,-0.010005077347159386,0.07070557773113251,-0.000949375331401825,-0.0015401095151901245,-0.058038368821144104,-0.13306111097335815,0.01488923467695713,-0.0049709752202034,-0.010060859844088554,0.06750023365020752,0.12568150460720062,-0.0497603565454483,0.03275464102625847,-0.04285139590501785,0.01643504947423935,0.02323395013809204,0.014163127169013023,-0.07710564136505127,-0.05785742029547691,0.038989000022411346,0.008986338973045349,0.0031465389765799046,-0.008558024652302265,-0.01207121554762125,0.07478358596563339,0.019771775230765343,0.061599694192409515,0.024818820878863335,0.04318185895681381,-0.05426541715860367,-0.04251861572265625,-0.03291769325733185,0.07173500210046768,0.048489831387996674,-0.10801585763692856,0.0021592858247458935,0.09369289875030518,-0.16211868822574615,-0.027309544384479523,0.003245212137699127,-0.009033158421516418,-0.056586217135190964,0.0682418942451477,-0.054548732936382294,0.15060672163963318,0.004437081515789032,-0.03361503407359123,0.013221243396401405,-0.010042436420917511,-0.055422525852918625,-0.0739351436495781,0.014109956100583076,-0.0048507209867239,0.015339680947363377,-0.0028917312156409025,-0.06687013804912567,0.031862031668424606,-0.06951435655355453,-0.04772307351231575,-0.030548375099897385,0.030972778797149658,0.012532779946923256,-0.02489946410059929,-0.05497411638498306,0.0043674614280462265,0.001233196584507823,0.008496792986989021,0.09978047013282776,0.10769262909889221,0.08526049554347992,-0.012094571255147457,0.05441611260175705,0.052704840898513794,0.0823366791009903,-0.0031253783963620663,-0.028759466484189034,0.07616616040468216,-0.11696098744869232,-0.042827337980270386,-0.009576860815286636,-0.02012566290795803,0.015627942979335785,-0.05163593590259552,0.011781550012528896,-0.012244120240211487,0.012792285531759262,-0.07669880986213684,-0.024022741243243217,-0.049792733043432236,-0.011585520580410957,0.19200171530246735,0.008311653509736061,-0.05902464687824249,0.024290403351187706,-0.07279536128044128,-0.03965214639902115,-0.03216799348592758,-0.04441184550523758,-0.14192166924476624,0.0820254236459732,0.03200763463973999,0.018878210335969925,-0.0077552106231451035,-0.08258501440286636,0.11376777291297913,-0.10291718691587448,0.10364208370447159,-0.06849589198827744,0.0010288767516613007,-0.07494855672121048,0.024749677628278732,-0.03424018621444702,0.03123842552304268,0.012132137082517147
Haferflocken,0.011255180463194847,0.018733058124780655,-0.010994972661137581,0.030772851780056953,-0.05614380165934563,0.009449511766433716,-0.03767607361078262,-0.018422460183501244,0.0036348772700875998,-0.016084587201476097,0.03187645226716995,-0.015218622982501984,0.03723977878689766,0.016394220292568207,0.008193896152079105,0.00938238576054573,0.020499082282185555,0.03836361691355705,-0.026530615985393524,-0.01749631203711033,0.010960410349071026,0.005412123166024685,-0.029701421037316322,0.008883539587259293,0.0025700796395540237,0.010719780810177326,-0.02474161796271801,0.0004188173043075949,-0.02566004917025566,-0.007167080882936716,-0.0015153399435803294,-0.0180908665060997,0.03081451915204525,-0.0153952119871974,0.053688473999500275,0.00037206633714959025,0.03157857060432434,0.011444248259067535,0.026956597343087196,-0.0015083355829119682,0.000854087935294956,0.03198801353573799,-0.031429506838321686,-0.013742795214056969,0.011632144451141357,0.05793119594454765,0.0038771729450672865,0.02134115621447563,-0.02971886657178402,-0.015059171244502068,0.02841506525874138,-0.025610551238059998,-0.01560406293720007,-0.04364203289151192,-0.020821690559387207,-0.024058055132627487,-0.006071040872484446,-0.016243427991867065,-0.010142289102077484,-0.029247349128127098,0.020946022123098373,-0.002656246069818735,-0.025814345106482506,0.024158796295523643,0.0007255363743752241,0.0409717932343483,0.02027643658220768,0.004105404019355774,-0.012250269763171673,0.014269518665969372,0.038399387151002884,-0.010467213578522205,0.043164461851119995,-0.031227944418787956,-0.012514243833720684,-0.006227967794984579,0.047028277069330215,0.015270198695361614,-0.011237495578825474,0.036203280091285706,-0.018960658460855484,0.0019923318177461624,-0.02300807274878025,0.021386681124567986,0.015563788823783398,0.032118525356054306,-0.0034919437021017075,0.010350717231631279,-0.05006225034594536,-0.04206712171435356,0.014759033918380737,0.0028153068851679564,0.004778623580932617,0.012743356637656689,0.010607795789837837,0.02896100841462612,-0.01619519293308258,-0.019292175769805908,0.0021224089432507753,0.007797638885676861,-0.02160249650478363,0.0010098880156874657,-0.008424738422036171,-0.029131587594747543,0.023312145844101906,-0.08087917417287827,0.010381899774074554,-0.005356803070753813,-0.0518205389380455,-0.030471108853816986,0.013808829709887505,-0.007801112253218889,0.036695946007966995,-0.006266525015234947,-0.0029864762909710407,-0.04081523418426514,0.01629147306084633,-0.01496253814548254,0.04191631078720093,-0.005823900457471609,-0.04353199526667595,0.05070095881819725,-0.006213052198290825,0.006695258431136608,-0.00011055362119805068,0.03248986601829529,-0.012380218133330345,0.028357138857245445,0.031486183404922485,-0.010368828661739826,0.009578528814017773,0.059432025998830795,-0.0006983087514527142,-0.01901187375187874,0.03442743048071861,-0.01952766627073288,-0.00927496887743473,0.011754526756703854,0.01345030590891838,0.03941617161035538,-0.020113101229071617,0.0020247995853424072,-0.025446226820349693,0.001876444905065,-0.022193318232893944,-0.01576928235590458,-0.024354835972189903,-0.011686005629599094,0.009272443130612373,-0.026122914627194405,0.03193819895386696,0.04660345986485481,-0.0305342897772789,0.011481797322630882,0.007444923277944326,0.04255668818950653,0.03978269547224045,-0.022706592455506325,-0.016984768211841583,-0.019134674221277237,-0.032964471727609634,-0.0008980970014818013,0.021004796028137207,-0.006914085708558559,0.05609581246972084,0.016168132424354553,-0.025664303451776505,0.03231537342071533,-0.022921329364180565,-0.001427337876521051,-0.04022166132926941,-0.03280871361494064,-0.01120180357247591,-0.029543738812208176,-0.009475430473685265,0.01724139042198658,0.040049776434898376,-0.009636307135224342,0.017801692709326744,0.0172608382999897,0.021949389949440956,-0.019315974786877632,-0.0303269661962986,-0.017958026379346848,0.01858477294445038,0.01247942354530096,-0.006902214605361223,0.04046390578150749,-0.034373875707387924,-0.0023543410934507847,-0.0029085632413625717,-0.040186554193496704,-0.0013786731287837029,0.007784546818584204,-0.002197849564254284,0.023037271574139595,0.050788670778274536,-0.02916821651160717,0.023230182006955147,-0.030361851677298546,0.011240520514547825,0.02456670068204403,-0.041921135038137436,-0.007386545184999704,0.014568936079740524,0.0008559745620004833,-0.005184214562177658,-0.011366965249180794,0.009326871484518051,-0.012518358416855335,0.028258102014660835,0.028443124145269394,0.03185012936592102,0.008829682134091854,5.397268614615314e-05,-0.04751621186733246,-0.01792936958372593,0.006461275275796652,-0.012155740521848202,-0.01374840084463358,0.009127014316618443,-0.022896716371178627,0.03407999873161316,-0.03274276480078697,-0.012774062342941761,-0.0082614216953516,0.022997349500656128,-0.014436478726565838,0.015603972598910332,-0.015476579777896404,0.061162739992141724,0.003460102481767535,-0.015467914752662182,0.008369042538106441,-0.0011261955369263887,-0.047489412128925323,-0.013048933818936348,-0.005919566843658686,0.02094379998743534,-0.0024816032964736223,0.01916251704096794,-0.02610773965716362,0.03996690362691879,-0.025449195876717567,0.004044176544994116,0.019183922559022903,3.648685014923103e-05,-6.285072595346719e-05,0.019505135715007782,-0.016225622966885567,0.008929641917347908,0.0025364833418279886,-0.0027530125807970762,0.002686724066734314,0.0455450639128685,-0.009759875014424324,0.006869250442832708,0.02753230184316635,-0.01344401203095913,0.006672602612525225,0.023086940869688988,-0.002564232097938657,0.011374174617230892,-0.0654066801071167,-0.012927470728754997,0.043997444212436676,-0.0032543684355914593,0.03054165653884411,-0.012509580701589584,0.0053793019615113735,-0.024092720821499825,0.024932119995355606,-0.039335399866104126,-0.018909113481640816,-0.01789129339158535,-0.022439712658524513,0.08223959058523178,-0.05078125,-0.006844202987849712,-0.0075227185152471066,-0.048763323575258255,-0.01321619376540184,-0.024833815172314644,-0.01732023060321808,-0.053144507110118866,0.06175414100289345,0.010118556208908558,-0.0010241999989375472,0.0121857775375247,-0.023549484089016914,0.05948716402053833,-0.05596798285841942,0.03698985278606415,0.01141747459769249,0.0050778500735759735,-0.012974254786968231,0.031071774661540985,-0.03395472839474678,0.0015892918454483151,-0.03907250985503197
Nsse,0.0410032793879509,-0.022410070523619652,0.0961892157793045,-0.034885622560977936,-0.11671891808509827,0.020672902464866638,-0.07257085293531418,-0.013750794343650341,0.0882791206240654,-0.01352677121758461,0.0359354168176651,-0.03736730292439461,0.03150251507759094,0.0829794853925705,-0.033321160823106766,0.07713191211223602,0.04818466305732727,0.02167532593011856,-0.05800663307309151,-0.03321193903684616,0.0558960922062397,0.07003766298294067,-0.033443160355091095,-0.08385063707828522,-0.02683607116341591,0.09291495382785797,-0.07989458739757538,-0.06416553258895874,-0.1687581092119217,-0.055181026458740234,0.006829644553363323,-0.0039896974340081215,-0.04898475110530853,-0.050038840621709824,0.11078181862831116,0.014945891685783863,0.059726253151893616,0.0018475353717803955,0.09027692675590515,-0.0008950838819146156,0.03712902218103409,0.05848734453320503,-0.011867258697748184,-0.09289105981588364,-0.03883559629321098,0.12185792624950409,0.013344855979084969,0.07351628690958023,-0.0030326521955430508,-0.06568951904773712,0.06795501708984375,-0.08871417492628098,-0.050875768065452576,-0.028273720294237137,-0.08232571929693222,0.04690271615982056,0.018378788605332375,-0.04120156168937683,0.0028753860387951136,-0.05599059537053108,-0.018563220277428627,-0.051001712679862976,-0.07055901736021042,0.08730734884738922,-0.08282231539487839,-0.05311447009444237,0.12935300171375275,-0.03688175976276398,-0.02058480679988861,0.013379249721765518,0.11739038676023483,-0.03885480761528015,0.012139408849179745,-0.04114826023578644,0.013842428103089333,-0.0658695250749588,0.07216629385948181,-0.06797657907009125,0.023744508624076843,0.016161419451236725,-0.15778103470802307,0.14299441874027252,-0.08615478873252869,0.032963842153549194,0.007940610870718956,0.09075712412595749,-0.0402601957321167,0.02919062413275242,-0.18765440583229065,-0.08975369483232498,0.07381032407283783,0.057039856910705566,0.008145824074745178,-0.005096467211842537,-0.022818580269813538,-0.007193172350525856,-0.004252605140209198,-0.004487686790525913,0.05127239599823952,0.03213793784379959,0.054463692009449005,0.08054396510124207,-0.05340924859046936,0.003060437273234129,0.025603437796235085,-0.08607863634824753,-0.03353169932961464,0.040734462440013885,-0.024221472442150116,-0.06531736999750137,0.060564711689949036,-0.03924715891480446,0.07194650918245316,-0.025307727977633476,-0.04497463256120682,-0.013309858739376068,0.04046965390443802,-0.005373123101890087,-0.007308011408895254,-0.030070237815380096,-0.11382723599672318,0.07504872977733612,0.02270350605249405,-0.02117311954498291,0.05943945422768593,0.12191767990589142,-0.06557416915893555,0.10119931399822235,0.09637433290481567,0.05797027796506882,0.00034222379326820374,0.19351625442504883,0.06934608519077301,-0.016820767894387245,0.08448284864425659,0.020782388746738434,0.01863500475883484,-0.04055066406726837,0.05859361216425896,0.11020475625991821,0.01882518082857132,-0.03711584582924843,0.02728654071688652,0.004246726632118225,-0.031179258599877357,0.012127977795898914,-0.05446475371718407,-0.0979914665222168,-0.010503245517611504,0.013490593992173672,0.03128562495112419,0.05528732016682625,-0.08201701939105988,0.014929508790373802,0.01772124320268631,0.13195446133613586,0.052059605717659,-0.058401208370923996,-0.01111667975783348,-0.03627204895019531,-0.07115566730499268,-0.03748707473278046,0.01214828621596098,-0.05396362021565437,-0.04458652436733246,0.010285167023539543,-0.07672545313835144,-0.004271275829523802,-0.03033624216914177,0.0806962102651596,-0.06479829549789429,-0.03707221895456314,-0.018280645832419395,0.033945899456739426,0.022815311327576637,0.02518581971526146,0.03052057884633541,0.03138305991888046,0.045840732753276825,0.07130537927150726,0.037081096321344376,-0.08423072099685669,-0.08876949548721313,-0.10769577324390411,0.07849083840847015,0.024350855499505997,-0.0692799761891365,0.08925608545541763,-0.017770960927009583,-0.014957047067582607,-0.11655634641647339,-0.1727413684129715,-0.010626774281263351,-0.01503861416131258,-0.01991261914372444,0.0476686954498291,0.08530071377754211,-0.007132724858820438,0.057039953768253326,-0.1024053543806076,0.06499818712472916,0.10147513449192047,-0.10997648537158966,0.01822747476398945,0.0026616803370416164,0.0011517144739627838,0.020290059968829155,0.023605268448591232,-0.07535932958126068,0.05042566359043121,0.08249130845069885,-0.03643158823251724,0.05936753749847412,0.03524535149335861,-0.014471132308244705,-0.02400205470621586,-0.07058630138635635,0.056339409202337265,-0.0026429668068885803,-0.14599865674972534,0.06922309845685959,0.019366588443517685,-0.07951255887746811,-0.020357992500066757,-0.008112035691738129,-0.02222038060426712,0.03047938458621502,-0.04035544395446777,0.030944298952817917,-0.05667461082339287,0.12660180032253265,0.07314566522836685,-0.020938336849212646,0.0032282546162605286,0.01258557103574276,0.002056144643574953,-0.05338122323155403,-0.0726877823472023,0.049163322895765305,0.05710666626691818,0.07911914587020874,-0.04767540097236633,0.03075597807765007,-0.04041110351681709,-0.0013392791152000427,0.03536493331193924,0.012370016425848007,0.033775463700294495,-0.058379024267196655,-0.03853030130267143,0.020777489989995956,-0.044187288731336594,0.09744791686534882,0.03724111616611481,0.03728911280632019,0.05312980338931084,-0.056104667484760284,0.0701121911406517,0.10666545480489731,0.05905584990978241,-0.03902328014373779,-0.11896595358848572,0.1016630232334137,-0.14891694486141205,-0.08090086281299591,-0.06268468499183655,-0.037160955369472504,0.003857659175992012,0.013479229062795639,0.036397650837898254,0.036715760827064514,0.005470556672662497,-0.10089738667011261,-0.01896488666534424,-0.038604918867349625,0.013994863256812096,0.1583891659975052,-0.04700112342834473,-0.08264698833227158,-0.0144300926476717,-0.19914193451404572,-0.028790410608053207,-0.04934478551149368,-0.03041028417646885,-0.036159612238407135,0.01635073497891426,0.023224852979183197,0.043267276138067245,-0.05471297726035118,-0.007546321488916874,0.03400789201259613,-0.07616224139928818,0.039809450507164,0.049742382019758224,-0.01126084104180336,0.01225353591144085,0.05332941561937332,0.04131580889225006,0.03937920555472374,0.00451821880415082
Spaghetti,0.0019040307961404324,-0.021192682906985283,-0.011907300911843777,0.024131856858730316,0.04992365837097168,0.034964703023433685,0.018167918547987938,-0.021089665591716766,0.009070983156561852,-0.0008074827492237091,0.03921450302004814,-0.08237023651599884,0.025600843131542206,-0.02517254650592804,-0.00018356740474700928,0.01830890215933323,0.014276489615440369,0.03480841964483261,0.0002306452952325344,-0.03124915063381195,0.016888655722141266,0.04963238164782524,-0.017725098878145218,-0.029889022931456566,-0.03779873251914978,0.03368087857961655,0.036190010607242584,-0.02583734132349491,0.010487856343388557,-0.033265065401792526,-0.039208367466926575,-0.019359538331627846,-0.019308535382151604,0.00436904514208436,0.010889838449656963,-0.0038174770306795835,-0.04620969295501709,0.019459683448076248,0.006985612213611603,0.008507510647177696,0.04882412031292915,-0.034664586186409,-0.02402791753411293,0.02522788755595684,0.0028419753070920706,0.07502080500125885,-0.012705894187092781,-0.007398284040391445,0.01010171789675951,-0.007887566462159157,0.030701177194714546,-0.031205106526613235,0.021976273506879807,-0.023522034287452698,0.020779279991984367,-0.016897641122341156,0.0377458892762661,0.013468070887029171,0.026463516056537628,-0.03384551405906677,0.023541470989584923,-0.04156874492764473,0.012851301580667496,0.03998240828514099,-0.03580816090106964,0.006199351511895657,0.034132931381464005,0.002543412148952484,-0.0003843512386083603,0.029215067625045776,0.0320463553071022,-0.07269236445426941,0.052645035088062286,-0.049834392964839935,-0.006765122525393963,-0.009563051164150238,0.010351641103625298,-0.00281593669205904,-0.012365743517875671,-0.011638322845101357,0.05084291845560074,0.020088940858840942,0.040132369846105576,-0.0030199377797544003,0.0315827876329422,0.04360514506697655,0.00895491149276495,0.0020268945954740047,0.009534336626529694,-0.02457842044532299,0.013611488044261932,0.06595105677843094,-0.036815814673900604,-0.01450603362172842,0.04558331519365311,-0.000737304799258709,-0.057280756533145905,-0.015152319334447384,-0.0363580659031868,0.005749249830842018,-0.016649845987558365,-0.009982774965465069,0.03341116011142731,-0.04925469309091568,-0.004500266630202532,-0.09255160391330719,-0.03107684850692749,-0.030564257875084877,-0.02961449697613716,-0.0650138407945633,0.044723425060510635,-0.02041696198284626,0.02546040341258049,-0.01741175912320614,-0.0329686664044857,0.0193556547164917,0.00045484525617212057,-0.041289038956165314,0.00840807892382145,-0.005233698524534702,-0.04821004346013069,-0.005357581190764904,0.038682810962200165,0.022628162056207657,0.02296390011906624,0.04311395436525345,-0.01543324626982212,0.003009263426065445,0.002394811250269413,0.0013049812987446785,-0.0028842277824878693,0.048808492720127106,0.001159626990556717,-0.0119390320032835,0.03582027927041054,-0.04500551149249077,-0.020204605534672737,0.05178913101553917,0.005925620906054974,0.026097048074007034,-0.030126841738820076,-0.01291731558740139,0.012296823784708977,-0.0463767871260643,0.011438366957008839,-0.00817448552697897,0.018317528069019318,0.06707663834095001,0.027853555977344513,-0.026750734075903893,0.0066907876171171665,0.047602202743291855,-0.021182147786021233,0.03280384838581085,0.012984208762645721,0.05559568479657173,0.06296855211257935,-0.022055059671401978,0.00850139744579792,-0.028332464396953583,0.005541798193007708,-0.0026405113749206066,-0.031226400285959244,0.0013910094276070595,-0.013580280356109142,0.03252805769443512,0.014254575595259666,0.037010613828897476,-0.007624030113220215,-0.013232515193521976,-0.01445484533905983,-0.05262758210301399,-0.01740734837949276,-0.023273395374417305,-0.034134138375520706,-0.01787429302930832,0.00351329380646348,0.0296613946557045,0.013238538056612015,-0.011481109075248241,0.026496905833482742,-0.01375136524438858,0.017771858721971512,-0.004480759613215923,0.011553055606782436,-0.05030672624707222,0.016200173646211624,0.023588161915540695,-0.019516941159963608,0.04867648333311081,-0.028184829279780388,-0.04136914014816284,0.019171863794326782,-0.038914721459150314,-0.010073204524815083,0.03108985908329487,0.065089650452137,0.011789301410317421,0.05415717139840126,-0.04160693660378456,-0.02570698782801628,0.0015122625045478344,0.05334911495447159,0.07794816792011261,0.045512136071920395,-0.0454261489212513,-0.024509882554411888,-0.06581506133079529,-0.012273207306861877,-0.0015388582833111286,0.024631133303046227,-0.041451822966337204,0.0001560987439006567,0.037085603922605515,0.03226381167769432,-0.012312991544604301,-0.030046965926885605,-0.004481826908886433,0.010298548266291618,0.037577807903289795,0.027928616851568222,-0.06091217324137688,0.003223205916583538,-7.897333125583827e-05,-0.040674809366464615,0.030650915578007698,-0.007089299149811268,-0.011731145903468132,-0.034202802926301956,0.029768673703074455,0.04534681513905525,-0.0009760840330272913,-0.03212634474039078,0.0426066592335701,-0.00800703838467598,0.01673828437924385,-0.0746653601527214,0.024901894852519035,0.04840376600623131,0.01835073158144951,0.023572735488414764,0.015496442094445229,0.02083227038383484,0.005254015792161226,0.0417623370885849,0.07065142691135406,0.009829037822782993,0.0037308577448129654,-0.060826536267995834,-0.02819519303739071,-0.0433000847697258,0.00333694601431489,0.0016165394335985184,-0.01258673146367073,-0.002813750645145774,-0.030712338164448738,-0.02921002358198166,0.014895176514983177,-0.018869705498218536,0.013761896640062332,0.02722635492682457,0.010634861886501312,0.06922179460525513,-0.07507408410310745,0.029100928455591202,0.010798832401633263,0.005114678293466568,-0.03266223520040512,-0.0008116178214550018,-0.012530246749520302,0.016816020011901855,-0.00202778447419405,-0.08063775300979614,0.032181281596422195,0.0774843841791153,-0.016906727105379105,0.07921789586544037,-0.04617536440491676,-0.0356476791203022,-0.023633267730474472,-0.07509417831897736,-0.0071686673909425735,-0.02527562342584133,-0.08323746919631958,-0.018676526844501495,0.0037951210979372263,-0.00042428355664014816,0.011977601796388626,0.03212751820683479,-0.01493047270923853,0.03528199717402458,-0.03889823704957962,0.011335156857967377,-0.016371872276067734,-0.006442490965127945,0.01638702303171158,0.024561632424592972,-0.04260324686765671,0.013087865896522999,-0.035671889781951904
Tomatensauce,-0.0017371642170473933,-0.034686893224716187,0.0036321755032986403,0.0011905655264854431,0.020143205299973488,0.03360607102513313,0.004127484746277332,-0.04270648583769798,0.016446545720100403,-0.012956916354596615,-0.019464511424303055,-0.04744495078921318,0.03904864564538002,-0.01566488668322563,-0.0017211285885423422,0.026446744799613953,0.013272358104586601,0.0415484793484211,-0.03159689903259277,-0.03083890490233898,0.0010994917247444391,0.017915941774845123,0.021219009533524513,0.00418800488114357,0.0009602484642527997,0.015539497137069702,-0.004111474379897118,-0.007818714715540409,0.026410138234496117,0.012892371043562889,-0.013916834257543087,-0.06441231071949005,-0.024836162105202675,-0.01957254856824875,-0.004036579746752977,0.01686815917491913,0.011227135546505451,0.01717960275709629,0.01487963367253542,-0.0206146202981472,-0.027813145890831947,-0.00604421179741621,-0.06005154177546501,-0.0024390206672251225,-0.02482479065656662,0.073089100420475,-0.03487584367394447,-0.0133278276771307,-0.02941463328897953,-0.026392284780740738,0.033962734043598175,-0.03130457177758217,0.03832172229886055,-0.01898825541138649,0.05042027309536934,0.011816288344562054,0.020419983193278313,0.012211753986775875,0.01552596502006054,-0.03963645175099373,0.008122662082314491,-0.022142795845866203,0.008672311902046204,0.03036889247596264,-0.04052920639514923,0.03213638439774513,0.04033844172954559,-0.01529588270932436,0.006434413138777018,0.014842024073004723,-0.00685454998165369,-0.012665708549320698,-0.00899830274283886,-0.025992486625909805,-0.013571571558713913,-0.023177022114396095,0.0008889609598554671,-0.01560406293720007,0.013034622184932232,-0.005385154392570257,0.002484890865162015,0.006430774927139282,0.019341157749295235,0.0033987676724791527,0.011534683406352997,0.03370165079832077,-0.002973123686388135,-0.029328469187021255,0.020536014810204506,-0.023868754506111145,0.020041896030306816,-0.0019333027303218842,-0.023118380457162857,0.001251115114428103,0.035085976123809814,0.02077740803360939,-0.023498671129345894,0.008155174553394318,0.023327039554715157,-0.023027442395687103,-0.07126966118812561,-0.020785989239811897,0.024574827402830124,-0.04266684874892235,0.02429749071598053,-0.10113479942083359,-0.018522921949625015,0.00649369927123189,-0.031380828469991684,-0.05866014212369919,0.036675259470939636,0.008858347311615944,0.026830267161130905,-0.02794431336224079,-0.038916248828172684,-0.021817609667778015,-0.013996395282447338,-0.029344413429498672,-0.002066190354526043,0.01097880769520998,-0.06188005208969116,-0.013081704266369343,0.05971134826540947,0.043287407606840134,0.02107728086411953,0.01484905369579792,-0.01821836084127426,-0.01075732707977295,-0.02194991521537304,0.01845782995223999,-0.010629362426698208,0.02965986728668213,0.023306360468268394,0.003977569751441479,0.028694450855255127,-0.025881435722112656,-0.003622399177402258,0.00367051362991333,-0.0033403828274458647,0.041260190308094025,-0.015170639380812645,-0.007600737269967794,0.05507044494152069,-0.003854279173538089,-0.018572185188531876,-0.045949626713991165,-0.0018782421248033643,0.03465752676129341,-0.018373414874076843,-0.024755630642175674,-0.01312644686549902,0.03256838396191597,-0.03331822156906128,0.013578934594988823,0.001304479199461639,0.03602452948689461,0.03670157864689827,-0.018145574256777763,0.01648504100739956,-0.013990752398967743,0.0034977097529917955,0.020374484360218048,-0.00040496548172086477,0.005447742994874716,-0.044888198375701904,0.03357062488794327,-0.012531240470707417,0.005961320828646421,-0.026145687326788902,-0.014586614444851875,-0.04090362787246704,-0.0328294113278389,-0.016429472714662552,-0.04312479868531227,-0.009324140846729279,0.021328985691070557,-0.029497986659407616,0.028639480471611023,0.0034267862793058157,-0.0033019850961863995,-0.03496842086315155,-0.009065961465239525,-0.030351636931300163,-0.00519010191783309,0.015513782389461994,-0.016568029299378395,-0.0005084513686597347,-0.007641532924026251,-0.01988351345062256,0.028711125254631042,-0.0006823777221143246,0.019473973661661148,0.010710418224334717,-0.030168162658810616,0.022006208077073097,0.026921551674604416,0.02380712330341339,-0.015193219296634197,0.015725716948509216,-0.06322021037340164,0.012431048788130283,0.01578894630074501,0.01137745101004839,0.015554061159491539,0.025800254195928574,-0.05744738131761551,-0.038847941905260086,-0.0330684669315815,-0.01694262959063053,0.016831595450639725,0.06380386650562286,-0.026871714740991592,-0.0067873368971049786,-0.007634433452039957,0.015971073880791664,0.0007157190702855587,-0.03391839936375618,-0.00883479043841362,0.004133553244173527,0.026545485481619835,0.015232388861477375,-0.035029031336307526,0.015761373564600945,0.03698330000042915,-0.01571338064968586,-0.009917614050209522,0.009623774327337742,-0.012274586595594883,-0.03103393316268921,-0.004467773251235485,0.03810770437121391,-0.001345608034171164,0.004969144705682993,0.010267485864460468,-0.00218969932757318,0.03162761032581329,-0.078513965010643,0.0020258731674402952,0.01064302772283554,0.023186394944787025,0.0007829449605196714,0.0016616685315966606,0.07094096392393112,-0.0008867813157849014,0.027007661759853363,0.04849798232316971,-0.015745216980576515,-0.00022911044652573764,-0.023938274011015892,0.0028162626549601555,-0.023523245006799698,-0.03563721105456352,-0.01718270778656006,-0.006233532447367907,0.00295111071318388,0.006152863148599863,-0.015371136367321014,0.01629306562244892,0.0013545822585001588,-0.028808247298002243,-0.013849344104528427,0.018283776938915253,0.041465748101472855,-0.04938055947422981,0.005411822348833084,0.013839145191013813,-0.006733330897986889,-0.045855388045310974,-0.04304037615656853,0.002884529996663332,0.012436551041901112,0.011048746295273304,-0.03386768326163292,0.006415029987692833,0.023434411734342575,0.016811668872833252,0.08003123104572296,-0.02410559356212616,-0.019267316907644272,-0.0257429089397192,-0.0556890070438385,0.015927311033010483,-0.01077986229211092,-0.035201895982027054,-0.006207303609699011,0.03887119144201279,0.009329058229923248,0.02712474949657917,0.04440755024552345,-0.02217177487909794,0.05533866211771965,-0.01205908227711916,0.0012632216094061732,-0.0407240092754364,0.047143325209617615,0.015517997555434704,0.027458027005195618,-0.004508798010647297,0.012494676746428013,-0.031772077083587646
