Token,Dim_0,Dim_1,Dim_2,Dim_3,Dim_4,Dim_5,Dim_6,Dim_7,Dim_8,Dim_9,Dim_10,Dim_11,Dim_12,Dim_13,Dim_14,Dim_15,Dim_16,Dim_17,Dim_18,Dim_19,Dim_20,Dim_21,Dim_22,Dim_23,Dim_24,Dim_25,Dim_26,Dim_27,Dim_28,Dim_29,Dim_30,Dim_31,Dim_32,Dim_33,Dim_34,Dim_35,Dim_36,Dim_37,Dim_38,Dim_39,Dim_40,Dim_41,Dim_42,Dim_43,Dim_44,Dim_45,Dim_46,Dim_47,Dim_48,Dim_49,Dim_50,Dim_51,Dim_52,Dim_53,Dim_54,Dim_55,Dim_56,Dim_57,Dim_58,Dim_59,Dim_60,Dim_61,Dim_62,Dim_63,Dim_64,Dim_65,Dim_66,Dim_67,Dim_68,Dim_69,Dim_70,Dim_71,Dim_72,Dim_73,Dim_74,Dim_75,Dim_76,Dim_77,Dim_78,Dim_79,Dim_80,Dim_81,Dim_82,Dim_83,Dim_84,Dim_85,Dim_86,Dim_87,Dim_88,Dim_89,Dim_90,Dim_91,Dim_92,Dim_93,Dim_94,Dim_95,Dim_96,Dim_97,Dim_98,Dim_99,Dim_100,Dim_101,Dim_102,Dim_103,Dim_104,Dim_105,Dim_106,Dim_107,Dim_108,Dim_109,Dim_110,Dim_111,Dim_112,Dim_113,Dim_114,Dim_115,Dim_116,Dim_117,Dim_118,Dim_119,Dim_120,Dim_121,Dim_122,Dim_123,Dim_124,Dim_125,Dim_126,Dim_127,Dim_128,Dim_129,Dim_130,Dim_131,Dim_132,Dim_133,Dim_134,Dim_135,Dim_136,Dim_137,Dim_138,Dim_139,Dim_140,Dim_141,Dim_142,Dim_143,Dim_144,Dim_145,Dim_146,Dim_147,Dim_148,Dim_149,Dim_150,Dim_151,Dim_152,Dim_153,Dim_154,Dim_155,Dim_156,Dim_157,Dim_158,Dim_159,Dim_160,Dim_161,Dim_162,Dim_163,Dim_164,Dim_165,Dim_166,Dim_167,Dim_168,Dim_169,Dim_170,Dim_171,Dim_172,Dim_173,Dim_174,Dim_175,Dim_176,Dim_177,Dim_178,Dim_179,Dim_180,Dim_181,Dim_182,Dim_183,Dim_184,Dim_185,Dim_186,Dim_187,Dim_188,Dim_189,Dim_190,Dim_191,Dim_192,Dim_193,Dim_194,Dim_195,Dim_196,Dim_197,Dim_198,Dim_199,Dim_200,Dim_201,Dim_202,Dim_203,Dim_204,Dim_205,Dim_206,Dim_207,Dim_208,Dim_209,Dim_210,Dim_211,Dim_212,Dim_213,Dim_214,Dim_215,Dim_216,Dim_217,Dim_218,Dim_219,Dim_220,Dim_221,Dim_222,Dim_223,Dim_224,Dim_225,Dim_226,Dim_227,Dim_228,Dim_229,Dim_230,Dim_231,Dim_232,Dim_233,Dim_234,Dim_235,Dim_236,Dim_237,Dim_238,Dim_239,Dim_240,Dim_241,Dim_242,Dim_243,Dim_244,Dim_245,Dim_246,Dim_247,Dim_248,Dim_249,Dim_250,Dim_251,Dim_252,Dim_253,Dim_254,Dim_255,Dim_256,Dim_257,Dim_258,Dim_259,Dim_260,Dim_261,Dim_262,Dim_263,Dim_264,Dim_265,Dim_266,Dim_267,Dim_268,Dim_269,Dim_270,Dim_271,Dim_272,Dim_273,Dim_274,Dim_275,Dim_276,Dim_277,Dim_278,Dim_279,Dim_280,Dim_281,Dim_282,Dim_283,Dim_284,Dim_285,Dim_286,Dim_287,Dim_288,Dim_289,Dim_290,Dim_291,Dim_292,Dim_293,Dim_294,Dim_295,Dim_296,Dim_297,Dim_298,Dim_299
Salat,0.05990058183670044,-0.0330677330493927,-0.019658613950014114,-0.018678149208426476,0.03292366862297058,-0.1218239814043045,-0.029936645179986954,-0.02355404570698738,0.13937874138355255,-0.006646249443292618,0.02637476474046707,-0.09384040534496307,0.05031440407037735,-0.024553783237934113,-0.06285887956619263,0.009773630648851395,0.00721270777285099,0.038733795285224915,0.0069074928760528564,-0.059238120913505554,0.03609038144350052,0.04294033721089363,0.10013031214475632,0.03220917284488678,-0.01844818890094757,-0.04104689508676529,0.02648107521235943,0.03382353112101555,-0.02557913213968277,-0.02567422389984131,-0.016617733985185623,0.01605374366044998,0.03500021994113922,-0.03721019625663757,0.08071013540029526,0.03827895596623421,0.0038081035017967224,0.088318832218647,0.015795432031154633,0.01966327615082264,-0.026170091703534126,-0.014391668140888214,-0.10245301574468613,-0.003244807943701744,-0.018086805939674377,0.19300946593284607,-0.1065492257475853,-0.01997627690434456,-0.06007210165262222,-0.027232840657234192,0.009768424555659294,-0.09123872220516205,0.11869671940803528,-0.08670775592327118,0.11169154196977615,0.015065100975334644,0.09201841056346893,0.01900525763630867,0.05502614378929138,-0.08809016644954681,0.03811079263687134,0.006842590402811766,-0.08027490973472595,0.06199316680431366,-0.002290717326104641,0.0007159532979130745,0.07761038094758987,-0.05488498508930206,-0.0001044322270900011,-0.003427881747484207,0.044521503150463104,-0.05842805653810501,0.008649833500385284,-0.08670058101415634,-0.0012302747927606106,0.014244429767131805,0.009795207530260086,-0.0012135785073041916,0.018456030637025833,0.11179403215646744,-0.017134882509708405,0.021002482622861862,0.026014743372797966,0.0015795491635799408,0.017765020951628685,0.05645960569381714,-0.013860133476555347,-0.04914012551307678,0.021939696744084358,-0.08856101334095001,0.01989813894033432,0.03480277210474014,-0.02082085609436035,-0.011603206396102905,0.06533655524253845,0.023486735299229622,0.010961680673062801,-0.027794525027275085,0.006228559650480747,-0.03425958380103111,-0.0312400721013546,0.026520997285842896,-0.003915891051292419,-0.05216463655233383,0.09748418629169464,-0.13222818076610565,-0.08898746222257614,0.01565946824848652,-0.011280817911028862,-0.08915028721094131,0.01838017627596855,-0.01626119390130043,0.06087649241089821,-0.08224555850028992,-0.0455520898103714,-0.06803467869758606,-0.019124124199151993,-0.043319687247276306,0.10471553355455399,-0.025067724287509918,-0.06205732002854347,-0.056219931691884995,0.04605187103152275,-0.0010983322281390429,0.049249954521656036,0.09707605093717575,-0.044636838138103485,0.11480575054883957,-0.02960076741874218,-0.018378382548689842,-0.11182559281587601,0.1832239180803299,0.05529434233903885,0.08864930272102356,0.09644222259521484,-0.06577012687921524,0.03607039898633957,0.04130387306213379,-0.0867251455783844,0.062166325747966766,-0.03619799390435219,-0.01730847917497158,0.09176333248615265,-0.11327658593654633,0.05205688625574112,-0.055286236107349396,0.04652099311351776,0.10223385691642761,-0.025361565873026848,-0.08918438851833344,0.024920299649238586,0.10984404385089874,-0.06903797388076782,-0.006741871125996113,0.04005647450685501,0.09684146195650101,0.08935816586017609,-0.08021582663059235,-0.029362322762608528,-0.1529749631881714,-0.038258470594882965,-0.004624048247933388,-0.005672623869031668,-0.026932545006275177,0.017768733203411102,0.10443474352359772,-0.052251238375902176,-0.01648694835603237,-0.025360120460391045,-0.027976103127002716,-0.12777383625507355,-0.05145009607076645,0.0027166716754436493,-0.01849137619137764,0.013103935867547989,0.05733924359083176,-0.03642630949616432,0.08659394085407257,-0.02801450714468956,0.03728156536817551,-0.03447680175304413,-0.036195069551467896,-0.028282228857278824,-0.03986937552690506,-0.07880941033363342,-0.02376812882721424,0.036448754370212555,-0.011387080885469913,0.0057174935936927795,0.060785211622714996,-0.05534563958644867,0.019433381035923958,0.07215289026498795,-0.00805300660431385,0.05073763430118561,0.04857220500707626,0.07626612484455109,-0.05545519292354584,0.0776744931936264,-0.10309850424528122,0.04130864515900612,0.04380172863602638,-0.02382289618253708,-0.04344690963625908,-0.017052428796887398,-0.06142687425017357,-0.042030639946460724,-0.058397553861141205,-0.061691392213106155,-0.0058903200551867485,0.13619546592235565,-0.014903850853443146,-0.016324780881404877,0.08858365565538406,0.06650663912296295,-0.05698797106742859,-0.07472751289606094,-0.05035881698131561,0.033287517726421356,0.04867742210626602,0.026682663708925247,-0.039289236068725586,-0.01751656085252762,0.02183372527360916,-0.009488287381827831,-0.05764348804950714,0.012258830480277538,0.018885336816310883,-0.04366001859307289,-0.0027440302073955536,0.08981198072433472,-0.03424329310655594,-0.0196981243789196,0.048739660531282425,0.0023587141185998917,0.020466217771172523,-0.0909230038523674,0.08291354775428772,0.04324112832546234,0.060647137463092804,0.08426150679588318,-0.028523404151201248,0.03265179321169853,-0.04552890732884407,0.034231968224048615,-0.041942670941352844,0.005240891128778458,0.02443838305771351,-0.09425832331180573,-0.01052200235426426,-0.043427884578704834,-0.013118361122906208,-0.0013267304748296738,0.05478082224726677,0.055420540273189545,0.001796073280274868,-0.11908929795026779,0.00987558625638485,0.022332658991217613,-0.023293811827898026,0.0356425866484642,-0.025226982310414314,0.1094428226351738,-0.19090092182159424,-0.02595597133040428,-0.07273560017347336,-0.026371099054813385,-0.0355730764567852,-0.03859064355492592,-0.03526982665061951,-0.01456090435385704,-0.004941975697875023,-0.11139039695262909,-0.02200273796916008,-0.020484693348407745,0.024747103452682495,0.1633862555027008,0.00490202521905303,-0.07258646190166473,-0.06321244686841965,-0.09221914410591125,0.0226869136095047,-0.01512112095952034,-0.07211887836456299,-0.02947014383971691,0.03470607474446297,-0.07826356589794159,0.02942689135670662,0.03393888846039772,-0.08643286675214767,0.08066917210817337,-0.011548150330781937,0.03418184816837311,-0.11025930941104889,0.0028829043731093407,-0.060046158730983734,0.06274101138114929,-0.029751241207122803,-0.00559153500944376,-0.021381547674536705
Gurke,0.06389930099248886,-0.06789256632328033,0.03408227860927582,-0.020920757204294205,0.02907714992761612,0.07073485851287842,0.014056284911930561,0.011984620243310928,0.05810309946537018,0.02663480117917061,-0.03053426183760166,-0.1048765480518341,0.04225501790642738,0.011530658230185509,-0.018165744841098785,3.233179450035095e-05,0.04963214695453644,0.02694912999868393,0.015509511344134808,-0.07968999445438385,0.010871185921132565,0.026003126055002213,-0.017654279246926308,-0.03572938218712807,0.016899002715945244,-0.05275221914052963,-0.0012561175972223282,0.04425251483917236,-0.04072587564587593,-0.045284781605005264,-0.026667926460504532,0.031051544472575188,0.003827409353107214,-0.009662572294473648,0.010459015145897865,-0.0025034151040017605,-0.07996897399425507,0.11186563968658447,0.010888421908020973,-0.006410911679267883,0.0370139442384243,-0.05349518731236458,-0.04665793851017952,-0.024525726214051247,-0.014451480470597744,0.14951026439666748,-0.042245764285326004,-0.02979329228401184,-0.04157651215791702,0.00578790670260787,0.026343923062086105,-0.11496099829673767,0.021953854709863663,0.058064963668584824,-0.01184991467744112,-0.015446673147380352,0.033132053911685944,0.04220811277627945,0.04478578269481659,-0.061712153255939484,0.0774967148900032,-0.028502855449914932,0.004244114272296429,0.010434404015541077,0.09938988834619522,-0.015705425292253494,0.08487369120121002,-0.03993668779730797,0.09902079403400421,-0.03236355632543564,0.05190267786383629,0.07912042737007141,-0.01891840249300003,-0.07673327624797821,-0.06118806451559067,-0.07165539264678955,-0.04017772153019905,-0.017032407224178314,0.01589314639568329,-0.01901472546160221,0.032048873603343964,0.032331548631191254,-0.009145190007984638,-0.004726959392428398,-0.08372023701667786,-0.0005402471870183945,0.03214376047253609,0.04105896130204201,-0.03185797482728958,-0.1082691103219986,0.10978097468614578,0.05764293670654297,-0.00011536385864019394,-0.018982253968715668,-0.002936161123216152,0.014950837939977646,0.05487284064292908,-0.02509871870279312,-0.015061574056744576,0.00330402166582644,-0.03755464404821396,0.0828535407781601,-0.048684511333703995,-0.014809499494731426,-0.04817891865968704,-0.10319682955741882,-0.06110221892595291,-0.0024088434875011444,-0.021443694829940796,-0.04407991096377373,-0.0077780988067388535,-0.019942790269851685,-0.07612618803977966,-0.04686925560235977,0.021326612681150436,-0.11402902007102966,0.004675482865422964,-0.09886913746595383,0.15214574337005615,-0.01647297292947769,-0.14041906595230103,0.07236415147781372,0.041705191135406494,-0.054257046431303024,-0.03553682565689087,0.07605785131454468,-0.012402664870023727,0.04310628026723862,0.06763026118278503,-0.027521228417754173,-0.0670418068766594,0.02581329271197319,0.012781215831637383,0.09156794846057892,0.15480145812034607,-0.04879547655582428,0.029389336705207825,-0.05464182794094086,0.03762238845229149,0.09403529763221741,-0.025454875081777573,0.007758105173707008,0.10656537115573883,-0.05570095404982567,0.06283236294984818,-0.0316530205309391,0.03866111487150192,0.013416731730103493,-0.0785972997546196,-0.09028749912977219,-0.15234534442424774,0.09607040882110596,0.006510624662041664,0.01490345224738121,-0.03343195468187332,0.09973175823688507,0.0032245730981230736,-0.1130262091755867,0.0810668095946312,-0.11323072761297226,0.0027442395221441984,0.025266502052545547,0.04144980013370514,-0.1083960086107254,0.07832397520542145,0.06087940186262131,-0.053060270845890045,0.01140799280256033,-0.0011837072670459747,-0.023240771144628525,-0.04246987774968147,0.05736248940229416,-0.02484787628054619,-0.027851130813360214,0.010116514749825,0.03314686939120293,0.044665440917015076,0.015828726813197136,-0.004058222286403179,-0.006710020825266838,0.05038584768772125,0.004535284824669361,-0.08037449419498444,-0.09389562904834747,-0.050098177045583725,0.023823438212275505,0.008846865966916084,0.011554980650544167,-0.0077040125615894794,-0.0718291848897934,-0.08856341242790222,-0.049163736402988434,-0.033057257533073425,-0.014347527176141739,0.024365432560443878,0.015490615740418434,0.044539716094732285,-0.054047200828790665,0.09869660437107086,-0.12614361941814423,0.03504583239555359,0.0066588688641786575,0.072109654545784,0.012325968593358994,0.070156991481781,-0.07399069517850876,-0.053674664348363876,-0.018305977806448936,0.05692342296242714,0.03235677257180214,0.00249431561678648,-0.03977065905928612,-0.06445084512233734,0.040612831711769104,0.08174629509449005,-0.06259143352508545,-0.09264074265956879,-0.05123249441385269,0.01879638060927391,-0.04641033709049225,0.025612734258174896,-0.022025907412171364,-0.06675948947668076,0.02140992134809494,-0.012679393403232098,-0.0862857922911644,-0.0019759919960051775,-0.0043052565306425095,-0.0421026311814785,-0.044846970587968826,0.07290434092283249,0.03965556249022484,0.008856203407049179,0.02203756384551525,-0.0334833525121212,0.04092542082071304,-0.05447959154844284,-0.003391069360077381,0.07216238975524902,0.029654985293745995,0.130848690867424,0.06570342928171158,0.07523514330387115,-0.06003844738006592,-0.07527189701795578,0.08847076445817947,0.006167602725327015,-0.051985375583171844,-0.04109729081392288,-0.07732122391462326,-0.09207651019096375,-0.009113701060414314,0.025218041613698006,0.03650809824466705,-0.032131604850292206,0.09882760047912598,-0.041717518121004105,0.03527560457587242,0.054411880671978,0.0007602954283356667,0.007449771743267775,0.048376958817243576,0.025263067334890366,-0.08530913293361664,-0.06811600178480148,-0.0616130605340004,0.03721856325864792,-0.03153552860021591,-0.005782462656497955,0.01896531879901886,0.07593727111816406,0.0038436073809862137,-0.15461641550064087,0.05100605636835098,-0.02800476737320423,0.04881615936756134,0.15628646314144135,-0.014749194495379925,-0.11122211813926697,0.013774021528661251,-0.18199977278709412,0.0754670649766922,-0.07574768364429474,0.006323510780930519,-0.09049145877361298,0.07332446426153183,-0.04366932064294815,-0.0525386817753315,0.05116793513298035,-0.08136751502752304,0.054120779037475586,0.007059885188937187,0.06949103623628616,-0.023098595440387726,0.04575379937887192,-0.06951045244932175,0.04460512101650238,0.01730240322649479,0.008634088560938835,-0.07805008441209793
Tomate,-0.008964112028479576,-0.04234815016388893,0.06222181394696236,-0.03914492204785347,0.03837589547038078,0.05557072162628174,0.04654034227132797,-0.009257806465029716,0.05973241478204727,0.019774233922362328,-0.04770063981413841,-0.08870096504688263,0.0289907306432724,0.02413986437022686,-0.01250217854976654,-0.013780610635876656,0.02995472587645054,0.026170819997787476,-0.06970036774873734,-0.035180654376745224,0.037036556750535965,0.07913292944431305,0.010010267607867718,-0.001860502758063376,0.021507609635591507,-0.05401052162051201,-0.00370163400657475,0.004399120807647705,0.03365294635295868,-0.01794625073671341,-0.024665921926498413,-0.029006922617554665,0.052213896065950394,-0.014654906466603279,0.017595721408724785,0.05583570525050163,-0.07390124350786209,0.05128032714128494,0.0225811954587698,-0.01807982288300991,0.023145489394664764,-0.0038326189387589693,-0.0321185439825058,0.03341661021113396,0.006150234490633011,0.10634883493185043,-0.0774458572268486,0.02817307412624359,-0.05512407422065735,0.005261245649307966,0.04245733842253685,-0.10271014273166656,0.026591837406158447,-0.010564371012151241,0.0492173507809639,0.019696438685059547,0.10134897381067276,0.04745158925652504,0.046155817806720734,-0.0884241834282875,0.02386798895895481,-0.041538920253515244,-0.006842813920229673,0.0753568559885025,-0.03296251595020294,-0.024736760184168816,0.07182633876800537,-0.03681889548897743,-0.011272336356341839,-0.018390340730547905,-0.03953323885798454,0.035576190799474716,-0.02720355987548828,-0.0926898866891861,-0.044266149401664734,-0.025913724675774574,-0.01626718044281006,0.018375491723418236,0.025531722232699394,0.0017120287520810962,0.03561908006668091,-0.016625480726361275,-0.0028779252897948027,-0.005500914063304663,0.048314135521650314,0.038736648857593536,0.04603320360183716,-0.020862309262156487,0.03811735287308693,-0.12020086497068405,0.059475939720869064,0.0546119287610054,0.008342975750565529,-0.012034638784825802,0.02876841090619564,0.001694253645837307,-0.02511945366859436,-0.010738267563283443,-0.039117876440286636,-0.010181165300309658,-0.11891814321279526,0.04163636639714241,0.028119271621108055,-0.04415872320532799,-0.03976739943027496,-0.11355432122945786,-0.0023163449950516224,-0.007854051887989044,-0.09317699819803238,-0.12006690353155136,-0.016769791021943092,-0.02222953923046589,0.010252027772367,-0.024696582928299904,-0.03344523906707764,-0.08483190834522247,0.003079739399254322,-0.09078260511159897,0.08796796947717667,0.001989755081012845,-0.12377577275037766,0.03501097485423088,0.06911411136388779,-0.03053627349436283,0.05416543409228325,-0.022343037649989128,-0.04262435436248779,0.07701807469129562,0.01724947988986969,-0.03310530260205269,-0.04081941768527031,0.07609264552593231,0.01443772204220295,0.006315246224403381,0.08615358918905258,-0.04440287500619888,0.0022779672872275114,-0.008210103027522564,-0.01769896037876606,0.04463666304945946,-0.021409153938293457,-0.015354129485785961,0.09609487652778625,-0.003383165691047907,0.047874756157398224,-0.029049595817923546,0.0697149932384491,0.0028742142021656036,-0.06699209660291672,-0.0019348979694768786,-0.07050301879644394,0.0990762859582901,0.02117599919438362,0.006233777850866318,-0.014816355891525745,0.07640203088521957,0.01464835461229086,-0.042040448635816574,0.038429632782936096,-0.03181510046124458,0.020279953256249428,-0.03239510580897331,0.053571414202451706,-0.019197313115000725,-0.01381093543022871,0.08105212450027466,0.011735089123249054,0.1140795573592186,-0.006021708250045776,0.012327675707638264,-0.048496197909116745,-0.03423522040247917,-0.02859649620950222,0.018306216225028038,-0.029566770419478416,0.007342410273849964,-0.013404262252151966,0.00661268038675189,-0.025978226214647293,0.008516626432538033,0.03210895135998726,-0.06330820918083191,-0.012382266111671925,-0.09117352217435837,0.021175697445869446,0.0019120067590847611,-0.023791207000613213,-0.01299300231039524,-0.03429016098380089,-0.03975818306207657,-0.12265806645154953,-0.04361212998628616,0.08226903527975082,-0.07099033147096634,0.07028239220380783,0.03210863098502159,0.06282927840948105,0.004359509330242872,0.0843397006392479,-0.0853017121553421,0.04144851490855217,-0.017821112647652626,0.040267642587423325,-0.018701666966080666,-0.0058050439693033695,-0.08778561651706696,-0.08273246139287949,-0.060750383883714676,-0.009462963789701462,0.0552932433784008,0.09796532243490219,0.0162782184779644,-0.01601964794099331,0.036698441952466965,0.03263650834560394,0.010912599042057991,-0.04346824064850807,-0.03536955639719963,-0.020284751430153847,0.03137229010462761,0.047304339706897736,0.02708718739449978,-0.04291332885622978,0.03109494224190712,0.04876958951354027,-0.01658492721617222,-0.0193940382450819,0.0475139282643795,-0.018678953871130943,-0.04210759326815605,0.04792138561606407,0.022442594170570374,-0.003072131657972932,0.039663732051849365,-0.00650436757132411,0.10959026962518692,-0.10628511756658554,-0.03787548467516899,0.03895473852753639,0.02861393801867962,0.08943941444158554,0.038280826061964035,0.051744651049375534,-0.024217773228883743,-0.023193305358290672,0.06977217644453049,-0.02680092491209507,0.038312382996082306,-0.0823502168059349,-0.05547396093606949,-0.07694251090288162,-0.033878471702337265,-0.02487378753721714,0.012544616125524044,0.02874641679227352,0.0072302790358662605,-0.04414500296115875,0.0011589945061132312,0.056977998465299606,-0.004629409406334162,-0.007456549908965826,-0.013351104222238064,0.01968865841627121,-0.08292865008115768,0.026516897603869438,-0.03675941750407219,0.00023518502712249756,-0.017386384308338165,0.000497145694680512,-0.0047630444169044495,-0.014290046878159046,0.004019672982394695,-0.1015942245721817,-0.03247429057955742,0.0008783459779806435,0.06762466579675674,0.12773554027080536,0.053543586283922195,-0.09213989228010178,0.002518863184377551,-0.13424554467201233,0.06977113336324692,-0.042417239397764206,-0.030119284987449646,-0.04896629974246025,0.07025472819805145,0.003849180880934,0.048856817185878754,0.05470743775367737,-0.10635776817798615,0.07886876910924911,-0.023830298334360123,0.0756722018122673,-0.06481534242630005,0.07101571559906006,0.006401953753083944,0.0617087259888649,0.03897469490766525,0.019548777490854263,-0.07020819187164307
Zwiebel,0.026280127465724945,0.020553115755319595,0.03793518245220184,-0.038222234696149826,-0.03982954099774361,0.030720341950654984,0.004261797294020653,0.04046855494379997,0.045819588005542755,0.004391658119857311,0.021155916154384613,-0.036146461963653564,0.0741284191608429,0.08582077920436859,0.027902906760573387,0.006048649083822966,0.021344443783164024,-0.006185599602758884,-0.044843889772892,-0.04121171683073044,0.02474263682961464,-0.016078198328614235,-0.03737358748912811,-0.04838521406054497,0.014403614215552807,0.01617271453142166,-0.05049484223127365,-0.042374324053525925,0.003067798912525177,-0.016203174367547035,-0.041243672370910645,-0.10020076483488083,-0.024274669587612152,-0.02333863452076912,0.004602683708071709,0.018153345212340355,-0.0022975709289312363,0.05062985420227051,0.005278585013002157,0.01017665769904852,-0.0009108190424740314,-0.043651238083839417,0.011696788482367992,-0.025179043412208557,-0.007552135735750198,0.06311776489019394,-0.012490170076489449,0.03243545815348625,-0.05198710411787033,-0.025748198851943016,-0.05951175093650818,0.0035586643498390913,-0.011264869943261147,0.006268505938351154,0.07379677146673203,-0.04831372946500778,0.048523224890232086,-0.01718585565686226,0.05964071303606033,-0.03716664761304855,0.04796583205461502,0.025646615773439407,-0.03149053454399109,0.024712776765227318,-0.05151594430208206,0.04060959070920944,0.05116952210664749,-0.0367925725877285,0.04864876717329025,0.020709257572889328,0.048826850950717926,-0.016225993633270264,-0.01488262228667736,-0.11361940950155258,0.0032033026218414307,-0.056468598544597626,-0.01854189857840538,-0.021642889827489853,-0.0028070020489394665,0.03979570418596268,-0.026463747024536133,-0.02512213960289955,-0.02464241534471512,0.01028357818722725,-0.02024105191230774,0.055414021015167236,-0.0015838779509067535,-0.06435348093509674,-0.01676076278090477,-0.05130702257156372,0.053260549902915955,0.020461732521653175,-0.006184851750731468,-0.009078914299607277,-0.026615021750330925,0.037363581359386444,-0.022589992731809616,-0.014901546761393547,-0.009351483546197414,-0.031700268387794495,-0.06334489583969116,0.004382668994367123,0.0048704068176448345,-0.05088452622294426,-0.0121114831417799,-0.06896607577800751,0.0160947497934103,-0.009318789467215538,-0.0038603395223617554,-0.040040913969278336,0.028064018115401268,-0.018471164628863335,0.013117413967847824,-0.05428193509578705,-0.0612955167889595,-0.0465528778731823,-0.026493167504668236,-0.08761946856975555,0.06106707081198692,-0.0233103409409523,-0.06254658102989197,0.008422508835792542,0.05083370953798294,-0.026433279737830162,0.004151514731347561,0.03991163149476051,-0.041413500905036926,0.027426686137914658,0.018317515030503273,-0.06169327720999718,-0.04156232997775078,0.08260010182857513,-0.038705237209796906,0.02816811017692089,0.0716458261013031,0.02435147389769554,0.007400933187454939,-0.03454362601041794,0.02226598560810089,-0.028098300099372864,7.862349593779072e-05,-0.028591757640242577,0.05332013592123985,-0.027903743088245392,0.003207138506695628,-0.03611985594034195,0.011610500514507294,0.013991809450089931,-0.04082602262496948,-0.06890490651130676,-0.05009846389293671,0.10166503489017487,-0.06343333423137665,0.03558802604675293,-0.021574046462774277,0.07635274529457092,0.022965386509895325,-0.033272095024585724,0.08577241748571396,-0.025981485843658447,-0.027083881199359894,-0.02353057824075222,0.075011245906353,-0.09171326458454132,-0.07351045310497284,0.0373494029045105,0.042591970413923264,-0.0011026922147721052,-0.0163295716047287,-0.0009659919887781143,-0.015483404509723186,0.003070349805057049,-0.07014326006174088,0.0028349373023957014,0.006650363095104694,-0.0201503224670887,0.006229219026863575,-0.0035148344468325377,0.025806110352277756,0.029011670500040054,0.06560161709785461,-0.07790030539035797,-0.029575755819678307,-0.08693193644285202,-0.0017632333328947425,-0.0162656307220459,-0.01668856106698513,-0.00556242186576128,-0.05726911127567291,0.015026937238872051,-0.043682582676410675,0.012577040120959282,0.034314535558223724,-0.01906740665435791,0.025172997266054153,0.04053378850221634,0.033723220229148865,-0.010738256387412548,0.04366496950387955,-0.06592243164777756,0.021639343351125717,-0.01777636632323265,0.053650230169296265,-0.028454113751649857,0.03070157580077648,-0.044012557715177536,-0.12197135388851166,-0.0383208692073822,-0.0071549443528056145,0.06655213236808777,0.042799320071935654,0.005378521978855133,0.006553457584232092,0.06080275774002075,0.04020755738019943,-0.02668837271630764,-0.02602512016892433,-0.05261298641562462,-0.015807978808879852,-0.037243396043777466,0.08053378015756607,-0.014624685049057007,0.01661686599254608,-8.934860670706257e-05,0.04820830747485161,-0.03276168927550316,0.017084838822484016,0.04354661703109741,-0.011546655558049679,-0.04876876622438431,0.06691994518041611,-0.03791739046573639,-0.06075951084494591,-0.012618687003850937,-0.019978411495685577,0.04731594771146774,-0.0408351831138134,-0.0818149596452713,0.04504965990781784,0.01544303447008133,0.07845841348171234,0.03632093593478203,0.029233962297439575,0.042335741221904755,0.030317237600684166,-0.03156464919447899,-0.01782413385808468,0.008375376462936401,0.023503167554736137,-0.061322055757045746,-0.016686681658029556,-0.018494393676519394,0.01921079307794571,-0.03312171250581741,0.10037487745285034,0.02652909979224205,-0.004454260692000389,0.020150521770119667,0.02652624249458313,-0.018189776688814163,0.002428209874778986,-0.02280564233660698,0.023465199396014214,-0.0916539654135704,-0.059109579771757126,-0.04909471422433853,0.019823739305138588,0.0303731020539999,0.015011778101325035,-0.028066283091902733,-0.04247376322746277,0.041922878473997116,-0.0998949334025383,0.007459070533514023,-0.018596962094306946,0.06658240407705307,0.14019185304641724,-0.043261464685201645,-0.074207603931427,0.00955081544816494,-0.12726569175720215,0.044708725064992905,-0.05546265095472336,-0.00030536827398464084,-0.003747832728549838,-0.0025063231587409973,-0.010057661682367325,0.03842289745807648,0.01859840750694275,-0.08718082308769226,-0.035141583532094955,-0.04018084704875946,-0.00867362692952156,-0.07258796691894531,0.0170648954808712,-0.023795343935489655,0.055174753069877625,0.01828804239630699,0.015162751078605652,-0.06907660514116287
Frühlingszwiebel,0.0180515144020319,0.015472033992409706,0.0055326116271317005,-0.04105498269200325,-0.021316111087799072,0.02193017490208149,0.009504436515271664,0.014445426873862743,0.008213678374886513,-0.0036380495876073837,0.012626334093511105,0.012146762572228909,0.041502196341753006,0.007503615226596594,-0.01707797311246395,-0.025518031790852547,-0.007149949204176664,0.003715801751241088,-0.007599603850394487,-0.014022118411958218,0.01928677409887314,-0.02307198941707611,4.5534474338637665e-05,-0.015529670752584934,0.018165338784456253,-0.005058593116700649,0.01767660491168499,-0.015877557918429375,0.006170077249407768,-0.0038279660511761904,-0.003959788475185633,-0.013528011739253998,0.025866525247693062,-0.017176825553178787,-0.014366229996085167,0.01655813306570053,-0.022227846086025238,0.0005053532659076154,0.010949432849884033,0.0035277511924505234,0.0031370820943266153,-0.008539034985005856,-0.0004637144738808274,0.005601538345217705,-0.0035569684114307165,0.06210513785481453,-0.020503683015704155,0.02767934463918209,-0.013688735663890839,0.0001422939240001142,-0.02542535588145256,-0.00405587162822485,-0.007789053488522768,-0.028115449473261833,0.04030752554535866,-0.018752004951238632,0.024335520341992378,0.009186533279716969,0.02967604622244835,-0.022102147340774536,0.05623794347047806,0.034833043813705444,-0.019177429378032684,0.0016931805294007063,-0.011632464826107025,-0.0037896595895290375,0.029990337789058685,-0.02093707025051117,0.006366203539073467,-0.011245445348322392,0.0015443017473444343,-0.0008560529095120728,-0.0029105080757290125,-0.05291149020195007,0.007041879463940859,-0.0022258588578552008,0.021229077130556107,-0.008004519157111645,-0.0090679582208395,0.01773872599005699,-0.018271014094352722,0.028716040775179863,-0.009374165907502174,-0.003149166703224182,0.0036968495696783066,0.03578050807118416,-0.028730764985084534,-0.02745632641017437,-0.02439967915415764,-0.02983837202191353,0.02089376375079155,-0.010681100189685822,0.011203701607882977,-0.02216871827840805,-0.0067296638153493404,0.023782208561897278,0.009612012654542923,-0.020454317331314087,-0.0016587590798735619,-0.0014999833656474948,-0.014054392464458942,-0.0012185906525701284,-0.01263765525072813,-0.019640501588582993,-0.01637900620698929,-0.055212486535310745,0.0008458401425741613,0.01959908939898014,0.030543990433216095,-0.02308053895831108,-0.011233697645366192,0.01623617485165596,0.0037231240421533585,-0.02643733099102974,-0.046429578214883804,-0.01026238314807415,0.010073057375848293,-0.022385111078619957,0.0346674881875515,0.005144041962921619,-0.017058856785297394,-0.005746900569647551,0.06270340085029602,-0.012588278390467167,0.0026962729170918465,0.041783224791288376,0.0003213346062693745,-0.0023754364810884,0.0024585172068327665,0.0026941061951220036,-0.015361625701189041,0.040485624223947525,-0.002596711041405797,0.04521201178431511,0.03312467411160469,-0.04238367825746536,0.00472526578232646,-0.01051592268049717,0.03175821900367737,-0.0074326577596366405,-0.003152522724121809,-0.01565260998904705,0.013784442096948624,-0.007397148292511702,-0.029141128063201904,-0.040389496833086014,2.4873515940271318e-05,0.02614404819905758,-0.007676280103623867,-0.04138632491230965,-0.02190892957150936,0.033962447196245193,-0.01725820079445839,0.007570677902549505,-0.03288481757044792,0.024213319644331932,0.01056254655122757,-0.038301482796669006,0.023652488365769386,-0.014008227735757828,-0.010165807791054249,0.005452840123325586,0.02803082950413227,-0.024628406390547752,-0.017872968688607216,0.0035969321615993977,0.01774819940328598,0.0224209725856781,-0.010070988908410072,0.012195059098303318,-0.017167743295431137,-0.00490672467276454,-0.027016662061214447,-0.01712322235107422,0.017945950850844383,-0.02072727307677269,0.005998312961310148,-0.02262783795595169,0.010374818928539753,0.008981636725366116,0.01899053156375885,-0.02631576731801033,-0.03582208976149559,-0.019722236320376396,0.00037603083183057606,-0.00801653042435646,-0.016911547631025314,-0.0018129913369193673,-0.0024290236178785563,-0.0032045578118413687,-0.039664044976234436,0.027806052938103676,0.015543211251497269,0.004408305045217276,0.007633222732692957,0.019987870007753372,0.016739225015044212,-0.0034199838992208242,0.0397036150097847,-0.04284660145640373,-0.0007215967052616179,0.020751025527715683,0.005462039727717638,0.002483901334926486,-0.016185741871595383,0.0025756102986633778,-0.02570033073425293,-0.009719623252749443,-0.008606028743088245,0.021762894466519356,0.061109934002161026,-0.010093328543007374,-0.0007618534727953374,0.0069091529585421085,0.013933476991951466,0.006110089831054211,-0.013183541595935822,-0.021910762414336205,-0.0032326621003448963,-0.0036614227574318647,0.03887875750660896,-0.03109523467719555,0.010263849049806595,-0.01659667305648327,0.01455250196158886,-0.04611232131719589,0.004019428975880146,0.012110909447073936,-0.013908089138567448,0.005920600611716509,0.028373120352625847,-0.008752090856432915,-0.025704387575387955,0.008990352042019367,-0.003961543086916208,0.00983390025794506,-0.04360825940966606,-0.031324706971645355,0.0023963989224284887,0.021696073934435844,0.03549297899007797,0.010815737769007683,0.017021745443344116,0.015001911669969559,-0.012762213125824928,-0.0513731949031353,-0.015973662957549095,0.0007296313997358084,-0.0009823042200878263,-0.008781841024756432,-0.02084103785455227,0.008591415360569954,0.0045928023755550385,0.022655023261904716,0.02135523594915867,0.008717521093785763,-0.004290452692657709,-0.0007927911356091499,-0.01964743621647358,-0.016890041530132294,0.006530716549605131,-0.01519998349249363,0.017925377935171127,-0.0434986837208271,0.002975723473355174,-0.009655313566327095,0.026329895481467247,0.013342993333935738,0.013255828060209751,-0.0018974791746586561,-0.026471203193068504,0.014411378651857376,-0.05988938733935356,0.03395380452275276,-0.011474530212581158,0.020402826368808746,0.07009613513946533,-0.015890881419181824,-0.04531027376651764,-0.012685872614383698,-0.04398637264966965,0.012510647997260094,-0.02880462072789669,-0.013422374613583088,-0.008556435815989971,0.002603319939225912,-0.008339276537299156,-0.0024105971679091454,1.346320004813606e-05,-0.007292828522622585,0.018881183117628098,0.004608399234712124,-0.0023392189759761095,-0.00646295677870512,0.008081967011094093,-0.02811763621866703,0.03652644529938698,-0.00028575779288075864,0.009452356956899166,-0.03647815063595772
Radieschen,0.01383334118872881,0.006526449229568243,0.0051076775416731834,-0.0012987226946279407,0.012187181040644646,0.014862656593322754,0.010911999270319939,0.020658696070313454,0.04629027098417282,-0.009267938323318958,0.0003436822444200516,-0.060979560017585754,0.018819734454154968,0.0209468062967062,-0.03347723186016083,-0.007270255126059055,0.022666169330477715,0.030323704704642296,-0.0314912348985672,-0.01675567775964737,0.001876836409792304,-0.021502014249563217,-0.017583148553967476,0.003371071070432663,0.005071572028100491,-0.0549076572060585,-0.03627980500459671,0.014978036284446716,0.015431602485477924,-0.056529778987169266,0.004104311112314463,-0.0018470215145498514,-0.01202369760721922,0.005668759346008301,0.0018242246005684137,0.0063135866075754166,0.00564980786293745,0.010373398661613464,0.037991002202034,0.0021607610397040844,-0.0018557203002274036,-0.03824614733457565,0.0008893534541130066,-0.020075736567378044,-0.01934342086315155,0.07273434847593307,-0.022025983780622482,0.01744174398481846,-0.0482662208378315,-0.0074283587746322155,-0.0272053275257349,-0.07421008497476578,0.0053396811708807945,-0.002050867071375251,0.05194978415966034,-0.036648377776145935,0.04617911949753761,0.015435654670000076,0.015496841631829739,-0.016390370205044746,0.04656725749373436,-0.01806272566318512,-0.029015252366662025,0.010052054189145565,-0.03536130115389824,0.025421613827347755,0.03158694878220558,0.011259067803621292,0.01359623670578003,-0.05388512834906578,0.0020664657931774855,0.01896839402616024,-0.0082410778850317,-0.043379638344049454,-0.017916178330779076,0.005356709007173777,-0.014158791862428188,-0.00322089740075171,-0.003751383861526847,0.03615395352244377,-0.007116286549717188,0.013341872952878475,0.04456647112965584,0.015965381637215614,0.01177290640771389,0.025655947625637054,0.005761443637311459,-0.004591598175466061,-0.012110251933336258,-0.038237061351537704,0.027506563812494278,0.032670702785253525,0.009867683984339237,-0.02757369354367256,0.026652486994862556,-0.0020317903254181147,0.035015493631362915,-0.015727533027529716,0.010262143798172474,0.04392775520682335,-0.026227112859487534,0.019157378003001213,0.0279840175062418,-0.03613724559545517,0.04409157112240791,-0.04169886186718941,0.02502298355102539,-0.012193609960377216,0.018058031797409058,-0.06309527903795242,0.004300336819142103,0.03111637383699417,-0.002238993067294359,-0.058491818606853485,-0.007492344360798597,-0.05453181266784668,-0.018475398421287537,-0.014573822729289532,0.05479020997881889,-0.014591793529689312,-0.03603673726320267,-0.012965934351086617,0.029651304706931114,-0.013221444562077522,0.05326610058546066,0.06151045858860016,-0.017215454950928688,0.006487979553639889,0.012266086414456367,0.013025227002799511,0.007518707308918238,0.06594830006361008,0.02184228040277958,0.057200539857149124,0.03702361509203911,0.018274426460266113,0.015502807684242725,0.02001229301095009,0.00600908137857914,0.04708711430430412,-0.010832433588802814,-0.015038174577057362,0.03242390230298042,-0.017198672518134117,0.023684831336140633,0.024000579491257668,0.05179397389292717,0.014424811117351055,-0.04779089614748955,-0.06633909791707993,-0.03819363936781883,0.04142487794160843,-0.020647317171096802,0.014101286418735981,-0.0010522219818085432,0.05648369342088699,0.0019235751824453473,-0.0352586954832077,-0.02626882493495941,-0.022040005773305893,-0.031243691220879555,-0.012944457121193409,-0.008089215494692326,0.003848827676847577,0.03204559534788132,0.029796071350574493,-0.0009227043483406305,0.01254269853234291,0.0017374147428199649,0.011463209055364132,0.008438206277787685,-0.028317885473370552,0.006445010658353567,-0.025284769013524055,0.019317155703902245,0.051700133830308914,-0.004977729171514511,-0.002997254254296422,-0.0003539356985129416,-0.03086085431277752,0.035494107753038406,-0.04670599475502968,-0.00017759535694494843,-0.012713732197880745,0.007228013593703508,-0.011566633358597755,0.000757936795707792,-0.007366986013948917,0.00022985776013229042,0.012877312488853931,-0.06442219763994217,0.016321612522006035,-0.023353444412350655,-0.012711435556411743,0.04582567885518074,0.004938432015478611,0.056129973381757736,-0.008961264975368977,0.0593397356569767,-0.017688516527414322,-0.001783111016266048,0.005675006192177534,-0.04821503162384033,-0.0541653074324131,-0.04516597092151642,0.0005978601984679699,-0.03086608275771141,-0.017924688756465912,0.009423491545021534,0.0026922065299004316,0.06428752839565277,0.011575964279472828,0.007512452080845833,0.026815364137291908,0.005804802756756544,-0.03080228716135025,-0.022994088008999825,-0.02011527679860592,0.013517003506422043,-0.03784223645925522,0.009556163102388382,0.05472610145807266,0.0063265664502978325,-0.0009011551737785339,0.018549548462033272,-0.024438316002488136,0.007120579481124878,0.0271987896412611,-0.01841399446129799,-0.02501184493303299,0.05194603279232979,-0.0041825738735497,-0.06693766266107559,0.02410605177283287,0.030600564554333687,-0.0015289501752704382,-0.04486240819096565,-0.029077665880322456,0.02033810131251812,0.034646231681108475,0.03913189470767975,0.020949652418494225,0.0070638507604599,-0.004947141278535128,-0.011001257225871086,0.006894906051456928,-0.0026578777469694614,0.005421137902885675,-0.0048985532484948635,-0.03887079283595085,-0.054603684693574905,-0.039396703243255615,0.007898874580860138,0.0014106218004599214,0.026822878047823906,-0.00119319639634341,-0.03631100431084633,-0.011479104869067669,0.036989957094192505,0.02090190164744854,0.04055719077587128,-0.015292970463633537,0.011534864082932472,-0.05130818486213684,-0.01572476327419281,-0.030860980972647667,-0.00834070984274149,-0.015441636554896832,0.055662572383880615,0.0055969455279409885,-0.0056418501771986485,-0.021830255165696144,-0.061015255749225616,-0.008171864785254002,0.007669242098927498,0.015790829434990883,0.07763105630874634,0.01911274343729019,-0.06450778245925903,0.013273859396576881,-0.05207863822579384,0.015335437841713428,-0.012223760597407818,-0.028435029089450836,-0.04104938358068466,0.0166045892983675,-0.013383994810283184,-0.0024330599699169397,-0.00871164072304964,-0.048586245626211166,0.043298449367284775,-0.007900716736912727,0.020154476165771484,-0.016592932865023613,-0.012320652604103088,-0.017496922984719276,0.007237177807837725,0.023859329521656036,0.0337737575173378,-0.027558939531445503
Paprika,0.02698809653520584,-0.03027896210551262,0.0005779924686066806,-0.06376206874847412,0.02660168707370758,0.020719191059470177,0.012586373835802078,-0.043962012976408005,0.016731200739741325,-0.004389370325952768,0.03641198202967644,-0.05615472048521042,0.03745708987116814,0.022671466693282127,0.007243139203637838,0.025164267048239708,0.01807010918855667,-0.009423842653632164,-0.020701076835393906,-0.043523505330085754,0.01440802775323391,-0.033633045852184296,-0.001777012599632144,-0.00893479399383068,0.014615616761147976,-0.021790213882923126,-0.04278161749243736,0.048020120710134506,0.02156083658337593,-0.004665161482989788,-0.043173354119062424,-0.07439379394054413,-0.004900887608528137,0.004567047115415335,0.04940670728683472,0.08936785906553268,0.021141065284609795,-0.000518549233675003,0.034427136182785034,0.011452434584498405,-0.016879500821232796,0.053029995411634445,0.014141421765089035,0.014820287004113197,-0.029391508549451828,0.11172501742839813,-0.02557973377406597,0.01733732968568802,-0.029205068945884705,-0.03541930392384529,0.03732050582766533,-0.06539767980575562,0.04527707025408745,0.011195233091711998,0.05063620209693909,-0.010640392079949379,0.021577997133135796,0.012964791618287563,0.028653785586357117,-0.05636401101946831,0.029126673936843872,-0.0053022876381874084,-0.03268923610448837,0.0037682827096432447,-0.07373060286045074,0.018205104395747185,0.07239304482936859,-0.023692723363637924,0.025576498359441757,0.01817692443728447,0.0012290067970752716,-0.02712758257985115,-0.02380632981657982,-0.06280384212732315,-0.04621799290180206,-0.0235850028693676,0.012431303970515728,-0.017037859186530113,0.013670201413333416,0.034001775085926056,-0.006524085998535156,-0.04215896874666214,0.08057772368192673,0.025818463414907455,-0.02082930877804756,0.061498090624809265,0.01257037278264761,-0.051846202462911606,-0.0480424128472805,-0.09198856353759766,0.039952587336301804,0.04191024228930473,-0.01617709919810295,-0.04418496415019035,0.0008506551384925842,0.033782027661800385,-0.019451159983873367,-0.06027611345052719,-0.0438944511115551,-0.02495723031461239,-0.08931581676006317,0.031074976548552513,-0.0066098920069634914,-0.05077771842479706,0.027169540524482727,-0.09742074459791183,0.023932013660669327,0.08231280744075775,-0.03472324460744858,-0.08142067492008209,0.0014250390231609344,-0.0032672323286533356,-0.00223529152572155,-0.05384182929992676,-0.07970230281352997,-0.023924939334392548,0.006496224086731672,0.0005596780101768672,0.0466952919960022,0.018285436555743217,-0.07701893895864487,-0.033444516360759735,0.09334319829940796,0.01779704913496971,0.01953738182783127,0.0038823760114610195,-0.03465566784143448,0.049404870718717575,0.020623862743377686,0.03369024395942688,-0.034413162618875504,0.07765421271324158,0.008343844674527645,0.039770446717739105,0.0056516919285058975,-0.0637129545211792,0.021885503083467484,-0.005658164620399475,0.0010720603168010712,-0.0203542597591877,-0.031181391328573227,-0.016865111887454987,0.07685162127017975,-0.029127439484000206,0.029471656307578087,-0.04083814471960068,0.04917236417531967,-0.026695042848587036,-0.03105621412396431,-0.05334104225039482,-0.03807622194290161,0.09453015774488449,-0.026343893259763718,0.029316727072000504,-0.0641300156712532,0.08968615531921387,0.050281234085559845,-0.0881916731595993,0.05415000021457672,-0.04689989984035492,0.039138179272413254,-0.0008672221447341144,0.04672376066446304,-0.005263363476842642,-0.027512459084391594,0.07072708755731583,0.003343540010973811,0.05957695096731186,-0.02974526584148407,-0.017615579068660736,-0.05688769370317459,-0.049846094101667404,-0.007370499894022942,-0.036317549645900726,-0.02382616326212883,0.006389525718986988,-0.04960646480321884,0.013603808358311653,0.05291061848402023,0.00951763242483139,0.01760033890604973,-0.009416427463293076,-0.008960450068116188,-0.021073361858725548,-0.004584312438964844,-0.008285227231681347,-0.03669050335884094,0.007637292146682739,-0.05535883828997612,0.0037440068554133177,-0.033894315361976624,-0.0017562934663146734,0.018370158970355988,-0.033287420868873596,0.05621778592467308,0.03996967524290085,0.039979226887226105,-0.00943035539239645,0.053893085569143295,-0.034232594072818756,0.011219099164009094,0.03560595214366913,-0.030035927891731262,0.0362321138381958,0.018292024731636047,-0.08968430012464523,-0.019019288942217827,-0.04960502311587334,0.016335874795913696,0.08637597411870956,0.0599440298974514,-0.01490883156657219,-0.014137904159724712,-0.000875860801897943,0.016746174544095993,-0.032402366399765015,-0.03109506331384182,-0.014718460850417614,-0.008572866208851337,-0.030076313763856888,0.008930686861276627,0.03430983051657677,-0.03001420944929123,0.019030040130019188,0.04337518662214279,-0.005429111421108246,0.03783456236124039,-0.001074036001227796,-0.09018003940582275,-0.019085504114627838,0.0644267201423645,-0.024753708392381668,-0.05683247372508049,0.04232242330908775,0.008119259960949421,0.049253299832344055,-0.04457584023475647,-0.062415920197963715,0.021145856007933617,0.06340968608856201,0.0879998505115509,-0.0003057358262594789,0.060285069048404694,-0.009023692458868027,0.0034822437446564436,0.04781597852706909,-0.00019855114805977792,-0.0454588383436203,-0.01933891698718071,-0.03220391646027565,-0.05917252600193024,0.013612101785838604,-0.019883722066879272,0.021801812574267387,0.015616628341376781,-0.02603943645954132,-0.08117322623729706,0.02640625834465027,0.07038538157939911,-0.022890128195285797,-0.0015923533355817199,-0.014604134485125542,0.03540593758225441,-0.026934675872325897,-0.021983571350574493,-0.026889469474554062,-0.0004198397509753704,-0.0021683413069695234,0.011015722528100014,-0.016338560730218887,-0.013773968443274498,-0.006182077806442976,-0.09366278350353241,-0.0018212435534223914,0.028113996610045433,0.024889742955565453,0.14802636206150055,-0.012957362458109856,-0.06146090477705002,0.0008858740329742432,-0.11423243582248688,0.02312900871038437,-0.013438764028251171,-0.007753978483378887,-0.0611531063914299,0.06579039245843887,0.004936937242746353,0.024391736835241318,0.03574168682098389,-0.03810802847146988,0.057446546852588654,-0.013018235564231873,0.07179153710603714,-0.05777125805616379,-0.02669519931077957,-0.03773032873868942,0.0425201952457428,0.0216233991086483,-0.01513000950217247,-0.04571932554244995
Zucchini,0.023271139711141586,-0.0036398479714989662,0.00927734375,-0.004728121683001518,0.03740910813212395,0.027207622304558754,0.0031495599541813135,-0.028569960966706276,0.07133908569812775,0.0033225296065211296,0.036932505667209625,-0.07230959087610245,0.034089382737874985,0.040928084403276443,0.027769478037953377,0.017344681546092033,0.02316024713218212,0.013721002265810966,-0.04598031938076019,-0.043678779155015945,-0.014306163415312767,-0.003227302571758628,-0.037492889910936356,-0.00535194156691432,-0.018296269699931145,0.012855595909059048,0.035229410976171494,0.012776810675859451,0.014230330474674702,-0.018859965726733208,-0.011591707356274128,-0.013874627649784088,-0.009536909870803356,-0.006469892803579569,0.029417166486382484,0.03689192980527878,-0.011295274831354618,0.011922468431293964,0.03602808341383934,-0.008671469986438751,0.02472100406885147,-0.009742418304085732,0.018857695162296295,0.03527610003948212,-0.04575779289007187,0.12130055576562881,-0.0461270846426487,0.03860124573111534,-0.015673913061618805,-0.008249806240200996,-0.01930166222155094,-0.05422736704349518,0.008135461248457432,0.0023007069248706102,0.08315606415271759,-0.017924606800079346,0.03281429037451744,0.062392834573984146,0.03608053922653198,-0.022802958264946938,0.0365377813577652,-0.012964406982064247,-0.012553196400403976,0.02553580142557621,-0.07295553386211395,0.02409350499510765,0.053489942103624344,-0.011797628365457058,0.028194047510623932,0.008808914572000504,0.004417797550559044,0.00022967853874433786,0.02634311467409134,-0.05286163464188576,-0.028374426066875458,-0.02147132344543934,-0.005507501307874918,0.0015922407619655132,-0.026272302493453026,0.026357604190707207,0.005589081905782223,0.056999318301677704,0.07066231220960617,0.02059963345527649,0.0263056680560112,0.03753398731350899,-0.03677668049931526,-0.01966824010014534,-0.023010049015283585,-0.062337469309568405,0.012499431148171425,0.0239537563174963,-0.020448271185159683,-0.0828632116317749,0.012247840873897076,0.03688211366534233,0.0213782861828804,-0.025758808478713036,-0.03492230549454689,-0.024541830644011497,0.014652353711426258,0.022650662809610367,-0.021859832108020782,0.006914850324392319,0.004376901779323816,-0.07448892295360565,-0.03789999708533287,-0.009499339386820793,-0.058795101940631866,-0.08248269557952881,0.014791120775043964,0.04171154648065567,0.011856986209750175,-0.06545216590166092,-0.03368968889117241,-0.06037801876664162,-0.004137839190661907,-0.05135522037744522,0.05675745755434036,0.013414464890956879,-0.036558911204338074,0.0008481605909764767,0.08151588588953018,0.009938756935298443,-0.013276183977723122,0.03017285093665123,0.002154524903744459,0.04561221972107887,0.02197791263461113,0.03830120712518692,-0.022079993039369583,0.06616994738578796,0.03955758735537529,0.03075415827333927,0.033850401639938354,0.00794577319175005,0.013445810414850712,0.01231654267758131,-0.03763485699892044,0.056975800544023514,-0.02661171741783619,0.008269544690847397,0.07119640707969666,0.011498136445879936,0.021658387035131454,0.017351025715470314,0.03376268222928047,-0.05073324590921402,-0.07833065837621689,-0.04265671223402023,0.027712766081094742,0.09977810084819794,-0.005891915876418352,-0.00824830774217844,-0.0024872098583728075,0.07256316393613815,0.06735321134328842,-0.05281722918152809,0.013927577063441277,-0.04447399824857712,-0.000959007884375751,-0.006388299632817507,0.004905147477984428,-0.02028314583003521,-0.016574334353208542,0.0515923872590065,-0.026132728904485703,0.03585783764719963,-0.020328348502516747,-0.03607824072241783,-0.06282967329025269,-0.04857486113905907,0.011710326187312603,-0.022461850196123123,-0.007686281111091375,-0.0029327019583433867,-0.01107369177043438,0.02953115664422512,0.039769988507032394,0.03398972004652023,0.04008644074201584,-0.029159003868699074,0.020228365436196327,-0.05837060883641243,0.011630309745669365,-0.004394571762531996,-0.023823760449886322,0.01680227741599083,-0.012879373505711555,0.02897820994257927,-0.09651164710521698,-0.014914419502019882,0.03810035064816475,-0.059438735246658325,0.0010744471801444888,0.016667440533638,0.04175082966685295,-0.043263696134090424,0.08740963786840439,-0.07168696075677872,0.026541175320744514,-0.0070050908252596855,-0.002410758985206485,0.06983455270528793,0.013648906722664833,-0.05901024490594864,-0.05327223613858223,-0.015804562717676163,0.06544479727745056,-0.0011622027959674597,0.07083316892385483,-0.008790448307991028,-0.011166767217218876,-0.012480834499001503,0.03501782566308975,-0.013760708272457123,-0.021538173779845238,-0.027407558634877205,0.0191997941583395,-0.0337357223033905,0.027731837704777718,0.0047207847237586975,0.01274156291037798,0.023483090102672577,0.010655725374817848,-0.047072961926460266,0.0348379872739315,0.05563313141465187,-0.012686212547123432,-0.024112466722726822,0.04391947761178017,-0.03882010281085968,-0.1036398634314537,0.045928195118904114,-0.0023525566793978214,0.014152124524116516,-0.0546686090528965,-0.056321561336517334,0.05015111342072487,0.040276192128658295,0.033588822931051254,0.056563600897789,0.005241008009761572,-0.025572748854756355,0.057602088898420334,0.06931628286838531,-0.00013186251453589648,-0.046447888016700745,-0.03484367951750755,-0.04071821644902229,-0.039383143186569214,0.007974422536790371,0.026729775592684746,-0.052092794328927994,-0.02019420824944973,-0.035163480788469315,-0.03404214605689049,0.04007762297987938,-0.019637126475572586,-0.020768336951732635,-0.0004341120948083699,0.004557018168270588,0.0024032045621424913,-0.06967797130346298,0.00485643744468689,-0.02238321676850319,0.02348174899816513,-0.004723580554127693,-0.0028462752234190702,-0.01090898085385561,-0.020907629281282425,-0.011735639534890652,-0.10225013643503189,-0.0031284841243177652,-0.0034216451458632946,0.017330586910247803,0.12561267614364624,0.005645360331982374,-0.055782120674848557,0.004209740553051233,-0.10820300132036209,0.05410913750529289,-0.02520989440381527,-0.05545336380600929,-0.044408928602933884,0.017552752047777176,-0.022645361721515656,0.007700905669480562,0.017219580709934235,-0.035605110228061676,0.06365966796875,-0.022044409066438675,0.019685542210936546,-0.022349869832396507,-0.003408648306503892,-0.0018641598289832473,0.02205236442387104,-0.03209009766578674,0.02190273627638817,-0.023618362843990326
Aubergine,0.018397260457277298,0.013390995562076569,-0.020628752186894417,-0.010164465755224228,-0.025613049045205116,0.05758334696292877,0.05701569467782974,-0.013397561386227608,0.045794785022735596,0.00983455404639244,-0.009956828318536282,-0.053900737315416336,0.01189107820391655,0.008496257476508617,0.004664704203605652,-0.02006612904369831,-0.007797084748744965,0.003566297236829996,-0.007088713347911835,-0.014182418584823608,0.03551919013261795,0.04639936611056328,0.06918804347515106,-0.023122571408748627,-0.0037928298115730286,9.994674474000931e-05,-0.03698332607746124,-0.02479930780827999,0.02876056544482708,0.014554023742675781,-0.03229563683271408,0.03579077124595642,0.020429003983736038,0.015372410416603088,0.021638158708810806,0.029336530715227127,-0.03806336224079132,-0.01306106150150299,0.013665108010172844,-0.021325532346963882,-0.004890884272754192,-6.103166379034519e-05,0.037765249609947205,0.03713347017765045,-0.016892557963728905,0.09817798435688019,-0.045651793479919434,0.03244165703654289,-0.00329587422311306,0.019090058282017708,-0.02282577008008957,-0.016013935208320618,0.012873860076069832,-0.012434897944331169,0.08398724347352982,-0.008887369185686111,0.01945391856133938,0.04220009595155716,0.04662309214472771,-0.02237645536661148,0.05423114076256752,0.009435062296688557,0.025725509971380234,0.03559674695134163,-0.05813320726156235,0.027296755462884903,0.028548233211040497,-0.01673021726310253,0.02820977196097374,-0.011478052474558353,-0.034520283341407776,0.016850115731358528,0.02984405681490898,-0.029536578804254532,0.022487014532089233,-0.04013818874955177,-0.02472587116062641,0.024808477610349655,0.010843162424862385,0.01463888119906187,0.010036692023277283,0.04062804952263832,0.03605714812874794,-0.01621219888329506,0.022666985169053078,0.02009235881268978,-0.05009516701102257,-0.045799896121025085,0.003180156461894512,-0.0447775200009346,0.03708062693476677,0.046214114874601364,0.008355937898159027,-0.026858430355787277,0.005344966426491737,0.014209904707968235,-0.0016546845436096191,-0.03552287071943283,-0.04447591304779053,-0.027912287041544914,-0.021468406543135643,0.06747527420520782,0.04293452948331833,-0.05828791856765747,0.010732011869549751,-0.0434199720621109,0.00831548497080803,0.04185790196061134,0.006935117766261101,-0.017121654003858566,-0.03561290353536606,-0.0029310279060155153,0.029356742277741432,0.016159705817699432,-0.021396704018115997,-0.039854902774095535,0.018805235624313354,-0.05157729983329773,0.04423870891332626,0.009908750653266907,-0.059940241277217865,0.009281977079808712,0.031750164926052094,-0.012536490336060524,-0.01029154285788536,0.05178452655673027,-0.021053005009889603,0.014363672584295273,-0.02748843841254711,-0.049861595034599304,-0.0004172874614596367,0.026856087148189545,0.04548635333776474,0.03149884194135666,0.037635572254657745,-0.04306166619062424,0.011480371467769146,0.01089972909539938,-0.014121449552476406,0.048770125955343246,0.02581380307674408,-0.004484380595386028,0.056078579276800156,0.011380521580576897,0.007972273975610733,0.00410829670727253,0.02227034978568554,-0.0381220206618309,-0.029455561190843582,-0.029481790959835052,0.013933522626757622,0.06262904405593872,0.0017253626137971878,0.039184197783470154,-0.01803463324904442,0.07074777036905289,0.006694881245493889,-0.024608582258224487,0.004092744085937738,-0.001908118836581707,-0.0069376626051962376,-0.03959772363305092,0.012085056863725185,0.03476417809724808,-0.06597019731998444,0.017212282866239548,0.02784326672554016,0.011844969354569912,-0.011618080548942089,-0.003516875207424164,-0.03034888580441475,-0.002328663831576705,-0.015803588554263115,-0.035373587161302567,0.03330375999212265,-0.010360274463891983,-0.04309144243597984,-0.03318428248167038,0.02324433997273445,0.003498649690300226,0.03139195218682289,-0.042610760778188705,-0.019405359402298927,-0.0012840875424444675,-0.022027328610420227,-0.01095516886562109,0.01016171183437109,0.014601485803723335,0.02302040345966816,-0.041167642921209335,0.0031656064093112946,-0.023336339741945267,0.053690358996391296,-0.06981877237558365,-0.023334914818406105,0.0449196882545948,0.036994095891714096,0.03645135462284088,0.039072953164577484,-0.0059022619388997555,0.025278562679886818,0.03067813068628311,-0.020519990473985672,0.014792590402066708,-0.003949703648686409,-0.026096347719430923,-0.04759040102362633,-0.05347838252782822,-0.003971682861447334,0.013155477121472359,0.036937955766916275,-0.037295758724212646,0.014410634525120258,-0.036001529544591904,0.01929287426173687,0.017937228083610535,-0.022223936393857002,-0.05066332593560219,0.009606867097318172,-0.00942709855735302,0.03424796462059021,-0.003981135319918394,-0.013264328241348267,-0.007720484398305416,0.01744385063648224,-0.03741434961557388,0.01941058412194252,-0.00696452334523201,-0.03690550476312637,-0.0019583366811275482,0.017845191061496735,-0.0045028142631053925,-0.05504075437784195,0.005181935615837574,-0.023657746613025665,0.06710715591907501,-0.06622441858053207,-0.0003451569937169552,0.020762763917446136,0.013234739191830158,0.05600842460989952,-0.03290506452322006,0.011397682130336761,0.036556899547576904,-0.0035893134772777557,-0.002989990869536996,0.005035344045609236,-0.005507015157490969,0.0016009104438126087,-0.0420161709189415,-0.031797390431165695,0.046964265406131744,-0.023036666214466095,0.00016357190907001495,0.03995215520262718,-0.06688974797725677,-0.052439749240875244,0.0018246385734528303,-0.011218562722206116,0.039028383791446686,-0.008698100224137306,0.02946571446955204,-0.010221287608146667,-0.029614513739943504,0.002381587401032448,0.024445079267024994,0.014321195892989635,-0.010584846138954163,0.02311362326145172,-0.00609960500150919,-0.01389982644468546,0.007890994660556316,-0.08452959358692169,-0.016289664432406425,-0.01210824865847826,-0.009944604709744453,0.07379233092069626,-0.047436896711587906,-0.028678111732006073,-0.01781810261309147,-0.09631334245204926,0.012978638522326946,-0.010699693113565445,0.02412143535912037,-0.040650103241205215,-0.007271924987435341,-0.010900398716330528,0.021836230531334877,-0.00965055264532566,-0.07749095559120178,0.009312943555414677,-0.004359270446002483,0.025775177404284477,-0.014518722891807556,0.015139572322368622,0.00655737891793251,-0.023499272763729095,0.02733859047293663,-0.005180137697607279,-0.03740417957305908
Pilze,-0.035154033452272415,-0.0013652890920639038,0.04273568466305733,0.00873648189008236,-0.08518184721469879,-0.011771773919463158,0.05127290263772011,-0.06043500453233719,0.04081825166940689,-0.015415487810969353,0.02467137947678566,-0.020714525133371353,-0.006361739709973335,0.09213046729564667,-0.046863310039043427,0.08170222491025925,-0.047501470893621445,0.01070760190486908,-0.05893515795469284,-0.014162588864564896,-0.007933447137475014,-0.07103455811738968,-0.03791743889451027,-0.03963115066289902,-0.009934363886713982,-0.14920572936534882,-0.13589321076869965,-0.04640140384435654,0.006686508655548096,-0.09066922962665558,0.003138333559036255,0.059042587876319885,-0.03457331284880638,-0.04183445870876312,-0.03355846926569939,0.0008669395465403795,-0.09834449738264084,-0.028467532247304916,0.09629577398300171,0.02994517609477043,0.0033052191138267517,0.025930743664503098,-0.00921790860593319,-0.028671344742178917,-0.0668056532740593,0.10165777057409286,-0.08115827292203903,0.04052102193236351,-0.06884831935167313,-0.07342459261417389,0.0022761058062314987,-0.09936513006687164,0.009436539374291897,-0.0014960849657654762,0.10763867199420929,-0.03230712562799454,0.01388072595000267,0.06189965829253197,-0.026428431272506714,-0.07622004300355911,0.09458369761705399,-0.002104099839925766,-0.018713410943746567,0.16054949164390564,-0.08921060711145401,-0.03796292096376419,0.11580254137516022,-0.08787378668785095,0.07227082550525665,-0.020663835108280182,0.14581216871738434,-0.002418303396552801,0.10241009294986725,0.013274936005473137,-0.036739155650138855,-0.04375884681940079,0.014827103354036808,-0.0911218449473381,0.016614316031336784,-0.08097509294748306,-0.016805868595838547,0.052245695143938065,0.01955525204539299,0.017851442098617554,-0.06416603177785873,0.13499054312705994,0.08696611225605011,0.057598941028118134,-0.025202598422765732,-0.04117680713534355,0.10402026772499084,0.04081561788916588,-0.04517993703484535,0.06158263236284256,0.015758134424686432,-0.026828529313206673,-0.004745899699628353,-0.0018312633037567139,0.014323152601718903,-0.07218025624752045,-0.05063421279191971,0.05472583323717117,0.012256018817424774,-0.06938759237527847,0.02285214699804783,-0.05922936275601387,-0.1410016119480133,-0.05376369506120682,0.02958853915333748,-0.10591152310371399,-0.04327639564871788,-0.012845366261899471,0.042965471744537354,-0.015047839842736721,-0.022974153980612755,-0.03805403783917427,-0.07598519325256348,-0.0005747056566178799,-0.020609425380825996,-4.3254345655441284e-05,-0.12944811582565308,-0.02452121675014496,0.05136872082948685,0.014875249937176704,0.1102512776851654,0.05547424033284187,-0.08815532922744751,-0.008200601674616337,-0.010857658460736275,0.041649311780929565,-0.037298496812582016,0.17152541875839233,0.023192154243588448,0.16145874559879303,0.025640301406383514,0.040548283606767654,-0.01106797531247139,0.03109755367040634,0.050357885658741,0.05996149033308029,0.017398912459611893,-0.05217863246798515,-0.041700202971696854,-0.14013096690177917,-0.11440465599298477,-0.020626679062843323,0.11547751724720001,-0.03195410594344139,0.12875327467918396,-0.04372737929224968,-0.008968321606516838,0.07910177111625671,-0.12993915379047394,0.008446883410215378,0.047884464263916016,0.11171819269657135,0.04076308012008667,-0.06745404750108719,-0.028428999707102776,-0.030905893072485924,0.002072492614388466,-0.11891205608844757,-0.09093928337097168,-0.000223575159907341,-0.07154034078121185,0.060831859707832336,-0.020232858136296272,0.1279016137123108,-0.003440103493630886,0.06804269552230835,-0.06858918815851212,-0.04560313746333122,0.022451434284448624,-0.03903818130493164,-0.020817801356315613,0.05031444504857063,0.03022085875272751,0.013228137977421284,-0.03368529677391052,0.01978360116481781,-0.05065697431564331,-0.1049240380525589,-0.1321517676115036,-0.19376882910728455,0.06522626429796219,-0.012805461883544922,-0.0011651739478111267,0.021164437755942345,-0.030038200318813324,-0.06672931462526321,-0.09843931347131729,-0.03137566149234772,-0.0676283985376358,-0.013800724409520626,0.14207620918750763,0.06254100054502487,0.10445992648601532,0.04057814180850983,-0.024581022560596466,-0.035172224044799805,0.027360443025827408,-0.003045065328478813,0.025603091344237328,-0.03200604021549225,0.014888033270835876,-0.017188051715493202,-0.019566219300031662,0.0010907463729381561,0.08759898692369461,0.07110843062400818,0.049810200929641724,-0.04217580705881119,0.03820902109146118,0.1417294144630432,-0.018566269427537918,0.10702137649059296,-0.07093312591314316,-0.04059683531522751,0.03656473383307457,0.009648081846535206,0.042340703308582306,0.11853732913732529,0.07774117588996887,0.11715874820947647,0.04985426738858223,0.01970854215323925,0.037925876677036285,-0.04360933229327202,-0.018049322068691254,-0.02937050722539425,0.04065006226301193,-0.046862319111824036,0.011792376637458801,0.1108533963561058,0.007594030350446701,0.10044433921575546,-0.055888064205646515,-0.01729433424770832,0.040639728307724,-0.018680546432733536,0.014782698825001717,0.022521987557411194,0.010755199939012527,-0.017002353444695473,0.09755221009254456,0.0010456796735525131,-0.022176172584295273,0.0621115118265152,-0.03795802220702171,-0.03839230537414551,-0.011166257783770561,-0.12049306929111481,0.09373755007982254,-0.06484650075435638,0.008281323127448559,0.008252915926277637,-0.06645951420068741,0.021185215562582016,0.055304691195487976,-0.06690236926078796,0.015528385527431965,-0.04610157012939453,0.05864352732896805,-0.11999209225177765,-0.03822443634271622,-0.09201089292764664,-0.0679565891623497,0.0925794392824173,-0.013882569968700409,-0.006173519417643547,-0.08932074904441833,-0.05435600504279137,-0.12823650240898132,-0.0035457052290439606,-0.0669269859790802,0.043458715081214905,0.14426344633102417,-0.07652682065963745,-0.008246360346674919,0.033264920115470886,-0.13899868726730347,0.0022584362886846066,-0.04993608966469765,-0.040099456906318665,-0.015455557964742184,-0.023278217762708664,-0.09079697728157043,0.004926316440105438,-0.0044032796286046505,-0.02764403633773327,-0.09842923283576965,-0.02906293421983719,0.08473308384418488,-0.05593869462609291,0.013247642666101456,0.15376684069633484,0.05800962820649147,0.0025737211108207703,0.016309142112731934,-0.0858384296298027
Sellerie,0.041508812457323074,0.037731315940618515,-0.007540348917245865,0.02689087577164173,-0.024265576153993607,-0.009767945855855942,0.020086390897631645,-0.04006771743297577,0.014494181610643864,-0.03974856063723564,0.003940567374229431,-0.007223626598715782,0.03549704700708389,0.05946171283721924,-0.04200870543718338,0.002167148282751441,-0.005542262457311153,-0.019096601754426956,-0.011615344323217869,-0.040421612560749054,0.01769658736884594,0.04735634848475456,0.004389045760035515,-0.030039120465517044,-0.020128736272454262,0.017939386889338493,0.009867693297564983,0.0217592753469944,-0.030666839331388474,-0.03059433028101921,-0.033754006028175354,-0.0077180867083370686,-0.04533931240439415,0.03059319220483303,0.007319679018110037,0.022604161873459816,-0.04371596872806549,0.001432414399459958,0.03394175320863724,-0.00038881602813489735,-0.007886839099228382,-0.04688369855284691,0.002146765124052763,0.022161422297358513,-0.00135454919654876,0.04339384287595749,-0.003705327631905675,-0.025282535701990128,-0.002540991175919771,-0.017612691968679428,0.036213554441928864,0.023420196026563644,-0.03683292865753174,-0.0189764853566885,0.018129665404558182,0.012792015448212624,-0.010897329077124596,0.0003193574375472963,0.09239903092384338,-0.023592999204993248,0.0018773399060592055,0.024565059691667557,-0.034958068281412125,-0.008817005902528763,-0.023567473515868187,-0.01922973245382309,0.03713177889585495,-0.038219649344682693,0.011406638659536839,0.0008181408629752696,0.006989279296249151,-0.021003929898142815,0.017631925642490387,-0.05225662887096405,-0.03745134174823761,-0.020844105631113052,0.015551270917057991,-0.04858507588505745,-0.04162834957242012,0.021838048473000526,-0.04219551011919975,0.022493144497275352,-0.012607798911631107,0.031514160335063934,9.603054058970883e-05,0.057089485228061676,-0.02016059122979641,-0.03560956194996834,-0.010663938708603382,-0.0519762858748436,0.011994222179055214,0.018342336639761925,0.012069693766534328,-0.049774251878261566,0.018727624788880348,0.027373455464839935,0.027505667880177498,-0.00895894318819046,-0.002756099682301283,-0.01530269905924797,-0.026017077267169952,0.010707283392548561,0.01306284312158823,-0.039436981081962585,-0.0002773787418846041,-0.11031752824783325,-0.018415428698062897,0.0041862898506224155,0.0017902958206832409,-0.02034524641931057,0.006183701101690531,-0.06102346256375313,0.012186910025775433,0.008566061034798622,-0.08411800116300583,-0.029455479234457016,-0.004948399029672146,-0.08317302167415619,0.0850074514746666,-0.01726599410176277,-0.040085215121507645,0.047433387488126755,0.0357147715985775,-0.014483688399195671,-0.021184828132390976,0.08370932936668396,0.005926703568547964,0.033151861280202866,0.03804854676127434,0.011681207455694675,-0.085431769490242,0.04224248230457306,0.009523928165435791,0.07440515607595444,0.07944758236408234,-0.01637657918035984,0.03826495632529259,0.007261025253683329,0.025654690340161324,0.043122608214616776,0.05266137793660164,0.004742290358990431,0.07697328180074692,-0.026102062314748764,0.029718570411205292,0.007887373678386211,0.015201286412775517,-0.0648149698972702,-0.05484156310558319,-0.022666219621896744,-0.020110441371798515,0.04644474759697914,-0.026169706135988235,0.006965939886868,-0.039274513721466064,0.08456992357969284,0.05088070407509804,-0.05077074095606804,0.027762696146965027,-0.03464158624410629,-0.06463612616062164,0.004356122575700283,-0.029264584183692932,0.015749633312225342,-0.00880373828113079,0.08510597795248032,0.029499560594558716,-0.012374957092106342,-0.028536714613437653,-0.005564684979617596,-0.001111767953261733,0.06012978032231331,-0.03683508560061455,-0.034578509628772736,0.00904749520123005,0.040405143052339554,-0.014122861437499523,-0.022364597767591476,0.004219649825245142,0.029130954295396805,-0.00423940597102046,-0.05950762704014778,-0.020170088857412338,-0.046486906707286835,-0.03879878669977188,0.023059992119669914,-0.05272471532225609,-0.03184625133872032,-0.03609956055879593,0.01209540106356144,-0.0365242063999176,0.03211819753050804,0.011771191842854023,-0.04392159357666969,-0.0004231920756865293,0.02388756349682808,0.02096388302743435,0.003407509997487068,0.051591817289590836,-0.026166994124650955,0.033811524510383606,0.00833488442003727,0.098184734582901,0.0017462237738072872,-0.04232434555888176,-0.06005575507879257,-0.08573432266712189,0.00269183493219316,0.011043768376111984,0.027162402868270874,0.046048689633607864,-0.00609571160748601,0.011426704935729504,0.06981056928634644,0.01573798432946205,-0.053055960685014725,-0.02019699662923813,-0.04925452545285225,-0.009562984108924866,-0.08714960515499115,0.010431216098368168,-0.03253732994198799,0.007837971672415733,0.001968187978491187,0.016759337857365608,0.0023796730674803257,-0.018598658964037895,0.00825333222746849,0.024032389745116234,-0.07377910614013672,-0.0018119567539542913,-0.020994843915104866,0.009126212447881699,0.0045026871375739574,0.02942817285656929,0.04373953118920326,-0.05958978831768036,-0.0023214779794216156,0.049553047865629196,0.035684823989868164,0.07897060364484787,0.03598931059241295,0.025621572509407997,-0.010869591496884823,0.054503507912158966,0.0014084418071433902,0.03528134152293205,0.00017263248446397483,-0.004814258776605129,0.0077345906756818295,-0.05688924714922905,-0.010502324439585209,0.002146034501492977,-0.0029723576735705137,0.04509516805410385,0.0644569844007492,0.012955100275576115,0.039432741701602936,-0.05479731410741806,-0.01772775501012802,0.02398614212870598,-0.01186973974108696,0.042629919946193695,-0.0380295105278492,-0.04631069675087929,-0.021664105355739594,0.04398563131690025,0.002133783884346485,0.009910732507705688,0.0028039144817739725,-0.07970929145812988,-0.001179778715595603,-0.07881814241409302,0.04509831219911575,0.04140181466937065,0.05243650823831558,0.13822317123413086,-0.0170721597969532,-0.04674551635980606,0.01929173618555069,-0.09300672262907028,0.032858334481716156,0.005239087622612715,-0.004611408803611994,-0.015517259016633034,0.05293304845690727,-0.027824990451335907,-0.0003409029159229249,-0.017672177404165268,-0.03438975661993027,-0.01348098088055849,0.025046898052096367,0.04756351187825203,-0.026286307722330093,-0.01145771611481905,-0.03471555560827255,0.039161015301942825,0.02538723684847355,0.031336572021245956,-0.00906370859593153
Banane,0.04747284576296806,-0.057887136936187744,0.002596304751932621,0.023318061605095863,0.011788046918809414,0.08551915735006332,0.05519711598753929,0.012384450994431973,0.05218292027711868,0.006195058114826679,0.024975161999464035,-0.07895759493112564,0.01945849135518074,0.04288223013281822,-0.009575857780873775,-0.01170456875115633,0.04476388916373253,-0.0099918432533741,-0.004006875213235617,-0.021769551560282707,0.048384349793195724,0.07300584018230438,-0.014544392004609108,-0.010006084106862545,0.0070802620612084866,-0.048025600612163544,-0.02867288887500763,0.018104130402207375,-0.0652681216597557,-0.04131990298628807,-0.02470008283853531,0.08258184045553207,0.02543826214969158,0.012901939451694489,0.08317095041275024,-0.0300986897200346,0.0037062899209558964,0.019907737150788307,0.05838426575064659,-0.007619221694767475,0.0005485013243742287,-0.012196162715554237,-0.04663110896945,0.0278878603130579,-0.006494157947599888,0.08856666833162308,-0.041566152125597,0.012582500465214252,-0.013581735081970692,-0.032912444323301315,0.03662476688623428,-0.08740626275539398,-0.012171338312327862,-0.06250743567943573,-0.021970165893435478,0.03490206226706505,0.010308893397450447,-0.052105166018009186,0.002814366016536951,-0.041832149028778076,-0.003063183045014739,-0.01576918736100197,0.03998570516705513,0.03127634897828102,0.041008707135915756,-0.04624438285827637,0.09535612910985947,-0.006057307124137878,0.036708150058984756,0.016465770080685616,0.026487156748771667,0.005605301354080439,0.011507773771882057,-0.0769825279712677,-0.014968059957027435,-0.05381704121828079,0.012850469909608364,-0.02824370376765728,-0.008316035382449627,0.0049984571523964405,-0.005817604251205921,0.03392874076962471,-0.06970905512571335,0.026634812355041504,-0.056133296340703964,0.045073967427015305,-0.05352183058857918,0.0376744419336319,-0.058732714504003525,-0.09264550358057022,0.06331779062747955,0.03094727359712124,0.006677472498267889,-0.007541535887867212,0.002189940307289362,0.03201533108949661,-0.019914288073778152,-0.02379784919321537,-0.001338030444458127,0.05182051286101341,-0.021051080897450447,0.03355516493320465,-0.017183998599648476,-0.03429345786571503,-0.01159315463155508,-0.05203918367624283,-0.017180252820253372,0.04711880907416344,-0.09235034883022308,-0.02627326361835003,-0.02976360358297825,-0.0651862621307373,0.021943464875221252,0.025808120146393776,0.027554133906960487,-0.08672147244215012,0.012583118863403797,-0.02597701922059059,0.09966542571783066,-0.027745485305786133,-0.06695468723773956,0.053135503083467484,-0.031222179532051086,-0.06861697882413864,-0.00417461758479476,0.04667903855443001,-0.016913553699851036,0.02291698567569256,0.04295671731233597,-0.11115606129169464,0.01837787590920925,0.0804324746131897,0.07808651775121689,-0.040554679930210114,0.11536605656147003,-0.0609508752822876,-0.014324629679322243,-0.04404859244823456,0.00048682838678359985,0.0577731728553772,-0.02611429989337921,-0.007733622100204229,0.08486504852771759,-0.005123316776007414,0.035449858754873276,-0.03157798573374748,-0.015396793372929096,0.023182708770036697,-0.020872682332992554,-0.00799501221626997,-0.05323522165417671,0.10954775661230087,-0.03475048020482063,0.019700897857546806,0.006581704597920179,0.10567976534366608,0.02883508801460266,-0.016086502000689507,-0.0005945704760961235,-0.03231621906161308,-0.02100365422666073,-0.011135049164295197,0.0014426138950511813,-0.020365435630083084,0.08825515955686569,0.04791500046849251,-0.014387263916432858,0.055209726095199585,0.030421767383813858,-0.03869888186454773,-0.045096516609191895,0.039030276238918304,0.008844384923577309,-0.0411447249352932,-0.010139291174709797,0.001057675457559526,0.050102293491363525,0.002715005073696375,-0.04670347273349762,-0.029390012845396996,0.0363139808177948,-0.026513099670410156,-0.06748335808515549,-0.015377143397927284,-0.0030290887225419283,0.023846233263611794,-0.019388440996408463,0.04044156149029732,-0.002598473569378257,-0.07971566915512085,-0.07195669412612915,-0.08921545743942261,0.010290984064340591,-0.05983315780758858,0.016008049249649048,0.07231209427118301,-0.018778136000037193,0.00790476705878973,0.05821138620376587,-0.0862751230597496,0.017279885709285736,0.007143689785152674,-0.01899043284356594,0.057035934180021286,0.004516391549259424,-0.0569697730243206,-0.03596176207065582,0.008252876810729504,0.020988961681723595,0.027804678305983543,0.024180380627512932,-0.07742217928171158,0.03799646720290184,0.037800487130880356,0.02119179256260395,0.03732757642865181,-0.058331746608018875,-0.02141149342060089,0.04715371131896973,0.047550857067108154,0.07223757356405258,0.026206782087683678,-0.03167136758565903,0.0010474995942786336,-0.023996833711862564,-0.03378739207983017,0.060727983713150024,0.006936958525329828,-0.013856813311576843,0.012397658079862595,0.09747014194726944,0.054984983056783676,-0.05313871055841446,-0.05227959156036377,-0.07522223144769669,0.07034414261579514,-0.0021364258136600256,0.0016190486494451761,0.04684995487332344,-0.026895493268966675,0.09721670299768448,0.0027136951684951782,0.111603282392025,-0.035521771758794785,-0.055564332753419876,0.0035174384247511625,-0.0027618021704256535,-0.0545707605779171,-0.0313490629196167,-0.05024481937289238,-0.04605657979846001,0.006474004127085209,0.027139997109770775,0.020087389275431633,0.07164463400840759,0.0732777789235115,-0.04345703125,0.02740977145731449,0.09976298362016678,0.03610570728778839,0.04249117523431778,-0.07817990332841873,0.030087370425462723,-0.127702534198761,0.04165005311369896,1.6567855709581636e-05,-0.01253623515367508,0.023819467052817345,-0.012051884084939957,0.044059354811906815,0.008622373454272747,0.03311734274029732,-0.11241652816534042,-0.010580313391983509,-0.07002602517604828,0.001330374157987535,0.10784070938825607,0.104253850877285,-0.06496397405862808,-0.010130511596798897,-0.17205579578876495,0.07333777099847794,-0.04974786564707756,-0.02830655686557293,-0.05925599858164787,0.06811217218637466,0.008896665647625923,0.016391193494200706,0.04619494080543518,-0.025145351886749268,0.04992816224694252,0.0010162264807149768,0.0996101051568985,0.02147427760064602,0.05355864763259888,-0.0096041364595294,0.0347764678299427,0.027718616649508476,-0.007627537939697504,0.006190344225615263
Apfel,0.09929744154214859,-0.05852525681257248,0.07452959567308426,0.06001785025000572,-0.02868502214550972,-0.09027766436338425,0.011786086484789848,0.05546830594539642,0.09756843745708466,-0.013166327029466629,-0.037123147398233414,-0.061975520104169846,-0.013005905784666538,0.07593706250190735,-0.026341520249843597,-0.014126881957054138,0.09027056396007538,0.037758614867925644,-0.02537708729505539,-0.03362468257546425,0.12790246307849884,0.083944171667099,-0.018573595210909843,-0.09815841168165207,-0.062041025608778,-0.0581364743411541,0.042309071868658066,0.03540561720728874,-0.07249214500188828,-0.010828771628439426,-0.09708657115697861,0.018810909241437912,-0.018384039402008057,-0.013928212225437164,-0.018379196524620056,-0.017191952094435692,-0.02332880161702633,0.019372545182704926,-0.0008283816277980804,0.002719838172197342,-0.0694437026977539,0.01104343868792057,-0.026947416365146637,-0.0869055837392807,-0.028299635276198387,0.0910000130534172,0.07777348905801773,0.017742130905389786,-0.010330209508538246,-0.029993712902069092,0.02935563586652279,-0.07994338870048523,0.07650414854288101,-0.02311638928949833,0.01338264811784029,0.038911886513233185,0.11179560422897339,0.00987289473414421,-0.016196027398109436,-0.07941406965255737,0.02671172469854355,-0.03461668640375137,0.08064965158700943,0.01619839109480381,0.051024988293647766,0.002376701682806015,0.10141883790493011,-0.039589960128068924,0.11910970509052277,0.017978619784116745,0.005770585499703884,-0.015816912055015564,0.0144717488437891,-0.05116648972034454,-0.06503575295209885,0.0024964865297079086,-0.0326896570622921,-0.05685074254870415,0.0038360971957445145,0.07054252922534943,-0.024716868996620178,0.037904683500528336,-0.15579095482826233,0.04277295246720314,0.006115162745118141,0.06070627272129059,-0.05444897711277008,-0.000315200537443161,-0.061640530824661255,-0.07331264019012451,0.02614288032054901,0.07705951482057571,-0.018858930096030235,-0.04846971109509468,0.014155961573123932,0.014918733388185501,-0.04431355372071266,-0.015130827203392982,-0.019741589203476906,-0.028601905331015587,-0.017558395862579346,0.061316296458244324,0.011803073808550835,-0.03294042497873306,0.059492453932762146,-0.08463062345981598,0.01790991611778736,0.084983691573143,-0.025350067764520645,-0.02810111828148365,0.03471861779689789,-0.0916638895869255,0.01696433126926422,-0.04682842642068863,-0.05085858330130577,-0.11571711301803589,0.042875222861766815,-0.0689363107085228,0.11555740982294083,-0.04634954780340195,-0.040695395320653915,0.010020483285188675,0.06052315980195999,-0.07734215259552002,0.029873577877879143,-0.040500856935977936,-0.047485899180173874,0.029775170609354973,-0.02004190906882286,-0.011133354157209396,-0.14352986216545105,0.16369745135307312,-0.0029024090617895126,0.028998224064707756,0.1252632737159729,-0.011890840716660023,0.060145121067762375,0.015565287321805954,0.009372013621032238,0.0292787104845047,-0.01883312314748764,-0.07071797549724579,0.12120699882507324,-0.0013149380683898926,0.004642372485250235,0.020799607038497925,0.031704485416412354,-0.005727412644773722,-0.04356880113482475,-0.00766034796833992,-0.08961918950080872,0.134866401553154,-0.06470812112092972,0.036299124360084534,-0.028824348002672195,0.2081308662891388,0.03451511263847351,-0.009460612200200558,0.0590888150036335,-0.1478821337223053,-0.04955281317234039,-0.0940697193145752,0.08962559700012207,-0.01632876507937908,0.0221716295927763,0.13328321278095245,-0.12893331050872803,0.044312428683042526,-0.0077576348558068275,0.029779301956295967,0.0024254722520709038,0.08210977166891098,-0.06425720453262329,0.027959128841757774,0.043702706694602966,0.06981492042541504,0.05732601135969162,0.010543037205934525,0.032830845564603806,-0.0025222431868314743,0.06309142708778381,-0.04269526153802872,-0.03982212394475937,-0.09477893263101578,-0.043028317391872406,0.056388478726148605,0.032527461647987366,0.041583869606256485,0.05740318447351456,-0.03609947860240936,-0.08952657878398895,-0.11523265391588211,0.013108968734741211,-0.008468193002045155,0.006880695931613445,0.05373413860797882,-9.171664714813232e-06,0.07293188571929932,0.005597793497145176,-0.054923444986343384,0.033959969878196716,-0.03183738514780998,0.024635255336761475,-0.08602368831634521,-0.011108691804111004,0.004377502482384443,0.011994212865829468,0.05237879604101181,-0.09857624024152756,-0.0093806441873312,0.017409836873412132,-0.07289566099643707,-0.0520160049200058,-0.004155033268034458,0.09579715132713318,-0.017973467707633972,-0.10112407058477402,0.06895765662193298,0.0315883606672287,-0.07123549282550812,0.02566300332546234,0.027776464819908142,-0.047954753041267395,-0.014846798032522202,0.05190308392047882,-0.06307514011859894,0.00218741362914443,0.0359903909265995,-0.06617464870214462,-0.09822618216276169,0.08756399154663086,-0.004509786143898964,-0.05627543479204178,0.030826712027192116,-0.041018612682819366,0.06213760748505592,0.004336694721132517,-0.03140415996313095,0.04845011979341507,-0.04518934711813927,0.10851804167032242,-0.0266425684094429,0.09863381087779999,-0.04746164381504059,-0.006600270047783852,-0.01807551085948944,0.02635427750647068,0.05508746951818466,0.03979147970676422,-0.01980266161262989,-0.012261898256838322,0.0024504861794412136,-0.013436198234558105,-0.038087282329797745,0.10290852189064026,0.08176685869693756,-0.0317908450961113,-0.018128957599401474,0.11290843784809113,0.08214639127254486,0.04451290890574455,-0.07230532914400101,0.045290760695934296,-0.09703392535448074,-0.03921205550432205,-0.035290006548166275,0.02605760283768177,0.05549207329750061,-0.05196382850408554,0.006323281675577164,0.09039638191461563,-0.042852550745010376,-0.1488238424062729,-0.07224653661251068,-0.10841307044029236,0.06954725831747055,0.1334240883588791,0.1420482099056244,-0.02437044493854046,-0.027313292026519775,-0.1391124129295349,0.09800797700881958,-0.018445178866386414,-0.053534187376499176,-0.07039444148540497,0.14174383878707886,0.04441588371992111,-0.014481889083981514,0.017570506781339645,-0.0810919851064682,0.13061730563640594,0.028371311724185944,0.08490589261054993,-0.044266749173402786,-0.057180896401405334,-0.00969473272562027,0.08408232778310776,-0.008811144158244133,-0.01910299062728882,-0.04292050004005432
Erdbeere,0.02250371314585209,-0.024166163057088852,-0.00179710250813514,0.04048418253660202,0.03338439390063286,0.05566342920064926,-0.01273563876748085,0.006105324253439903,0.03908201679587364,-0.00574837950989604,-0.04734343662858009,0.008919366635382175,0.009301594458520412,0.0009818540420383215,-0.02320229262113571,0.023437730967998505,0.029926786199212074,-0.004962127655744553,-0.04346022382378578,-0.028507566079497337,0.010184361599385738,0.05336575210094452,0.012007059529423714,0.0032242017332464457,-0.017152175307273865,-0.025108685716986656,-0.005308233667165041,0.030934114009141922,-0.03367879241704941,-0.009456231258809566,-0.04870464652776718,0.022321846336126328,-0.027428792789578438,-0.04702378064393997,-0.014446014538407326,-0.010517540387809277,0.012078983709216118,-0.019422221928834915,0.023318760097026825,-0.017162349075078964,-0.038721878081560135,-0.01839759759604931,-0.01660861074924469,-0.032317809760570526,0.004131731577217579,0.09852369874715805,-0.054168738424777985,0.002033596858382225,0.0035908303689211607,-0.01957690715789795,0.03772754967212677,-0.10223129391670227,0.01602066308259964,-0.010942581109702587,-0.01768607832491398,0.019506681710481644,0.028738755732774734,-0.03142000362277031,-0.02395390160381794,-0.06763903796672821,0.05555550381541252,-0.02586296573281288,0.0031135615427047014,0.00225517014041543,0.03381272777915001,-0.019320575520396233,0.06403813511133194,-9.881382720777765e-05,0.016780313104391098,0.03448782488703728,-0.0043511660769581795,0.02998930774629116,-0.011865805834531784,-0.007790332194417715,-0.06330343335866928,-0.011388071812689304,0.0004381637554615736,0.03073413111269474,-0.007910525426268578,0.010921726003289223,-0.03314162418246269,0.00970245711505413,-0.007431468926370144,0.000550590455532074,-0.02024904452264309,0.03946659713983536,0.01448404137045145,0.010182790458202362,-0.0047779204323887825,-0.10117950290441513,0.05829359218478203,0.0085277259349823,-0.012234450317919254,0.014530297368764877,0.0068778530694544315,0.009161962196230888,-0.033375032246112823,-0.0284363254904747,-0.030149465426802635,-0.01349338237196207,-0.03913789242506027,0.037671517580747604,0.01947636343538761,-0.036665935069322586,-0.030663013458251953,-0.10597499459981918,-0.010423063300549984,0.04432274401187897,-0.014293994754552841,-0.06241218373179436,-0.016696883365511894,-0.002107940148562193,0.03988412767648697,0.010741676203906536,-0.009940581396222115,-0.05611899867653847,-0.0019585706759244204,-0.0656576082110405,0.012098224833607674,-0.0004703115264419466,-0.0721636563539505,-0.026982687413692474,0.004179711919277906,-0.04408527910709381,0.0008478841045871377,0.05594411864876747,-0.013884929940104485,0.03312056511640549,0.018876222893595695,-0.0076413024216890335,-0.03793109580874443,0.0548153892159462,0.0542512908577919,-0.006093496456742287,-0.018934521824121475,-0.05444588512182236,0.002088649198412895,-0.026721062138676643,-0.00875275768339634,0.033690642565488815,-0.03383708745241165,-0.02753698267042637,0.040824271738529205,-0.036914803087711334,0.015346018597483635,0.04207594692707062,0.01601717807352543,0.010990439914166927,-0.008101068437099457,-0.012664095498621464,-0.06549392640590668,0.0340619757771492,-0.036574434489011765,0.016609515994787216,0.011768662370741367,0.06866452097892761,0.0036871926859021187,-0.061251938343048096,-0.006301143206655979,-0.04083383083343506,-0.07500200718641281,-0.027244534343481064,-0.007161762565374374,-0.040083855390548706,0.05827304720878601,0.047123897820711136,-0.06719322502613068,0.0521232970058918,-0.004137030802667141,0.027478808537125587,0.0018691756995394826,-0.01831364631652832,-0.031188661232590675,-0.05958100035786629,-0.00478659151121974,-0.03971715644001961,0.019829869270324707,-0.007528325077146292,-0.008120845071971416,-0.03533279523253441,0.021855583414435387,0.012182257138192654,-0.0019173132022842765,-0.008741220459342003,-0.0008290676632896066,0.027144575491547585,0.019585007801651955,0.005931813735514879,0.003094392828643322,-0.04173464700579643,-0.09935268759727478,-0.035184621810913086,0.018305424600839615,-0.056796349585056305,0.014063228853046894,0.02680622786283493,0.04629594832658768,0.04855573922395706,0.042744822800159454,0.001097313011996448,0.002049344126135111,0.013703491538763046,0.020689707249403,-0.04352803900837898,-0.03958538919687271,-0.06999950110912323,0.009972657077014446,0.03715294599533081,-0.002701567253097892,0.009510466828942299,0.057925403118133545,-0.050069406628608704,-0.04816586896777153,-0.0012646496761590242,0.04780811816453934,0.013210025615990162,-0.02759685553610325,-0.00592932291328907,0.004010102711617947,0.036545515060424805,-0.002418218180537224,0.061407361179590225,-0.029966231435537338,-0.0032576988451182842,0.013321592472493649,-0.009607814252376556,0.010348934680223465,-0.0010966435074806213,0.03524266183376312,-0.06721705198287964,0.03742695972323418,0.0019106210675090551,-0.04387374594807625,-0.00964212417602539,0.00482926657423377,0.055270954966545105,-0.013247516006231308,-0.015533475205302238,0.036897700279951096,-0.007331074681133032,0.057442791759967804,0.012486598454415798,0.05446530506014824,-0.010766427963972092,0.0037975169252604246,0.02207561768591404,-0.03106624074280262,-0.015374799259006977,-0.002985661616548896,-0.025046659633517265,-0.03472331166267395,-0.007049521431326866,0.001375966938212514,0.03515532240271568,-0.013355152681469917,0.08551115542650223,-0.03587356209754944,-0.04037630185484886,0.0475422665476799,0.0453537181019783,-0.01023854035884142,-0.054976318031549454,0.026939311996102333,-0.0485333576798439,-0.01329221110790968,-0.016174908727407455,0.03464195877313614,0.0817582979798317,0.01615956239402294,0.018825626000761986,0.005041236989200115,-0.03938313573598862,-0.08240952342748642,-0.03305573761463165,-0.018885277211666107,0.027557766065001488,0.10000307857990265,0.02715287357568741,-0.055507827550172806,0.028258293867111206,-0.0890292227268219,0.05913207679986954,-0.01911545917391777,-0.028346115723252296,-0.02989235520362854,0.0594344362616539,-0.0030964103061705828,-0.00032552386983297765,0.04833761602640152,-0.07602070271968842,0.05521883815526962,-0.025021223351359367,0.04962790757417679,0.00909231323748827,0.02052101120352745,0.04921935871243477,0.0015687656123191118,0.015127326361835003,0.0076761143282055855,0.011304834857583046
Kirsche,0.029519086703658104,-0.04368097707629204,0.01824425905942917,0.01813822239637375,-0.021323315799236298,0.058012597262859344,-0.015122256241738796,-0.02120901644229889,0.017403431236743927,0.0046108439564704895,-0.053129181265830994,-0.055237408727407455,-0.013931011781096458,0.03741903230547905,-0.012087072245776653,0.022228777408599854,0.03483056277036667,-0.015348020009696484,-0.03207201883196831,-0.02812502533197403,0.012445107102394104,0.11277767270803452,-0.020517544820904732,-0.07383283972740173,0.0047289784997701645,-0.09789291024208069,-0.020930608734488487,0.013524512760341167,-0.053123947232961655,-0.011290138587355614,-0.03999722748994827,0.03966275602579117,-0.027093566954135895,-0.035299938172101974,-0.03158403933048248,-0.023012757301330566,-0.03410938382148743,0.009732836857438087,0.036915961652994156,-0.012337024323642254,-0.07759564369916916,0.04505893588066101,-0.05938286706805229,-0.09340150654315948,-0.03248487040400505,0.0699862688779831,-0.00418200483545661,0.026313623413443565,-0.004950367845594883,-0.010452638380229473,0.008801458403468132,-0.10334303230047226,0.020559076219797134,-0.0317671038210392,-0.014655118808150291,0.05571397766470909,-0.040880437940359116,-0.03377024829387665,-0.02057638019323349,-0.08169776201248169,0.02067292109131813,-0.06650619953870773,0.02723812870681286,0.046517278999090195,0.048598580062389374,-0.04897750914096832,0.05984539911150932,-0.03719768673181534,0.041142791509628296,0.0032323761843144894,-0.03398115932941437,-0.02576855942606926,-0.0033855936489999294,0.060497578233480453,0.04562593996524811,0.023310929536819458,-0.03309740871191025,0.020312337204813957,-0.015578645281493664,0.012842345051467419,-0.0791095718741417,-0.004202345386147499,-0.02407084032893181,-0.0017157942056655884,-0.048717767000198364,0.07218894362449646,-0.023840531706809998,-0.020141838118433952,0.01361266802996397,-0.07464642822742462,0.1282959282398224,0.07833573967218399,-0.02992299757897854,-0.025272514671087265,0.03027791902422905,-0.004069628193974495,-0.010025933384895325,-0.00424841558560729,-0.046698879450559616,-0.043588023632764816,0.009770466014742851,0.050473880022764206,0.04448988288640976,-0.012245207093656063,-0.05205167457461357,-0.07367880642414093,-0.07164028286933899,0.031289242208004,-0.026500146836042404,-0.013157683424651623,-0.043388448655605316,-0.029835080727934837,0.02068968676030636,0.05288366228342056,0.021061919629573822,-0.03491330146789551,0.0252681951969862,-0.039811499416828156,-0.0267935898154974,-0.01952565833926201,-0.111239492893219,0.028204895555973053,-0.014675567857921124,-0.03248634189367294,0.03610282391309738,0.02563055418431759,-0.05159320682287216,0.0011662723263725638,0.02126600593328476,-0.009362736716866493,-0.08669837564229965,0.05114956200122833,0.07412347942590714,0.018341276794672012,-0.0033919713459908962,-0.0062187714502215385,0.05553625151515007,-0.01469164527952671,-0.003335194196552038,0.005091466940939426,-0.06258049607276917,0.0001383821218041703,0.012174734845757484,-0.01565079763531685,-0.05645468086004257,0.04624687880277634,-0.023843033239245415,0.0045260279439389706,-0.01777486503124237,0.006060774438083172,-0.05564013868570328,0.025648057460784912,-0.04046620428562164,0.006912266369909048,-0.05983659625053406,0.07741300761699677,0.005208250135183334,-0.0423443578183651,-0.037566304206848145,-0.05680295079946518,-0.022983554750680923,-0.026219461113214493,-0.02612852118909359,-0.05956147611141205,-0.0464525930583477,0.026946168392896652,-0.045998673886060715,0.03867083415389061,-0.00985886063426733,-0.029494991526007652,-0.0045160213485360146,-0.024535082280635834,-0.022817794233560562,-0.056885939091444016,-0.013500328175723553,-0.04000719636678696,0.03246995806694031,-0.021864576265215874,0.024549221619963646,-0.07828043401241302,0.026644404977560043,-0.046388767659664154,-0.012695925310254097,-0.04646998271346092,-0.01006675511598587,0.05323180556297302,0.06580480933189392,0.021862950176000595,0.027390651404857635,-0.04314995929598808,-0.030745159834623337,-0.11253787577152252,0.04254039376974106,-0.06393671780824661,0.002448516432195902,0.0064524076879024506,0.012116566300392151,0.02594592794775963,-0.007248919457197189,-0.006612391676753759,0.034119315445423126,0.012381983920931816,-0.027963578701019287,-0.08923600614070892,-0.004202394746243954,-0.0040342314168810844,0.0054311021231114864,0.05292553827166557,-0.026041528210043907,0.04304139316082001,0.025746826082468033,-0.035600289702415466,0.009138228371739388,0.02932833880186081,0.060697101056575775,-0.0011890765745192766,-0.03586077690124512,0.01805291883647442,0.06362462043762207,-0.04164315387606621,0.004713918548077345,0.0129380002617836,-0.0663195475935936,0.023132454603910446,0.021789729595184326,-0.057580918073654175,0.04020967334508896,0.0092422254383564,0.02005649171769619,-0.05298122763633728,0.05702393501996994,0.027142666280269623,-0.02110688015818596,-0.037752218544483185,0.02603921666741371,0.020774176344275475,-0.017407111823558807,-0.03432006016373634,0.05129149556159973,-0.04188703000545502,0.08899608254432678,-0.021226946264505386,0.06688572466373444,-0.00853487104177475,-0.010836529545485973,0.05834350734949112,-0.006018626969307661,-0.04260347783565521,-0.021032853052020073,-0.07164467871189117,-0.03512081131339073,-0.06526968628168106,-0.01552098523825407,-0.011472677811980247,-0.04937410354614258,0.03810391202569008,0.03876230865716934,-0.048098593950271606,0.05455365031957626,0.03164813295006752,0.0419640839099884,-0.032138288021087646,-0.0027670867275446653,-0.05220630392432213,-0.0315217450261116,0.002949858782812953,0.04806078225374222,0.03404572606086731,0.03260507434606552,0.036881133913993835,0.019366217777132988,-0.0682130828499794,-0.11566820740699768,0.002942328806966543,-0.06196994334459305,0.01235834788531065,0.08310011029243469,-0.01597828045487404,-0.12612368166446686,-0.017940890043973923,-0.14184734225273132,0.049845289438962936,-0.03819048032164574,-0.005999817978590727,-0.019442204385995865,0.015308469533920288,-0.010953052900731564,0.009261928498744965,-0.04749460518360138,-0.04764905199408531,0.049784090369939804,0.03622100502252579,0.019890092313289642,0.02078174613416195,-0.017420772463083267,0.019806858152151108,0.0015084475744515657,0.0223560594022274,0.019227994605898857,0.017585594207048416
