Token,Dim_0,Dim_1,Dim_2,Dim_3,Dim_4,Dim_5,Dim_6,Dim_7,Dim_8,Dim_9,Dim_10,Dim_11,Dim_12,Dim_13,Dim_14,Dim_15,Dim_16,Dim_17,Dim_18,Dim_19,Dim_20,Dim_21,Dim_22,Dim_23,Dim_24,Dim_25,Dim_26,Dim_27,Dim_28,Dim_29,Dim_30,Dim_31,Dim_32,Dim_33,Dim_34,Dim_35,Dim_36,Dim_37,Dim_38,Dim_39,Dim_40,Dim_41,Dim_42,Dim_43,Dim_44,Dim_45,Dim_46,Dim_47,Dim_48,Dim_49,Dim_50,Dim_51,Dim_52,Dim_53,Dim_54,Dim_55,Dim_56,Dim_57,Dim_58,Dim_59,Dim_60,Dim_61,Dim_62,Dim_63,Dim_64,Dim_65,Dim_66,Dim_67,Dim_68,Dim_69,Dim_70,Dim_71,Dim_72,Dim_73,Dim_74,Dim_75,Dim_76,Dim_77,Dim_78,Dim_79,Dim_80,Dim_81,Dim_82,Dim_83,Dim_84,Dim_85,Dim_86,Dim_87,Dim_88,Dim_89,Dim_90,Dim_91,Dim_92,Dim_93,Dim_94,Dim_95,Dim_96,Dim_97,Dim_98,Dim_99,Dim_100,Dim_101,Dim_102,Dim_103,Dim_104,Dim_105,Dim_106,Dim_107,Dim_108,Dim_109,Dim_110,Dim_111,Dim_112,Dim_113,Dim_114,Dim_115,Dim_116,Dim_117,Dim_118,Dim_119,Dim_120,Dim_121,Dim_122,Dim_123,Dim_124,Dim_125,Dim_126,Dim_127,Dim_128,Dim_129,Dim_130,Dim_131,Dim_132,Dim_133,Dim_134,Dim_135,Dim_136,Dim_137,Dim_138,Dim_139,Dim_140,Dim_141,Dim_142,Dim_143,Dim_144,Dim_145,Dim_146,Dim_147,Dim_148,Dim_149,Dim_150,Dim_151,Dim_152,Dim_153,Dim_154,Dim_155,Dim_156,Dim_157,Dim_158,Dim_159,Dim_160,Dim_161,Dim_162,Dim_163,Dim_164,Dim_165,Dim_166,Dim_167,Dim_168,Dim_169,Dim_170,Dim_171,Dim_172,Dim_173,Dim_174,Dim_175,Dim_176,Dim_177,Dim_178,Dim_179,Dim_180,Dim_181,Dim_182,Dim_183,Dim_184,Dim_185,Dim_186,Dim_187,Dim_188,Dim_189,Dim_190,Dim_191,Dim_192,Dim_193,Dim_194,Dim_195,Dim_196,Dim_197,Dim_198,Dim_199,Dim_200,Dim_201,Dim_202,Dim_203,Dim_204,Dim_205,Dim_206,Dim_207,Dim_208,Dim_209,Dim_210,Dim_211,Dim_212,Dim_213,Dim_214,Dim_215,Dim_216,Dim_217,Dim_218,Dim_219,Dim_220,Dim_221,Dim_222,Dim_223,Dim_224,Dim_225,Dim_226,Dim_227,Dim_228,Dim_229,Dim_230,Dim_231,Dim_232,Dim_233,Dim_234,Dim_235,Dim_236,Dim_237,Dim_238,Dim_239,Dim_240,Dim_241,Dim_242,Dim_243,Dim_244,Dim_245,Dim_246,Dim_247,Dim_248,Dim_249,Dim_250,Dim_251,Dim_252,Dim_253,Dim_254,Dim_255,Dim_256,Dim_257,Dim_258,Dim_259,Dim_260,Dim_261,Dim_262,Dim_263,Dim_264,Dim_265,Dim_266,Dim_267,Dim_268,Dim_269,Dim_270,Dim_271,Dim_272,Dim_273,Dim_274,Dim_275,Dim_276,Dim_277,Dim_278,Dim_279,Dim_280,Dim_281,Dim_282,Dim_283,Dim_284,Dim_285,Dim_286,Dim_287,Dim_288,Dim_289,Dim_290,Dim_291,Dim_292,Dim_293,Dim_294,Dim_295,Dim_296,Dim_297,Dim_298,Dim_299
Turnschuhe,0.020042428746819496,-0.049616489559412,-0.012613900937139988,0.0640275627374649,0.03817388787865639,0.019348621368408203,0.0064670247957110405,0.014452432282269001,-0.007610080298036337,0.05416533350944519,0.01404923852533102,-0.03516814485192299,0.0267123281955719,-0.030110755935311317,-0.03325765207409859,-0.026314323768019676,0.021921010687947273,-0.02528289332985878,0.020414432510733604,-0.019779687747359276,0.033906321972608566,-0.046084482222795486,0.008062662556767464,-0.016237879171967506,-0.025488445535302162,0.04283452033996582,0.0013304294552654028,0.00711287884041667,0.05219714343547821,-0.01473477203398943,0.007385608274489641,0.006005591247230768,-0.05416332185268402,-0.0006255540647543967,0.0046253143809735775,-0.0531943179666996,0.0037624347023665905,0.016057388857007027,0.03203091770410538,-0.005974757019430399,0.0075120762921869755,-0.018599646165966988,-0.02843667007982731,0.015674883499741554,-0.04102640599012375,0.08722298592329025,-0.014300544746220112,0.03138139471411705,-0.03584390878677368,-0.024179697036743164,0.020558632910251617,0.014875044114887714,0.04786244407296181,-0.07821063697338104,-0.00047422738862223923,-0.02033708430826664,0.017749715596437454,-0.0005541567807085812,0.028024643659591675,-0.02368706464767456,-0.0021120135206729174,-0.02693513035774231,0.046649131923913956,0.02161877229809761,0.0283588245511055,0.025420159101486206,0.03928536921739578,0.03183356299996376,0.017512008547782898,-0.0008605801267549396,0.03985913097858429,-0.020514750853180885,-0.04402591660618782,0.028407590463757515,-0.0027595788706094027,-0.015810180455446243,0.0019363992614671588,-0.019571777433156967,-0.013835753314197063,0.010251538828015327,0.014626794494688511,0.005172447767108679,-0.025935407727956772,0.027404621243476868,0.012314493767917156,0.012155904434621334,0.018519680947065353,-0.0037894558627158403,0.010221535339951515,0.010637826286256313,0.026112938299775124,0.00014275478315539658,0.0643477737903595,0.016022318974137306,0.011170930229127407,-0.012251140549778938,-0.03518097475171089,-0.0010798440780490637,-0.019237572327256203,0.009933046996593475,-0.07225219160318375,-0.03177106752991676,-0.007932286709547043,-0.03370701149106026,0.0101701645180583,-0.008325789123773575,0.023758914321660995,0.030466238036751747,0.02501458302140236,-0.04382225126028061,-0.033417459577322006,0.047741372138261795,-0.019918765872716904,0.01882874220609665,0.009601934812963009,-0.028823575004935265,-0.004347753711044788,-0.05550986900925636,-0.02551993727684021,-0.00867388118058443,-0.06768660992383957,0.022501200437545776,0.04421272128820419,0.012863686308264732,-0.03856011852622032,0.007698537781834602,-0.011311501264572144,0.051546234637498856,-0.041390955448150635,-0.0020495885983109474,-0.004134448245167732,0.06917057931423187,0.009529944509267807,0.005819432437419891,0.0033095339313149452,0.036218248307704926,-0.012376132421195507,0.004101099446415901,0.017652852460741997,-0.033491622656583786,-0.009530062787234783,-0.014554540626704693,0.0005390089354477823,-0.038977883756160736,-0.008084160275757313,-0.00871916301548481,-0.020586954429745674,0.04130654036998749,0.02542932704091072,0.008664248511195183,-0.011646311730146408,0.05620681121945381,0.012878192588686943,-0.018132617697119713,0.05280839279294014,0.058810632675886154,0.02035166136920452,-0.035723727196455,-0.028818780556321144,-0.02176707424223423,-0.037938691675662994,0.010842633433640003,-0.026008913293480873,0.015901457518339157,0.04218580201268196,-0.0001456803729524836,0.04970758035778999,0.059334252029657364,-0.009548080153763294,0.0595172643661499,0.029302150011062622,-0.04331452399492264,0.006526092533022165,-0.007951878011226654,0.016605645418167114,0.011891056783497334,-0.009182984009385109,-5.2073610277147964e-05,0.015605449676513672,-0.023657187819480896,0.013928663916885853,-0.011814785189926624,-0.03138449788093567,-0.015903005376458168,0.049248114228248596,-0.01968628168106079,-0.013828600756824017,0.0045187328942120075,-0.02533566765487194,0.012921354733407497,-0.045573849231004715,-0.029828395694494247,-0.01606270670890808,-0.009391387924551964,-0.03828495740890503,0.016458332538604736,0.038784973323345184,0.026635607704520226,0.008201053366065025,-0.08266005665063858,0.022204728797078133,-0.059252429753541946,-0.021095389500260353,-0.00711516197770834,0.004795582965016365,0.018287647515535355,-0.03471273556351662,0.009802918881177902,0.02453506551682949,-0.006859812419861555,0.0011440328089520335,0.021405817940831184,0.03493142127990723,-0.0631149634718895,0.004299050662666559,-0.00765933096408844,-0.000605682551395148,-0.020396878942847252,0.0064977556467056274,5.235108983470127e-05,0.02070237696170807,0.031542278826236725,0.037249404937028885,-0.05192286893725395,-0.01412618812173605,-0.014114211313426495,0.024937506765127182,-0.04419904947280884,0.006878142710775137,0.007948474958539009,0.025755414739251137,0.04280358552932739,-0.0078045460395514965,0.03940816596150398,0.01285705529153347,0.009748788550496101,-0.03889359161257744,0.02943599596619606,0.01532196719199419,-0.044215403497219086,0.058791834861040115,-0.013980752788484097,0.05078161507844925,-0.05616810545325279,-0.033438242971897125,-0.014758569188416004,0.01772630214691162,-0.04125471040606499,0.01773969642817974,-0.023591408506035805,0.005686452612280846,0.001996738137677312,0.01932590641081333,0.004713120404630899,-0.030901657417416573,-0.0018686060793697834,0.0035893255844712257,-0.011380547657608986,0.01835908368229866,-0.004812916275113821,0.062449898570775986,-0.05972900614142418,0.013156627304852009,-0.06558645516633987,-0.02740747481584549,0.02413717843592167,-0.010665521025657654,0.01432451419532299,-0.009791727177798748,-0.021313797682523727,-0.010959251783788204,0.03260786086320877,-0.06254050880670547,0.007830915972590446,0.007083705626428127,-0.005110071040689945,0.09171323478221893,0.02023591846227646,-0.02584308199584484,-0.01842486672103405,-0.04179824888706207,-0.0024676888715475798,-0.00585015956312418,0.0546315461397171,-0.03999994322657585,-0.017103897407650948,-0.008400940336287022,0.03209710866212845,-0.029270226135849953,0.0065003992058336735,-0.013117609545588493,-0.040073007345199585,0.02945045568048954,0.009693460538983345,0.04777619615197182,0.020893126726150513,0.010630660690367222,-0.01786183938384056,-0.0032472743187099695,0.07854367792606354
Sandalen,0.018696291372179985,-0.03994902968406677,-0.016799435019493103,0.03508450835943222,-0.024250702932476997,0.027342235669493675,-0.026748601347208023,0.0007792868418619037,0.031218837946653366,0.0005992352962493896,0.0420326367020607,0.0027298114728182554,0.059454355388879776,-0.07425279915332794,-0.05142025649547577,-0.0013491177232936025,0.012742581777274609,-0.015477454289793968,0.014845053665339947,0.009588602930307388,0.043729957193136215,-0.012118705548346043,0.016149234026670456,3.81554891646374e-05,-0.05560837686061859,0.017919717356562614,-0.04179809242486954,-0.023835493251681328,0.09865621477365494,0.019528206437826157,-0.00680876336991787,0.004966749809682369,-0.03808123990893364,0.02307204343378544,-0.03707490488886833,-0.019145473837852478,0.018548691645264626,-0.019489606842398643,0.023763881996273994,0.021392684429883957,-0.023716095834970474,-0.0579109713435173,-0.07757257670164108,0.060692112892866135,-0.009263390675187111,0.08560553193092346,-0.06356372684240341,0.04358120262622833,-0.0022469237446784973,-0.02512614242732525,0.040303319692611694,0.031154127791523933,0.003503737971186638,-0.002125849947333336,8.714519026398193e-06,-0.014340821653604507,0.03773825243115425,-0.0020073687192052603,0.02559690736234188,-0.0515906848013401,0.04262302443385124,-0.011672054417431355,0.027603700757026672,-0.030662354081869125,-0.03987090662121773,0.05423679202795029,0.031746577471494675,0.03784353658556938,-0.028388744220137596,-0.005698025692254305,0.025494921952486038,-0.06876970827579498,-0.039800092577934265,-0.007568471133708954,0.04759351909160614,0.0024034485686570406,0.021989045664668083,0.026109810918569565,0.029274120926856995,0.01360588800162077,0.004669803194701672,0.002510198624804616,-0.05490534007549286,0.02001095749437809,0.027098333463072777,-0.004611622076481581,0.04043203592300415,0.02771187387406826,0.007087996229529381,0.047661904245615005,0.018739892169833183,0.03646150976419449,0.06392762809991837,0.02150636538863182,0.03814435005187988,0.020143819972872734,-0.006244962103664875,0.01214730367064476,-0.00927782990038395,0.003766254521906376,-0.04170689359307289,0.03280661255121231,-0.03122202306985855,-0.0049089170061051846,0.06620742380619049,-0.03132268041372299,-0.03012354113161564,-0.005199315492063761,0.00759549718350172,-0.059635769575834274,0.006318241823464632,0.06364355981349945,-0.025418389588594437,0.0584569089114666,0.01096691470593214,0.021309146657586098,-0.0005198828876018524,0.02771216817200184,-0.004521784372627735,-0.010790455155074596,-0.07936181873083115,0.0015623788349330425,0.01031891256570816,0.04107467830181122,-0.037366002798080444,-0.001899019000120461,-0.01163623295724392,0.017903784289956093,0.00322937173768878,0.042063456028699875,-0.01789439655840397,0.03620273992419243,0.019423693418502808,-0.007418680004775524,0.007305358536541462,0.0068099889904260635,0.010753793641924858,-0.005258406978100538,0.05599940940737724,-0.03754987195134163,-0.011326950043439865,-0.0321151427924633,0.03213781863451004,-0.05181311070919037,-0.01869110018014908,-0.02490880712866783,0.02350522391498089,0.0164831280708313,0.03612161800265312,0.03743967413902283,0.0316476933658123,0.05598334223031998,-0.03242883086204529,0.006741490215063095,0.06662336736917496,0.03939918428659439,0.023677892982959747,-0.04674997180700302,-0.006297952961176634,-0.025479191914200783,-0.04096251353621483,0.007475374266505241,-0.017640694975852966,-0.024563292041420937,-0.005493783857673407,0.009612265974283218,0.03716735169291496,0.04847270995378494,-0.02361387573182583,0.05968954414129257,0.008694220334291458,-0.05680688098073006,0.06555182486772537,-0.038536518812179565,-0.01584094762802124,0.03957172855734825,-0.009113750420510769,0.005632460583001375,0.005407271906733513,0.004586528055369854,-0.012999416328966618,-0.0011038114316761494,-0.01023950707167387,-0.06617945432662964,0.03535644710063934,-0.011706877499818802,-0.0056832050904631615,0.009515834972262383,-0.014259986579418182,0.017918825149536133,-0.038968510925769806,0.011089549399912357,0.023426281288266182,-0.07648468017578125,-0.013173445127904415,0.020264336839318275,0.05136481672525406,0.051996294409036636,-0.031120654195547104,-0.06910772621631622,0.01822052150964737,-0.10221166163682938,-0.005752773955464363,0.005097831133753061,0.01787765882909298,0.00016904197400435805,-0.08749262988567352,-0.013693531043827534,0.021817367523908615,0.04949219152331352,-0.00033129859366454184,-0.007027282379567623,0.00084177206736058,-0.108122318983078,0.005914545152336359,-0.03696422278881073,-0.014301236718893051,0.015256647020578384,-0.015170594677329063,0.019558468833565712,0.028325149789452553,-0.005752648692578077,0.07356539368629456,-0.011478284373879433,-0.011234757490456104,-0.013430114835500717,0.01597469300031662,-0.029595933854579926,-0.03983317315578461,0.0304531492292881,0.023575209081172943,0.02877815067768097,-0.042204394936561584,0.004293214064091444,0.020939962938427925,0.013462649658322334,-0.06681887805461884,0.08945390582084656,0.017577527090907097,-0.018942130729556084,0.10783731937408447,-0.04530034586787224,0.05835545435547829,0.000689931504894048,0.01917467825114727,0.026245497167110443,0.01632537506520748,-0.06458476185798645,0.0029805570375174284,-0.028411831706762314,-0.014194723218679428,-0.018376987427473068,0.005878934636712074,0.032734133303165436,0.004485825076699257,0.014254565350711346,-0.004027785733342171,0.002618043916299939,-0.0018686355324462056,0.045701656490564346,0.0550374835729599,-0.052343208342790604,-0.002531843027099967,-0.09329153597354889,0.017717748880386353,-0.02039012685418129,-0.03041050210595131,-0.01542491465806961,-0.01862233318388462,-0.047350846230983734,0.05754536762833595,0.006719947326928377,-0.09324583411216736,-0.03735332936048508,0.07728956639766693,-0.05174587294459343,0.09432157874107361,0.03370528668165207,-0.08867933601140976,-0.011498621664941311,-0.07968920469284058,-0.015678469091653824,-0.03348972648382187,0.08558207005262375,-0.021186934784054756,-0.0349540077149868,-0.06030936911702156,0.03389892354607582,0.0056814285926520824,-0.014863124117255211,-0.017911918461322784,-0.06054508686065674,0.029651110991835594,-0.012452010065317154,-0.02474885620176792,0.049923017621040344,-0.02085735835134983,0.0003254227340221405,0.004173083230853081,0.06596912443637848
Stiefel,-0.019725127145648003,0.050998590886592865,-0.027561714872717857,0.030392130836844444,-0.09084415435791016,-0.002485814271494746,0.008274678140878677,0.04875811189413071,0.018014872446656227,0.030517324805259705,0.029715143144130707,-0.00128009298350662,0.028466053307056427,-0.04264155030250549,-0.024383988231420517,-0.01018468290567398,0.056763701140880585,-0.03641585633158684,0.005620121490210295,0.0020737238228321075,0.030712848529219627,0.010933471843600273,0.0019564381800591946,0.008662651292979717,-0.05388544127345085,-0.020482933148741722,-0.09359776973724365,-0.026656385511159897,0.0496235266327858,-0.004971356596797705,-0.009682979434728622,-0.01161139365285635,-0.11065492033958435,-0.02256680652499199,-0.029679466038942337,-0.07437245547771454,0.038079001009464264,-0.005491045769304037,-0.006182972341775894,0.015353929251432419,0.02171805128455162,-0.021518072113394737,-0.033816318958997726,0.0011168448254466057,-0.036106690764427185,0.13212966918945312,0.0243740975856781,-0.003442300483584404,0.0006526913493871689,-0.0031478828750550747,0.020142531022429466,0.021872449666261673,0.039779845625162125,-0.013711444102227688,0.008658536709845066,-0.018612157553434372,0.03377076983451843,-0.052752718329429626,-0.008625952526926994,-0.03213091939687729,0.012825464829802513,-0.028022676706314087,0.05217781662940979,0.04739321768283844,-0.011354783549904823,0.07510104030370712,0.07995958626270294,0.018293416127562523,0.008346358314156532,0.00851794146001339,0.05752484127879143,-0.05082745850086212,-0.04373805224895477,0.019053906202316284,0.07749977707862854,-0.02518286556005478,0.018306462094187737,-0.0337846539914608,0.0183388814330101,-0.013521499931812286,-0.006820999085903168,-0.0052618831396102905,-0.03545845299959183,0.003595864400267601,0.00809713825583458,0.017106926068663597,-0.023500926792621613,0.03114219382405281,-0.02059996873140335,-0.011383595876395702,0.03794689476490021,0.022132633253932,0.01800708658993244,0.0239585991948843,0.009049121290445328,0.01120334304869175,0.009499805048108101,0.0609365776181221,-0.016151849180459976,-0.012647813186049461,-0.0698409304022789,-0.010811797343194485,-0.024445392191410065,-0.034241899847984314,0.023528173565864563,-0.030332546681165695,-0.011411900632083416,-0.0070619783364236355,-0.052968792617321014,-0.07582095265388489,-0.03270558640360832,0.061226584017276764,-0.0003233291208744049,0.034268781542778015,-0.009489735588431358,-0.03224409371614456,-0.015995243564248085,-0.02489900402724743,-0.029719315469264984,-0.02233370952308178,-0.10636188834905624,0.06981061398983002,-0.01068209670484066,0.005853073671460152,0.011283718049526215,0.031054310500621796,-0.014830592088401318,0.011347334831953049,-0.004481983836740255,-0.0036567114293575287,-0.07062362879514694,0.09216194599866867,0.016866980120539665,-0.022641276940703392,0.0014501027762889862,0.04269956797361374,0.019867505878210068,0.030437855049967766,0.058527372777462006,-0.061920132488012314,0.0032574585638940334,-0.03061111830174923,-0.031117033213377,-0.05972401797771454,-0.0009812796488404274,0.003759669838473201,-0.011319542303681374,0.03772175312042236,0.044089458882808685,0.010053731501102448,-0.0060959868133068085,0.0771116316318512,-0.04261813685297966,-0.004955324809998274,0.0012627908727154136,0.06231638789176941,0.07366543263196945,-0.0276362132281065,0.033495016396045685,-0.0564151406288147,-0.02691638469696045,0.014804935082793236,-0.012862646952271461,-0.04051991552114487,-0.049949612468481064,-0.0006827550823800266,0.03788794204592705,0.003038048278540373,-0.03028896078467369,0.07431161403656006,0.010358358733355999,-0.051303617656230927,0.03206406533718109,0.015412507578730583,-0.026363223791122437,0.02636665105819702,0.005729014985263348,-0.0033603287301957607,0.008546185679733753,0.0016717854887247086,0.03981255739927292,-0.03372032195329666,-0.014364151284098625,-0.0677097886800766,0.027227332815527916,-0.011270299553871155,0.029312532395124435,0.030548056587576866,-0.02341344580054283,-0.003255600808188319,-0.046863850206136703,-0.055176883935928345,0.006872642785310745,-0.010358477011322975,-0.013796641491353512,0.0493924617767334,0.021745234727859497,0.042052969336509705,-0.019607719033956528,-0.04854731261730194,0.045687418431043625,-0.05857216939330101,0.006902642548084259,-0.0011018689256161451,0.04638287425041199,-0.013000726699829102,-0.035288047045469284,0.05198059603571892,0.03615877777338028,0.018397334963083267,0.022194787859916687,-0.010819196701049805,-0.015920769423246384,-0.06611332297325134,0.03139689564704895,-0.08628764748573303,0.010339740663766861,-0.04378778859972954,-0.05832158774137497,-0.036079369485378265,-0.010633843019604683,-0.0007431611884385347,0.03799309581518173,-0.002376774325966835,-0.026706982403993607,0.034515563398599625,-0.00932548101991415,-0.03103451058268547,-0.023585332557559013,0.0078048100695014,0.008018242195248604,0.05811162292957306,-0.04179900884628296,0.013289043679833412,0.020325927063822746,-0.002844650996848941,0.014778236858546734,0.09104924649000168,0.06299182027578354,-0.056563831865787506,0.07557536661624908,-0.01447545550763607,0.009056582115590572,-0.004397307522594929,0.037576839327812195,0.05295094847679138,0.007623429410159588,-0.06461825221776962,-0.05535721406340599,-0.03194234520196915,0.021924076601862907,-0.056240376085042953,0.05210038647055626,0.06239643692970276,-0.03438776358962059,0.015308971516788006,-0.04453021287918091,0.0328424908220768,0.017182448878884315,0.06194978207349777,0.029075987637043,-0.010239592753350735,0.06053721904754639,-0.02855234593153,-0.02282251976430416,0.023528775200247765,-0.015647074207663536,0.02486046776175499,0.01973808743059635,-0.03765878453850746,0.015967359766364098,0.005061520263552666,-0.08911942690610886,0.004932995419949293,0.09255097806453705,-0.001836709096096456,0.08632760494947433,-0.05300604924559593,-0.021298689767718315,-0.04273121803998947,-0.111580990254879,-0.00012139789760112762,-0.007903151214122772,0.07700970768928528,-0.005499511491507292,-0.0411350391805172,-0.010185218416154385,0.036466702818870544,-0.015544397756457329,-0.0003644004464149475,0.014773977920413017,-0.013663074001669884,0.0019358987919986248,0.013897026889026165,0.0030300705693662167,0.06433136016130447,0.008003255352377892,0.004091145470738411,0.018205057829618454,0.04381290823221207
Ballerinas,0.016707224771380424,0.01279980968683958,0.00650329003110528,0.05766725540161133,-0.05075039342045784,0.021425403654575348,-0.005459142383188009,-0.0055223992094397545,-0.005346732214093208,0.018810858950018883,0.01859649457037449,-0.013386047445237637,0.058545682579278946,-0.03508951514959335,0.008308959193527699,-0.013086392544209957,0.031077248975634575,0.0047492519952356815,0.00487218564376235,0.010244399309158325,0.00944533571600914,0.016485555097460747,-0.016872484236955643,0.032135698944330215,-0.05250804126262665,-0.013508898206055164,0.022144079208374023,-0.04268672689795494,0.05123722180724144,0.03108503483235836,-0.0020817401818931103,-0.001031692256219685,-0.028437431901693344,0.003343357006087899,-0.0029288323130458593,-0.035138554871082306,-0.006824512965977192,-0.01214978564530611,0.02345152758061886,-0.008450577035546303,-0.050041455775499344,0.0016101188957691193,-0.04262380674481392,0.031255196779966354,-0.07295877486467361,0.09071274846792221,-0.004125412553548813,0.043045055121183395,-0.00022261672711465508,-0.013252277858555317,0.019174717366695404,0.013160320930182934,-0.0023193571250885725,-0.0014580223942175508,0.04991116747260094,-0.03301525115966797,-0.020118022337555885,0.02020270749926567,-0.0007847588858567178,-0.04431908577680588,-0.015349631197750568,-0.03743665665388107,-0.0015078394208103418,0.009837215766310692,-0.07048317790031433,0.04967052489519119,0.025221871212124825,0.01591462828218937,-0.014805606566369534,0.016351480036973953,0.013422665186226368,-0.02627725340425968,-0.016946954652667046,-0.0006682980456389487,0.038378432393074036,0.02831185609102249,-0.005010051187127829,0.026662377640604973,0.01215751189738512,0.054602354764938354,0.02607571892440319,-0.016608629375696182,0.007628264371305704,0.007334129884839058,0.01170333195477724,0.0306936576962471,0.007684899959713221,0.0618414543569088,0.0022907289676368237,0.0015717645874246955,0.026812877506017685,0.01828700117766857,0.026380542665719986,-0.04254778474569321,-0.004063826519995928,0.023772461339831352,0.0001500008802395314,0.0010991109302267432,-0.009371274150907993,-0.08029206842184067,-0.055650223046541214,0.029875660315155983,-0.036738041788339615,-0.04301368072628975,0.013424205593764782,-0.06348516792058945,-0.06011296063661575,-0.03899731859564781,0.003485139925032854,-0.08139930665493011,-0.022268155589699745,0.0773155614733696,-0.016841331496834755,0.04086573049426079,-0.007013677153736353,0.015255293808877468,-0.015788406133651733,-0.007952364161610603,-0.01899239420890808,-0.005598126444965601,-0.03605879843235016,-0.027713481336832047,0.08159670978784561,0.035461027175188065,-0.03853936493396759,0.013564285822212696,-0.00476074730977416,0.03377339616417885,-0.011482425965368748,0.03836337476968765,-0.0037455458659678698,0.06655976921319962,-0.006419273093342781,-0.020475191995501518,0.02589668519794941,0.025589751079678535,0.01836654357612133,0.016856325790286064,0.019959015771746635,-0.039673615247011185,-0.053695689886808395,0.0022598051000386477,0.010571299120783806,-0.015553482808172703,-0.015424191951751709,0.025232655927538872,0.005554910283535719,0.0022344838362187147,0.03961421921849251,0.002054160227999091,0.01539136003702879,0.04322497919201851,-0.0323239341378212,-0.025742603465914726,0.031241251155734062,0.004500821698457003,0.035753365606069565,-0.04692744091153145,-0.02559197135269642,-0.03816118836402893,-0.05643659085035324,-0.005186926107853651,-0.034696925431489944,0.007037414703518152,0.004690808244049549,-0.014415683224797249,0.00024038470291998237,0.0640866681933403,-0.023018773645162582,0.03226158022880554,-0.014552328735589981,-0.04548991471529007,-0.011830123141407967,-0.02906283363699913,0.020249197259545326,0.004986829124391079,-0.022249601781368256,-0.012547488324344158,0.09529491513967514,-0.002434692345559597,0.008036540821194649,0.0061548263765871525,-0.023477280512452126,-0.03579723834991455,0.028577540069818497,-0.001178036560304463,-0.017082983627915382,0.018366694450378418,-0.017468759790062904,0.0029063555411994457,-0.027340715751051903,0.009981443174183369,-0.015317686833441257,-0.06790616363286972,-0.0040603941306471825,0.008964390493929386,0.05181673541665077,0.05903709679841995,-0.037960946559906006,-0.051499418914318085,-0.012686453759670258,-0.05863210931420326,-0.029569825157523155,0.014345616102218628,0.04933600500226021,-0.045730672776699066,-0.05131193995475769,0.03304469585418701,0.0053609819151461124,-0.005162829998880625,0.013180181384086609,-0.01844910718500614,0.03203044831752777,-0.09046442806720734,0.0302285086363554,-0.05234510079026222,-0.008797314018011093,-0.07322637736797333,-0.024431763216853142,0.013407937251031399,0.007794978097081184,0.02722356654703617,0.06850963085889816,0.0026828970294445753,0.007942198775708675,-0.04044842720031738,0.016682595014572144,-0.01811569184064865,-0.026141813024878502,0.02310475893318653,0.0010353558463975787,-0.0014310296392068267,-0.04489026218652725,0.025079214945435524,0.031948674470186234,0.011752045713365078,-0.046740978956222534,0.05019230768084526,0.03447701036930084,0.013837720267474651,0.057711269706487656,-0.014818327501416206,0.07048653811216354,-0.02157541736960411,-0.0030796376522630453,0.02325153537094593,-6.137871241662651e-05,-0.03611027076840401,0.011865580454468727,-0.03398158773779869,-0.028828386217355728,-0.022313082590699196,0.023866023868322372,0.03802081570029259,-0.034244947135448456,-0.0017490983009338379,-0.005297107622027397,0.011077865958213806,-0.01074738334864378,0.0231256615370512,0.040724076330661774,-0.04828869178891182,-0.01614074595272541,-0.030696425586938858,-0.008497906848788261,0.016505056992173195,-0.020994888618588448,0.010747713036835194,0.016558164730668068,-0.025863777846097946,0.00969722867012024,-0.028008248656988144,-0.07404788583517075,-0.01970452070236206,0.024795543402433395,-0.03246947005391121,0.09144178777933121,-0.007587706204503775,-0.043927282094955444,0.0009425001335330307,-0.06361774355173111,0.049778178334236145,-0.0253814235329628,0.05919397622346878,-0.020048443228006363,-0.007813796401023865,-0.005231829825788736,0.044077012687921524,0.011821200139820576,-0.0153560321778059,0.02309531159698963,0.009245877154171467,-0.008734122850000858,-0.008584181778132915,-0.014332097955048084,0.02671022154390812,-0.016797373071312904,-0.010007083415985107,0.005720147863030434,0.051657743752002716
Flipflops,0.02442445419728756,-0.10618944466114044,0.0017212284728884697,0.06949957460165024,-0.04111533239483833,-0.013601324521005154,-0.044822949916124344,0.008285928517580032,0.10536885261535645,0.014892891980707645,0.00967999268323183,-0.0299825519323349,-0.013225430622696877,-0.004672375041991472,-0.03499068692326546,-0.0232126172631979,-0.002132423222064972,0.01889953576028347,-0.007037684787064791,-0.027738993987441063,-0.0038884675595909357,0.039512697607278824,-0.014112281613051891,0.064898781478405,0.004926966968923807,0.005531901493668556,-0.04139174520969391,-0.032074376940727234,-0.00782855600118637,0.014822617173194885,-0.007935160771012306,0.01847618818283081,-0.0770195722579956,-0.01278600562363863,0.0542975589632988,-0.06832001358270645,-0.017449863255023956,0.013112932443618774,0.07320010662078857,-0.04298936948180199,-0.027815813198685646,-0.030281497165560722,-0.07171577215194702,0.01948336511850357,0.021554624661803246,0.12241677939891815,0.02176399901509285,0.0009714425541460514,-0.07295407354831696,-0.01626913622021675,-0.003961892798542976,-0.0171608105301857,0.03672126680612564,-0.02590039186179638,0.015144387260079384,-0.09237980842590332,0.0021968181245028973,-0.02244739606976509,0.07046286761760712,-0.034152545034885406,0.01045500673353672,-0.006553635001182556,0.06947166472673416,0.009055176749825478,-0.0053198509849607944,-0.02149439975619316,0.07415124028921127,0.02478492259979248,-0.02370951510965824,0.00725309643894434,0.0569411963224411,-0.01925375871360302,0.013378197327256203,-6.112921983003616e-05,-0.0039827460423111916,-0.06282779574394226,0.12834487855434418,-0.013259964995086193,-0.008436733856797218,0.04844669625163078,-0.0075032711029052734,-0.016728384420275688,0.0002316804602742195,1.8553342670202255e-05,-0.03932645916938782,0.03982636332511902,0.04372282326221466,0.05869254097342491,-0.00435972074046731,0.08369503915309906,0.012673933058977127,-0.020214950665831566,-0.007973113097250462,0.03886943683028221,0.03564818575978279,-0.04753166064620018,-0.021238058805465698,0.04888539016246796,-0.007627790793776512,-0.006550908088684082,-0.020041314885020256,0.007596923504024744,-0.09315948188304901,-0.012233848683536053,0.011712309904396534,0.006829419173300266,0.020271705463528633,-0.0022722757421433926,0.08863840997219086,-0.044614341109991074,-0.044090088456869125,0.05468815937638283,-0.058577392250299454,0.0013309335336089134,0.07052352279424667,0.02234438806772232,-0.01415025070309639,-0.013188017532229424,-0.04360305890440941,-0.00017644278705120087,-0.04328848421573639,-0.032297104597091675,0.03383982181549072,-0.022461388260126114,-0.06916625052690506,-0.0211559496819973,-0.014943663030862808,0.03535807132720947,-0.05453554540872574,0.03384487330913544,0.017442338168621063,0.057327158749103546,-0.10888346284627914,-0.0036875037476420403,0.0504208579659462,-0.00015785638242959976,-0.014106761664152145,0.00040161795914173126,-0.04760897904634476,-0.007433595135807991,-0.02449025586247444,-0.0014985469169914722,0.05696120113134384,-0.09210195392370224,-0.07500793039798737,-0.060102108865976334,-0.047611020505428314,0.030230063945055008,-0.013302426785230637,0.04159024730324745,-0.004303826484829187,0.04073488712310791,0.035231783986091614,-0.011602533981204033,0.09267228096723557,0.0409918949007988,0.025384077802300453,-0.00466751167550683,0.02121143788099289,-0.047088995575904846,0.0250228364020586,0.06436926126480103,-0.03907870501279831,0.03358670324087143,0.03295263275504112,-0.030425313860177994,0.08352001756429672,0.028806526213884354,-0.01495292130857706,0.0844927430152893,-0.04356281831860542,0.0068800970911979675,0.03548777103424072,-0.008491627871990204,0.03709130734205246,0.032935965806245804,-0.0764957144856453,0.0009724535048007965,0.0038174125365912914,-0.004829444922506809,-0.04089217633008957,-0.04872056841850281,-0.015331710688769817,-0.04090025648474693,0.048395395278930664,0.031459957361221313,-0.062666155397892,-0.0012563448399305344,0.02146989107131958,0.06652535498142242,-0.005346436984837055,-0.010194456204771996,0.03714749589562416,-0.09380221366882324,-0.01689201593399048,0.011488521471619606,0.07400718331336975,0.03461873158812523,0.0682416558265686,-0.03450355678796768,0.0007058251649141312,-0.07855600863695145,-0.03820231929421425,0.0753503292798996,0.020483894273638725,-0.04759424924850464,-0.10058043897151947,-0.03668715059757233,-0.0812499150633812,0.00044466182589530945,-0.03936723619699478,-0.014793427661061287,0.05988548696041107,-0.1234523355960846,0.011880461126565933,-0.04804158955812454,-0.0040735206566751,-0.030462946742773056,-0.027522176504135132,0.064494788646698,0.08199126273393631,-0.016995690762996674,0.030352100729942322,-0.002788273151963949,-0.012217758223414421,-0.024164676666259766,-0.02049911767244339,-0.04879697039723396,-0.021310415118932724,-0.0003892310196533799,0.00880349799990654,-0.016577109694480896,-0.04670486971735954,0.055696241557598114,-0.0029585789889097214,-0.005399511195719242,-0.0757998377084732,0.03736550733447075,0.0363907665014267,0.03255695104598999,0.09094512462615967,-0.003926989156752825,0.04088045656681061,-0.055290475487709045,-0.06825834512710571,0.0674259141087532,0.011462838388979435,-0.009863356128334999,0.02860659919679165,-0.030156902968883514,0.03405549377202988,-0.02450961247086525,0.015265208669006824,0.03890466317534447,0.03623773530125618,0.025747057050466537,-0.0645960122346878,-0.025380542501807213,0.003337546717375517,-0.01490052044391632,0.04963574558496475,-0.03327083960175514,0.022632762789726257,-0.10035261511802673,0.04386744275689125,0.03920751065015793,-0.03765947371721268,0.04449117183685303,-0.023217249661684036,-0.02832208015024662,0.02299269661307335,0.010828593745827675,-0.07429711520671844,0.06841440498828888,0.059751663357019424,-0.06659384071826935,0.08499199897050858,0.07400275021791458,-0.07943058758974075,-0.01721080392599106,-0.035292867571115494,0.01518016867339611,-0.047950439155101776,0.07790801674127579,0.05196031555533409,0.06462378054857254,-0.03126189485192299,0.04381081461906433,0.021119410172104836,-0.1165456473827362,-0.11704961955547333,0.021401625126600266,-0.035196106880903244,0.05158352851867676,-0.021593719720840454,0.004951117560267448,-0.049757927656173706,-0.0585373118519783,0.0173226036131382,0.11842767149209976
Hose,0.09713589400053024,0.04364447295665741,-0.08801208436489105,0.07912200689315796,0.0065796575509011745,0.16522476077079773,0.021495765075087547,0.08461225032806396,0.04354802519083023,0.1195773333311081,0.020843882113695145,-0.03350400924682617,0.09315049648284912,-0.0519421324133873,0.004071531351655722,0.029542889446020126,0.15749332308769226,-0.04566583037376404,0.13255244493484497,-0.10698573291301727,-0.04084296524524689,0.048670656979084015,0.0800388902425766,0.0624384805560112,0.033517323434352875,-0.03846362978219986,-0.0711565613746643,-0.05700521916151047,0.03688167780637741,-0.048084408044815063,-0.04530183598399162,-0.038699861615896225,-0.08862491697072983,0.0052880048751831055,-0.008384454064071178,-0.07003988325595856,-0.05184723064303398,0.041905518621206284,0.04408356174826622,0.030155997723340988,-0.0629572793841362,0.04264288768172264,0.010122455656528473,-0.0357573926448822,-0.10614519566297531,0.2768475413322449,-0.04102274402976036,0.007243448402732611,0.011513019911944866,-0.03672155737876892,0.10028718411922455,0.026917945593595505,-0.015436968766152859,0.016416024416685104,0.03135655075311661,-0.08466844260692596,0.09418125450611115,-0.08298544585704803,0.07885465770959854,-0.03646904230117798,-0.022976677864789963,-0.0028673361521214247,0.2185850590467453,-0.02566017210483551,0.12661048769950867,0.03198307007551193,0.10960763692855835,0.018925221636891365,0.011080238036811352,0.09542843699455261,0.07264254242181778,-0.102895587682724,-0.03867869824171066,0.005925260484218597,0.11171527206897736,-0.028412168845534325,0.04556424915790558,0.038086432963609695,0.06694797426462173,-0.09339281171560287,0.07555203884840012,0.0775073766708374,-0.05649806186556816,0.023584997281432152,0.04596717283129692,0.020635083317756653,-0.05761944502592087,0.1121997982263565,-0.01692092977464199,-0.0325905866920948,0.12558262050151825,0.049078743904829025,0.19130747020244598,0.06321839988231659,0.001766520319506526,0.045465510338544846,-0.0915868803858757,0.06984297186136246,0.03334568068385124,0.08067838847637177,-0.12609419226646423,0.028471779078245163,-0.005798553582280874,-0.027784496545791626,0.08998816460371017,0.0014808389823883772,0.07824483513832092,-0.02086636982858181,0.005034895148128271,-0.12362949550151825,-0.05801113694906235,0.01751144975423813,-0.015282544307410717,0.11709340661764145,0.0284549780189991,-0.06334201991558075,0.02131686732172966,-0.22960948944091797,0.057080455124378204,-0.05110123008489609,-0.24151067435741425,0.05626848340034485,-0.010961607098579407,-0.0014185530599206686,0.04988805949687958,0.014691258780658245,-0.006514658685773611,-0.0036265160888433456,-0.10637849569320679,0.08785676956176758,-0.030963916331529617,0.05917882174253464,0.004178278148174286,-0.03382894769310951,-0.033065490424633026,0.13505804538726807,0.019688498228788376,-0.026226915419101715,-0.08783172070980072,-0.11032021045684814,0.07583102583885193,-0.015740452334284782,0.035843219608068466,-0.1507706344127655,-0.01916084624826908,0.007331608794629574,-0.009457445703446865,0.19711491465568542,0.026728753000497818,-0.041602980345487595,0.01388269942253828,0.14155785739421844,-0.0854005217552185,0.0005847116699442267,-0.049954697489738464,0.23227062821388245,0.015435576438903809,-0.11981303989887238,0.09421809762716293,-0.00592279015108943,0.015040017664432526,0.010592823848128319,0.020071864128112793,0.016286052763462067,-0.013161292299628258,0.026681628078222275,0.06726445257663727,0.08709938824176788,0.0006828606128692627,0.06906990706920624,-0.09790199995040894,-0.11959870159626007,0.13035926222801208,-0.09186361730098724,0.009972689673304558,0.06595359742641449,0.00250600790604949,-0.05933619663119316,0.02178094908595085,-0.009719590656459332,0.04744157940149307,0.11255880445241928,0.01188458502292633,-0.0159256961196661,-0.02167665958404541,-0.07897035032510757,0.06233814358711243,0.03115718439221382,0.00914795696735382,0.0718182846903801,-0.056350599974393845,-0.004008549265563488,-0.07202592492103577,-0.044459618628025055,-0.11676900088787079,0.1085590124130249,-0.02050699293613434,0.018260028213262558,0.03895101696252823,-0.09169026464223862,0.022897616028785706,-0.08443671464920044,0.09650295972824097,-0.012707961723208427,0.08418478816747665,-0.011361464858055115,-0.1589520275592804,-0.05998007208108902,-0.01121460646390915,-0.09285428375005722,0.0864751935005188,-0.031205831095576286,-0.024777373299002647,-0.14684218168258667,0.07809513807296753,-0.04439186304807663,0.020224090665578842,0.008157537318766117,-0.03470830246806145,0.14046816527843475,0.02696915715932846,-0.026169922202825546,-0.006413789000362158,-0.007175080478191376,0.012104551307857037,0.13000543415546417,-0.13949541747570038,-0.014329575002193451,-0.03439198434352875,-0.040211960673332214,0.026776719838380814,0.05637925863265991,-0.15453283488750458,0.08077818155288696,-0.006055258214473724,0.048244915902614594,-0.05042681843042374,0.05474364757537842,0.1066073328256607,-0.15283922851085663,0.17886905372142792,-0.018316466361284256,0.14580044150352478,-0.03716149181127548,-0.0076667917892336845,0.0017385035753250122,-0.028165385127067566,-0.06873320788145065,-0.0772969126701355,-0.1285323053598404,0.034266941249370575,0.03448744863271713,0.0899791568517685,0.09480776637792587,0.1077866479754448,-0.0030459004919975996,-0.1633671224117279,-0.035240378230810165,-0.031006984412670135,0.048150479793548584,0.007722511887550354,0.0076446253806352615,0.15539757907390594,-0.10054539889097214,0.011152179911732674,0.062040187418460846,-0.034443117678165436,-0.033620357513427734,-0.017271695658564568,-0.0035303086042404175,-0.13986024260520935,0.04036814719438553,-0.14329519867897034,0.06604859232902527,0.011352112516760826,-0.03252788633108139,0.18948696553707123,-0.06569341570138931,-0.16298410296440125,-0.05988285690546036,-0.2731646001338959,0.09790622442960739,-0.09455134719610214,0.2310783565044403,-0.06005312129855156,0.009531978517770767,-0.13286013901233673,-0.02461807243525982,0.0052756667137146,-0.003698701737448573,0.03070470690727234,-0.1551918238401413,-0.017634034156799316,0.05471121519804001,0.14216348528862,0.07323446124792099,0.020463790744543076,0.003924030810594559,0.003918993286788464,-0.0877080112695694
Leggings,0.055073998868465424,-0.0337921679019928,-0.037665799260139465,0.06144271045923233,-0.025083238258957863,0.03157438710331917,0.004525694064795971,-0.04112418740987778,0.015382688492536545,0.040274545550346375,0.01761786639690399,0.00033663641079328954,0.07956602424383163,-0.004917447920888662,0.055869344621896744,0.037020131945610046,0.05619124695658684,0.0045018792152404785,0.00261899852193892,-0.022306134924292564,0.03145220875740051,0.021926773712038994,0.04098706319928169,0.02398143894970417,0.011551340110599995,0.0028829642105847597,-0.015652481466531754,-0.013818804174661636,0.018373169004917145,-0.0074078687466681,0.004557745065540075,-0.011429586447775364,-0.031018991023302078,0.01935967057943344,-0.0050924960523843765,-0.05668965354561806,-0.01423721481114626,-0.0028003233019262552,0.023243727162480354,0.01790461875498295,-0.10186418145895004,0.017801737412810326,-0.006588628049939871,0.05697624757885933,-0.07293863594532013,0.13493862748146057,-0.028886685147881508,0.005872967652976513,-0.013393816538155079,-0.008783457800745964,0.032186370342969894,-0.01915796846151352,-5.3346160711953416e-05,0.02129114791750908,0.0068269711919128895,-0.01333036832511425,-0.022625215351581573,-0.013500475324690342,0.04257211461663246,-0.03682730719447136,0.009604270569980145,-0.022469285875558853,0.11641421169042587,-0.01668986678123474,-0.02913988009095192,0.00513177365064621,0.060798197984695435,0.01107205543667078,-0.021479986608028412,-0.0029160710982978344,0.047839291393756866,-0.022432180121541023,-0.017078306525945663,-0.018144510686397552,0.05769656226038933,-0.0033999693114310503,-0.001215123338624835,0.0473913736641407,0.02747364342212677,0.00046148832188919187,0.04334748908877373,0.006028895732015371,0.00849800556898117,-0.0038062985986471176,0.011144129559397697,0.01099274680018425,-0.004114947747439146,0.05585671588778496,-0.016930947080254555,-0.01641063205897808,0.033794861286878586,0.04053821787238121,0.05978704243898392,0.06297003477811813,0.01578490249812603,0.02492610178887844,0.017592793330550194,-0.01806507259607315,-0.0407475046813488,0.014913995750248432,-0.03298185020685196,0.03605293855071068,-0.030026787891983986,-0.020031584426760674,0.05720235034823418,-0.011975686997175217,0.009564372710883617,-0.04493655636906624,-0.013244281522929668,-0.08261030167341232,0.0006642650696448982,0.037148647010326385,0.027729220688343048,0.028706714510917664,-0.003949236124753952,-0.0028456998988986015,0.0009460300789214671,-0.05689727142453194,0.042541369795799255,0.00442535150796175,-0.08367489278316498,0.043427541851997375,0.032944828271865845,-0.04342469200491905,-0.014036979526281357,0.0416816845536232,0.01628146879374981,0.05565705895423889,0.03527596592903137,0.001945220516063273,-0.018290916457772255,0.03039320558309555,-0.021223999559879303,-0.06834165006875992,-0.0019489886472001672,-0.005220617633312941,0.015217290259897709,0.02770703099668026,-0.06077905371785164,-0.06654001027345657,-0.015275315381586552,-0.033147744834423065,-0.0005954977823421359,0.009622669778764248,0.01710723154246807,0.03678938373923302,-0.04281066358089447,0.04475041851401329,0.04473666474223137,-0.03270045667886734,-0.0034904510248452425,0.07304863631725311,-0.03372637555003166,0.01647835224866867,0.003768113674595952,0.08754152804613113,-0.010317943058907986,-0.1086321622133255,-0.006407018285244703,0.0027343269903212786,-0.023434393107891083,0.00717605696991086,0.022904586046934128,-0.004059019964188337,0.04364646598696709,-0.008213380351662636,-0.02503449097275734,0.020485226064920425,-4.684712257585488e-05,0.0789875015616417,-0.0411466620862484,-0.06627587229013443,-0.03206460177898407,-0.08157971501350403,0.023654235526919365,0.018421730026602745,0.012001769617199898,-0.04303906485438347,0.05993276089429855,-0.04667564108967781,-0.01794922724366188,0.003671678714454174,0.0001116458879550919,0.0055742161348462105,0.04711921885609627,-0.03986736387014389,-0.0065533178858459,0.013101024553179741,0.00981038436293602,0.032101139426231384,-0.06819357722997665,0.04999377205967903,-0.012031598016619682,-0.04365300014615059,-0.02796194702386856,0.023573732003569603,0.039578065276145935,0.00011696347792167217,0.018285661935806274,-0.06563857942819595,-0.024675186723470688,-0.02932547591626644,-0.003963340073823929,-0.005923784803599119,0.006695760879665613,-0.030591439455747604,-0.03995172679424286,-0.03328118100762367,0.0009549526730552316,-0.00016468904505018145,0.028650760650634766,-0.04011096432805061,0.032799530774354935,-0.09238029271364212,0.04099399968981743,-0.06378592550754547,0.017225807532668114,-0.04631311073899269,0.02422034554183483,0.060643911361694336,-0.006108568049967289,-0.012052117846906185,0.05113668367266655,-0.03404778614640236,-0.01356053538620472,0.0679067075252533,-0.014601614326238632,-0.017549719661474228,-0.07875864952802658,0.006115640047937632,0.03868798539042473,-0.00046893529361113906,-0.0800650343298912,0.06152534484863281,0.0013294605305418372,0.014627593569457531,-0.03645407408475876,0.08083668351173401,0.02938944660127163,-0.07183986157178879,0.06069900095462799,0.009747329168021679,0.07332650572061539,0.019512837752699852,-0.0608382523059845,0.0022711940109729767,0.01731576770544052,-0.04927711561322212,0.0062599326483905315,-0.03401162847876549,0.012497550807893276,0.027196014299988747,0.001074048108421266,0.05120284482836723,0.035573024302721024,-0.026644784957170486,-0.009392519481480122,-0.025774506852030754,0.0033136371057480574,0.011334327049553394,0.015193261206150055,-0.0007740967557765543,0.05316122993826866,-0.03428617864847183,0.04958004131913185,-0.0221446193754673,-0.03593197464942932,0.020421013236045837,0.029808076098561287,-0.04985306039452553,-0.027278324589133263,0.032100144773721695,-0.0760757103562355,0.03878298029303551,0.01209291536360979,-0.03233889117836952,0.1113826334476471,0.01680353283882141,-0.06422938406467438,-0.029244128614664078,-0.09510428458452225,-0.0011160518042743206,-0.019220020622015,0.06517371535301208,-0.039702557027339935,0.015977269038558006,-0.0559023842215538,0.027621453627943993,0.0030259385239332914,-0.02829333208501339,0.0004922449588775635,-0.05239110440015793,-0.013879820704460144,0.017883237451314926,0.041941385716199875,0.04311893507838249,-0.03491919860243797,-0.04411261901259422,0.004563768859952688,-0.011603441089391708
Shorts,0.005022080149501562,-0.023526638746261597,-0.05780210718512535,0.08123040199279785,0.008719070814549923,0.031196383759379387,0.030794311314821243,0.02776475064456463,-0.025164926424622536,0.07947330176830292,0.04799521714448929,0.00817734282463789,0.0741109773516655,-0.09431805461645126,-0.015921233221888542,0.0017482656985521317,0.08264618366956711,-0.03921392187476158,0.10030772536993027,-0.010699278675019741,-0.018575217574834824,-0.0009182295179925859,0.06937410682439804,0.04030776768922806,0.018507331609725952,-0.027407532557845116,0.03686019033193588,0.008556431159377098,0.03027467243373394,0.010160505771636963,-0.009990066289901733,-0.012133119627833366,-0.027478301897644997,0.016030296683311462,0.016063867136836052,-0.08616011589765549,-0.05292766913771629,0.05695439130067825,0.017032979056239128,0.06841237843036652,-0.08130862563848495,0.001862023025751114,-0.06717612594366074,0.0154509786516428,-0.06813972443342209,0.07322116196155548,-0.07855302095413208,0.03717693313956261,-0.07272474467754364,-0.00555839017033577,0.09762545675039291,-0.001057882676832378,-0.02110411785542965,-0.0025121362414211035,0.05465560033917427,-0.01006442029029131,0.01908038556575775,0.052809227257966995,0.05407225713133812,-0.05724457651376724,0.026608288288116455,0.021768013015389442,0.09689570218324661,-0.03395894914865494,0.030559567734599113,0.03245833143591881,0.09774082154035568,0.010881955735385418,-0.019527336582541466,-0.02163742296397686,-0.00037872311077080667,-0.03977778181433678,-0.037800468504428864,0.01292563695460558,0.08096222579479218,0.02842954732477665,-0.00887701753526926,0.061914365738630295,0.0504363477230072,0.04420202597975731,0.004468910861760378,0.10396534204483032,0.032152969390153885,0.000982904457487166,0.030839359387755394,0.04312051087617874,-0.046482596546411514,0.02595440112054348,-0.0013136762427166104,0.01964706927537918,0.0465860553085804,0.07049548625946045,0.07493069767951965,0.06473948806524277,0.08616634458303452,0.01260759960860014,-0.06331061571836472,-0.06092002987861633,-0.050466347485780716,0.0644853487610817,-0.015649467706680298,0.013602854683995247,-0.06330349296331406,-0.020416272804141045,0.054741021245718,0.012821624055504799,0.07171469181776047,0.0017092032358050346,0.0014282673364505172,-0.042231928557157516,0.03375932201743126,0.09808244556188583,-0.04931187257170677,0.04504261538386345,0.015568873845040798,-0.022366950288414955,0.08416108042001724,-0.11114490032196045,0.021953456103801727,-0.007299870252609253,-0.12400630861520767,0.018207324668765068,0.02762909047305584,0.02707458846271038,-0.0023391859140247107,-0.004117579199373722,0.016377141699194908,0.029592711478471756,0.016812194138765335,0.02373562566936016,-0.008562016300857067,0.011430846527218819,-0.03350139036774635,-0.0969775840640068,-0.011736606247723103,0.04225886985659599,-0.010154697112739086,0.03990020602941513,-0.027981892228126526,-0.052342820912599564,-0.04432688280940056,-0.03907238319516182,-0.01659003458917141,-0.0012161150807514787,-0.012125644832849503,0.031163686886429787,-0.042420003563165665,0.06093325838446617,0.006807372905313969,-0.008721689693629742,-0.0018108614021912217,0.09392541646957397,-0.02238384820520878,0.05070237070322037,0.01814807392656803,0.09801934659481049,-0.0063102529384195805,-0.10422758013010025,0.016214022412896156,-0.009209019131958485,-0.01114972960203886,0.06736093014478683,0.001226730295456946,0.016131436452269554,0.07989496737718582,-0.0035464868415147066,0.020064258947968483,0.0906531885266304,-0.028681302443146706,0.05064835026860237,-0.00599845964461565,-0.06107424572110176,0.03608304634690285,-0.132467582821846,0.015678130090236664,0.009810480289161205,-0.016808679327368736,-0.018901987001299858,0.1419767141342163,-0.046715375036001205,0.03771410137414932,0.05189809948205948,-0.015135540626943111,-0.07682706415653229,0.041082512587308884,-0.1209266185760498,-0.014043099246919155,0.023051584139466286,0.03764054924249649,0.06947845965623856,-0.08445000648498535,0.04729459434747696,0.0016597986686974764,-0.08844830840826035,0.029037175700068474,0.017196111381053925,0.08859890699386597,0.0035347328521311283,0.03497635945677757,-0.04763481020927429,-0.03960592672228813,-0.056158363819122314,0.032950665801763535,0.05357750132679939,0.02525767683982849,-0.015063959173858166,-0.053861286491155624,-0.053059935569763184,0.0024677799083292484,-0.013742691837251186,0.020801199600100517,-0.011067871935665607,-0.027933696284890175,-0.09012169390916824,0.04304834082722664,-0.02379000186920166,0.004193373955786228,0.003441015025600791,0.007227328605949879,0.042959969490766525,-0.004621544852852821,-0.016445716843008995,0.02311987616121769,-0.07905285805463791,-0.006195973139256239,0.04495443031191826,-0.05155571922659874,-0.02093997411429882,-0.04829827696084976,0.01499952096492052,0.03927122429013252,-0.009853466413915157,-0.10241198539733887,0.03183099254965782,-0.01224043220281601,-0.02612476982176304,-0.10560246556997299,0.0116764847189188,0.06729598343372345,-0.07276369631290436,0.11884385347366333,0.023833032697439194,0.024356378242373466,0.03239060565829277,0.015699133276939392,0.003954126033931971,0.018060792237520218,-0.10664301365613937,-0.015874892473220825,-0.0350114107131958,-0.008463612757623196,0.02564374916255474,-0.006413182709366083,0.07206840813159943,0.03508954867720604,0.020568955689668655,-0.059767115861177444,-0.02677321806550026,0.029643181711435318,0.014628526754677296,-0.00044864462688565254,-0.08480531722307205,0.06624520570039749,-0.09087317436933517,0.07526686042547226,-0.06017368659377098,-0.07004654407501221,-0.04304914548993111,0.0048227813094854355,-0.046453893184661865,-0.016127390787005424,-0.004517887718975544,-0.17424945533275604,0.09426900744438171,0.013238179497420788,-0.06015423685312271,0.12945342063903809,-0.014428237453103065,-0.07458006590604782,-0.023538915440440178,-0.13743332028388977,-0.0006340492400340736,-0.023334136232733727,0.14658711850643158,-0.08640981465578079,0.01703762076795101,-0.08702997863292694,0.010994884185492992,0.033097583800554276,0.01311891432851553,0.0464165173470974,-0.1171923279762268,0.02661338821053505,-0.004404585342854261,0.004373371601104736,0.040581732988357544,0.013918736949563026,-0.027553662657737732,0.02638583444058895,0.012348778545856476
Bermuda,-0.0033940800931304693,0.029206745326519012,-0.004006670787930489,0.028558721765875816,-0.021690532565116882,0.10624336451292038,-0.025713911280035973,0.08948342502117157,-0.012900805100798607,0.04874526709318161,-0.03663679584860802,0.06410728394985199,0.0020746439695358276,-0.03378994017839432,-0.0265825018286705,0.07664790749549866,0.029913824051618576,-9.147947275778279e-05,0.06107352674007416,0.030944636091589928,-0.018317705020308495,-0.043938037008047104,0.09660830348730087,0.013441614806652069,-0.029584534466266632,0.01431986689567566,0.012989349663257599,-0.014821376651525497,0.03247695416212082,-0.024076253175735474,-0.02412690967321396,0.0157304834574461,-0.052040211856365204,0.05900151655077934,0.04360174387693405,0.013517039828002453,-0.027242090553045273,-0.05811896547675133,0.018940618261694908,0.007325620856136084,0.009782698005437851,-0.013834232464432716,0.035275813192129135,0.018087243661284447,-0.009486151859164238,0.0529707632958889,-0.0063493079505860806,0.034945156425237656,0.013829974457621574,-0.00011358596384525299,0.10435137152671814,0.03789926692843437,-0.0036122496239840984,0.02807079628109932,0.024768870323896408,0.03694012016057968,-0.020393293350934982,0.08332309871912003,-0.062121182680130005,-0.06106984615325928,0.0065310075879096985,0.06023591384291649,0.06399622559547424,0.013781119138002396,0.04492834955453873,-0.051826588809490204,0.06331685930490494,0.04638288542628288,0.011331601068377495,-0.05668860301375389,-0.10164668411016464,0.03323841094970703,0.10517381131649017,0.04430355131626129,0.08317278325557709,-0.0024476773105561733,0.013562146574258804,0.07545077800750732,0.09176696836948395,-0.04810398817062378,-0.0018228510161861777,-0.018948081880807877,0.013900808058679104,-0.0152541883289814,-0.055743880569934845,0.06194452568888664,-0.012145633809268475,0.017444804310798645,-0.006055447272956371,-0.01278781145811081,0.027526099234819412,0.09195572137832642,0.01906517893075943,-0.017098182812333107,0.052670493721961975,0.01712457463145256,0.010824248194694519,0.03914235532283783,-0.07565580308437347,-0.07883231341838837,-0.015401294454932213,0.026089083403348923,-0.07244257628917694,-0.03105834499001503,0.08009956777095795,-0.018003780394792557,-0.009708968922495842,-0.03953202813863754,-0.014285614714026451,-0.06181758642196655,0.008174764923751354,-0.044319093227386475,-0.005592343397438526,0.0023080757819116116,0.0260905921459198,-0.05744553357362747,0.012390205636620522,-0.06809952855110168,0.06978515535593033,0.01782073825597763,-0.024917062371969223,0.12156840413808823,-0.04519379138946533,0.012868249788880348,-0.03307196497917175,-0.040192946791648865,0.06517013162374496,0.008496580645442009,-0.04778538644313812,0.09925983846187592,0.003605819074437022,0.04131009802222252,-0.0289626307785511,-0.055243294686079025,0.021829327568411827,-0.002924516797065735,0.02658836357295513,0.042864393442869186,0.0442015677690506,0.015753012150526047,-0.06627478450536728,-0.02399175986647606,0.020771699026226997,0.010089137591421604,0.01252884604036808,0.041331835091114044,0.01517428644001484,0.032788731157779694,0.010515786707401276,-0.08359941095113754,-0.001049461541697383,0.03803110122680664,0.08611645549535751,0.02476726472377777,-0.01503308117389679,0.10249499976634979,-0.04039027541875839,-0.028743144124746323,-0.05263685807585716,-0.010009655728936195,0.03368256613612175,0.028307326138019562,0.02296615205705166,0.024239659309387207,0.06129755824804306,0.011055834591388702,0.0309886671602726,0.07402247935533524,0.04599335789680481,-0.0563933327794075,0.054941967129707336,0.0015511655947193503,0.0630364939570427,-0.09851037710905075,-0.01270260103046894,-0.042814724147319794,-0.007199285551905632,0.005166899412870407,0.04178493469953537,-0.06738229095935822,0.04367804527282715,0.02676514908671379,-0.0082465885207057,-0.1054261326789856,-0.05631343647837639,-0.035089656710624695,-0.002084396779537201,0.03462464362382889,0.058478571474552155,0.016188660636544228,-0.009353172034025192,-0.029642557725310326,0.04200742766261101,-0.014998283237218857,-0.028612812981009483,0.05778411775827408,0.01034444011747837,0.018415182828903198,-0.06498301774263382,0.008670387789607048,-0.08785291016101837,-0.016612891107797623,0.029557019472122192,0.014595851302146912,-0.0024623579811304808,-0.03405020385980606,-0.14069966971874237,-0.029785772785544395,0.0054139140993356705,-0.005988714750856161,0.0013023962965235114,0.01795964688062668,-0.034004583954811096,0.01502145454287529,0.04669193550944328,0.036779873073101044,-0.003953956067562103,-0.034731004387140274,-0.00017287505033891648,0.05773676186800003,-0.026476871222257614,-0.025001665577292442,0.009637642651796341,-0.02479689195752144,0.020846787840127945,-0.012517648749053478,-0.02780911885201931,0.05483102798461914,0.0009370322222821414,-0.012714060954749584,0.06696110218763351,-0.052317794412374496,-0.06053471192717552,0.061718862503767014,-0.014134607277810574,0.007303081452846527,-0.07069098204374313,-0.008727669715881348,0.007186855189502239,-0.03704061359167099,0.1615999937057495,0.03605238348245621,-0.00023922976106405258,0.08938778936862946,-0.1145506426692009,0.041381143033504486,-0.05365768074989319,-0.0732538253068924,-0.0016904936637729406,-0.03518545255064964,-0.02749171480536461,-0.015637200325727463,-0.00010930669668596238,0.09020747244358063,0.017208710312843323,0.011531416326761246,-0.008444063365459442,-0.03118932992219925,-0.01765172742307186,0.032093387097120285,-0.06143152713775635,-0.05357677862048149,-0.014382395893335342,0.0034789133351296186,0.00224943901412189,0.04760606214404106,-0.02367943339049816,0.03704326972365379,0.03549535199999809,-0.05604551360011101,-0.03961208462715149,-0.046787381172180176,-0.14880138635635376,-0.0006962816114537418,-0.01347756665199995,-0.07355248928070068,0.12280839681625366,0.03308764845132828,-0.002081140875816345,0.05644088238477707,-0.12272115796804428,-0.006202908232808113,-0.027040664106607437,0.07945555448532104,-0.07546210289001465,-0.030483335256576538,-0.01873064786195755,0.03379633650183678,0.05650117248296738,0.00895918719470501,0.010271109640598297,-0.00960574857890606,-0.016584616154432297,0.050311800092458725,-0.013282911852002144,-0.025330234318971634,0.039797037839889526,0.0402083620429039,0.009035583585500717,-0.019352704286575317
Unterhose,0.024222789332270622,0.02350117824971676,0.004428687039762735,0.06275974959135056,0.06133903190493584,0.05231596529483795,-0.027375269681215286,0.006851811893284321,0.03144115209579468,0.056116778403520584,0.017817078158259392,-0.03172965347766876,0.04017280787229538,0.023718371987342834,0.01633094996213913,0.02005472593009472,0.09702279418706894,-0.02134023979306221,0.019737498834729195,-0.0372878760099411,-0.004603518173098564,-0.036280978471040726,0.021311936900019646,0.004495345056056976,0.004700671881437302,0.016943907365202904,-0.03705662861466408,-0.022552136331796646,0.030019890516996384,-0.01619814708828926,-0.01587393507361412,0.028588395565748215,-0.05618404969573021,0.0004379004240036011,-0.026586029678583145,-0.02565736509859562,0.013691781088709831,0.01070074550807476,0.02789502963423729,-0.004082685802131891,-0.0075872791931033134,0.03694330155849457,0.0328357070684433,-0.007688009180128574,-0.03383319452404976,0.09252310544252396,-0.029110895469784737,-0.03529713302850723,-0.0041121551766991615,-0.017223458737134933,0.02832935005426407,-0.00850607454776764,-0.013827655464410782,0.03302071988582611,-0.0031569134443998337,-0.005805949680507183,-0.0075814323499798775,-0.08494728058576584,0.04249081760644913,-0.04173407331109047,-0.005852074362337589,-0.03581329435110092,0.10157070308923721,-0.021571431308984756,0.05279802158474922,0.04150278493762016,0.029263198375701904,0.0015344908460974693,0.019992098212242126,0.017224445939064026,-0.008128219284117222,-0.003123291302472353,0.00047178776003420353,0.014385617338120937,0.010340407490730286,-0.06043235957622528,0.017699088901281357,0.007054568268358707,0.034187570214271545,-0.03534012660384178,-0.012821586802601814,0.06378022581338882,-0.010446639731526375,0.03216050937771797,-0.004529567435383797,0.04081019386649132,0.004256735555827618,0.06640389561653137,0.03716345876455307,-0.01670057512819767,0.0502307265996933,0.02075250633060932,0.0674542486667633,0.0329279862344265,0.01676754094660282,-0.013573856092989445,-0.04617133364081383,-0.032640233635902405,0.012220241129398346,0.0004909676499664783,-0.03078288584947586,-0.00441728113219142,0.0003641103394329548,-0.009455880150198936,0.02238912507891655,0.0009836126118898392,0.026792824268341064,-0.0015552081167697906,0.0338885523378849,-0.030329186469316483,-0.03676300123333931,0.04675857722759247,-0.03123389184474945,0.03368587791919708,0.01209527999162674,0.0008850721642374992,0.02625633217394352,-0.061752911657094955,0.024855028837919235,-0.019232600927352905,-0.09058278799057007,0.0174600500613451,-0.04148191958665848,-0.011170551180839539,0.016403524205088615,0.022103942930698395,-0.016427576541900635,-0.011315601877868176,-0.04317259043455124,0.0034854505211114883,-0.035092130303382874,0.025613395497202873,-0.018578369170427322,-0.005012484733015299,0.012166829779744148,0.01930544152855873,0.0031024711206555367,-0.022268496453762054,0.006955482065677643,-0.059311967343091965,-0.0037975069135427475,0.011854308657348156,-0.013209331780672073,-0.06849157810211182,-0.025241121649742126,-0.01925252191722393,-0.01760510541498661,0.0822124257683754,0.019398251548409462,-0.012486904859542847,-0.05280327796936035,0.04065918177366257,-0.04061282426118851,-0.010998371988534927,0.007407239638268948,0.07095944881439209,0.022825375199317932,-0.037981338798999786,0.04940735548734665,-0.03447497636079788,-0.040608055889606476,0.0802663192152977,0.04035891219973564,-0.035362787544727325,0.06801499426364899,0.0074163759127259254,0.029994472861289978,0.021373571828007698,-0.009464739821851254,0.026859289035201073,-0.016602134332060814,-0.0164339542388916,0.012080411426723003,-0.010846559889614582,0.02383217215538025,0.05316329374909401,-0.02101430855691433,-0.00797970313578844,-0.0038953269831836224,-0.006609586998820305,0.01616400107741356,0.062030546367168427,-0.013357099145650864,0.020799266174435616,0.001214863732457161,-0.04530073329806328,0.03084065206348896,0.017424948513507843,0.008572940714657307,0.03535813093185425,-0.04218945652246475,0.014849800616502762,-0.03848551586270332,-0.0020894333720207214,-0.0234866663813591,0.0062696486711502075,0.005227356217801571,0.03050833009183407,0.04605329409241676,-0.00833807047456503,0.03308334946632385,0.027444135397672653,0.02252013236284256,0.014480995945632458,0.0010402603074908257,-0.027713585644960403,-0.048311952501535416,-0.04084261506795883,0.021457472816109657,0.01885851100087166,0.03476473689079285,-0.026968641206622124,0.008154403418302536,-0.030644850805401802,0.03066599741578102,-0.022865280508995056,-0.0008135698735713959,0.014834885485470295,0.006672982592135668,0.06085626035928726,0.024377187713980675,-0.01491004042327404,0.026059970259666443,-0.03997112810611725,-0.006613303907215595,0.014883656054735184,-0.028173059225082397,-0.022249259054660797,-0.04394996911287308,0.005168790929019451,0.02449767291545868,0.024711722508072853,-0.00779900886118412,0.02731282450258732,0.00026906654238700867,0.03855562210083008,-0.007210427895188332,0.01669463887810707,0.04935763031244278,-0.0657271221280098,0.03355959802865982,0.02339956909418106,0.032495561987161636,-0.02293155901134014,0.006902010180056095,0.04495673254132271,0.008766120299696922,-0.025909457355737686,-0.05253227800130844,-0.03278923034667969,-0.010772605426609516,0.02952484041452408,-0.00038052117452025414,0.021920889616012573,0.05238797515630722,-0.01838504895567894,-0.04080572351813316,-0.030359329655766487,0.012245719321072102,0.04809960350394249,-0.012304907664656639,-0.0636078342795372,0.030522193759679794,-0.07984800636768341,0.046600207686424255,-0.03211083635687828,-0.019515901803970337,-0.00039096735417842865,-0.007678438909351826,-0.004423010628670454,-0.05432727932929993,0.045056961476802826,-0.06401875615119934,0.013943411409854889,0.02272523008286953,0.012284924276173115,0.07794134318828583,-0.025496965274214745,-0.07057848572731018,-0.01597667671740055,-0.05857386440038681,-0.010553719475865364,-0.039653338491916656,0.044301148504018784,-0.04854200780391693,-0.007889745756983757,-0.003871483728289604,0.008898724801838398,0.02676471322774887,0.0035889805294573307,0.025990217924118042,-0.049684084951877594,-0.0009155373554676771,0.029441772028803825,0.08105172961950302,0.03702284395694733,0.04330357909202576,-0.02228672429919243,0.005364744924008846,-0.006511405110359192
Shirt,0.0424831360578537,-0.027695201337337494,-0.014600779861211777,0.11662319302558899,0.04735320061445236,-0.05249703302979469,-0.025772646069526672,0.02749447524547577,-0.11933586001396179,0.10659098625183105,0.026219813153147697,0.02555864304304123,0.1526360958814621,-0.07272197306156158,0.006176431197673082,0.01645064726471901,0.07662557065486908,-0.02725876495242119,0.019301416352391243,-0.02282744273543358,0.02786075882613659,0.016340196132659912,0.07380470633506775,0.05798029527068138,0.006915196776390076,0.008560650050640106,0.12850575149059296,0.045195531100034714,0.016854912042617798,0.023370368406176567,-7.824786007404327e-05,-0.00575421005487442,-0.02384713664650917,0.023443525657057762,-0.008730035275220871,-0.14012858271598816,-0.012344364076852798,0.04303187131881714,0.04732149466872215,0.021863281726837158,-0.09727793186903,0.021225392818450928,-0.019898829981684685,0.022287480533123016,-0.06203686445951462,0.24502483010292053,-0.029188089072704315,-0.035279929637908936,-0.05003068223595619,0.027067147195339203,0.026896493509411812,-0.038595862686634064,0.0922250971198082,0.009613921865820885,-0.01804528199136257,-0.01565348170697689,-0.052126169204711914,-0.02362769842147827,0.040650784969329834,-0.016168661415576935,-0.01064116321504116,0.04159928485751152,0.19473205506801605,0.015191256999969482,0.04630545526742935,-0.06868178397417068,0.08456142246723175,-0.04453905671834946,0.07000414282083511,0.008222819305956364,-0.028489749878644943,-0.06444057077169418,-0.047476090490818024,0.03516268730163574,0.08464214205741882,0.04991021379828453,0.003089204430580139,0.07377791404724121,0.10604976862668991,0.021721720695495605,0.06214093789458275,-0.002810195554047823,0.006456045433878899,0.02568044140934944,-0.006788359954953194,0.0560419037938118,-0.04119115695357323,0.07656846940517426,-0.012901796959340572,-0.02591864764690399,0.05365574732422829,0.05005210265517235,0.11199060082435608,0.06883677840232849,0.03236546367406845,0.07652377337217331,-0.001782702747732401,-0.05354255437850952,-0.2016707956790924,-0.006822921335697174,-0.017907094210386276,0.061536867171525955,0.005975931882858276,-0.10407119989395142,0.10880044847726822,0.0142003633081913,0.06862188875675201,-0.022425608709454536,0.024369997903704643,-0.04188866168260574,0.05993133783340454,0.003044828772544861,-0.026163429021835327,0.021815534681081772,0.04296167194843292,-0.06596740335226059,0.07152844220399857,-0.1906125545501709,0.027443554252386093,-0.029954757541418076,-0.11163388192653656,0.036387849599123,0.012352967634797096,-0.018208220601081848,0.03881261497735977,0.011197976768016815,-0.06965827941894531,0.07113316655158997,-0.007182714529335499,0.03813505172729492,0.0942951962351799,-0.0002709813416004181,-0.13620230555534363,-0.04901595413684845,-0.044473983347415924,0.08721113950014114,0.05120917409658432,0.0707462951540947,-0.06822975724935532,-0.04364074394106865,-0.04409501329064369,-0.07180797308683395,0.08786090463399887,-0.02088327705860138,-0.040836721658706665,0.03550507128238678,-0.06280027329921722,0.11470057815313339,0.0646844357252121,-0.05625021457672119,-0.0007925145328044891,0.09974299371242523,-0.09727321565151215,0.013308198191225529,0.039012156426906586,0.10961232334375381,0.004625633358955383,-0.08615980297327042,-0.00607285276055336,-0.11504501849412918,-0.006391262635588646,-0.061806656420230865,0.05982370674610138,-0.0014486797153949738,0.10086953639984131,0.045467786490917206,0.039333365857601166,0.045154470950365067,-0.023615146055817604,0.04701635241508484,-0.060768842697143555,-0.12308994680643082,-0.006676206365227699,-0.1378536820411682,0.076203353703022,0.053956665098667145,0.001033487729728222,0.02105957269668579,0.0864153504371643,-0.04442397877573967,0.07717326283454895,-0.019317515194416046,0.0238448828458786,-0.04610113054513931,-0.10218064486980438,-0.08236785978078842,0.09515910595655441,0.09813197702169418,-0.03154292702674866,0.05827920138835907,-0.06704290956258774,0.080592580139637,-0.015091920271515846,-0.05323901027441025,-0.09394700825214386,0.07337135821580887,0.11232142895460129,0.054038435220718384,0.034211039543151855,-0.07911451160907745,-0.006335840560495853,-0.013050101697444916,0.018247179687023163,-0.03270188346505165,-0.030256075784564018,0.012595411390066147,-0.0419626347720623,-0.06526336818933487,-0.06077463552355766,-0.06142011657357216,0.07446146011352539,-0.018993977457284927,0.022050680592656136,-0.15926983952522278,0.11455024033784866,0.03301724046468735,-0.0016387775540351868,0.06347507983446121,0.04390343278646469,0.10901527851819992,0.03628616780042648,-0.07594091445207596,-0.025365229696035385,-0.03587062656879425,0.0026115169748663902,0.0781819298863411,-0.17794184386730194,-0.03854554519057274,-0.08430284261703491,-0.0364711731672287,-0.006657242774963379,-0.017162661999464035,-0.08535753935575485,0.07428761571645737,0.008758592419326305,0.029577678069472313,-0.025456473231315613,0.08048127591609955,0.07252542674541473,-0.06670711934566498,0.12941308319568634,0.04453441873192787,0.023619528859853745,0.04828789830207825,0.04731205850839615,-0.014492373913526535,0.024245519191026688,-0.06656506657600403,-0.03064650110900402,-0.0756445974111557,0.0005152188241481781,0.013647789135575294,0.014332462102174759,0.055031150579452515,0.10057637840509415,0.010160976089537144,-0.0860397145152092,-0.16710558533668518,0.03621414676308632,-0.05190570279955864,-0.03654738888144493,0.0018777158111333847,0.026699325069785118,-0.12554270029067993,0.11726780980825424,0.041291430592536926,-0.024739252403378487,-0.023534435778856277,0.012594014406204224,-0.009393768385052681,-0.14905917644500732,-0.009032009169459343,-0.1463366448879242,0.0026001622900366783,-0.003981277346611023,-0.054634734988212585,0.15855105221271515,-0.008410115726292133,-0.10069514811038971,0.0100468210875988,-0.10943194478750229,0.046543341130018234,-0.05437484383583069,0.08644501864910126,0.026141608133912086,0.07623565196990967,-0.07527142018079758,0.06687520444393158,0.10391693562269211,-0.019247114658355713,0.016810739412903786,-0.10105735063552856,0.0009861141443252563,-0.05969574674963951,0.00711924210190773,-0.00669759139418602,-0.09659862518310547,-0.016544606536626816,-0.008820220828056335,-0.05042974278330803
Sweatshirt,0.006930144969373941,-0.004924988839775324,0.03720176964998245,0.09145928174257278,0.0157629381865263,-0.02943197265267372,-0.024971745908260345,0.027948442846536636,-0.036264512687921524,0.06500912457704544,0.032014694064855576,0.00969412736594677,0.06426941603422165,-0.007916604168713093,-0.02012716978788376,0.020457221195101738,0.0640496164560318,0.0035269588697701693,0.0074492162093520164,0.0031470523681491613,0.029128117486834526,0.024549029767513275,0.02979550138115883,0.0010450431145727634,-0.0073300981894135475,0.018143203109502792,0.024056626483798027,0.007066417019814253,-0.0031652816105633974,0.011791551485657692,-0.03127635270357132,0.007034084759652615,-0.008716372773051262,0.017810553312301636,-0.019176863133907318,-0.05518225207924843,-0.05924931541085243,0.05445334315299988,0.024896975606679916,0.03235451504588127,-0.02673158422112465,0.05117257311940193,-0.02351059392094612,-0.02394978702068329,-0.022280758246779442,0.035055942833423615,-0.014960979111492634,0.005346206948161125,-0.016893403604626656,0.03662822023034096,0.004359352868050337,-0.02238314598798752,0.06932023167610168,-0.0038564593996852636,-0.01929345354437828,-0.010653018020093441,0.011608746834099293,0.01982724852859974,0.03311485797166824,-0.006902663968503475,0.002463272074237466,0.014330074191093445,0.07136038690805435,-0.02510177157819271,-0.011581732891499996,-0.04012520611286163,0.07936493307352066,-0.036014486104249954,0.05357589200139046,0.013887180015444756,-0.05164986103773117,-0.025294937193393707,-0.007813019677996635,0.016947045922279358,0.08506173640489578,0.03266334533691406,0.032368388026952744,0.04348047077655792,0.04441498965024948,-0.005090965889394283,0.00914575345814228,-0.020734155550599098,0.025847921147942543,0.009312550537288189,-0.007522522006183863,0.04035560041666031,-0.038840342313051224,0.0266155693680048,-0.021542610600590706,0.016616515815258026,0.03526129946112633,0.049463704228401184,0.04645383358001709,0.04782825708389282,0.013344983570277691,0.026322199031710625,-0.0001670629280852154,-0.05752997472882271,-0.08366533368825912,-0.003369756042957306,-0.013671085238456726,0.003225174266844988,0.03339459374547005,-0.09864549338817596,0.062472958117723465,0.004593872465193272,0.004796520806849003,-0.04244290664792061,-0.030709274113178253,-0.007030152715742588,0.009747008793056011,0.043924298137426376,-0.012665350921452045,-0.022740723565220833,0.01385017205029726,-0.012249712832272053,0.022085661068558693,-0.07715311646461487,-0.007915993221104145,0.009192836470901966,-0.03365994617342949,0.04307198524475098,0.014176812954246998,-0.026219606399536133,0.010076327249407768,-0.0063256495632231236,0.002754383720457554,0.02897738851606846,0.0023605136666446924,0.0011253447737544775,0.04080694913864136,0.02253623865544796,-0.03434092551469803,-0.05660742521286011,-0.015653878450393677,0.015824317932128906,0.03157470375299454,0.03845042735338211,-0.06137891113758087,0.011856489814817905,-0.008283587172627449,-0.014069047756493092,0.036267928779125214,-0.021781587973237038,-0.023888250812888145,0.008288689889013767,-0.0845336765050888,0.0460822656750679,-0.005254448391497135,-0.03327653929591179,-0.006066602189093828,0.04243481904268265,-0.02786029689013958,0.001438520266674459,0.0032324225176125765,0.07935979217290878,0.03957226127386093,-0.038822684437036514,-0.012303312309086323,-0.029065920040011406,0.0032330427784472704,-0.035055872052907944,-0.0020138993859291077,0.009959672577679157,0.026318121701478958,0.00349543709307909,0.013596925884485245,0.026181410998106003,-0.025334659963846207,-0.00876863207668066,-0.015547490678727627,-0.058293599635362625,0.006750598084181547,-0.04240639507770538,-0.013456759974360466,0.02699023112654686,-0.030311422422528267,0.003549584187567234,0.06169562786817551,-0.010886568576097488,0.022129695862531662,0.014130142517387867,-0.03279101103544235,0.017057908698916435,-0.039885297417640686,-0.06245048716664314,0.026644079014658928,0.012953976169228554,-0.0035734011325985193,0.017049971967935562,-0.013035603798925877,0.02225271239876747,0.026009639725089073,-0.015310191549360752,-0.022916501387953758,0.02576494961977005,0.02609928883612156,0.023471299558877945,0.0059014493599534035,-0.023173490539193153,0.0036531107034534216,-0.0027732104063034058,-0.04246821999549866,-0.058858368545770645,-0.01541990041732788,0.014529875479638577,-0.004717734642326832,-0.008360842242836952,-0.05562550574541092,-0.06927289813756943,0.021382678300142288,-0.012275998480618,0.04670223221182823,-0.06581450253725052,0.01808081567287445,0.003659469773992896,0.0314481295645237,0.05176446959376335,0.02076060324907303,0.014956504106521606,-0.012765790335834026,-0.050374168902635574,-0.0035148842725902796,0.001671038568019867,-0.0023537310771644115,0.01409629825502634,-0.04143776372075081,-0.028224507346749306,-0.015134170651435852,-0.003352342639118433,-0.028894130140542984,0.01441862527281046,-0.024351129308342934,0.02643491141498089,0.022930298000574112,0.009548070840537548,-0.011013866402208805,0.04449060931801796,0.034980352967977524,-0.024833574891090393,0.08305169641971588,0.0047033363953232765,0.019960666075348854,0.03453703597187996,0.009230896830558777,-0.03469548001885414,0.03908759728074074,-0.058401379734277725,0.05276663973927498,-0.048753201961517334,0.01903616078197956,-0.008764232508838177,-0.0026531219482421875,0.006332857068628073,0.050526659935712814,-0.03225566819310188,-0.06950541585683823,-0.051269400864839554,0.011865085922181606,-0.0037585000973194838,-0.0028321007266640663,-0.007134912069886923,0.011271056719124317,-0.06459812074899673,0.008576107211411,0.04693267121911049,-0.009603454731404781,-0.006512665189802647,-0.012489653192460537,-0.022995760664343834,-0.08974993973970413,0.037007901817560196,-0.08740545064210892,-0.017580978572368622,-0.032479267567396164,-0.03424810245633125,0.08413030207157135,0.010486791841685772,-0.004630386829376221,-0.01002295408397913,-0.07687440514564514,0.02104003168642521,-0.023216789588332176,0.011706584133207798,-0.014192276634275913,-0.0023980734404176474,-0.0038734881673008204,0.03433220833539963,0.0553225502371788,0.012607195414602757,0.028681257739663124,-0.015474793501198292,-0.008793307468295097,-0.010486849583685398,-0.011233753524720669,-0.025643445551395416,0.006427351851016283,-0.0018051037332043052,-7.824724161764607e-05,-0.03225494176149368
Pulli,0.12952372431755066,-0.0771561712026596,-0.0432201586663723,0.070450060069561,0.033361129462718964,-0.09297509491443634,-0.07429973036050797,0.05726334825158119,-0.021345105022192,0.044148705899715424,-0.008176549337804317,0.03511783108115196,0.1397932767868042,-0.013493563048541546,0.034775279462337494,0.022377971559762955,0.05172640085220337,-0.053074270486831665,-0.01954430527985096,-0.04306760057806969,0.0091331135481596,0.008530877530574799,-0.0032444545067846775,0.06301414221525192,-0.04166701063513756,0.09422269463539124,0.029374657198786736,-0.040606141090393066,0.06015229970216751,-0.010952301323413849,-0.06778628379106522,0.0439278781414032,-0.010319124907255173,0.027820751070976257,0.03785141929984093,-0.13857939839363098,-0.08049923181533813,0.05323360487818718,-0.012232565321028233,0.024536699056625366,-0.09662473201751709,0.03092551976442337,-0.016003882512450218,0.055414751172065735,-0.022951025515794754,0.2883296012878418,-0.03074146807193756,0.010447914712131023,0.01173629704862833,-0.03187837079167366,0.0363784059882164,-0.048503171652555466,0.06314682215452194,0.053667571395635605,-0.008274959400296211,-0.029184304177761078,-0.005295831710100174,-0.05866444110870361,0.05150287598371506,-0.03756081312894821,-0.0454428568482399,0.08973367512226105,0.12449172139167786,0.019818827509880066,0.04640469327569008,-0.007617962546646595,0.10144530236721039,-0.014758974313735962,0.025303537026047707,0.07292908430099487,0.03245142474770546,-0.08782754838466644,0.009979959577322006,-0.055486902594566345,0.023148518055677414,0.12713687121868134,-0.07473928481340408,0.02788976952433586,0.10909093916416168,-0.0006470498628914356,0.09608352929353714,0.0107977744191885,0.018217138946056366,0.04072920233011246,0.0013991491869091988,0.046883150935173035,0.009333115071058273,0.07344462722539902,0.054233990609645844,-0.05175616592168808,0.03028142638504505,0.05646256357431412,0.1305919736623764,0.029167238622903824,-0.0015845280140638351,0.07067128270864487,0.02107929438352585,-0.03729679435491562,-0.008212924003601074,0.013451147824525833,-0.031932488083839417,-0.022031476721167564,-0.0020821457728743553,-0.04676472768187523,0.11209657788276672,-0.03407561406493187,0.05203026160597801,-0.019843976944684982,-0.056734319776296616,-0.04397193342447281,0.05327431112527847,0.09030836075544357,0.04186075180768967,0.03192051872611046,0.028692349791526794,-0.0571923591196537,0.013411778956651688,-0.1348133236169815,0.0347902849316597,-0.0247251708060503,-0.04875529929995537,0.0027453824877738953,0.03261658549308777,-0.053716156631708145,0.021343912929296494,0.030998624861240387,0.006193462759256363,0.005408171564340591,-0.06296228617429733,0.0939708799123764,-0.129941925406456,0.19737565517425537,-0.030561937019228935,0.004118842072784901,-0.011181466281414032,0.07228498160839081,0.07074027508497238,0.08911120891571045,-0.03790169954299927,-0.08628696203231812,-0.02472415566444397,-0.022763561457395554,0.11312033236026764,-0.062484558671712875,-0.036899931728839874,0.0797242820262909,-0.11945178359746933,0.098316490650177,0.04809023067355156,-0.08310385048389435,0.019000060856342316,0.14611859619617462,-0.10010328143835068,-0.018099799752235413,0.1054060086607933,0.1241966113448143,0.005417950451374054,-0.07854492962360382,0.0056861694902181625,-0.1663707196712494,-0.017491355538368225,-0.04631512984633446,0.025925152003765106,-0.07094505429267883,0.05222835764288902,0.07953774929046631,0.039612993597984314,0.08488967269659042,-0.0255296528339386,0.03595448657870293,-0.14659857749938965,-0.12393128871917725,-0.01464739628136158,-0.03506000339984894,0.10291524976491928,0.08362334966659546,0.02717556059360504,-0.049439363181591034,0.07970736175775528,0.01385551504790783,0.032053057104349136,0.027982603758573532,0.02406623400747776,-0.042843762785196304,-0.052644651383161545,-0.022576503455638885,0.10709428787231445,0.025474131107330322,-0.08598272502422333,0.03310277312994003,-0.05641714483499527,0.0565236359834671,0.03177765756845474,0.011171761900186539,-0.15217655897140503,0.07416720688343048,0.03372000530362129,0.05515620857477188,0.036662377417087555,-0.08078467845916748,0.03275594487786293,-0.08878861367702484,0.055937133729457855,-0.03697457164525986,0.025559166446328163,0.02547827735543251,-0.013354804366827011,-0.06124626472592354,-0.041267652064561844,-0.060934145003557205,0.05666643753647804,-0.026301158592104912,0.004973488859832287,-0.10471796989440918,0.10258902609348297,-0.05462140962481499,-0.02168728969991207,0.08201849460601807,0.038953766226768494,0.06959594786167145,0.00023022759705781937,-0.0191982239484787,0.027492888271808624,0.00031457189470529556,-0.018847305327653885,0.11779791116714478,-0.1098584532737732,-0.08262597024440765,-0.0645296648144722,-0.0606350414454937,0.049653299152851105,-0.08494210988283157,-0.17140577733516693,0.048430707305669785,0.003318888833746314,0.06731563806533813,-0.0819585770368576,0.04840938001871109,0.060603708028793335,-0.05276639759540558,0.1617257446050644,0.06381481885910034,0.05681866779923439,-0.0048211729153990746,0.025925729423761368,-0.06565585732460022,0.009839962236583233,-0.09633053839206696,-0.008665231987833977,0.0038765184581279755,-0.03638345003128052,-0.05708194524049759,-0.007794598117470741,0.008796270936727524,0.13259375095367432,-0.10726140439510345,-0.0796884149312973,-0.05236316844820976,-0.0501219742000103,0.07467525452375412,-0.0027768444269895554,0.021121980622410774,0.07555700838565826,-0.10893836617469788,0.0014972183853387833,0.12988464534282684,-0.019146569073200226,-0.018789390102028847,-0.011367658153176308,-0.020767327398061752,-0.07692014425992966,0.05038025230169296,-0.1587945520877838,0.003331094980239868,0.04845643416047096,0.00024020671844482422,0.18124772608280182,-0.04348906874656677,-0.05853298306465149,-0.014049524441361427,-0.11182640492916107,0.06286651641130447,-0.029803477227687836,0.11184511333703995,0.05649062618613243,-0.03218765929341316,0.01043694093823433,0.059857629239559174,0.07105080783367157,0.04036455973982811,-0.010047275573015213,-0.09506551176309586,-0.09494559466838837,0.027706192806363106,0.020953331142663956,0.06339116394519806,0.034727051854133606,0.01586826890707016,-0.004180878400802612,-0.013443607836961746
Halskragenpullover,0.008872630074620247,0.009836835786700249,-0.004932434298098087,0.035430047661066055,-0.028082741424441338,-0.04309685528278351,-0.013831318356096745,0.008080100640654564,-0.0008863648399710655,0.006760110147297382,-0.016347119584679604,-0.007864220067858696,-0.013468398712575436,-0.012825265526771545,0.004091174807399511,-0.00601670378819108,0.01578741893172264,0.013392826542258263,-0.024842984974384308,-0.0025679022073745728,0.0008491489570587873,0.002382483799010515,0.0025137935299426317,-0.004441232420504093,0.021772587671875954,0.019630063325166702,0.005238056182861328,-0.016205891966819763,0.005253386218100786,0.006730477325618267,-0.0051493048667907715,-0.03233930096030235,-0.015482413582503796,-0.017701290547847748,0.022307874634861946,0.008671009913086891,0.014501756057143211,0.004219426773488522,-0.013991034589707851,-0.02383112907409668,-0.0017069580499082804,0.013216568157076836,-0.014125443063676357,0.0234967190772295,-0.01889796368777752,-0.00029334239661693573,0.0003601084463298321,-0.027285175397992134,-0.015406573191285133,-0.005385627970099449,0.013691107742488384,0.009920927695930004,-0.0019422946497797966,0.01651221700012684,0.024160578846931458,-0.009985176846385002,0.01715465635061264,-0.0016947397962212563,-0.00817897915840149,-0.04019661992788315,-0.014187261462211609,0.016746308654546738,0.0372418612241745,0.0165699552744627,0.012734033167362213,-0.007644671015441418,0.024936340749263763,-0.026404613628983498,-0.00253773620352149,0.000992236309684813,0.01779724471271038,-0.02018536627292633,0.00794043205678463,0.021829336881637573,0.005731350742280483,0.0037748811300843954,0.009171654470264912,0.013128679245710373,0.009730271063745022,0.009060446172952652,0.013170146383345127,-0.0018627048702910542,-0.017833920195698738,-0.014689769595861435,-0.0023633840028196573,0.02732984907925129,-0.0038661968428641558,-0.000219348119571805,0.010138232260942459,-0.006310502998530865,0.028996745124459267,0.0025720279663801193,0.02494577318429947,0.007376590743660927,0.02777133323252201,0.0013576089404523373,0.014408767223358154,-0.008901726454496384,-0.007665339391678572,0.003630971536040306,-0.02149851806461811,-0.0020357989706099033,-0.01018043328076601,0.0021623889915645123,0.013183162547647953,-0.0239715576171875,0.00964479148387909,0.0318564809858799,-0.02520143799483776,-0.012658288702368736,0.034318555146455765,0.0011509634787216783,0.008043528534471989,0.0021001934073865414,-0.012865826487541199,0.00373288057744503,-0.0011271674884483218,-0.015987377613782883,-0.005447268020361662,-0.013942189514636993,-0.03734831511974335,-0.004836812615394592,0.007408834993839264,0.01650746911764145,-0.004888880532234907,0.0108632268384099,-0.040523067116737366,0.0033764499239623547,0.0014735186705365777,-0.0031805764883756638,-0.025652609765529633,0.06079329550266266,-0.01211298257112503,0.01353647280484438,-0.011290824972093105,0.003371036145836115,0.006663662381470203,-0.008396318182349205,-0.013431097380816936,-0.0270890761166811,-0.010183801874518394,-0.00246279570274055,0.057489484548568726,-0.022517187520861626,-0.012971283867955208,-0.0010928427800536156,-0.000742447329685092,0.027818962931632996,0.012355895712971687,-0.013877365738153458,0.010397551581263542,0.046646393835544586,-0.008675931952893734,0.005807951092720032,0.006544174626469612,0.012849602848291397,0.009159705601632595,-0.035090088844299316,-0.012470876798033714,-0.019201721996068954,-0.003775151912122965,0.012686198577284813,-0.0029235670808702707,-0.01917409896850586,-0.008648118004202843,0.007835580967366695,-0.008376422338187695,-0.02052384428679943,-0.011536180973052979,0.03274071589112282,0.015419382601976395,-0.016381286084651947,0.008647799491882324,-0.004297548905014992,0.023316320031881332,0.03867728263139725,0.0031905374489724636,-0.011571724899113178,0.014373518526554108,0.01350588072091341,5.935528315603733e-05,-0.0030295788310468197,-0.010095063596963882,-0.022264068946242332,0.004701999016106129,-0.020204385742545128,0.02136456035077572,-0.012761672958731651,-0.0193176306784153,0.009882516227662563,-0.020342323929071426,0.03774770721793175,0.0030931734945625067,-0.017991045489907265,-0.030301721766591072,0.03008163720369339,0.002093179151415825,0.013901778496801853,0.0023316603619605303,-0.026933614164590836,0.005831546150147915,0.0014709485694766045,-0.0029471307061612606,-0.018100304529070854,-0.0032173204235732555,0.0007540055667050183,-0.013396893627941608,-0.02590089663863182,-0.022080080583691597,0.012521378695964813,-0.012457030825316906,-0.0008447625441476703,-0.0013318511191755533,0.015295367687940598,0.006242839619517326,-0.025200171396136284,0.003418511478230357,0.010864033363759518,-0.019650820642709732,-0.014072827063500881,0.002139198360964656,-0.020198963582515717,-0.011714572086930275,-0.023898998275399208,-0.005535474978387356,-0.0007984035182744265,-0.009566483087837696,0.008694694377481937,-0.0004441399360075593,-0.007107947021722794,0.013058582320809364,-0.014554476365447044,-0.016812153160572052,0.03524427115917206,-0.019942957907915115,0.0015066377818584442,-0.0015324144624173641,0.012582977302372456,0.021379614248871803,-0.012996338307857513,0.0074453204870224,0.011669347994029522,0.021141275763511658,-0.00022764294408261776,-0.0002956623211503029,-0.006113855168223381,0.01963307149708271,-0.007036163937300444,0.010980426333844662,-0.025373421609401703,0.01047727931290865,-0.0003076579887419939,0.005957806948572397,-0.0032168978359550238,0.018976641818881035,-0.0004029703268315643,-0.00854284968227148,0.008908120915293694,0.017618199810385704,-0.00505843386054039,0.0006548513192683458,-0.011610396206378937,0.00731185358017683,-0.013887452892959118,0.005700611509382725,0.007063084747642279,-0.014259192161262035,0.021006261929869652,0.01183464378118515,0.009538788348436356,-0.00501664774492383,0.01021452248096466,-0.064214788377285,-0.018936149775981903,0.012791784480214119,-0.004997630137950182,0.01193587202578783,0.010020123794674873,0.005774675402790308,-0.02010348252952099,-0.022816698998212814,0.02199402265250683,-0.05763154849410057,0.015920696780085564,-0.0040369052439928055,0.016649965196847916,-0.005602929275482893,0.019439613446593285,0.011227993294596672,-0.0009173168800771236,0.025569593533873558,-0.006293754559010267,0.0016826987266540527,6.216939073055983e-05,-0.0034874659031629562,0.013168465346097946,0.00685957632958889,-0.01052605640143156,-0.014110145159065723,0.012312211096286774
Hemd,-0.00528939813375473,0.07826389372348785,-0.09258958697319031,0.14450129866600037,0.12303768843412399,-0.023583274334669113,0.07968304306268692,0.01869165152311325,0.015863630920648575,0.1332181692123413,0.008128361776471138,-0.07285530865192413,0.09914805740118027,-0.016289686784148216,0.00580945611000061,-0.043291352689266205,0.17219898104667664,-0.136540949344635,0.08112775534391403,-0.10289140790700912,-0.02347029373049736,0.06430695950984955,0.03987199813127518,-0.012217763811349869,0.01785610429942608,0.07346861809492111,-0.02219153754413128,-0.043495140969753265,0.10384231805801392,-0.0047785816714167595,-0.04246313497424126,-0.039638325572013855,-0.04858512803912163,-0.011485466733574867,0.02614547312259674,-0.02218525856733322,0.021152447909116745,0.03234441578388214,0.09655549377202988,-0.08011341840028763,0.030631009489297867,0.11936663836240768,-0.029001891613006592,0.02083594910800457,0.04013458639383316,0.15222525596618652,0.08255162835121155,0.06931684166193008,-0.0022108580451458693,0.06007787585258484,0.1598326414823532,-0.0022447085939347744,0.10109619796276093,0.04367121309041977,0.028698526322841644,-0.20638762414455414,0.04796190187335014,-0.10865285247564316,0.027301520109176636,0.011608119122684002,-0.03509850427508354,-0.042467355728149414,0.1841059923171997,0.05105157941579819,0.15459075570106506,0.0001693318336037919,0.1246570497751236,-0.028324931859970093,-0.005052410066127777,0.06730706989765167,-0.00683404877781868,-0.07765188068151474,0.06366533786058426,0.0769546777009964,0.11894458532333374,0.042280398309230804,0.01797192543745041,0.016293512657284737,0.05262094736099243,-0.05419537052512169,0.025275200605392456,0.00785225909203291,-0.02275579795241356,0.02913503348827362,0.06442572921514511,0.07819433510303497,0.015678217634558678,0.07205405831336975,0.0022135141771286726,0.045411448925733566,0.06684304773807526,0.06506848335266113,0.1780632734298706,0.062300633639097214,0.12843245267868042,0.015492958948016167,-0.06918264180421829,-0.07594393938779831,-0.2570728063583374,-0.013915996067225933,-0.027824703603982925,0.018356887623667717,0.0401577353477478,-0.07255072891712189,0.15878421068191528,0.08802064508199692,0.07296670228242874,0.02879995107650757,-0.0011945366859436035,-0.19018760323524475,0.14016926288604736,0.014439528807997704,-0.048467181622982025,0.13281473517417908,0.04803188890218735,0.0223031397908926,0.0410211980342865,-0.2853126525878906,-0.01836998760700226,-0.04106868803501129,-0.15191857516765594,0.006814467720687389,-0.08091826736927032,-0.020896872505545616,0.15209877490997314,-0.08567791432142258,-0.08404876291751862,0.0004923585802316666,-0.07046376168727875,-0.0076708546839654446,0.12571083009243011,0.13385009765625,-0.07110567390918732,0.09987494349479675,0.00555260619148612,0.040307845920324326,0.07102140784263611,0.09987843036651611,0.03555312752723694,-0.0628712922334671,0.011786471121013165,-0.08998077362775803,0.14896677434444427,-0.1749551147222519,-0.056652408093214035,-0.04369884729385376,-0.05095870420336723,0.2036319375038147,0.07568828761577606,-0.08040865510702133,0.027626996859908104,0.16547054052352905,-0.14549943804740906,0.05399696156382561,-0.008094626478850842,0.19243395328521729,0.09557230770587921,-0.15073907375335693,0.05979890748858452,-0.15584000945091248,0.015286099165678024,-0.014394400641322136,0.03675408288836479,-0.13159918785095215,0.02932335063815117,0.03611748665571213,0.07974505424499512,0.03487985208630562,-0.02325817011296749,0.06928257644176483,-0.04798926040530205,-0.09761478751897812,0.0996740385890007,-0.04415149614214897,-0.004856638144701719,0.06201274320483208,0.02414599433541298,-0.0008165339822880924,0.018797487020492554,-0.0443832129240036,0.02300620824098587,-0.006646707653999329,0.034649789333343506,0.002469785511493683,-0.1878805160522461,-0.04101108759641647,0.07243090122938156,0.09894031286239624,-0.0003559912438504398,0.11467652022838593,-0.021186282858252525,0.08110523223876953,0.012887719087302685,-0.0665183812379837,-0.1674768328666687,0.12007986009120941,0.10200944542884827,0.04165751859545708,0.033752359449863434,-0.13846372067928314,0.08951815962791443,-0.02456841431558132,0.024292176589369774,-0.01717889867722988,0.004570026881992817,0.09267129004001617,-0.20252200961112976,-0.06548477709293365,-0.060921236872673035,0.022329790517687798,0.20080028474330902,-0.0095365634188056,-0.0530172660946846,-0.09534641355276108,0.13852372765541077,-0.029554009437561035,-0.050270941108465195,0.10736223310232162,-0.01006054412573576,0.13183173537254333,0.018700646236538887,-0.15334440767765045,-0.027673527598381042,-0.07862138003110886,0.024385636672377586,0.025947218760848045,-0.1571638584136963,-0.0245630145072937,-0.19326257705688477,0.010631948709487915,0.02493354305624962,0.08409269154071808,-0.06303341686725616,0.13201479613780975,-0.04019823670387268,0.01776823215186596,-0.08888928592205048,0.023930374532938004,0.028086533769965172,-0.08928021043539047,0.1087929829955101,-0.0033996356651186943,0.06128823757171631,-0.009679879993200302,0.08587050437927246,0.04588291049003601,0.007382833398878574,-0.04257194325327873,0.007018800359219313,-0.16727674007415771,-0.012028905563056469,0.07719963043928146,0.06680163741111755,0.11800947040319443,0.06728267669677734,-0.09131145477294922,-0.15732839703559875,-0.04714775085449219,-0.07624972611665726,0.10043220221996307,0.019028179347515106,-0.0871681198477745,0.06881272792816162,-0.1692257821559906,-0.0060064843855798244,0.17780224978923798,-0.017306501045823097,-0.0006931349635124207,-0.09671207517385483,-0.0022373597603291273,-0.1258702576160431,0.02873791567981243,-0.17368875443935394,0.021516991779208183,0.007187811192125082,-0.026400422677397728,0.19830624759197235,-0.10493778437376022,-0.22002002596855164,-0.08770297467708588,-0.14737501740455627,0.09351955354213715,-0.08248728513717651,0.1717177927494049,-0.012101388536393642,0.08058997243642807,-0.010468840599060059,0.05128025263547897,0.0844162330031395,0.016828030347824097,0.09748002886772156,-0.09324456751346588,0.03189863637089729,-0.05814854055643082,-0.04032892733812332,0.06742732971906662,0.043465446680784225,0.019266266375780106,-0.025633692741394043,-0.02408362552523613
