Token,Dim_0,Dim_1,Dim_2,Dim_3,Dim_4,Dim_5,Dim_6,Dim_7,Dim_8,Dim_9,Dim_10,Dim_11,Dim_12,Dim_13,Dim_14,Dim_15,Dim_16,Dim_17,Dim_18,Dim_19,Dim_20,Dim_21,Dim_22,Dim_23,Dim_24,Dim_25,Dim_26,Dim_27,Dim_28,Dim_29,Dim_30,Dim_31,Dim_32,Dim_33,Dim_34,Dim_35,Dim_36,Dim_37,Dim_38,Dim_39,Dim_40,Dim_41,Dim_42,Dim_43,Dim_44,Dim_45,Dim_46,Dim_47,Dim_48,Dim_49,Dim_50,Dim_51,Dim_52,Dim_53,Dim_54,Dim_55,Dim_56,Dim_57,Dim_58,Dim_59,Dim_60,Dim_61,Dim_62,Dim_63,Dim_64,Dim_65,Dim_66,Dim_67,Dim_68,Dim_69,Dim_70,Dim_71,Dim_72,Dim_73,Dim_74,Dim_75,Dim_76,Dim_77,Dim_78,Dim_79,Dim_80,Dim_81,Dim_82,Dim_83,Dim_84,Dim_85,Dim_86,Dim_87,Dim_88,Dim_89,Dim_90,Dim_91,Dim_92,Dim_93,Dim_94,Dim_95,Dim_96,Dim_97,Dim_98,Dim_99,Dim_100,Dim_101,Dim_102,Dim_103,Dim_104,Dim_105,Dim_106,Dim_107,Dim_108,Dim_109,Dim_110,Dim_111,Dim_112,Dim_113,Dim_114,Dim_115,Dim_116,Dim_117,Dim_118,Dim_119,Dim_120,Dim_121,Dim_122,Dim_123,Dim_124,Dim_125,Dim_126,Dim_127,Dim_128,Dim_129,Dim_130,Dim_131,Dim_132,Dim_133,Dim_134,Dim_135,Dim_136,Dim_137,Dim_138,Dim_139,Dim_140,Dim_141,Dim_142,Dim_143,Dim_144,Dim_145,Dim_146,Dim_147,Dim_148,Dim_149,Dim_150,Dim_151,Dim_152,Dim_153,Dim_154,Dim_155,Dim_156,Dim_157,Dim_158,Dim_159,Dim_160,Dim_161,Dim_162,Dim_163,Dim_164,Dim_165,Dim_166,Dim_167,Dim_168,Dim_169,Dim_170,Dim_171,Dim_172,Dim_173,Dim_174,Dim_175,Dim_176,Dim_177,Dim_178,Dim_179,Dim_180,Dim_181,Dim_182,Dim_183,Dim_184,Dim_185,Dim_186,Dim_187,Dim_188,Dim_189,Dim_190,Dim_191,Dim_192,Dim_193,Dim_194,Dim_195,Dim_196,Dim_197,Dim_198,Dim_199,Dim_200,Dim_201,Dim_202,Dim_203,Dim_204,Dim_205,Dim_206,Dim_207,Dim_208,Dim_209,Dim_210,Dim_211,Dim_212,Dim_213,Dim_214,Dim_215,Dim_216,Dim_217,Dim_218,Dim_219,Dim_220,Dim_221,Dim_222,Dim_223,Dim_224,Dim_225,Dim_226,Dim_227,Dim_228,Dim_229,Dim_230,Dim_231,Dim_232,Dim_233,Dim_234,Dim_235,Dim_236,Dim_237,Dim_238,Dim_239,Dim_240,Dim_241,Dim_242,Dim_243,Dim_244,Dim_245,Dim_246,Dim_247,Dim_248,Dim_249,Dim_250,Dim_251,Dim_252,Dim_253,Dim_254,Dim_255,Dim_256,Dim_257,Dim_258,Dim_259,Dim_260,Dim_261,Dim_262,Dim_263,Dim_264,Dim_265,Dim_266,Dim_267,Dim_268,Dim_269,Dim_270,Dim_271,Dim_272,Dim_273,Dim_274,Dim_275,Dim_276,Dim_277,Dim_278,Dim_279,Dim_280,Dim_281,Dim_282,Dim_283,Dim_284,Dim_285,Dim_286,Dim_287,Dim_288,Dim_289,Dim_290,Dim_291,Dim_292,Dim_293,Dim_294,Dim_295,Dim_296,Dim_297,Dim_298,Dim_299
Hund,-0.07410135865211487,0.09907209873199463,-0.10556643456220627,0.1837628185749054,-0.061642907559871674,-0.12635093927383423,-0.025588829070329666,-0.04366321489214897,-0.04197010025382042,-0.050117041915655136,0.024969853460788727,0.0885152742266655,0.021498877555131912,0.10730677098035812,0.02342398092150688,-0.037976715713739395,0.03943308815360069,-0.04085855185985565,-0.1388876736164093,-0.11393384635448456,-0.04762693867087364,-0.1157858669757843,0.029501456767320633,0.015516440384089947,-0.03629031032323837,0.06931672245264053,0.0688035786151886,0.18197056651115417,-0.09245936572551727,-0.06751503795385361,-0.07220219075679779,-0.042553290724754333,-0.05452552065253258,-0.0012408643960952759,0.1373179703950882,0.11888770759105682,0.0021896660327911377,-0.032087571918964386,0.08763828128576279,-0.07434970140457153,0.04946549981832504,0.0993751809000969,0.0031608480494469404,0.011447638273239136,-0.03085254691541195,0.11960099637508392,-0.12446856498718262,0.00972253642976284,-0.014382327906787395,-0.019436588510870934,-0.0007389336824417114,0.059661298990249634,0.07859575748443604,0.04080343246459961,-0.00731184845790267,-0.03180525451898575,0.0777246356010437,0.010849285870790482,-0.01395198330283165,-0.04200180992484093,-0.05518461763858795,0.02352086827158928,0.08943508565425873,0.09350231289863586,0.015030702576041222,-0.09460914134979248,0.11482715606689453,-0.07190223038196564,0.10840001702308655,0.037327636033296585,0.0094247255474329,-0.09115162491798401,-0.14515213668346405,-0.0357617549598217,0.0149395652115345,-0.06999035179615021,0.03632417693734169,-0.0780760794878006,-0.010601148009300232,-0.04638909548521042,-0.17206971347332,-0.057483404874801636,-0.16266916692256927,0.08064131438732147,-0.09970953315496445,0.04222998023033142,0.04393555968999863,-0.04081685096025467,0.0019025129731744528,0.16784796118736267,0.06327979266643524,0.027100777253508568,-0.006311399396508932,0.0892675444483757,-0.019412800669670105,0.06356547772884369,0.10956543684005737,0.10676946491003036,-0.028402825817465782,0.04092932492494583,-0.10722249001264572,-0.11724703013896942,0.03854560852050781,-0.0516490712761879,0.09965088218450546,-0.04980111122131348,0.15292873978614807,-0.0012561207404360175,-0.13406255841255188,-0.19780486822128296,0.024871204048395157,0.016686242073774338,0.05602755770087242,0.046111032366752625,0.09569261968135834,-0.11131025850772858,0.09721459448337555,-0.16589650511741638,-0.03566563501954079,-0.0868835374712944,-0.026177024468779564,0.01360310148447752,0.07528024166822433,-0.06470950692892075,0.11137807369232178,0.07628494501113892,0.057055599987506866,-0.04128299653530121,0.03770770877599716,-0.012717898003757,-0.18517589569091797,0.20823818445205688,-0.048383407294750214,-0.013001198880374432,0.0698571503162384,-0.009119193069636822,0.144206702709198,0.12754470109939575,0.013527406379580498,-0.03626807779073715,0.050889428704977036,-0.05771059915423393,0.08152704685926437,-0.05255597084760666,-0.015449166297912598,-0.05657094717025757,0.07438444346189499,0.043220214545726776,-0.04501492530107498,0.04249882698059082,-0.09804096817970276,0.21828296780586243,-0.07786044478416443,0.012472915463149548,-0.01665184274315834,0.1379861831665039,0.1539439558982849,-0.006843852810561657,0.09718149155378342,-0.1742166131734848,-0.0957673043012619,0.019652297720313072,0.027363505214452744,0.08223628997802734,0.1110687181353569,0.07388540357351303,0.03321047127246857,0.052148979157209396,-0.02366519533097744,-0.010027311742305756,-0.15454469621181488,-0.035849642008543015,-0.036052875220775604,0.11291234195232391,0.02013295702636242,0.05463768169283867,0.11074648797512054,-0.044037654995918274,0.010780423879623413,0.17504915595054626,0.023468775674700737,-0.00034984078956767917,-0.00242467038333416,-0.05379399657249451,-0.04963959380984306,-0.03217035159468651,0.0701555609703064,-0.016242966055870056,0.0949242115020752,-0.03466334939002991,-0.0407295823097229,-0.03320494294166565,-0.13311897218227386,0.040726713836193085,0.11409221589565277,0.09866714477539062,0.031607065349817276,-0.09490480273962021,0.043911732733249664,0.014664700254797935,0.10031908005475998,-0.08075729012489319,0.22939643263816833,0.014688747934997082,0.05501425266265869,-0.07369200885295868,0.08832384645938873,0.05718358978629112,-0.012647135183215141,0.0016770338406786323,0.019822675734758377,-0.06636899709701538,0.015259615145623684,-0.07397544384002686,0.12601551413536072,-0.014395776204764843,-0.04928440600633621,0.05764452740550041,-0.02669498324394226,0.02532673254609108,0.02221715822815895,0.04139448702335358,0.04030629247426987,0.14154306054115295,0.052698682993650436,0.035964272916316986,-0.0465068519115448,0.06633158028125763,0.04779624938964844,-0.06609908491373062,0.10496668517589569,-0.12824603915214539,-0.1240752786397934,0.05282953009009361,0.11745446175336838,0.0004828336532227695,-0.007355575915426016,0.05563129112124443,0.08013059198856354,0.1451149880886078,0.18133358657360077,0.10957328975200653,0.031915899366140366,-0.07108738273382187,0.0556749552488327,0.08980125188827515,0.0178099125623703,-0.07427281141281128,-0.04267418384552002,0.029861969873309135,-0.027901392430067062,-0.026726409792900085,0.06720319390296936,-0.01854034885764122,0.019316967576742172,0.02419152483344078,0.03210115432739258,-0.06125938892364502,-0.034292176365852356,-0.0166579969227314,-0.05019586905837059,-0.1029818207025528,0.07845379412174225,-0.049049779772758484,0.04561400040984154,0.11819654703140259,-0.024752436205744743,0.07535246014595032,-0.07985113561153412,0.012069652788341045,0.045756008476018906,-0.031104054301977158,-0.17943792045116425,-0.08589406311511993,0.11283060908317566,0.03456934541463852,0.18584540486335754,0.1268560290336609,-0.0967356264591217,0.025853335857391357,-0.13821345567703247,0.025237303227186203,-0.029728397727012634,0.028451820835471153,-0.04646734520792961,0.037341129034757614,0.08137374371290207,-4.143516343901865e-05,-0.014515286311507225,0.15033838152885437,0.019499145448207855,-0.05759511888027191,0.01711813174188137,-0.08376865833997726,-0.016670620068907738,-0.026038330048322678,0.1382494866847992,-0.12936699390411377,0.007325890474021435,-0.03147352486848831
Katze,0.007056578062474728,0.03665943071246147,-0.049042508006095886,0.03038029372692108,-0.052160993218421936,0.07476058602333069,0.04375603795051575,-0.057667698711156845,-0.005986448377370834,0.009541817009449005,-0.02619466744363308,0.031059563159942627,-0.0019328119233250618,0.04072258248925209,0.054092951118946075,0.01081038173288107,0.024097232148051262,0.03717486187815666,-0.12060857564210892,-0.04739867150783539,0.008458996191620827,-0.03755536302924156,0.03592665120959282,0.01946772262454033,-0.0927562490105629,0.020644502714276314,-0.003703273832798004,0.08105088025331497,-0.021666422486305237,-0.06563529372215271,-0.03829050064086914,-0.029208028689026833,0.012387426570057869,0.010382949374616146,0.10285275429487228,0.07828199118375778,-0.056799113750457764,-0.005139241926372051,0.07510852813720703,-0.04531677067279816,0.0341360941529274,0.11717833578586578,-0.020077574998140335,-0.014222675934433937,-0.013686311431229115,0.035659387707710266,-0.11995325982570648,-0.02272389829158783,0.022914165630936623,-0.028154905885457993,-0.020965788513422012,-0.010289129801094532,-0.011713827028870583,0.056343790143728256,-0.014420948922634125,-0.02910703979432583,-0.03573475405573845,-0.0654539167881012,0.003908924758434296,-0.028800783678889275,-0.0152300875633955,0.01006211806088686,0.030272377654910088,0.148003950715065,-0.0511351153254509,-0.013661105185747147,0.08976879715919495,-0.0453578419983387,0.03976588696241379,0.016816964372992516,0.05233503133058548,-0.07541899383068085,-0.05674038082361221,0.005284419283270836,-0.0026526600122451782,-0.07515595853328705,0.10170211642980576,0.02158847264945507,-0.03957824036478996,-0.01172987837344408,-0.06204251945018768,-0.023311123251914978,-0.12051296979188919,0.03875609487295151,-0.0032027587294578552,0.02558622695505619,-0.04833636432886124,-0.006446246989071369,-0.0015398291870951653,0.09709201008081436,0.09339132159948349,0.036388833075761795,0.031324464827775955,0.01938367448747158,0.07824041694402695,0.036620303988456726,0.002667039632797241,0.07671657204627991,-0.039342962205410004,0.054475728422403336,-0.05832768976688385,0.023839212954044342,-0.014816309325397015,-0.06049695611000061,-0.018007438629865646,-0.08292140066623688,0.08268609642982483,0.010855508036911488,-0.10192932933568954,-0.07553981989622116,0.0038630247581750154,0.047417253255844116,-0.044461797922849655,0.016043836250901222,0.10376659780740738,-0.033780138939619064,0.10366001725196838,-0.16330434381961823,0.008665039204061031,-0.04527508094906807,-0.08671818673610687,0.026670018211007118,0.10420776158571243,-0.07227636873722076,0.06742481887340546,0.09231096506118774,0.03942599520087242,-0.09896016865968704,0.009062321856617928,-0.02274334244430065,-0.12581613659858704,0.0009505338966846466,-0.02028544247150421,0.020255086943507195,0.06491901725530624,0.010478803887963295,0.07876397669315338,0.002177789807319641,0.021035686135292053,-0.04074226692318916,0.028580721467733383,-0.030233211815357208,0.05797382444143295,-0.019328327849507332,-0.0011611776426434517,0.02869870886206627,-0.028680764138698578,0.015858778730034828,-0.021204808726906776,-0.00435576681047678,-0.04910092055797577,0.14916691184043884,0.028709974139928818,0.026732077822089195,0.04024533927440643,0.1108178049325943,0.05339152738451958,-0.06500547379255295,0.05859679728746414,-0.06654590368270874,-0.07401816546916962,-0.054346438497304916,0.05484678968787193,0.07249690592288971,0.08516506105661392,0.04122829809784889,0.0309014692902565,-0.04927894473075867,-0.004099386744201183,0.030423611402511597,-0.06291543692350388,0.03032253310084343,-0.04714081436395645,0.004728337749838829,0.08938576281070709,-0.0028953105211257935,0.03277312591671944,-0.04074299708008766,0.0262879841029644,0.10193468630313873,0.09114643931388855,0.06373779475688934,-0.07244843244552612,-0.02998066321015358,0.05648164451122284,-0.018837980926036835,0.049279119819402695,0.05479368939995766,0.03324884921312332,-0.075100377202034,-0.07131608575582504,-0.04940773919224739,-0.09981048107147217,0.08031541109085083,0.13142648339271545,0.04617924243211746,0.026528850197792053,-0.05722576379776001,0.0352584570646286,0.006135375238955021,0.07406989485025406,-0.06471745669841766,0.10190168023109436,-0.054609909653663635,0.030448608100414276,-0.0267200767993927,0.07509437203407288,0.057520534843206406,-0.030614111572504044,0.022784234955906868,0.034346193075180054,-0.07979342341423035,-0.014880993403494358,-0.05159344524145126,0.07302764803171158,-0.03754590451717377,-0.04152998700737953,-0.0019108240958303213,-0.027540916576981544,0.016344213858246803,-0.01666855625808239,0.03824261575937271,0.008702101185917854,0.07619224488735199,0.059230417013168335,-0.014040244743227959,0.02084912359714508,0.04286650940775871,0.07995452731847763,0.027720164507627487,0.06872789561748505,-0.12646080553531647,-0.08600284904241562,0.006131453439593315,0.07720519602298737,0.04404363036155701,0.021810054779052734,0.003162122331559658,0.08967844396829605,0.04723576456308365,0.1010371595621109,0.11941247433423996,0.11952422559261322,-0.0493013970553875,0.04411491006612778,0.030782518908381462,-0.0020649461075663567,-0.041795868426561356,-0.041617341339588165,-0.03469239920377731,-0.06083980202674866,-0.049359265714883804,0.060994699597358704,0.006590934470295906,0.006756959483027458,0.01526661403477192,0.0056100282818078995,-0.001668449491262436,0.07613614201545715,0.032813660800457,0.03687912970781326,-0.03864360600709915,-0.0049642231315374374,-0.04458604380488396,-0.00169326551258564,0.002088179811835289,-0.005996836349368095,-0.015570219606161118,-0.07897380739450455,0.07032424211502075,0.04168858006596565,0.03796366602182388,-0.14374688267707825,-0.046698786318302155,0.00791449099779129,-0.02077932469546795,0.13922399282455444,0.07433570921421051,-0.15944066643714905,0.04034874215722084,-0.16835007071495056,0.015152364037930965,-0.03258566930890083,-0.007451925426721573,-0.0406080037355423,0.04612036421895027,0.11862067878246307,0.012921101413667202,-0.0006053494289517403,0.055829308927059174,-0.028538525104522705,0.038116734474897385,-0.017991092056035995,0.0009591281414031982,0.09655648469924927,-0.04608829319477081,0.11472737044095993,-0.0915653258562088,0.006660029292106628,-0.05964460223913193
Maus,-0.06899736076593399,-0.06120838224887848,0.003501805244013667,-0.0626031681895256,-0.10523133724927902,0.11021912097930908,-0.12855172157287598,0.10965101420879364,0.05917563661932945,0.014640619978308678,0.05765218660235405,0.0016586880665272474,0.007529260125011206,-0.016518237069249153,-0.0668482854962349,-0.08286823332309723,0.07623228430747986,0.20929042994976044,-0.02207285910844803,-0.0836709663271904,-0.08622481673955917,-0.010433606803417206,0.14309649169445038,0.028137531131505966,-0.07477755099534988,-0.09495764970779419,0.015285748988389969,0.005764702335000038,0.046452756971120834,-0.11467273533344269,-0.026706792414188385,-0.1107838973402977,-0.10069996118545532,-0.0015149296959862113,0.035863686352968216,0.01490638218820095,-0.0909368097782135,0.10610269010066986,0.07538585364818573,-0.010621732100844383,-0.00224095955491066,0.09902363270521164,-0.004349165596067905,-0.08157220482826233,-0.03160940110683441,0.16304607689380646,0.0021229772828519344,0.008144418708980083,0.009598971344530582,-0.031091943383216858,0.08878984302282333,-0.024322135373950005,0.042453642934560776,-5.144129318068735e-05,-0.029048316180706024,-0.06595426797866821,-0.16010984778404236,-0.018409648910164833,-0.01937534287571907,-0.06194978579878807,-0.11569291353225708,-0.1203530952334404,0.030961789190769196,0.0360184982419014,-0.01400068961083889,-0.0036311920266598463,0.07544561475515366,0.03814516216516495,0.08870556205511093,-0.12401054799556732,0.11508689820766449,-0.12204738706350327,0.0022972128354012966,0.1003413051366806,-0.0584460124373436,0.04150606691837311,0.06351194530725479,0.06731486320495605,0.0012602260103449225,0.05386422201991081,0.014035731554031372,-0.0516013577580452,-0.07836557924747467,0.05791345238685608,-0.04449525102972984,0.0938463807106018,0.1277121603488922,0.026054639369249344,-0.008910568431019783,0.010344423353672028,0.09764057397842407,0.07089666277170181,-0.008813204243779182,-0.04578118771314621,0.10234799236059189,0.04981892555952072,0.03114572912454605,-0.006308776792138815,-0.03502491116523743,0.07320231199264526,-0.07597153633832932,0.12265671789646149,-0.003484555287286639,-0.02300630323588848,0.03713897615671158,-0.06228908896446228,0.015590581111609936,0.14893212914466858,-0.04718655347824097,-0.02876165509223938,-0.09953002631664276,-0.07491476833820343,-0.0038465734105557203,0.030401086434721947,0.0768226608633995,-0.10686691850423813,-0.016546277329325676,-0.16972634196281433,0.05480698496103287,-0.06580999493598938,-0.12163722515106201,-0.01671535335481167,0.0883813351392746,-0.12304612249135971,0.009551058523356915,0.11776977777481079,-0.04030836746096611,-0.10695796459913254,-0.004824272822588682,0.09689193964004517,-0.11227067559957504,0.028618989512324333,-0.07401293516159058,0.08977705240249634,0.1755642145872116,0.14655354619026184,0.09042368829250336,-0.005183185916393995,0.0690118819475174,0.059033267199993134,-0.027062898501753807,-0.019019458442926407,-0.14848047494888306,0.034132447093725204,-0.08048219978809357,-0.045419126749038696,0.04282955452799797,0.13687549531459808,0.016231980174779892,-0.04412634298205376,0.04487285017967224,0.17400847375392914,-0.027160286903381348,0.03830289840698242,-0.07165504992008209,0.11932563036680222,-0.051312681287527084,-0.09698721766471863,0.06175119802355766,-0.08210545033216476,-0.1596587896347046,-0.012441079132258892,0.07581605762243271,0.053463906049728394,0.1651652455329895,0.048924051225185394,-0.011272309347987175,0.05881776660680771,-0.035762276500463486,-0.1389114111661911,0.008923189714550972,0.17343370616436005,-0.0714295506477356,-0.10926394164562225,0.04104616492986679,0.028633099049329758,0.14301910996437073,-0.08013463020324707,0.02793244644999504,0.08200819790363312,0.06316862255334854,0.11182509362697601,0.0014431653544306755,-0.032570358365774155,0.040584564208984375,0.004702323582023382,0.08057308197021484,0.048932842910289764,-0.017083732411265373,-0.10621391236782074,-0.19094735383987427,-0.051415346562862396,-0.07423558831214905,0.05816688761115074,0.11183533072471619,0.054539792239665985,0.032526180148124695,0.06946654617786407,0.020014818757772446,-0.015882933512330055,0.10634131729602814,-0.09197348356246948,-0.013462156057357788,-0.09176109731197357,0.015097646042704582,-0.03950144350528717,0.26330745220184326,0.05686139315366745,-0.1053115651011467,-0.00481623038649559,-0.052574820816516876,-0.09264616668224335,-0.019281184300780296,-0.026107868179678917,0.09486988186836243,-0.06372267007827759,-0.04885394498705864,0.08011956512928009,0.08412410318851471,0.06772243976593018,-0.13552412390708923,0.1994539350271225,0.005303680896759033,0.06450735777616501,0.1155163049697876,0.08951767534017563,-0.02798442915081978,0.07004041224718094,0.04281028360128403,0.08842604607343674,0.126823291182518,-0.08151881396770477,-0.050855062901973724,0.09006060659885406,0.0759052187204361,0.09038137644529343,0.0071357255801558495,0.10670430958271027,0.12566296756267548,-0.09311544895172119,0.03893955051898956,0.12889382243156433,0.17880579829216003,-0.015238247811794281,0.01604156196117401,0.008254878222942352,-0.03217766433954239,-0.07373598217964172,-0.09559854865074158,-0.057303279638290405,-0.031655918806791306,0.015287968330085278,0.002934357849881053,0.03246118128299713,0.05011586472392082,-0.1509164571762085,-0.1105109453201294,0.016946010291576385,0.0592498779296875,0.1279042810201645,-0.022161196917295456,-0.1219291090965271,0.027893707156181335,0.04883195087313652,-0.026125719770789146,-0.03951217979192734,-0.05491667985916138,-0.038581036031246185,-0.1087728887796402,0.061307262629270554,0.07189397513866425,0.021982017904520035,-0.16407452523708344,-0.06443651020526886,0.09823821485042572,0.04233270883560181,0.19465982913970947,0.14452600479125977,-0.22359465062618256,-0.053007498383522034,-0.2767382860183716,0.05975087732076645,-0.036265045404434204,-0.09320320934057236,-0.06523623317480087,0.008971300907433033,0.10978430509567261,-0.05838337168097496,0.1075141429901123,-0.08114629983901978,0.06648965179920197,0.0739738866686821,-0.10384166240692139,0.11371221393346786,0.0906558483839035,0.08642023056745529,-0.06091030687093735,-0.05612418055534363,-0.025407543405890465,-0.12823939323425293
Bär,0.040217265486717224,0.03721122071146965,-0.1403806209564209,0.10126552730798721,-0.1054362803697586,-0.1311936378479004,0.11242061108350754,0.026461515575647354,0.10338588058948517,-0.0045599546283483505,0.13728614151477814,0.04247324913740158,-0.062041886150836945,0.1886344850063324,0.10809452086687088,0.02569580078125,0.11595465242862701,-0.0015943022444844246,-0.002909393748268485,-0.12297210097312927,0.011641979217529297,0.08363872766494751,0.07614677399396896,0.10446387529373169,0.06423156708478928,-0.025181841105222702,-0.05249100551009178,0.040606532245874405,-0.08219430595636368,0.033156707882881165,-0.144685760140419,0.15540990233421326,-0.16049394011497498,0.08273033797740936,-0.08572394400835037,-0.053408510982990265,-0.32642120122909546,0.05335626378655434,-0.0637742355465889,-0.10153111815452576,-0.008286427706480026,-0.04965423047542572,-0.00866182055324316,-0.0015696301124989986,-0.03735452890396118,0.17051325738430023,0.18127962946891785,-0.0474480465054512,0.09914559125900269,-0.056982528418302536,0.10901284217834473,-0.07871951162815094,0.07807587087154388,0.08322586864233017,0.007126258686184883,-0.003951419144868851,-0.03949788585305214,-0.08492528647184372,-0.12695494294166565,-0.051853060722351074,0.0034591611474752426,-0.04323631897568703,0.1688411980867386,0.0694047287106514,-0.09895059466362,-0.23070013523101807,0.1370640993118286,-0.09108328819274902,0.1851050853729248,0.1089586690068245,-0.05113578215241432,-0.316890686750412,-0.004532843828201294,-0.09714843332767487,0.14658468961715698,0.006341159343719482,0.012136505916714668,-0.019485119730234146,0.14179155230522156,-0.07567191869020462,-0.09478187561035156,-0.09698571264743805,-0.11203084886074066,-0.07302668690681458,-0.16484390199184418,0.06969559192657471,-0.11721248179674149,-0.045397669076919556,-0.00433993898332119,0.23316237330436707,0.16902577877044678,0.04780508577823639,0.22157253324985504,0.10154633224010468,-0.00910337083041668,-0.044998180121183395,0.007120618596673012,0.022297030314803123,-0.1445641815662384,0.17197944223880768,0.015873337164521217,0.19812114536762238,0.07340983301401138,-0.23526670038700104,-0.09767897427082062,-0.17761893570423126,0.15240134298801422,0.06946294754743576,-0.16546928882598877,-0.0038054953329265118,-0.09538564085960388,-0.06348578631877899,-0.03212078660726547,-0.019297637045383453,0.0516044907271862,0.1029399186372757,0.20074068009853363,-0.16850078105926514,0.043539196252822876,-0.06086493283510208,-0.06390408426523209,0.08512868732213974,0.101631298661232,-0.0032966500148177147,0.0412556491792202,0.3800559639930725,-0.10587258636951447,-0.05697815120220184,0.1460646390914917,-0.007731452584266663,-0.5298179388046265,0.42108777165412903,0.061913322657346725,-0.008600959554314613,-0.015728697180747986,0.13348087668418884,0.17854776978492737,-0.01420601923018694,0.18022042512893677,-0.07679073512554169,0.06298132240772247,-0.09526784718036652,0.14924708008766174,0.055312737822532654,0.06648460775613785,-0.11771417409181595,-0.024761131033301353,0.22553402185440063,0.012839455157518387,0.1354590654373169,-0.011989858001470566,0.2437744289636612,-0.07235424220561981,0.04572494328022003,0.014036775566637516,0.13824664056301117,0.19561520218849182,-0.09157434850931168,0.0764588862657547,-0.2497345507144928,-0.1543533205986023,-0.1955242156982422,0.022194061428308487,-0.04999825358390808,0.1160648912191391,0.08053253591060638,-0.10269586741924286,-0.05431314557790756,-0.06450939178466797,-0.16705945134162903,0.1196707934141159,-0.04265172779560089,-0.10425056517124176,0.1454707384109497,-0.11450743675231934,-0.06083250045776367,0.03960448130965233,-0.05628263205289841,0.04255953058600426,0.015067800879478455,0.010274738073348999,0.019945494830608368,-0.12764133512973785,-0.04541458189487457,-0.16215606033802032,-0.06746883690357208,0.08864922821521759,0.0329744890332222,0.18752460181713104,0.04978984594345093,0.10698488354682922,-0.1674393266439438,-0.18288055062294006,0.23103435337543488,0.12147049605846405,0.11441021412611008,0.049304939806461334,0.07612587511539459,0.06359080225229263,0.04151212424039841,0.10339267551898956,0.015378911979496479,0.0438164621591568,-0.017418425530195236,0.009855254553258419,-0.017254125326871872,0.24635280668735504,0.05688381567597389,-0.1422211229801178,0.04201922193169594,-0.0781707763671875,-0.035833463072776794,0.13602867722511292,0.020323893055319786,0.15593291819095612,-0.10268782079219818,-0.08431503176689148,0.052435215562582016,0.005631104111671448,0.1336444914340973,-0.038831427693367004,0.04440952464938164,-0.06920162588357925,0.024203572422266006,-0.0721307098865509,0.19668105244636536,-0.009661560878157616,0.08144061267375946,0.20667114853858948,-0.013217831030488014,0.0760834738612175,-0.08957666158676147,-0.15271738171577454,-0.16409003734588623,0.0692565068602562,-0.04835353046655655,0.001920308917760849,-0.046182189136743546,0.12412964552640915,-0.14081084728240967,0.19328710436820984,0.0546148456633091,0.15016207098960876,-0.08415645360946655,-0.08819625526666641,-0.3183780610561371,-0.14765769243240356,-0.0004299767315387726,0.03434618562459946,-0.1241823360323906,-0.14104922115802765,-0.2002374827861786,0.05125139653682709,-0.08031662553548813,-0.014683648012578487,0.005494073033332825,0.07771581411361694,-0.013193532824516296,-0.012107159942388535,0.19761522114276886,0.1742551326751709,-0.08710210770368576,0.08357977122068405,-0.23254185914993286,-0.005200691521167755,-0.04368988797068596,0.07962040603160858,-0.023950209841132164,0.03623567521572113,0.14586542546749115,0.2276577651500702,-0.06042961776256561,-0.2904375195503235,-0.12852516770362854,0.15035885572433472,0.13853706419467926,0.2829822897911072,-0.015099897049367428,-0.07135389745235443,-0.02588333934545517,-0.6729611158370972,0.12958116829395294,0.06392061710357666,0.048556458204984665,-0.010970087721943855,-0.04499300569295883,0.0852767676115036,-0.01646706834435463,-0.1403903067111969,0.18414822220802307,-0.1791718602180481,0.03917288780212402,0.10360604524612427,0.2048516422510147,0.061755962669849396,-0.11398380994796753,0.045336224138736725,-0.20586802065372467,0.04384643957018852,0.06524491310119629
Krokodil,0.00804621260613203,0.056520506739616394,-0.00832494255155325,0.06200841814279556,0.03873739764094353,-0.05263201892375946,-0.04091142117977142,0.021351313218474388,0.012821040116250515,-0.01989050954580307,0.015925610437989235,-0.0645783394575119,-0.003942428156733513,0.014838586561381817,0.02998477965593338,0.038571298122406006,0.030667800456285477,0.07536762952804565,0.044835414737463,-0.007376637309789658,-0.010056395083665848,0.019599465653300285,0.008883113041520119,0.0299456138163805,-0.024546973407268524,-0.06416579335927963,0.005566970910876989,0.02303774282336235,0.0077350204810500145,-0.036331795156002045,-0.01866585575044155,0.06697890162467957,-0.026195576414465904,-0.0007220299448817968,0.013209046795964241,-0.004337713122367859,-0.06265469640493393,0.004434226080775261,0.04887780174612999,-0.042633023113012314,0.0023346964735537767,-0.01918225735425949,-0.03178751841187477,0.005927740596234798,-0.06025427579879761,0.04613291472196579,-0.015926111489534378,-0.015738287940621376,0.0044388072565197945,-0.015493870712816715,0.06835578382015228,0.012825924903154373,0.0317511148750782,0.05137713626027107,0.030656352639198303,0.021922282874584198,-0.019361428916454315,0.005748293362557888,0.02741362899541855,-0.037488944828510284,-0.023353639990091324,-0.007413002196699381,0.05540785193443298,-0.03811921179294586,-0.028707195073366165,0.001033301930874586,0.041293222457170486,-0.0340275801718235,0.023146696388721466,0.04518478363752365,0.023184964433312416,-0.003297374816611409,0.011173606850206852,-0.028113041073083878,0.001054596621543169,-0.05737769976258278,0.030322855338454247,0.0002458266098983586,0.026693154126405716,-0.021443979814648628,0.020832842215895653,-0.036617912352085114,-0.01646951213479042,0.015271030366420746,-0.02911374531686306,0.06254741549491882,-0.0055911364033818245,0.01679268479347229,0.018984396010637283,0.030285347253084183,0.027695074677467346,0.01896202564239502,0.0049979775212705135,-0.012054686434566975,0.022811563685536385,-0.014575241133570671,0.050820209085941315,0.01122454833239317,-0.10540572553873062,0.031929053366184235,-0.003791076596826315,0.01094882469624281,-0.0009630631539039314,-0.026232104748487473,0.0349709652364254,-0.0443122498691082,0.02019532024860382,-0.03682908043265343,-0.008950565941631794,-0.0419096015393734,0.03763483092188835,0.02812851220369339,-0.006388401612639427,-0.03941937908530235,0.00635564886033535,-0.05969680845737457,0.05999990180134773,-0.10831891000270844,0.004128885921090841,-0.0025173574686050415,-0.03955351933836937,-0.03859369456768036,0.013840888626873493,-0.021166859194636345,0.005102244205772877,0.0870991051197052,-0.04134564846754074,-0.012916918843984604,0.02453138865530491,2.0382660295581445e-05,0.02362501248717308,0.019142068922519684,-0.04114893078804016,0.0172264464199543,0.010815010406076908,0.01792902871966362,0.01318819634616375,-0.006102732848376036,0.06875347346067429,-0.03804711252450943,-0.021910754963755608,-0.019882116466760635,0.1356152594089508,-0.07146486639976501,0.03400573879480362,-0.03981652483344078,-0.011192725040018559,0.025736678391695023,0.0489623136818409,0.012253919616341591,0.010704407468438148,0.06570969521999359,0.05527899041771889,0.002718732925131917,0.008788404986262321,0.05831732228398323,-0.0140542546287179,-0.04260158911347389,0.08415596932172775,-0.061277423053979874,-0.048405472189188004,-0.06059416010975838,0.04163997992873192,0.030241411179304123,0.022602196782827377,0.016201145946979523,0.008438363671302795,-0.01741168275475502,-0.017053870484232903,-0.05612121894955635,0.02594679966568947,0.023604270070791245,0.03882944583892822,0.007335594855248928,-0.003388256998732686,-0.005052996799349785,0.020639386028051376,0.0208998154848814,0.00817125290632248,0.009257663041353226,-0.011298414319753647,0.018443239852786064,0.057750385254621506,-0.0002829240693245083,-0.02983834594488144,-0.011557227000594139,0.013990168459713459,0.048906125128269196,0.019191235303878784,-0.021075816825032234,0.007278053089976311,-0.06635512411594391,-0.016093187034130096,0.034867268055677414,0.05293797329068184,0.06265607476234436,0.025922559201717377,0.04680540785193443,0.015645354986190796,-0.017753267660737038,0.010889201425015926,-0.03304530680179596,0.06130727380514145,0.025076840072870255,0.015790361911058426,0.025563107803463936,0.017993638291954994,0.01918722130358219,-0.0450042262673378,0.030618872493505478,-0.009860350750386715,0.001544180209748447,0.03982475399971008,-0.0020698022563010454,0.039521005004644394,0.017467625439167023,-0.02957918681204319,0.025897424668073654,-0.01768771931529045,0.08566079288721085,-0.013821654953062534,0.015375848859548569,-0.021439548581838608,-0.037191979587078094,-0.018136819824576378,-0.00458004605025053,0.02217395417392254,-0.05839939042925835,0.019065000116825104,0.0801353007555008,0.030685367062687874,-0.04064562916755676,-0.07538814842700958,0.016858506947755814,0.0072305514477193356,0.008659278973937035,-0.052468642592430115,-0.027496904134750366,0.00725172832608223,-0.0709979459643364,0.07527397572994232,0.04295136779546738,0.054117508232593536,0.004207005724310875,0.07186918705701828,-0.03051948733627796,-0.01067337952554226,0.00736214080825448,-0.037732888013124466,-0.035215869545936584,-0.06666085124015808,-0.04312823712825775,0.010490628890693188,0.011650613509118557,0.0744510069489479,-0.025953255593776703,-0.05307748168706894,-0.0010975692421197891,0.023996856063604355,0.006855970248579979,0.0564916729927063,-0.024931563064455986,-0.003680576803162694,-0.08345882594585419,-0.0064353118650615215,0.0048341574147343636,-0.0017703179037198424,0.0040083094500005245,-0.007243679370731115,0.021425355225801468,0.031230825930833817,-0.03893047571182251,-0.10534986853599548,-0.021580522879958153,0.05748956277966499,-0.004236687906086445,0.07636638730764389,-0.002789453836157918,-0.05877839773893356,0.018704283982515335,-0.06648916751146317,0.017701303586363792,-0.022784201428294182,0.016045643016695976,-0.01388258021324873,0.04140518978238106,0.01108926348388195,-0.0012454211246222258,0.02445238083600998,-0.04161124676465988,-0.027379516512155533,0.10313933342695236,-0.05151833966374397,0.048338185995817184,0.022693047299981117,0.030874188989400864,-0.046368759125471115,-0.025974256917834282,0.004266624338924885,0.03167683631181717
Pferd,-0.026006873697042465,0.12635457515716553,-0.025186812505126,0.12111175060272217,-0.03723021596670151,-0.055774226784706116,-0.04059166833758354,-0.02418210543692112,-0.12907245755195618,-0.041662488132715225,0.02984035015106201,0.020075373351573944,0.017496947199106216,0.03275501728057861,-0.03726021945476532,-0.008260631933808327,0.08662959933280945,-0.09530793130397797,-0.09076046943664551,-0.05540459603071213,-0.034070394933223724,-0.014123944565653801,0.06564583629369736,-0.0023302799090743065,-0.0375504195690155,-0.02462252974510193,0.018992876634001732,0.16496926546096802,-0.028299832716584206,-0.057428836822509766,-0.024226214736700058,-0.07690492272377014,-0.11742233484983444,0.0047474633902311325,-0.015982715412974358,0.04299749433994293,0.0843050479888916,-0.060867615044116974,0.12087050080299377,-0.0668189525604248,-0.008836418390274048,0.011583413928747177,0.015134191140532494,-0.0437978133559227,0.026223694905638695,0.021514588966965675,-0.013139196671545506,0.006392192095518112,-0.07740756869316101,-0.00015699677169322968,0.04275498166680336,0.045732010155916214,0.020497089251875877,0.0683821588754654,0.046781983226537704,-0.03077777475118637,0.04878421127796173,0.05780639871954918,-0.0873812735080719,-0.037719160318374634,-0.0347290076315403,-0.044543907046318054,0.055267754942178726,-0.0008300915360450745,-0.10655742138624191,0.09487316012382507,0.06212984025478363,-0.054129231721162796,0.09664890170097351,-0.037274084985256195,-0.02383119985461235,-0.05828738957643509,-0.1146993413567543,0.023424172773957253,-0.10488662123680115,-0.03731313347816467,0.025091711431741714,-0.03488696366548538,0.025524763390421867,-0.06153765693306923,-0.11341018974781036,-0.08694708347320557,-0.08830923587083817,0.04647905379533768,-0.024049976840615273,0.06199762970209122,-0.05807308852672577,0.043244343250989914,-0.02595457434654236,0.1295185536146164,0.07751347869634628,0.04008696973323822,0.01781522110104561,0.04561213403940201,0.08569679409265518,-0.004789048805832863,0.07526956498622894,0.05854560434818268,-0.16522639989852905,0.042476046830415726,-0.12269949913024902,0.04286959022283554,-0.12111959606409073,-0.049261424690485,0.08659569919109344,-0.077243871986866,0.1367955058813095,-0.023007411509752274,-0.08011816442012787,-0.10061481595039368,-0.02279871702194214,-0.09917448461055756,-0.04515690356492996,-0.01737888902425766,0.03183997422456741,-0.04746029153466225,0.06293414533138275,-0.02299933135509491,0.03445397689938545,-0.05653953552246094,-0.08425429463386536,0.05817750096321106,0.10783504694700241,-0.05733504518866539,0.09417637437582016,0.011414219625294209,-0.04160463437438011,0.06375156342983246,-0.007744156755506992,-0.11643339693546295,0.019637707620859146,0.04529708996415138,-0.08239876478910446,0.04960721731185913,-0.03332887217402458,0.07910154014825821,0.07748853415250778,0.058908697217702866,0.07841336727142334,-0.05049236863851547,-0.006877407431602478,-0.05298302322626114,0.16593188047409058,0.015070461668074131,-0.038583558052778244,-0.09345550835132599,0.040710728615522385,0.006811701692640781,0.008049285970628262,-0.013191722333431244,0.05323636159300804,0.11680620163679123,-0.0924319475889206,-0.021377883851528168,-0.07666043937206268,0.0883888527750969,0.10304388403892517,0.0682549774646759,0.04236068204045296,-0.14637885987758636,-0.12639521062374115,-0.09339369088411331,-0.009966918267309666,0.134638711810112,0.0016976576298475266,0.035582493990659714,-0.02325095422565937,0.03482728451490402,0.008274320513010025,0.03148064762353897,-0.01743825152516365,0.004068203270435333,-0.005575278773903847,0.05886159837245941,0.0006534014828503132,0.05491098761558533,0.06542743742465973,-0.08715483546257019,0.0237591490149498,0.13336972892284393,0.10148513317108154,-0.047397635877132416,-0.05845612660050392,-0.02750704437494278,-0.09373626112937927,-0.03082660585641861,0.04714888334274292,0.010536212474107742,0.06626567244529724,-0.0064428942278027534,-0.0729818120598793,-0.04448142647743225,-0.011298440396785736,-0.032962530851364136,0.07478047907352448,0.0824655294418335,0.041842155158519745,-0.05250902101397514,0.07469004392623901,-0.01004404854029417,0.05046737566590309,-0.1332419514656067,0.08121948689222336,-0.050823647528886795,0.06139035522937775,0.040053222328424454,0.0007940647192299366,0.06607683002948761,-0.04288177564740181,-0.012867218814790249,0.006547342054545879,0.01872454769909382,0.017847098410129547,-0.05096454173326492,0.09651035070419312,-0.04237779974937439,-0.01846468448638916,-0.015169145539402962,-0.03887687996029854,0.0936865285038948,0.004013304598629475,0.0828980877995491,0.07978620380163193,0.0010634022764861584,0.0253533236682415,0.06489890068769455,-0.10367981344461441,-0.07786369323730469,-0.012693850323557854,0.013952921144664288,0.06807505339384079,-0.009554324671626091,-0.0645749568939209,0.04265107959508896,0.07076584547758102,0.038357846438884735,0.005591093562543392,0.11746329069137573,0.050954483449459076,0.0011967010796070099,0.13429564237594604,0.050256457179784775,0.0772193968296051,-0.004217064008116722,0.030136676505208015,0.03308575600385666,0.02148410677909851,-0.04540500044822693,-0.050557103008031845,-0.07054189592599869,0.03196658939123154,0.0071824053302407265,0.0912456139922142,0.10729940980672836,-0.05160880833864212,0.01595197059214115,-0.019847087562084198,0.04600858315825462,0.12492434680461884,0.01860039308667183,0.033092714846134186,-0.01163644902408123,0.016834966838359833,-0.03730839490890503,0.030072597786784172,0.047572772949934006,-0.004732314497232437,0.054966673254966736,-0.09390795230865479,0.031177226454019547,0.05885583534836769,-0.0446811243891716,-0.13956952095031738,-0.05472751706838608,0.09433072060346603,0.03289065137505531,0.12203458696603775,0.06042851507663727,-0.1257394552230835,-0.009690153412520885,-0.10346910357475281,0.025719381868839264,-0.06859273463487625,0.010098427534103394,-0.023504313081502914,0.007513904478400946,0.043227680027484894,0.03591606020927429,0.02214781753718853,-0.011104472912847996,0.03846293315291405,0.014431588351726532,0.09721613675355911,-0.07491318881511688,-0.005579239688813686,-0.028538959100842476,0.010447194799780846,-0.039147987961769104,0.012428658083081245,-0.021221473813056946
Hase,0.05980905145406723,-0.011214053258299828,-0.07773816585540771,-0.02498406171798706,-0.03801901638507843,-0.02273346297442913,-0.00010687237227102742,-0.08303499966859818,-0.05617548152804375,0.03337403014302254,0.0780264288187027,-0.09167622774839401,-0.027193401008844376,-0.09925474226474762,-0.01599632017314434,-0.011951690539717674,0.09276103228330612,0.07061068713665009,0.025032861158251762,-0.08028984069824219,0.07353498041629791,0.05033433437347412,0.08249439299106598,0.030377328395843506,-0.01450377143919468,-0.029591066762804985,-0.08653825521469116,0.02251170575618744,-0.12871645390987396,0.004611283540725708,-0.15017372369766235,-0.08586408942937851,-0.09743182361125946,0.056714706122875214,-0.04477372393012047,0.015829576179385185,-0.24651670455932617,0.1548587679862976,0.009934152476489544,-0.01233343593776226,-0.0720645934343338,0.09646199643611908,0.04865724965929985,0.1083991527557373,0.02448577806353569,0.15841180086135864,0.02682579681277275,-0.18080446124076843,0.09603022783994675,0.004193313419818878,0.007117600180208683,-0.0916542038321495,0.03075585886836052,0.016436852514743805,-0.10864868015050888,-0.11875991523265839,-0.05630769580602646,0.03252747282385826,0.021209191530942917,-0.03480112552642822,-0.021149717271327972,0.03829145431518555,0.02862447500228882,-0.008481884375214577,-0.0012507687788456678,-0.05129966884851456,0.10140502452850342,-0.03708019480109215,0.10684072971343994,-0.10348555445671082,0.052175864577293396,-0.03408527374267578,-0.0762554481625557,0.03946029394865036,0.08537085354328156,-0.06747382879257202,0.09166773408651352,0.08271045237779617,0.04904025048017502,-0.09506165981292725,-0.07350312918424606,-0.17678992450237274,-0.13250510394573212,0.026701858267188072,-0.05189363285899162,0.12018480896949768,-4.371007526060566e-05,0.034390658140182495,-0.13093605637550354,0.10107477754354477,0.14305484294891357,0.14472511410713196,0.030735742300748825,-0.031542178243398666,0.035363487899303436,0.028866736218333244,-0.049277640879154205,0.14316123723983765,-0.10595022141933441,0.028894096612930298,-0.00311783654615283,0.11260758340358734,0.0019491047132760286,-0.02571805939078331,-0.03918643295764923,-0.1938062310218811,0.09584303200244904,-0.009811356663703918,-0.006246156990528107,-0.09659753739833832,-0.09523876756429672,-0.06738293170928955,-0.0028510852716863155,0.011277202516794205,0.04917830228805542,-0.07326781749725342,0.053392671048641205,-0.07253173738718033,-0.12616315484046936,-0.04042746126651764,-0.037984661757946014,0.0859793946146965,0.026626070961356163,-0.14054769277572632,0.11023928970098495,0.2605879008769989,-0.025433726608753204,-0.06892748177051544,-0.010401555337011814,0.09411720931529999,-0.24027535319328308,0.26104801893234253,0.026897510513663292,0.19070422649383545,0.04477999731898308,0.07575978338718414,0.13132944703102112,-0.008583794347941875,0.1326218545436859,-0.17466752231121063,-0.017298519611358643,0.007231372408568859,0.1458866000175476,-0.20789740979671478,-0.08905114233493805,-0.031447768211364746,-0.05475594103336334,0.02263626828789711,-0.13706395030021667,0.03490383177995682,0.07793577015399933,0.1958135962486267,-0.0570644810795784,0.041096173226833344,-0.04922674596309662,0.16730093955993652,0.11662760376930237,-0.09773262590169907,0.007969377562403679,-0.10545551776885986,-0.07414300739765167,-0.10452727973461151,-0.06291668862104416,-0.03502371907234192,0.017405547201633453,0.09056341648101807,-0.031008154153823853,-0.0989578515291214,-0.0291932113468647,-0.14247453212738037,-0.02747843973338604,-0.06573623418807983,-0.004494118969887495,0.08426414430141449,-0.03991039842367172,-0.048636868596076965,0.06998731195926666,-0.12147240340709686,0.02685065194964409,0.1168711930513382,-0.01315877865999937,-0.0267181396484375,-0.12330701947212219,-0.08781272172927856,-0.08106762170791626,0.04241544008255005,0.07563330978155136,0.05419674515724182,0.004069011192768812,0.033510707318782806,0.005595190450549126,-0.06832513213157654,-0.02796856127679348,0.148639515042305,0.1196848601102829,0.11689083278179169,-0.04063982516527176,0.08337743580341339,0.14699681103229523,-0.06876000761985779,0.11428182572126389,-0.121892049908638,-0.02884543500840664,-0.06222127005457878,0.00939517468214035,-0.05748474597930908,0.03675822541117668,0.07507746666669846,-0.027860127389431,-0.01596483215689659,0.0459979772567749,-0.038600459694862366,-0.02594931423664093,0.03877972066402435,0.05080077797174454,-0.08946632593870163,-0.036624208092689514,0.06781336665153503,0.013480405323207378,0.04311174899339676,0.052167605608701706,0.10119564831256866,-0.01658746972680092,-0.1741819977760315,0.06482891738414764,0.13966262340545654,0.05606687813997269,-0.06878702342510223,0.11532121151685715,0.029284168034791946,0.12262632697820663,-0.0990196093916893,-0.1143123134970665,-0.06167590245604515,0.08606797456741333,0.003343361197039485,-0.10880021750926971,-0.018311141058802605,0.10720622539520264,0.023154567927122116,-0.012778162956237793,0.09481295943260193,0.11721482872962952,-0.0375702828168869,0.03981681168079376,-0.2024514079093933,-0.07599856704473495,0.032544203102588654,-0.05934290215373039,-0.008101170882582664,-0.048746608197689056,-0.06545194983482361,-0.02680460922420025,-0.031672753393650055,-0.017619771882891655,0.08361449837684631,0.1493767499923706,-0.0028956234455108643,-0.018105564638972282,0.021173035725951195,0.038111306726932526,0.01936601661145687,0.11604445427656174,0.04493154585361481,0.07221075892448425,0.01050686277449131,0.060031622648239136,-0.2100263237953186,-0.06836001574993134,0.10837902873754501,0.09636345505714417,-0.03644043207168579,-0.19798152148723602,-0.10701644420623779,0.04988260194659233,-0.013953698799014091,0.21670639514923096,0.01218203455209732,0.015517796389758587,0.09015636146068573,-0.33087724447250366,0.139193594455719,0.004138417541980743,-0.08437152206897736,0.007441711612045765,-0.07759127020835876,0.057826392352581024,-0.08403819799423218,0.09048261493444443,-0.003615970490500331,-0.058128707110881805,0.22395478188991547,-0.01130351610481739,0.08572731912136078,0.03543972223997116,-0.16657550632953644,0.04382021725177765,-0.06601694971323013,0.010544886812567711,-0.009631611406803131
Jaguar,0.046685632318258286,-0.006363229360431433,-0.03202469274401665,0.04965309426188469,-0.08234023302793503,-0.006026669405400753,-0.02444973960518837,-0.06379847973585129,-0.013799873180687428,0.01014681812375784,-0.06502988189458847,0.0032671138178557158,-0.02826613560318947,-0.05667514726519585,-0.00372992898337543,0.02429036796092987,0.03517277166247368,-0.0013415241846814752,-0.0029497125651687384,0.02505372278392315,0.014437958598136902,0.04392729327082634,0.06214507296681404,-0.037158574908971786,-0.024838214740157127,0.03152025490999222,-0.0023955150973051786,0.07288747280836105,0.030802277848124504,-0.07713518291711807,-0.06982633471488953,-0.023440707474946976,0.0578763373196125,0.03324861824512482,-0.0011444271076470613,-0.033260975033044815,-0.05364593490958214,0.06975092738866806,0.03800236061215401,0.005910330917686224,0.028077978640794754,-0.035463571548461914,-0.05768263339996338,-0.02416994981467724,-0.09359370917081833,0.0489698126912117,0.03771800920367241,0.052700936794281006,-0.0006079524755477905,0.009753271006047726,0.01521293818950653,0.07248260825872421,-0.043952565640211105,0.07558020949363708,-0.04687280207872391,0.036175962537527084,0.02847909741103649,-0.017003145068883896,-0.04963729903101921,-0.08764640241861343,0.022266127169132233,-0.0059049963019788265,-0.058431338518857956,0.02668570913374424,0.0008771777502261102,0.07496710866689682,0.07550965994596481,-0.006893972400575876,0.06477091461420059,0.04201113060116768,0.030795162543654442,-0.07665731757879257,0.10264454036951065,-0.037447575479745865,-0.0004486083926167339,-0.013845122419297695,0.007791710086166859,0.061298634856939316,0.02120925299823284,0.010768288746476173,0.041722044348716736,-0.06957512348890305,-0.03600986301898956,0.023275626823306084,0.03627295419573784,0.07276085764169693,-0.09352626651525497,-0.03562241792678833,-0.016323687508702278,0.02985018491744995,0.04457199200987816,0.13962505757808685,-0.018775837495923042,0.04568964242935181,0.1229080930352211,-0.014216664247214794,0.12798283994197845,-0.030193645507097244,-0.03832181543111801,0.04443405568599701,0.020887471735477448,0.09813389182090759,-0.03573259711265564,0.024242045357823372,-0.011650068685412407,-0.04915502294898033,0.09706297516822815,-0.031208623200654984,-0.0857895016670227,0.10494333505630493,0.0157304760068655,-0.007544012274593115,0.014843778684735298,-0.035161592066287994,0.025324398651719093,-0.028640208765864372,0.09630635380744934,-0.06132498383522034,0.06989634782075882,0.009932703338563442,0.026022544130682945,-0.01472445484250784,0.12590166926383972,-0.03260350599884987,-0.04761320725083351,-0.0435655415058136,-0.005007693078368902,-0.06269315630197525,0.00395995331928134,-0.039278119802474976,-0.04055135324597359,0.10201623290777206,0.030103156343102455,0.06944524496793747,0.0704600140452385,-0.022315887734293938,0.08011992275714874,0.07393759489059448,0.07794778048992157,-0.07877502590417862,-0.06155431270599365,-0.051125604659318924,0.09260284155607224,-0.0005945928278379142,-0.03422785922884941,-0.01261168159544468,-0.07059844583272934,-0.013681823387742043,0.01780185103416443,0.012647462077438831,-0.030175596475601196,0.06359007209539413,0.04240158945322037,-0.033763960003852844,0.04622156545519829,0.06310109049081802,0.0464797280728817,0.0029056549537926912,0.07849007099866867,-0.07719866931438446,-0.02030719257891178,0.09761970490217209,-0.044325415045022964,0.029631465673446655,-0.02848304621875286,0.043445389717817307,-0.01262686401605606,-0.035734694451093674,-0.01422435324639082,0.01205649133771658,0.05249333009123802,0.09305586665868759,0.035669174045324326,0.025377336889505386,-0.06036429479718208,0.027472997084259987,0.007162411697208881,-0.03211970254778862,0.09447740763425827,-0.001111579011194408,-0.05428866297006607,-0.039851415902376175,-0.06382784992456436,-0.026948286220431328,-0.019976967945694923,-0.01199379563331604,0.054871853440999985,0.0489942692220211,-0.04047327861189842,-0.048151321709156036,-0.00872738566249609,-0.06382577121257782,0.0750795230269432,-0.01907876506447792,-0.04691321402788162,0.08294438570737839,0.026945186778903008,-0.02291783131659031,0.0657820999622345,0.030319208279252052,-0.0460687093436718,0.007088512182235718,0.032150208950042725,0.011372138746082783,0.033832650631666183,0.04456722363829613,-0.020408904179930687,0.014478984288871288,-0.03365771099925041,0.045263417065143585,-0.032751768827438354,0.017883433029055595,-0.03768475726246834,-0.05421987920999527,0.03127656504511833,0.02722390927374363,-0.04837300255894661,0.004984624683856964,-0.04045595973730087,-0.01049085520207882,-0.01829075627028942,0.033831071108579636,-0.014212198555469513,0.0424325093626976,0.018781719729304314,0.015085823833942413,0.020151464268565178,0.016350356861948967,-0.044280070811510086,0.03817133232951164,0.025754977017641068,-0.0788324847817421,0.022702230140566826,0.05539674311876297,0.044482145458459854,-0.07532421499490738,-0.03713001683354378,0.022197822108864784,0.1210181713104248,-0.014303362928330898,0.1192413717508316,-0.023060118779540062,0.05127648636698723,-0.016253942623734474,-0.019375894218683243,0.06457074731588364,-0.015301764011383057,-0.09879683703184128,-0.017862457782030106,-0.030710166320204735,-0.028375400230288506,0.05207196995615959,0.004142699297517538,-0.013843494467437267,-0.03236186131834984,0.050981439650058746,0.010872519575059414,-0.04881901666522026,0.07210128754377365,-0.01408996619284153,0.018230296671390533,-0.10513061285018921,0.06673216074705124,0.024416469037532806,0.04958272725343704,0.11167844384908676,-0.0017273634439334273,0.02383921854197979,-0.03740013763308525,-0.002036237856373191,0.027417873963713646,-0.0006844550371170044,-0.15512894093990326,-0.06640415638685226,0.006969478912651539,-0.014047852717339993,0.10038898140192032,-0.01215415820479393,-0.02583388052880764,0.04788121581077576,-0.05874847248196602,-0.011204066686332226,-0.0254279263317585,0.04523923993110657,-0.04438355565071106,-0.04143929481506348,0.061177488416433334,-0.02993755415081978,-0.009445135481655598,-0.052994515746831894,-0.01353436429053545,0.12836937606334686,-0.04017823934555054,0.06189872696995735,-0.010229839943349361,-0.01824318803846836,0.018833596259355545,0.011631110683083534,-0.03301903232932091,0.03747018054127693
Tiger,-0.011295324191451073,0.052956052124500275,-0.05391324684023857,0.004262857139110565,-0.050276707857847214,-0.026307696476578712,0.061945535242557526,0.009561785496771336,-0.0268496572971344,-0.002484639873728156,-0.01627560332417488,-0.014378704130649567,-0.02960297465324402,0.041181743144989014,-0.014886987395584583,-0.051587339490652084,0.008470065891742706,-0.0012635537423193455,0.042466629296541214,0.0015756618231534958,-0.0327238067984581,-0.047368764877319336,0.02228819765150547,0.06361996382474899,-0.04325808584690094,-0.08395107090473175,0.05325306951999664,0.08936978131532669,-0.0840013325214386,-0.04857313260436058,-0.10209357738494873,0.08525604754686356,0.026358433067798615,0.05784832686185837,0.057004883885383606,0.010486834682524204,-0.022585030645132065,0.021219927817583084,0.03483787551522255,0.02461307868361473,-0.0050101252272725105,0.05862468108534813,-0.04795711487531662,-0.059663429856300354,-0.08726285398006439,0.06699174642562866,0.016688702628016472,-0.07478956133127213,0.09382347017526627,0.012985121458768845,0.10259547084569931,0.0818447694182396,-0.02809346467256546,0.03230786323547363,-0.03790626302361488,0.04941045865416527,0.00943534541875124,0.052346713840961456,-0.015952982008457184,-0.07506373524665833,0.00939661543816328,0.026701197028160095,0.019997596740722656,0.03782554715871811,-0.0704638808965683,-0.009722976014018059,0.08130455017089844,-0.008764371275901794,0.0920252650976181,0.03757287561893463,0.10772612690925598,-0.05420447513461113,-0.012990787625312805,-0.001811792142689228,0.02266012504696846,0.03660406172275543,0.04756702110171318,0.030866993591189384,0.015022117644548416,-0.030107006430625916,0.004122140817344189,-0.06167352944612503,-0.07860416173934937,-0.017669685184955597,-0.0020245793275535107,0.07306375354528427,-0.06495241820812225,-0.007541955448687077,-0.04602322354912758,0.09604643285274506,0.07074122130870819,0.10764966905117035,-0.03545394167304039,-0.025602491572499275,0.04657396674156189,-0.022214818745851517,0.02138163149356842,0.07428409159183502,-0.11219333112239838,0.10381101071834564,0.029716642573475838,0.02465139888226986,0.034477654844522476,-0.0968988761305809,-0.008563504554331303,-0.020542986690998077,0.08348122239112854,0.03852246701717377,-0.043122731149196625,-0.00516270799562335,-0.05638228356838226,-0.00016217061784118414,0.029882851988077164,-0.010075375437736511,0.061115559190511703,0.011624700389802456,0.1734357625246048,-0.10867811739444733,0.02862047217786312,-0.021743688732385635,-0.046359140425920486,0.032517947256565094,0.17013974487781525,-0.019463468343019485,0.06471849977970123,0.09444393217563629,-0.012842720374464989,-0.013200930319726467,0.0563788041472435,-0.0680285096168518,-0.17423363029956818,0.09445135295391083,0.01894901506602764,-0.06142227724194527,0.042454369366168976,0.048656851053237915,0.08139199763536453,0.14095525443553925,0.08983249217271805,-0.05577817186713219,-0.07853776961565018,-0.05124896019697189,0.10391673445701599,-0.04131477326154709,-0.0303351990878582,-0.09081216901540756,-0.05335419252514839,0.015516875311732292,0.07805502414703369,-0.04108847677707672,0.048996828496456146,0.17877525091171265,0.03834674507379532,0.09091313183307648,-0.029632413759827614,0.137849360704422,0.0007181395776569843,-0.12600058317184448,0.09991767257452011,-0.07265244424343109,-0.1370016485452652,0.0024942122399806976,-0.014001519419252872,0.06065329164266586,-0.020059121772646904,0.06309851258993149,-0.002687217202037573,-0.047003574669361115,0.002792295068502426,-0.013108938001096249,0.04141821339726448,0.0041830227710306644,0.02750071883201599,0.06094389408826828,0.0703708678483963,-0.025387156754732132,-0.0001467876136302948,-0.006933977361768484,0.07243247330188751,0.0510304719209671,-0.051705580204725266,-0.045304831117391586,-0.058725614100694656,-0.09068263322114944,-0.004616916179656982,-0.02862662449479103,0.07059383392333984,0.06929399073123932,0.10157918930053711,-0.03741595149040222,0.02264503762125969,-0.0631275549530983,0.026156321167945862,0.05962108448147774,0.059861745685338974,0.0780709981918335,0.04577984660863876,-0.04109986871480942,0.05689523369073868,-0.0066310940310359,-0.09544654190540314,-0.05021725967526436,0.08766097575426102,0.08526911586523056,-0.018176108598709106,0.04380079731345177,0.047429490834474564,0.015733996406197548,-0.11151950061321259,0.02849314920604229,-0.05137699469923973,-0.11050621420145035,0.015162567608058453,-0.05759773775935173,0.03600749373435974,-0.004740882199257612,-0.05415608733892441,-0.01618950068950653,0.03196900337934494,-0.02219483070075512,-0.07339606434106827,0.08515675365924835,-0.060614053159952164,-0.047275278717279434,-0.03162486106157303,0.05820773169398308,-0.02492564171552658,-0.06781084835529327,-0.01700497418642044,0.0336877815425396,0.10161256790161133,-0.0445680171251297,-0.016233794391155243,0.06955336034297943,0.010597923770546913,-0.03147614002227783,-0.06026501953601837,-0.02952052652835846,0.137220561504364,-0.08370840549468994,0.06477831304073334,-0.021108021959662437,0.06771478801965714,-0.009836312383413315,0.004399872850626707,-0.041574686765670776,0.005001913756132126,-0.11614333093166351,0.06351088732481003,0.00728580541908741,-0.09526314586400986,-0.10065295547246933,0.023616965860128403,0.015200164169073105,-0.06523334234952927,0.030666446313261986,0.03413378447294235,-0.035708099603652954,0.0512663759291172,-0.013484298251569271,0.03722267597913742,-0.02202111855149269,0.0070777288638055325,-0.11792454868555069,0.029330668970942497,0.03052213042974472,-0.055820170789957047,0.05343218147754669,0.01538890227675438,-0.02432567998766899,0.05504092201590538,-0.03468439728021622,-0.16603605449199677,-0.04306113347411156,0.009197565726935863,-0.04764891788363457,0.11734125018119812,-0.03878288343548775,-0.14759160578250885,0.03627055883407593,-0.24196594953536987,0.03321497142314911,0.0009535204153507948,0.04432619735598564,0.024316176772117615,-0.07401351630687714,0.018247317522764206,-0.04038824141025543,0.019246168434619904,0.0007998463697731495,-0.0338432714343071,0.1270601451396942,-0.031015371903777122,0.0670662522315979,-0.07583960890769958,-0.06107516586780548,-0.021960929036140442,-0.009738421998918056,0.001252051442861557,0.04978697746992111
Löwe,-0.013551047071814537,0.14973799884319305,-0.03446970507502556,0.06361430883407593,0.018406342715024948,-0.04751661419868469,-0.053789060562849045,0.031200338155031204,-0.07577834278345108,0.06038966029882431,0.01673543080687523,-0.006863009184598923,-0.03278200328350067,0.07219868898391724,-0.027789156883955002,-0.01218709908425808,-0.0005217865109443665,0.03022555261850357,-0.07200205326080322,-0.11253052949905396,0.05756072327494621,0.08567433059215546,0.08868660777807236,0.005782154854387045,0.019730400294065475,0.06294989585876465,-0.030792875215411186,0.1680241823196411,-0.06418931484222412,-0.003141892608255148,-0.08646154403686523,0.19982026517391205,-0.0795803815126419,0.0568765327334404,0.08273908495903015,0.11489229649305344,0.035846590995788574,-0.010592738166451454,-0.02025318145751953,-0.08273135870695114,0.03016328066587448,-0.015711402520537376,-0.03853489086031914,-0.08527261018753052,-0.036227986216545105,0.04684074968099594,0.15585258603096008,0.049446046352386475,0.060543857514858246,-0.005177623592317104,0.11197274923324585,-0.05197874829173088,0.012290535494685173,0.0919632762670517,-0.037567853927612305,0.020147206261754036,0.09126528352499008,-0.016532104462385178,0.03554621711373329,-0.050598468631505966,-0.07918320596218109,0.03490467742085457,0.10392819344997406,0.08857916295528412,-0.07766275107860565,0.07136672735214233,0.12488824129104614,0.00597226619720459,0.09947948157787323,0.06607180833816528,0.12112778425216675,-0.07342761009931564,-0.01699400506913662,-0.05636195093393326,-0.0008227552170865238,0.08652305603027344,0.0647074282169342,-0.02538113296031952,-0.014582122676074505,0.04176129028201103,-0.10874830186367035,-0.03960367292165756,-0.06236157938838005,-0.022321268916130066,-0.16820761561393738,0.10714516043663025,-0.05811057984828949,0.0594790056347847,-0.10130490362644196,0.1612682342529297,0.14292684197425842,0.06622053682804108,0.032436080276966095,-0.02191256731748581,-0.021188339218497276,-0.014764344319701195,-0.019028320908546448,0.07273326814174652,-0.16727948188781738,0.10944776982069016,-0.0032982905395329,0.0301577877253294,0.06677690148353577,-0.06695514917373657,-0.06464647501707077,0.018254505470395088,0.0881524309515953,0.1132773756980896,-0.01776057295501232,-0.05576808378100395,0.01725570112466812,-0.08041596412658691,-0.05160894989967346,-0.10413875430822372,-0.0008607308263890445,-0.046838849782943726,0.058707743883132935,-0.024189595133066177,-0.01917499117553234,0.010061852633953094,-0.017846904695034027,-0.019513841718435287,0.1477016806602478,-0.09749066829681396,-0.0007579656084999442,0.04510335624217987,-0.043194480240345,0.01764475181698799,0.15948693454265594,-0.07439953833818436,-0.33740824460983276,0.25340211391448975,-0.027373190969228745,0.008152912370860577,0.050960004329681396,0.07581180334091187,0.08993895351886749,-0.08096766471862793,0.11214295029640198,-0.03129754960536957,0.048649292439222336,-0.04483271762728691,0.2583458125591278,-0.04106946289539337,0.1009082943201065,-0.10697440803050995,-0.10202530026435852,-0.05237313359975815,-0.031511932611465454,0.06300027668476105,0.005271793808788061,0.1565265953540802,-0.07049115747213364,0.04619680345058441,-0.01481162291020155,0.10915452241897583,0.11552198231220245,-0.054433345794677734,0.011406272649765015,-0.1422899067401886,-0.05598781257867813,-0.18795421719551086,0.0335555262863636,0.00899452157318592,0.03131350502371788,0.07181127369403839,-0.023452088236808777,-0.034680310636758804,-0.006238020025193691,-0.1660679578781128,0.054674044251441956,-0.07477417588233948,-0.03923047333955765,0.029799118638038635,0.05747206509113312,-0.03689827024936676,-0.0690889060497284,-0.03377103805541992,0.03472107648849487,0.11638673394918442,0.03492717444896698,-0.07174944877624512,0.023337792605161667,0.006775164045393467,-0.1409824937582016,-0.03709466755390167,0.11674350500106812,-0.02651781402528286,0.10337923467159271,0.0522817000746727,0.055602073669433594,-0.031061585992574692,-0.008348986506462097,0.12176170200109482,0.07466533035039902,0.10959410667419434,0.02112729474902153,0.045811399817466736,0.04060477390885353,0.010443508625030518,0.034317225217819214,-0.04807889088988304,0.033673472702503204,0.029413551092147827,-0.031968917697668076,0.025285210460424423,0.08442684262990952,0.07697847485542297,-0.24449746310710907,0.008822901174426079,-0.040365830063819885,-0.06756049394607544,0.09120683372020721,-0.008352702483534813,0.09477027505636215,-0.033360183238983154,-0.12793008983135223,0.04999610036611557,-0.09501903504133224,-0.02425621822476387,-0.08041441440582275,0.06941788643598557,-0.03973051533102989,0.008293842896819115,0.022609423846006393,0.09349935501813889,-0.10436409711837769,0.05772979184985161,0.17179898917675018,0.09519454836845398,0.08732374757528305,-0.11742906272411346,-0.0001855306327342987,-0.041860274970531464,0.049359407275915146,0.0943819209933281,-0.10481087863445282,0.019035397097468376,0.03559502214193344,-0.007926836609840393,0.21987460553646088,-0.04616394266486168,0.14996442198753357,-0.027883682399988174,0.11302994191646576,-0.11537113040685654,-0.09705154597759247,-0.060692183673381805,-0.002024090616032481,-0.08576308190822601,-0.10660003125667572,-0.028254127129912376,-0.018039241433143616,0.008734405040740967,0.10310109704732895,0.08008567988872528,-0.014317195862531662,-0.08095498383045197,0.06001826375722885,0.07212760299444199,0.03888997435569763,-0.07484497874975204,0.10338102281093597,0.014169259928166866,0.07335419952869415,-0.029556434601545334,0.07640103995800018,-0.03371952474117279,0.023151841014623642,0.10045989602804184,0.05695336312055588,-0.09642737358808517,-0.21845921874046326,-0.08441577851772308,0.09693503379821777,0.04279646277427673,0.19562605023384094,-0.02747149020433426,-0.006931006908416748,-0.03142814338207245,-0.35236164927482605,0.09467910975217819,0.01028729509562254,0.013000140897929668,0.11579366028308868,0.03326575458049774,0.028868813067674637,-0.12069594115018845,0.08680985867977142,0.01099684089422226,-0.06440054625272751,0.04497785493731499,-0.06293456256389618,0.2293839156627655,0.09946742653846741,-0.016729548573493958,-0.0003201880899723619,-0.11002650856971741,0.011760300025343895,0.13827800750732422
Huhn,0.04363802820444107,0.0033370009623467922,0.06548773497343063,0.012596504762768745,-0.020265303552150726,-0.09304675459861755,0.020904764533042908,-0.07364718616008759,0.007031257729977369,-0.07249456644058228,0.10749542713165283,-0.13286705315113068,-0.023527642711997032,0.0003580035117920488,-0.08269146084785461,-0.06330158561468124,0.11399110406637192,0.056596871465444565,-0.08095169067382812,-0.021207615733146667,0.018037252128124237,0.02964867651462555,0.025945495814085007,0.06272577494382858,-0.11449775099754333,-0.021521005779504776,-0.05853360518813133,-0.01058877818286419,-0.07061173021793365,-0.05877099931240082,-0.07624862343072891,0.006934757344424725,0.010629944503307343,-0.015459738671779633,0.0076832156628370285,0.11374194920063019,-0.017212441191077232,0.038750845938920975,0.1067083403468132,-0.11024437844753265,0.005223865620791912,0.06206488609313965,0.008177336305379868,-0.034590620547533035,-0.008216986432671547,0.14443717896938324,-0.07637367397546768,-0.03178989142179489,0.0468466691672802,0.04771849140524864,0.0707620158791542,-0.04983922839164734,0.041569095104932785,-0.05874333903193474,0.008531173691153526,-0.010809219442307949,-0.07348208129405975,-0.03870003670454025,0.06401853263378143,-0.060692690312862396,0.001350629492662847,-0.017428485676646233,0.03695889934897423,0.09756557643413544,-0.04417961463332176,0.09276485443115234,0.12568669021129608,-0.043531566858291626,0.060611542314291,-0.06445315480232239,0.05706149339675903,0.020554842427372932,0.048681966960430145,-0.10529176890850067,-0.024617305025458336,0.04598579928278923,0.11710993945598602,-0.023516278713941574,-0.15439316630363464,-0.03595709800720215,-0.08245711773633957,-0.08413977921009064,-0.07372105121612549,0.01625147834420204,-0.007213891483843327,0.11340542882680893,0.0013511553406715393,0.06655871868133545,0.003676852211356163,-0.029334723949432373,0.09675135463476181,0.05337631702423096,-0.10150492191314697,0.0967334732413292,0.04224894195795059,-0.00012299916124902666,-0.013645179569721222,0.019091390073299408,-0.27125051617622375,0.053658582270145416,-0.08022068440914154,0.06623756885528564,0.1394987404346466,-0.004454794805496931,0.022215193137526512,-0.17715208232402802,0.06818001717329025,0.06277573853731155,-0.026781637221574783,-0.08645572513341904,0.07210394740104675,-0.04527716338634491,0.037502095103263855,0.0686020627617836,0.01643703505396843,-0.04708270728588104,0.02159692347049713,-0.08092440664768219,0.06900055706501007,-0.05883493274450302,-0.017376316711306572,-0.027151092886924744,0.030863873660564423,-0.014023485593497753,0.0034691933542490005,0.10024147480726242,-0.16295915842056274,0.05285315960645676,0.005026134662330151,0.045889511704444885,-0.0038302354514598846,0.02733025513589382,0.02209801971912384,0.13515985012054443,0.1124953031539917,-0.1263992041349411,0.09040939807891846,0.024035155773162842,-0.008165000006556511,0.0011562563013285398,-0.05413604527711868,-0.06904485076665878,0.2374672144651413,0.02200501784682274,-0.059684768319129944,-0.1573474258184433,0.05197352170944214,0.09370937198400497,-0.18261706829071045,-0.007857766933739185,-0.03181573003530502,0.12500843405723572,-0.0363382063806057,0.04577988386154175,0.02084479294717312,0.1567884087562561,0.1622001975774765,-0.042180828750133514,-0.032723598182201385,-0.1764691323041916,0.009364884346723557,-0.12308891862630844,0.044494714587926865,0.0746922567486763,-0.009404880926012993,0.0722465068101883,0.011281321756541729,-0.039641816169023514,-0.07111900299787521,-0.15371808409690857,-0.01670217327773571,-0.02858772687613964,0.0475381538271904,0.053133755922317505,0.08232496678829193,0.0044189393520355225,0.024027355015277863,-0.04980243742465973,0.012565977871418,0.12931706011295319,0.17713861167430878,-0.05116274207830429,-0.1572715938091278,-0.0962587222456932,-0.08128656446933746,-0.015542730689048767,0.06251293420791626,0.14125406742095947,0.04027315974235535,-0.03763563185930252,0.022080620750784874,0.00038592517375946045,-0.09927099198102951,0.1170506626367569,-0.0017129071056842804,0.1006115972995758,0.12550529837608337,-0.027947094291448593,0.1583240032196045,-0.07388333976268768,0.1472378522157669,0.014324352145195007,0.016205880790948868,0.038596853613853455,0.05635914206504822,0.025615420192480087,0.03334975242614746,0.043054353445768356,-0.03854956850409508,0.12429572641849518,0.12922124564647675,-0.025620806962251663,-0.0405578687787056,0.05067571997642517,0.07518981397151947,-0.025905197486281395,-0.06307294219732285,0.09668528288602829,-0.09392163157463074,0.10863935202360153,0.0821419209241867,-0.025613870471715927,-0.0030110999941825867,0.08500363677740097,0.07717813551425934,0.017679741606116295,0.062106527388095856,0.01733238995075226,0.0506192110478878,0.05243757367134094,0.15043315291404724,-0.11680363118648529,-0.10905878990888596,-0.052243661135435104,0.03968647122383118,0.015922436490654945,-0.002034018514677882,-0.026069175451993942,0.010877668857574463,-0.033774297684431076,0.1310613453388214,0.17693102359771729,0.19141468405723572,0.014970566146075726,0.008052020333707333,-0.09837056696414948,-0.06643776595592499,0.12420682609081268,-0.07340075820684433,-0.0838804692029953,-0.05259450525045395,-0.12555435299873352,0.07670828700065613,0.12106968462467194,0.0747716873884201,0.0777321457862854,-0.05386408790946007,0.08420340716838837,0.07389464229345322,-0.02276812493801117,0.12571340799331665,-0.10859808325767517,0.023822633549571037,-0.04780171066522598,-0.03407388553023338,0.03829418122768402,0.01320603396743536,-0.11261549592018127,0.00802999921143055,0.10507971048355103,-0.007037575356662273,0.08272220194339752,-0.22323374450206757,-0.06990869343280792,0.030814651399850845,0.026347046718001366,0.18738095462322235,0.08958765119314194,-0.11006760597229004,0.04366710036993027,-0.2694258689880371,0.11334984749555588,-0.03672444820404053,-0.08029724657535553,0.017491228878498077,0.0380951352417469,-0.017696140334010124,-0.02043754607439041,0.060943882912397385,0.03922184929251671,0.08516528457403183,0.050906114280223846,0.11216165125370026,-0.002178366295993328,-0.07277854532003403,-0.018871504813432693,0.0909828469157219,-0.10387920588254929,0.030655205249786377,-0.09072321653366089
Känguru,0.06646515429019928,-0.003749123541638255,0.06014319509267807,0.07299169898033142,0.012429005466401577,-0.020401814952492714,0.04084346815943718,-0.04512092098593712,-0.049538977444171906,0.0037816083058714867,0.0413961187005043,-0.047925159335136414,0.02036515809595585,0.07082921266555786,0.026355555281043053,0.049140043556690216,0.009374724701046944,0.0830535814166069,-0.013989191502332687,-0.037094686180353165,-0.009040433913469315,0.0061739357188344,0.033613961189985275,0.03463062271475792,-0.07013551890850067,0.028896290808916092,-0.026785429567098618,0.06454677879810333,-0.0695464164018631,-0.04164211079478264,-0.01912631466984749,0.006933148950338364,-0.0392780564725399,0.0046033961698412895,0.07710500061511993,-0.04303590953350067,-0.11062458157539368,-0.021413980051875114,0.05447462201118469,-0.04638996347784996,0.06733179837465286,0.03045562282204628,0.031131863594055176,-0.05478242039680481,-0.035289015620946884,0.019715921953320503,-0.002409891923889518,-0.022331178188323975,-0.02101464569568634,0.026481999084353447,0.022906601428985596,-0.012814478948712349,-0.02174471877515316,-0.03664213418960571,-0.022843264043331146,-0.03334975242614746,-0.04305305331945419,0.07587718218564987,0.016438402235507965,-0.02787673845887184,0.020712777972221375,0.04198057949542999,0.09385674446821213,-0.027745654806494713,0.00028338097035884857,0.06101709604263306,0.07961215078830719,-0.06598994880914688,0.019334372133016586,0.019481683149933815,0.029556047171354294,0.002461795462295413,0.04655929654836655,0.03438365086913109,0.047488730400800705,-0.07633024454116821,0.06444544345140457,0.0036595079582184553,-0.04068129509687424,-0.02274448238313198,0.030028922483325005,-0.028768882155418396,-0.038479361683130264,-0.001250560162588954,-0.07313789427280426,0.08617138862609863,-0.14909866452217102,0.0585225485265255,0.005964077077805996,0.011403019540011883,0.08026927709579468,0.03207392245531082,0.0031632129102945328,-0.06308245658874512,0.022450586780905724,-0.00035058706998825073,-0.008622514083981514,0.06022518128156662,-0.1380055546760559,-0.022277889773249626,-0.057906389236450195,-0.0006660468643531203,-0.005401428788900375,-0.03583959490060806,0.013308295980095863,-0.04787495732307434,0.07354700565338135,-0.03615344688296318,0.01840793713927269,-0.022255104035139084,0.11737462878227234,-0.00291755935177207,0.01251944713294506,0.0196938905864954,0.11316858232021332,-0.04861960932612419,0.048243533819913864,-0.01748804748058319,0.09349551051855087,0.015159319154918194,-0.014411821961402893,-0.011292845010757446,0.06294603645801544,-0.05575744807720184,-0.05055183172225952,0.07136514782905579,-0.01955902948975563,-0.04817276448011398,0.021426860243082047,-0.005936415866017342,-0.00041848173714242876,0.03844038397073746,-0.03256624937057495,0.0864834412932396,0.03826170042157173,-0.05707165226340294,0.06704080104827881,-0.022624431177973747,0.12463511526584625,0.04800684005022049,-0.03964225947856903,-0.029068272560834885,0.10495059937238693,-0.06912947446107864,0.06286506354808807,-0.009858308359980583,0.0924365445971489,0.02348696067929268,-0.03838752210140228,-0.019125718623399734,0.0020241527818143368,0.08318152278661728,0.012393503449857235,0.024116691201925278,0.04495231434702873,0.07317391037940979,0.09474626183509827,-0.019169677048921585,-0.05283866822719574,-0.0967860147356987,-0.048463888466358185,0.039724692702293396,0.04169292002916336,0.02632392756640911,0.09700500220060349,0.06129705160856247,0.05471993610262871,0.0007057115435600281,-0.0439387708902359,-0.04716065526008606,0.01847105845808983,-0.023050162941217422,-0.007068256847560406,0.010908186435699463,-0.06941679120063782,0.01667933538556099,0.026766648516058922,0.022830303758382797,0.0014293140266090631,0.06255535781383514,0.07261709868907928,-0.010588075034320354,0.044288765639066696,0.006224222481250763,-0.06804533302783966,-0.006968365516513586,0.002669371198862791,0.052466969937086105,0.000574970617890358,-0.05127646028995514,-0.02420949935913086,-0.019172199070453644,-0.028032734990119934,0.04009803384542465,0.005468043498694897,0.04343858361244202,0.04308950901031494,-0.01511440984904766,0.07534781098365784,0.006149853579699993,0.012686583213508129,-0.041062671691179276,0.09389239549636841,0.048339441418647766,0.0714503824710846,0.004753920249640942,0.044045589864254,-0.02295510843396187,-0.09316273778676987,0.010728728026151657,-0.044076643884181976,-0.037671156227588654,0.053533367812633514,-0.006374359130859375,0.038639456033706665,0.00776255875825882,0.0025283326394855976,0.0024537357967346907,-0.007153473328799009,0.11823289096355438,0.053016722202301025,0.09189940989017487,-0.044603824615478516,-0.07851997017860413,-0.018808862194418907,0.07300712913274765,0.012825258076190948,-0.01262279599905014,0.02326931618154049,0.059421341866254807,0.028629712760448456,-0.022003663703799248,-0.10127142071723938,-0.038717955350875854,0.04949282109737396,-0.021533045917749405,-0.019047515466809273,-0.07028570026159286,0.016317658126354218,-0.10507451742887497,0.09569123387336731,-0.02753165364265442,0.025647148489952087,-0.025493603199720383,0.011126210913062096,-0.07259400188922882,-0.018750471994280815,0.029004450887441635,-0.019397592172026634,-0.03220511972904205,-0.03348158299922943,-0.0895771011710167,-0.0030631497502326965,0.0036403487902134657,0.04992162436246872,0.012368859723210335,-0.10517516732215881,-0.03225303441286087,0.04091022163629532,-0.0006190104177221656,0.00212865206412971,-0.1309441328048706,-0.028433144092559814,-0.07532324641942978,0.06094618886709213,0.07782571017742157,-0.005097284913063049,-0.005538884550333023,0.04492580145597458,0.0008138468256220222,0.048094116151332855,0.013300543650984764,-0.07596497237682343,-0.08242256939411163,0.07399269193410873,-0.06829994916915894,0.10091271251440048,0.08133117854595184,-0.02279268205165863,-0.023214414715766907,-0.06593753397464752,-0.0013359934091567993,-0.03490668162703514,-0.05742080137133598,-0.008203374221920967,0.016648894175887108,-0.03729025274515152,-0.013304844498634338,0.06034760922193527,-0.0055500203743577,-0.024736154824495316,0.0643170177936554,0.038516752421855927,-0.01752716675400734,0.035747990012168884,0.04128492996096611,0.049728766083717346,-0.10409533232450485,0.0051955571398139,0.025403570383787155
Puma,0.03717391937971115,0.00823293812572956,-0.023355167359113693,0.1185448095202446,0.03434641659259796,0.0311848446726799,0.04133877158164978,-0.04937652498483658,-0.04977197200059891,-0.015828898176550865,-0.016010191291570663,-0.06549503654241562,0.03560694307088852,0.003906284924596548,0.05913587659597397,-0.06744235754013062,-0.01886959746479988,-0.05197599530220032,0.07613301277160645,0.022200744599103928,0.11869403719902039,-0.17283222079277039,0.07223731279373169,0.02477218583226204,0.018808724358677864,0.07378103584051132,0.009219507686793804,0.10201366990804672,-0.02307126671075821,-0.10851826518774033,-0.10024570673704147,0.07626883685588837,0.011273948475718498,0.10305821895599365,-0.1326775848865509,-0.012844886630773544,-0.06059285253286362,0.0695713609457016,-0.023535145446658134,-0.048424623906612396,-0.07051362842321396,0.09533362090587616,-0.05552021414041519,0.03237765282392502,-0.15719690918922424,0.15154898166656494,0.021814730018377304,0.062174633145332336,0.030028706416487694,0.040695641189813614,0.1800466626882553,0.012279762886464596,-0.04581539332866669,-0.1106601357460022,0.08418199419975281,0.08996860682964325,0.06321810185909271,-0.09411831200122833,-0.09261058270931244,-0.01361119281500578,-0.0597902312874794,0.008039559237658978,0.01875344291329384,0.15149334073066711,-0.012258009985089302,0.04177280515432358,0.14591655135154724,0.055461592972278595,0.11953483521938324,0.03859766572713852,0.16525420546531677,-0.09417551755905151,0.14431500434875488,-0.09467488527297974,0.07837561517953873,-0.09517891705036163,0.08942702412605286,0.14240610599517822,0.0903090089559555,-0.05063554272055626,0.11626240611076355,-0.09972979128360748,-0.0373770110309124,0.033792126923799515,-0.1010429710149765,0.05970614776015282,-0.044260114431381226,0.06295506656169891,-0.05635175108909607,-0.02593108080327511,0.08189753443002701,0.10801722854375839,0.09757714718580246,-0.0036561372689902782,0.16008763015270233,-0.01191653311252594,-0.025755736976861954,0.03688378632068634,-0.07081134617328644,0.08947865664958954,-0.03326347470283508,-0.05542799085378647,0.017438124865293503,-0.10073733329772949,-0.03073524683713913,-0.0015776294749230146,0.11273257434368134,0.13022510707378387,-0.019794929772615433,-0.003450465854257345,-0.06907204538583755,0.03812933713197708,0.07789064198732376,-0.0011258324375376105,-0.04276248440146446,-0.029780447483062744,0.13259261846542358,-0.07531820237636566,-0.05063198134303093,0.014445459470152855,0.07411216199398041,0.1312776356935501,0.05493924021720886,0.04813831299543381,-0.08570981025695801,0.019764095544815063,0.04996095225214958,0.1299148052930832,-0.059659115970134735,0.0082889124751091,-0.0187819954007864,0.1325840801000595,0.07644753158092499,-0.1637832522392273,0.04633977264165878,0.004532033111900091,0.059817519038915634,0.13174258172512054,0.08728127181529999,-0.1859663724899292,-0.0837860032916069,-0.0816812515258789,0.14152857661247253,-0.03929995372891426,0.035192735493183136,0.00070866261376068,-0.28210458159446716,-0.02458975277841091,0.0419209823012352,0.18696239590644836,0.0010028047254309058,0.07518873363733292,-0.020904868841171265,0.023983243852853775,-0.03367941826581955,0.054252102971076965,-0.02454114705324173,-0.12070876359939575,0.06791035830974579,-0.06270289421081543,-0.15820737183094025,0.05953033268451691,-0.04385634511709213,0.03524371609091759,0.07822278141975403,0.11081015318632126,0.07503990828990936,0.13903892040252686,-0.05050962418317795,-0.12614113092422485,0.07622362673282623,-0.00242425873875618,0.07291565835475922,0.027567638084292412,0.046861641108989716,-0.04652981087565422,-0.09065615385770798,0.02422434836626053,0.07899489998817444,-0.1679934859275818,-0.05084254965186119,-0.03774607926607132,0.09369661659002304,-0.07300562411546707,0.025065861642360687,-0.12366344779729843,-0.020604418590664864,0.0628417581319809,0.022211147472262383,-0.019661571830511093,-0.010001471266150475,-0.02368887886404991,0.13633663952350616,-0.04193226248025894,-0.0033420175313949585,0.12027238309383392,0.05026281997561455,-0.008282485418021679,0.09735119342803955,-0.06942787766456604,-0.0895087942481041,-0.058114126324653625,0.02193523943424225,-0.06554403901100159,0.02205783873796463,0.07561944425106049,0.017339564859867096,0.008536174893379211,-0.11189534515142441,0.050245799124240875,-0.009890332818031311,-0.020934313535690308,0.01931256800889969,-0.20319223403930664,0.12432309985160828,0.04031630605459213,0.010655881837010384,-0.016018830239772797,0.01876421645283699,-0.11113520711660385,0.09170874208211899,-0.02344563417136669,-0.12030273675918579,-0.1768142580986023,-0.027573656290769577,0.09226569533348083,-0.042494677007198334,-0.00984751433134079,0.0813022255897522,0.10972757637500763,0.03401269018650055,0.1288851648569107,-0.011111307889223099,0.03290395438671112,0.006484236568212509,-0.08185314387083054,-0.0546739399433136,0.04975069314241409,0.11205130815505981,-0.06262622028589249,0.24410006403923035,-0.07594647258520126,0.11319383233785629,0.01784146949648857,0.014677716419100761,0.07558240741491318,-0.024256503209471703,-0.08859094232320786,-0.07880932837724686,-0.09867196530103683,-0.04135832190513611,-0.00255739688873291,-0.04153835028409958,-0.04909585043787956,-0.033703796565532684,0.08618326485157013,0.009167583659291267,-0.1713799238204956,0.08092974871397018,0.051082462072372437,-0.03525909036397934,-0.16014525294303894,0.06140198931097984,-0.057804763317108154,0.06496535986661911,-0.0011912935879081488,-0.045021891593933105,0.1487671285867691,0.07387237250804901,0.019525356590747833,-0.09858578443527222,-0.0478648766875267,-0.23523221909999847,0.0021566159557551146,0.11973052471876144,-0.04484622925519943,0.22720454633235931,0.07768761366605759,0.030521787703037262,0.009499570354819298,-0.2031548023223877,-0.008486291393637657,0.019407976418733597,0.11923100799322128,-0.09678860008716583,-0.048317041248083115,0.07959768176078796,-0.019618060439825058,0.013085971586406231,-0.06235609948635101,-0.012576760724186897,0.10132081806659698,0.02715662680566311,0.07206167280673981,-0.009000415913760662,0.105539970099926,-0.0954015851020813,-0.09349807351827621,-0.014399747364223003,0.12406641244888306
Vogel,0.02247333526611328,0.02503138966858387,0.02248542569577694,0.013275154866278172,-0.10576194524765015,-0.09691477566957474,-0.06287221610546112,-0.020378684625029564,-0.05879603326320648,-0.018148738890886307,-0.03612111881375313,-0.033582743257284164,-0.04678301885724068,0.03732318431138992,-0.05607442185282707,0.02376808226108551,0.12066410481929779,0.04115354269742966,-0.062058091163635254,-0.03396950662136078,0.062415048480033875,-0.000696549192070961,0.09518850594758987,0.008425308391451836,-0.015065468847751617,-0.07150854915380478,-0.08774753659963608,0.0011084061115980148,-0.10880973190069199,-0.003005404956638813,-0.07511285692453384,0.1303064227104187,0.06138633191585541,-0.03563181310892105,-0.048385798931121826,0.12276370078325272,-0.17071622610092163,0.06592878699302673,-0.07492765039205551,-0.05034397542476654,0.006525433622300625,-0.006438820157200098,0.023830067366361618,-0.09912722557783127,-0.03186633437871933,0.03503306210041046,0.025487292557954788,-0.02309301123023033,-0.0009049819782376289,0.022418474778532982,0.02283511310815811,-0.022497836500406265,0.033783286809921265,0.038130633533000946,0.01872260682284832,-0.017876453697681427,-0.0731763020157814,-0.04248999059200287,-0.02430182695388794,-0.04781079664826393,-0.08869961649179459,-0.034398533403873444,0.024396611377596855,0.1259351670742035,-0.020348478108644485,0.010255584493279457,0.048493582755327225,-0.06934840977191925,-0.00022351043298840523,0.05335808917880058,0.022348199039697647,-0.026816459372639656,0.1016843318939209,-0.04952969774603844,0.055475782603025436,0.029658664017915726,0.01736377365887165,-0.04445619136095047,-0.024217095226049423,-0.04305238276720047,-0.03308683633804321,-9.621493518352509e-06,-0.10307399928569794,0.02738165482878685,-0.011390904895961285,0.050292134284973145,-0.06801924854516983,0.04986579716205597,0.009054021909832954,0.083794504404068,0.05759625881910324,0.08265282958745956,-0.04965905100107193,0.07147282361984253,-0.0070822574198246,-0.03423498198390007,0.006637587212026119,0.025895239785313606,-0.010907208546996117,-0.006421766709536314,0.01975514553487301,0.04948211833834648,0.06378819048404694,-0.007859202101826668,0.022875400260090828,-0.021133340895175934,-0.03751716762781143,0.04666804522275925,-0.06553906202316284,-0.04274332523345947,0.002102962462231517,-0.03254061937332153,-0.04127226769924164,-0.019551564007997513,-0.010139361023902893,-0.06973576545715332,0.07682198286056519,0.008441547863185406,0.08152522891759872,-0.04452263563871384,-0.02774953655898571,-0.006675032898783684,-0.008008195087313652,-0.026072915643453598,-0.008171896450221539,0.0033480916172266006,-0.019931960850954056,0.020262541249394417,0.04725584387779236,-0.004980864003300667,-0.1883813738822937,0.16317413747310638,-0.034654926508665085,0.0520932599902153,0.1064138114452362,0.03904232382774353,0.10275226831436157,0.06620505452156067,0.012916640378534794,-0.030701404437422752,0.007259506732225418,-0.028382200747728348,0.05760055407881737,0.02368755266070366,-0.03616877645254135,-0.013894024305045605,0.007714727893471718,0.05859728157520294,-0.005956526845693588,0.008352110162377357,-0.051357802003622055,0.05876673012971878,-0.0020697207655757666,0.05775136500597,0.05975358188152313,0.10229908674955368,0.0664195716381073,0.006430451758205891,0.022820254787802696,-0.15669067203998566,-0.04778987914323807,-0.00690528703853488,0.08324342221021652,-0.1052507758140564,0.007734989747405052,0.08961221575737,-0.024148400872945786,0.046357136219739914,-0.06523533910512924,-0.03680426999926567,0.03382142260670662,-0.003938787616789341,-0.01642869971692562,0.005342218093574047,0.06985063850879669,0.029175808653235435,0.003949647769331932,-0.015964489430189133,-0.024165784940123558,0.038000598549842834,0.043768152594566345,0.03723821043968201,-0.014478519558906555,-0.09877556562423706,-0.012461509555578232,-0.022339612245559692,0.09112031757831573,0.05154775083065033,0.11859222501516342,-0.02805457077920437,-0.02429848536849022,-0.08834461867809296,-0.05186775326728821,0.08459261059761047,0.07069230079650879,0.044490545988082886,0.04429314658045769,-0.04679295793175697,0.0034392562229186296,0.016250360757112503,0.05656692758202553,-0.11755163967609406,0.003356346394866705,-0.04161735624074936,0.0317717120051384,0.06816932559013367,-0.007031687535345554,-0.02103910595178604,-0.026883572340011597,0.006680823862552643,0.07882760465145111,0.016358988359570503,0.02288779243826866,0.06516343355178833,0.06873352825641632,-0.008421394973993301,-0.08174768090248108,0.03718988224864006,0.028022274374961853,0.07693280279636383,-0.0004497617483139038,0.06313204020261765,-0.00417871680110693,-0.03216990455985069,0.02452196180820465,0.04636920243501663,-0.04595346748828888,-0.000954529270529747,0.09253641217947006,-0.031799424439668655,0.04311996325850487,-0.03258354589343071,-0.06454309821128845,-0.037898797541856766,0.042257748544216156,-0.020680634304881096,-0.013596476055681705,0.059399232268333435,0.08562689274549484,-0.11813754588365555,0.05743078514933586,0.11594521999359131,0.10154638439416885,-0.001703549176454544,-0.017350995913147926,-0.15566225349903107,-0.016706937924027443,0.042577650398015976,0.018710093572735786,-0.04457038640975952,-0.07051178812980652,-0.03976979851722717,0.032138481736183167,0.05756349861621857,0.05602508410811424,0.029310520738363266,-0.04228619858622551,-0.06287796795368195,0.002185526303946972,0.04215457662940025,0.03863731399178505,-0.1310940533876419,0.05244692787528038,-0.06357215344905853,0.028460098430514336,0.01805032789707184,-0.007327936589717865,-0.01666683703660965,0.017561519518494606,0.04657251387834549,0.038392625749111176,-0.044877201318740845,-0.130132257938385,-0.009101471863687038,-0.032844576984643936,0.03234698623418808,0.11072515696287155,0.014957076869904995,-0.05231156200170517,0.005009611137211323,-0.2657603621482849,0.04825073853135109,0.026303131133317947,-0.008339274674654007,0.009049247950315475,-0.08614388853311539,0.06380715221166611,-0.006508301943540573,0.011040851473808289,0.050468336790800095,-0.03143797814846039,0.05778402090072632,0.05545904487371445,-0.0010509429266676307,-0.05261227861046791,-0.010873794555664062,0.026237305253744125,-0.004055449739098549,0.05243738368153572,0.016693076118826866
Eichhörnchen,-0.001522436155937612,0.013805481605231762,0.012616395950317383,0.008860181085765362,-0.02062920294702053,-0.022489987313747406,-0.01845620386302471,0.01965451054275036,-0.018145369365811348,0.0037764939479529858,0.012272593565285206,-0.0008137703989632428,-0.002299358369782567,0.046728480607271194,-0.008100930601358414,0.008346990682184696,0.0057667894288897514,0.037954699248075485,-0.03128097206354141,-0.014056975953280926,-0.011650037951767445,0.004281741566956043,0.022358257323503494,0.008281022310256958,-0.03146880865097046,-0.044903963804244995,-0.007447366137057543,0.0009459443390369415,-0.02559811808168888,-0.03339281678199768,-0.004041810054332018,0.03292924165725708,-0.007607574574649334,-0.0022169132716953754,-0.0036025489680469036,0.015678171068429947,-0.047868262976408005,-0.003104533301666379,0.0386374294757843,-0.028987662866711617,0.01460709236562252,0.009126158431172371,-0.0016700043343007565,-0.0049665202386677265,-0.03279576450586319,0.03246014192700386,-0.016540829092264175,-0.030783263966441154,-0.011966605670750141,0.00480602215975523,0.024405144155025482,-0.024760089814662933,0.003708650590851903,0.008783423341810703,-0.0015214289305731654,-0.012958471663296223,-0.01727920211851597,-0.022311078384518623,-0.01595286652445793,-0.016151318326592445,-0.0009859394049271941,0.00909192394465208,0.003547128988429904,0.025572925806045532,-0.014611880294978619,-0.024422619491815567,0.03735993057489395,-0.022195538505911827,0.0135764479637146,-0.016475984826683998,0.03465797379612923,-0.017983894795179367,0.017579911276698112,0.004390084184706211,0.040569692850112915,0.006398534402251244,0.010385577566921711,0.005958151537925005,0.013625334948301315,-0.022876838222146034,-0.025483379140496254,-0.0018913529347628355,-0.011555960401892662,0.013938152231276035,-0.018246496096253395,0.029562627896666527,-0.01885145716369152,0.01382207777351141,-0.0042038350366055965,-0.003959484398365021,0.025908248499035835,0.006900851149111986,0.01108485460281372,-0.002290522214025259,0.008836822584271431,0.001042126095853746,0.017856165766716003,0.0270428154617548,-0.06266186386346817,0.007927920669317245,-0.021485287696123123,-0.014035936444997787,0.0158417746424675,-0.029454588890075684,0.01623326726257801,-0.0205147136002779,-0.03884679079055786,0.02165081538259983,-0.009112155064940453,-0.0188374575227499,-0.015582367777824402,-0.004349761642515659,0.001899972092360258,-0.022107958793640137,0.03560701012611389,-0.019271673634648323,0.03062390349805355,-0.0170246884226799,-0.009774522855877876,-0.0132307643070817,-0.004833057522773743,0.019071023911237717,0.03456350415945053,-0.018624940887093544,-0.024145912379026413,0.03656933456659317,-0.02653288096189499,-0.036029789596796036,0.017261693254113197,0.014499946497380733,-0.006887446157634258,0.0339866578578949,0.019672995433211327,0.02711299993097782,0.03570485860109329,0.032429806888103485,0.026533136144280434,0.007458330597728491,0.017600813880562782,0.0020186342298984528,-0.0017901025712490082,-0.003703540889546275,0.015030422247946262,-0.018853716552257538,0.00986634660512209,0.012724515050649643,-0.04253241792321205,0.002890939125791192,-0.02417704463005066,-0.0024702914524823427,-0.0054280320182442665,0.03652061149477959,0.012015368789434433,0.017760472372174263,0.04101566597819328,0.050883710384368896,0.06319372355937958,-0.0007922226213850081,-0.009288912639021873,-0.04018787667155266,-0.05383998155593872,-0.03498411178588867,-0.0020103214774280787,-0.010789837688207626,-0.0028904385399073362,0.035040076822042465,-0.006381054874509573,0.03294089064002037,-0.011799514293670654,-0.032329387962818146,-0.03239171579480171,-0.018331997096538544,0.001890854095108807,0.018819404765963554,0.00775948166847229,-0.006523167714476585,0.018866298720240593,-0.009417098015546799,-0.021815411746501923,-0.0034901616163551807,0.010117589496076107,0.011546690948307514,-0.03189423307776451,-0.047785501927137375,0.007912896573543549,0.006460187956690788,-0.00951675046235323,0.024591414257884026,-0.008552484214305878,0.010932895354926586,-0.05214463919401169,-0.03722227364778519,-0.025183657184243202,0.05758404731750488,0.023638706654310226,0.025563955307006836,0.03640510514378548,0.002999752527102828,0.01753166876733303,-0.01049264520406723,-0.009875647723674774,-0.011123848147690296,0.0012600173940882087,-0.0024368909653276205,-0.01878846064209938,0.004318935330957174,0.03538241982460022,0.003974088467657566,-0.02758585661649704,-0.0060320645570755005,0.024719707667827606,-0.01966330036520958,0.020221425220370293,0.009786419570446014,0.014474292285740376,-0.019125286489725113,-0.021076396107673645,0.026574205607175827,-0.0068505918607115746,-0.009303099475800991,-0.011148319579660892,0.03269755095243454,-0.020210308954119682,0.011794951744377613,-0.005177439656108618,0.02439749799668789,0.02780592441558838,0.013895874843001366,0.01007449347525835,-0.01836107112467289,0.030505847185850143,-0.01703144796192646,-0.03892248868942261,-0.008996950462460518,0.02267812378704548,-0.041736308485269547,-0.010120808146893978,-0.004620605148375034,0.028475234284996986,-0.01486063189804554,0.04145853593945503,-0.009497077204287052,0.024921363219618797,-0.002862444380298257,0.0007738674175925553,-0.03729206696152687,-0.0029385306406766176,0.03406548500061035,-0.00992825161665678,-0.03929973393678665,-0.02587970905005932,-0.02591860666871071,0.027408061549067497,-0.020005930215120316,0.026119550690054893,0.00698478426784277,-0.0455557219684124,-0.007726171053946018,0.028574487194418907,0.019280696287751198,-0.004845893010497093,-0.04004993662238121,0.0003627355908975005,-0.03891148045659065,0.0001394404098391533,-0.026113294064998627,-0.0171855129301548,0.005689152516424656,-0.004593378398567438,0.008522514253854752,0.056122440844774246,0.018539555370807648,-0.04911334440112114,-0.030137257650494576,0.010130912065505981,-0.008009460754692554,0.052966248244047165,0.004672136157751083,-0.02493797242641449,-0.016854429617524147,-0.06112830340862274,0.021414093673229218,-0.016385862603783607,-0.017187928780913353,-0.021897226572036743,0.015073224902153015,0.03460794687271118,-0.013421237468719482,-0.002375659765675664,-0.00017653474060352892,-0.010404459200799465,0.028294989839196205,-0.0004807114601135254,0.01933966390788555,-0.022566579282283783,0.012808402068912983,0.0192282572388649,-0.030504446476697922,-0.0058441427536308765,0.003227901179343462
